pos          info
        0 -7.445604e-05
        1 -7.952026e-05
        2 -5.223402e-05
        3 -2.348132e-05
        4 -5.675778e-05
        5 -4.371723e-05
        6 -6.281845e-05
        7 -2.281313e-05
        8 -5.164412e-05
        9 -3.994347e-06
       10  3.405506e-04
       11  4.051274e-04
       12  3.839063e-04
       13  3.164470e-05
       14  1.202834e-04
       15  3.038289e-04
       16  2.392750e-04
       17  1.067771e-04
       18 -7.674256e-05
       19  7.220493e-06
       20  9.824688e-05
       21  6.348574e-05
       22  2.774775e-05
       23 -1.177804e-04
       24 -9.835946e-05
       25 -7.006469e-07
       26  6.234327e-05
       27  7.758028e-05
       28 -1.759762e-04
       29 -1.875549e-04
       30 -2.009467e-04
       31 -2.587464e-05
       32 -1.763750e-04
       33  7.080434e-05
       34  1.629557e-04
       35  2.950183e-04
       36  5.163855e-05
       37 -4.024646e-05
       38 -1.302597e-05
       39 -3.756918e-06
       40 -2.838925e-06
       41  3.703473e-06
       42  6.603569e-05
       43  1.094199e-04
       44  1.040636e-04
       45  4.127648e-05
       46 -4.578885e-06
       47 -1.297344e-05
       48  1.224833e-05
       49  4.181812e-05
       50  5.337559e-05
       51  2.806332e-05
       52  1.910371e-05
       53  1.652781e-05
       54  1.534884e-05
       55  9.709308e-06
       56 -6.136168e-05
       57 -7.366497e-05
       58 -1.396947e-04
       59 -4.526729e-05
       60  3.530624e-05
       61  8.788365e-05
       62  5.520485e-05
       63  3.627770e-05
       64 -6.207332e-05
       65  9.591676e-05
       66  4.997279e-05
       67  2.071789e-04
       68  5.765739e-05
       69  5.446615e-05
       70 -1.902003e-05
       71 -1.171506e-05
       72 -1.370678e-04
       73 -1.206275e-04
       74 -7.042258e-05
       75  7.164269e-05
       76  8.546867e-05
       77  9.105232e-05
       78  8.801541e-06
       79  1.936877e-06
       80 -6.091530e-05
       81 -1.880309e-05
       82 -1.440985e-05
       83 -3.088774e-05
       84 -8.065237e-06
       85  4.745320e-05
       86 -5.550241e-05
       87 -1.261118e-04
       88 -1.902592e-04
       89 -1.152616e-04
       90 -7.738696e-05
       91 -9.786957e-05
       92 -3.135686e-05
       93  3.159199e-05
       94  5.014496e-06
       95 -3.961127e-05
       96 -5.098363e-05
       97  1.328215e-04
       98  1.625583e-04
       99  1.629222e-04
      100  2.454060e-05
      101  1.929868e-05
      102  2.162506e-05
      103  1.741729e-05
      104 -7.796724e-05
      105  1.988558e-05
      106  3.812658e-06
      107  8.848623e-05
      108  3.890814e-05
      109  9.762161e-05
      110  9.935619e-05
      111  3.270999e-05
      112 -2.433336e-05
      113  2.678879e-05
      114  5.077728e-05
      115  1.115577e-04
      116  8.459420e-05
      117  1.479549e-04
      118  2.121593e-04
      119  2.105975e-04
      120  1.222656e-04
      121  2.261383e-04
      122  2.660757e-04
      123  2.693488e-04
      124 -5.642487e-05
      125 -2.042272e-04
      126 -1.698458e-04
      127 -1.677769e-04
      128  8.345348e-05
      129  5.330597e-05
      130  1.461184e-04
      131 -1.167591e-05
      132  1.492003e-04
      133  2.466563e-04
      134  1.922674e-04
      135 -5.505527e-05
      136 -1.355294e-04
      137 -7.651783e-05
      138  3.290537e-05
      139  3.438458e-05
      140  3.933711e-05
      141 -3.802485e-05
      142 -4.560434e-05
      143 -9.448561e-05
      144 -3.641783e-05
      145 -2.774857e-05
      146 -1.057891e-04
      147 -1.725988e-04
      148 -1.210253e-04
      149 -5.930547e-06
      150 -7.821498e-05
      151 -1.554910e-04
      152 -1.993244e-04
      153 -6.896355e-05
      154 -1.303404e-04
      155  1.118945e-04
      156  1.103391e-04
      157  0.000000e+00
      158  0.000000e+00
      159  0.000000e+00