pos          info
        0  8.651173e-06
        1  2.421086e-04
        2  1.060133e-04
        3  1.279217e-04
        4 -1.305830e-04
        5  2.627830e-05
        6  8.078514e-05
        7  1.434061e-04
        8  1.169614e-04
        9 -1.080389e-06
       10 -4.279547e-04
       11 -4.042782e-04
       12 -3.445068e-04
       13  2.174612e-04
       14  1.825262e-04
       15  1.689989e-04
       16 -4.218567e-05
       17 -3.332180e-05
       18  1.088661e-04
       19  2.072905e-04
       20  2.068545e-04
       21  8.717849e-05
       22  2.841730e-06
       23  3.532858e-04
       24  3.759077e-04
       25  3.887018e-04
       26 -5.957311e-05
       27 -8.309954e-05
       28 -6.677472e-05
       29  6.259277e-05
       30  2.044175e-04
       31  1.335610e-04
       32  1.065578e-04
       33 -9.039629e-05
       34 -4.681296e-05
       35 -3.163751e-05
       36  2.090674e-05
       37 -1.291547e-04
       38 -1.496754e-04
       39 -1.799011e-04
       40 -1.163148e-04
       41 -1.476600e-04
       42 -1.193789e-04
       43 -3.186238e-05
       44  2.112358e-07
       45  5.248750e-05
       46  4.992381e-05
       47  5.144622e-05
       48  7.316252e-05
       49  3.858743e-05
       50  5.896150e-05
       51 -3.058302e-05
       52 -4.192870e-05
       53 -1.526185e-04
       54 -2.567628e-05
       55  3.476601e-04
       56  4.403858e-04
       57  3.772386e-04
       58  1.972022e-04
       59  1.987997e-04
       60  4.530464e-04
       61  3.063498e-04
       62  3.491965e-04
       63  4.921406e-06
       64  4.081989e-05
       65  2.975024e-05
       66  1.839961e-05
       67 -4.402677e-05
       68 -1.013199e-04
       69 -7.211131e-05
       70  1.111033e-04
       71  1.733985e-04
       72  7.975984e-04
       73  6.793505e-04
       74  6.367998e-04
       75  3.257552e-05
       76 -1.579799e-04
       77 -1.547743e-04
       78  6.707579e-05
       79  2.239979e-04
       80  2.308943e-04
       81  3.165058e-05
       82  5.066736e-05
       83 -2.220242e-04
       84 -2.499033e-04
       85 -2.766401e-04
       86  1.074055e-04
       87  1.167670e-04
       88  2.699296e-05
       89 -1.366147e-04
       90 -8.470276e-05
       91  3.378421e-05
       92  1.454986e-04
       93 -6.023882e-04
       94 -4.501394e-04
       95 -5.308575e-04
       96  1.093602e-05
       97 -1.461071e-04
       98 -1.324243e-04
       99  1.638299e-04
      100 -5.040499e-05
      101 -8.632483e-05
      102 -2.655363e-04
      103 -5.199142e-05
      104  7.130584e-05
      105  4.399884e-05
      106 -7.715932e-05
      107 -1.618586e-04
      108  2.873225e-04
      109 -3.204119e-05
      110 -3.874530e-05
      111 -4.185368e-04
      112 -3.039375e-05
      113  1.638047e-05
      114  3.409194e-05
      115  6.544750e-05
      116  2.753481e-04
      117  3.067173e-04
      118  2.955358e-04
      119  4.793420e-05
      120  3.328407e-05
      121  7.691570e-05
      122  7.254803e-05
      123 -1.856120e-05
      124 -7.679307e-05
      125  1.982993e-04
      126  2.963564e-04
      127  3.219147e-04
      128 -1.289799e-05
      129  4.215419e-05
      130 -5.608079e-05
      131  2.377737e-05
      132 -1.866162e-04
      133 -8.902280e-05
      134 -1.020301e-04
      135 -8.225881e-05
      136 -1.346197e-04
      137 -1.634697e-04
      138 -6.426635e-05
      139  2.442611e-05
      140 -7.988645e-05
      141 -3.089668e-05
      142 -1.466212e-04
      143 -2.179867e-05
      144 -1.836423e-04
      145 -1.444580e-04
      146 -6.057820e-05
      147  2.650075e-04
      148  2.686284e-04
      149  1.097777e-04
      150 -1.130213e-04
      151 -8.145120e-05
      152  8.094570e-05
      153  2.360606e-05
      154  1.512376e-05
      155 -7.186094e-05
      156 -4.025093e-05
      157  0.000000e+00
      158  0.000000e+00
      159  0.000000e+00