pos          info
        0 -1.081857e-04
        1 -1.066236e-04
        2  2.753061e-05
        3  6.355303e-05
        4  4.769111e-05
        5  2.173970e-05
        6  3.265465e-05
        7  3.236609e-05
        8  2.623181e-05
        9  2.793750e-05
       10  2.371868e-04
       11  2.432293e-04
       12  1.853243e-04
       13 -1.631095e-05
       14 -2.983693e-06
       15  4.438928e-05
       16 -8.951319e-05
       17 -9.805194e-05
       18 -1.271646e-04
       19  2.332388e-04
       20  3.599006e-04
       21  3.438574e-04
       22  1.723267e-04
       23  4.566638e-05
       24  9.298117e-05
       25  8.412668e-06
       26  2.283633e-06
       27 -1.164122e-04
       28 -1.194646e-04
       29 -1.181031e-04
       30 -6.040113e-05
       31 -3.461352e-05
       32 -2.871957e-05
       33 -3.497402e-05
       34  3.010663e-04
       35  3.236425e-04
       36  2.862175e-04
       37  1.218858e-05
       38  5.649925e-05
       39  6.651880e-05
       40  1.885033e-06
       41 -6.750190e-06
       42  4.983261e-05
       43  5.194109e-05
       44  4.620939e-06
       45 -1.750615e-05
       46 -1.971072e-05
       47  3.402107e-05
       48  1.397613e-04
       49  9.293510e-04
       50  8.617400e-04
       51  7.706812e-04
       52 -1.098936e-05
       53  1.439216e-04
       54  1.071481e-04
       55  1.669106e-04
       56 -2.292530e-05
       57  2.043780e-07
       58 -5.384661e-05
       59 -9.718923e-06
       60 -9.821527e-07
       61 -3.262677e-06
       62  1.965655e-05
       63  5.742354e-05
       64  3.792857e-05
       65 -1.215931e-04
       66 -1.017859e-04
       67 -1.231980e-04
       68  1.367971e-05
       69 -5.867247e-05
       70  9.279284e-05
       71  3.866627e-05
       72  4.411839e-05
       73 -5.877006e-05
       74  1.568305e-05
       75  8.262736e-05
       76  7.059482e-05
       77  2.932065e-05
       78 -2.718187e-05
       79 -4.642242e-05
       80 -7.470230e-05
       81 -2.950758e-05
       82 -4.950493e-05
       83  1.844456e-06
       84 -3.464251e-05
       85  9.657268e-06
       86  3.321376e-06
       87  9.084890e-05
       88  9.089361e-05
       89  8.060880e-05
       90 -1.193738e-05
       91 -8.435350e-06
       92 -1.060753e-04
       93 -1.614105e-04
       94 -1.658707e-04
       95 -7.402035e-05
       96  4.084512e-05
       97  4.113305e-05
       98  5.192302e-05
       99 -2.008400e-05
      100  2.913550e-05
      101  3.012226e-05
      102  4.522532e-05
      103 -2.138889e-06
      104 -3.155788e-05
      105 -2.218628e-05
      106 -2.408532e-05
      107  3.810563e-04
      108  5.621182e-04
      109  5.825643e-04
      110  2.144947e-04
      111 -1.154936e-04
      112 -1.222158e-04
      113 -1.250503e-04
      114  1.214287e-05
      115  5.591637e-05
      116  4.216269e-05
      117  4.646932e-05
      118 -9.483758e-05
      119  9.036353e-05
      120  7.120130e-05
      121  1.671192e-04
      122  4.790390e-06
      123 -3.582087e-05
      124 -6.617009e-05
      125 -1.016468e-04
      126 -3.508324e-05
      127  8.196677e-06
      128  4.578285e-05
      129  4.166743e-05
      130  1.482946e-05
      131 -2.892275e-06
      132 -1.721630e-05
      133 -5.265259e-06
      134 -7.156902e-06
      135  2.586488e-06
      136 -1.837875e-04
      137 -1.717601e-04
      138 -7.429548e-05
      139  1.004049e-04
      140  1.890223e-04
      141 -8.613652e-05
      142 -9.514407e-05
      143 -1.776673e-04
      144  5.128875e-05
      145  6.308043e-05
      146  5.242854e-05
      147  1.940009e-05
      148  1.809381e-05
      149  7.689305e-05
      150  1.137138e-04
      151 -1.311509e-05
      152 -7.468843e-05
      153 -2.387097e-04
      154 -1.093136e-04
      155 -3.097834e-05
      156  7.639086e-05
      157  0.000000e+00
      158  0.000000e+00
      159  0.000000e+00