pos          info
        0  4.050527e-04
        1 -2.998508e-04
        2 -4.590171e-06
        3  2.754835e-05
        4  1.154351e-04
        5 -1.189750e-04
        6 -3.929785e-05
        7 -1.664601e-05
        8 -5.099632e-07
        9 -1.624916e-05
       10 -3.098305e-05
       11  1.639709e-04
       12  6.479365e-04
       13 -1.927091e-06
       14  6.160144e-06
       15 -2.464217e-05
       16  1.404199e-05
       17  9.456100e-05
       18 -4.360167e-04
       19 -2.233581e-08
       20  5.847114e-05
       21  7.151015e-04
       22  3.753857e-04
       23 -3.271522e-05
       24  1.299479e-04
       25  9.136059e-05
       26  1.201657e-05
       27 -1.617772e-04
       28 -7.679026e-05
       29 -1.925603e-04
       30 -3.664920e-04
       31  1.851447e-06
       32 -3.092462e-05
       33  1.512975e-06
       34  4.961754e-05
       35 -1.049162e-05
       36  1.059594e-03
       37  1.786033e-04
       38 -2.715678e-04
       39  1.712228e-04
       40  2.217929e-04
       41 -3.264461e-05
       42 -3.603706e-05
       43  1.194591e-04
       44  9.399682e-05
       45  3.519615e-05
       46  1.987942e-04
       47  8.795481e-07
       48 -1.959591e-04
       49  6.950953e-07
       50  1.285762e-05
       51  1.634504e-03
       52 -5.577431e-05
       53  1.162210e-05
       54 -2.521851e-05
       55  3.204509e-04
       56  1.066088e-05
       57  2.602141e-04
       58 -1.046791e-05
       59 -1.747258e-04
       60 -1.628919e-05
       61 -6.129347e-06
       62 -4.920130e-05
       63  3.905004e-06
       64  3.915034e-05
       65 -4.660342e-06
       66  1.039062e-04
       67 -6.851512e-04
       68  3.702086e-04
       69 -5.754342e-06
       70  8.549322e-05
       71 -7.268705e-05
       72  3.811859e-04
       73 -9.960764e-05
       74 -2.250838e-04
       75  1.781869e-04
       76  2.503334e-06
       77  3.249178e-04
       78 -1.665978e-06
       79 -6.786048e-05
       80 -2.275057e-05
       81  2.232152e-06
       82 -3.867692e-04
       83  2.705980e-04
       84  2.527054e-06
       85  2.116946e-07
       86  4.118104e-06
       87 -3.745827e-08
       88 -8.982113e-06
       89  1.485788e-04
       90 -1.105186e-05
       91  1.456535e-06
       92 -6.004310e-06
       93  6.924481e-05
       94 -4.175356e-04
       95 -2.737757e-04
       96 -1.349650e-05
       97 -1.344026e-04
       98  1.537616e-05
       99  3.575949e-06
      100 -1.746354e-05
      101 -4.811876e-05
      102  5.070837e-04
      103 -3.491130e-05
      104 -1.600531e-04
      105  9.272970e-08
      106 -5.343979e-05
      107 -2.669230e-05
      108  6.036161e-05
      109  1.840675e-03
      110  2.177353e-03
      111  5.498124e-04
      112  8.555688e-06
      113 -3.410691e-04
      114  1.530336e-05
      115  3.143983e-05
      116 -1.221358e-04
      117  3.295513e-04
      118  3.826999e-05
      119 -2.293358e-07
      120 -7.055186e-06
      121  5.922648e-04
      122  2.618073e-06
      123  5.985623e-05
      124  5.208758e-05
      125 -1.288208e-04
      126 -2.078556e-04
      127 -1.656557e-04
      128  4.359493e-07
      129  1.115827e-05
      130  7.294754e-05
      131  1.139098e-04
      132 -1.183804e-05
      133 -2.125300e-05
      134  2.413889e-09
      135 -2.741018e-08
      136  1.095380e-06
      137 -6.487235e-05
      138 -2.059233e-04
      139  1.396660e-05
      140  7.636394e-05
      141 -4.657118e-05
      142 -1.422592e-05
      143 -4.291734e-04
      144  4.191127e-07
      145  2.099023e-06
      146  2.473800e-04
      147  7.267307e-05
      148 -5.788871e-05
      149  3.113208e-06
      150  2.906355e-05
      151  4.603858e-04
      152  2.104633e-04
      153 -2.586476e-04
      154  5.903641e-06
      155 -4.077424e-04
      156  2.425821e-04
      157  9.965928e-06
      158 -4.364899e-05
      159 -1.877043e-05