pos          info
        0  6.765044e-06
        1  1.327245e-05
        2  2.063612e-05
        3  1.332644e-05
        4  3.745952e-05
        5  2.567376e-05
        6  2.291856e-05
        7 -3.862239e-06
        8 -2.846529e-06
        9  4.855487e-07
       10 -8.075367e-08
       11 -1.023796e-06
       12 -3.770600e-06
       13  2.760489e-07
       14  2.643674e-06
       15 -4.101484e-06
       16 -7.887739e-06
       17 -8.953062e-06
       18  6.885109e-05
       19  8.154229e-05
       20  8.156524e-05
       21  3.561487e-05
       22  2.147906e-05
       23  2.124693e-05
       24 -1.078939e-05
       25 -1.953623e-05
       26 -2.616647e-05
       27 -1.705414e-05
       28 -7.551605e-06
       29  1.373964e-05
       30  1.213497e-04
       31  1.122684e-04
       32  9.871578e-05
       33 -8.738421e-06
       34 -7.932219e-07
       35  1.145089e-05
       36  2.828409e-06
       37  6.387314e-06
       38 -9.218111e-06
       39  4.993580e-06
       40  3.229033e-06
       41  6.076170e-06
       42  3.857123e-07
       43 -1.762534e-05
       44 -3.011295e-05
       45 -3.070407e-05
       46 -1.707566e-05
       47 -4.784472e-06
       48 -2.523095e-05
       49 -2.997989e-05
       50 -3.065938e-05
       51 -1.229094e-05
       52 -2.460716e-06
       53  6.278033e-06
       54  1.044262e-05
       55  9.512369e-06
       56 -1.432735e-05
       57  2.537768e-05
       58  2.644751e-05
       59  4.124267e-05
       60 -1.032565e-05
       61 -2.008150e-05
       62 -4.085558e-05
       63 -3.634844e-05
       64 -2.988038e-05
       65 -1.313890e-05
       66 -7.514222e-06
       67 -1.757435e-05
       68 -1.273823e-05
       69 -2.244507e-07
       70  2.320102e-05
       71  4.844639e-05
       72  2.576113e-05
       73  1.554591e-05
       74 -9.685927e-06
       75 -2.995336e-06
       76  4.621721e-07
       77 -8.591688e-06
       78 -1.468342e-05
       79 -3.162888e-04
       80 -3.281551e-04
       81 -3.364586e-04
       82 -2.018953e-05
       83 -7.767228e-06
       84  1.244012e-05
       85 -6.490982e-06
       86  1.778082e-05
       87 -2.012560e-06
       88 -1.357003e-05
       89 -3.494312e-05
       90 -9.502104e-06
       91  8.767471e-05
       92  9.472781e-05
       93  8.179388e-05
       94  3.458717e-06
       95 -5.167743e-07
       96  4.371391e-06
       97  4.555743e-05
       98  2.553396e-06
       99  1.686685e-05
      100 -4.214233e-05
      101 -6.113250e-07
      102 -2.582251e-05
      103 -2.208896e-05
      104 -4.726044e-05
      105 -2.390380e-05
      106 -1.666804e-05
      107  4.985730e-05
      108  1.082537e-04
      109  1.024222e-04
      110  6.377246e-05
      111 -6.319618e-07
      112  5.581558e-06
      113  3.017871e-05
      114  1.971310e-05
      115  4.721090e-05
      116 -1.684168e-05
      117 -1.870109e-05
      118 -5.574254e-05
      119 -1.846687e-05
      120 -1.629909e-05
      121  1.806694e-05
      122  2.042164e-05
      123  3.769717e-05
      124  1.787847e-05
      125  1.696430e-05
      126  1.025947e-05
      127  4.940407e-05
      128  6.453948e-05
      129  5.731665e-05
      130  5.260011e-05
      131  6.072215e-05
      132  1.122130e-04
      133  6.670049e-05
      134  8.337221e-05
      135 -5.924609e-05
      136 -5.545413e-05
      137 -9.217658e-05
      138 -1.253789e-06
      139 -2.031559e-06
      140  9.948964e-06
      141 -9.798204e-06
      142  1.855686e-05
      143  5.984145e-07
      144  8.838501e-05
      145  5.124399e-05
      146  5.483612e-05
      147 -1.239191e-05
      148 -5.886053e-06
      149 -5.994446e-06
      150  3.774512e-05
      151  3.169676e-05
      152  2.840941e-05
      153 -5.493191e-06
      154  6.443576e-06
      155  2.087496e-05
      156  3.832423e-06
      157  0.000000e+00
      158  0.000000e+00
      159  0.000000e+00