pos          info
        0  5.178365e-10
        1 -4.982175e-05
        2 -9.202840e-05
        3 -8.193692e-06
        4 -5.664785e-04
        5  1.369294e-05
        6  7.289082e-06
        7  7.746301e-05
        8  7.349450e-05
        9  1.199714e-04
       10 -6.740180e-06
       11 -3.139191e-04
       12 -1.093143e-05
       13 -2.994578e-04
       14 -2.085697e-05
       15 -2.758716e-05
       16 -8.592390e-06
       17 -6.562369e-04
       18  7.868572e-05
       19  3.087264e-05
       20 -1.535852e-04
       21  4.947583e-05
       22 -1.301720e-04
       23 -3.146009e-04
       24 -3.840884e-06
       25 -2.224242e-04
       26 -9.213614e-04
       27 -9.673321e-04
       28 -2.019599e-03
       29 -9.424422e-04
       30 -7.838326e-07
       31 -2.954661e-04
       32 -1.607646e-04
       33 -1.453849e-04
       34  1.442052e-05
       35 -3.711230e-05
       36 -2.248780e-05
       37 -1.096712e-04
       38  1.260171e-05
       39  6.500385e-04
       40  1.457581e-05
       41  1.032624e-04
       42 -5.275101e-05
       43 -4.892820e-04
       44 -2.016578e-03
       45 -1.024213e-03
       46 -1.921404e-03
       47 -6.047919e-04
       48  3.377579e-06
       49 -1.659137e-05
       50 -4.049910e-04
       51 -6.041943e-04
       52 -4.303611e-04
       53 -2.561737e-04
       54 -4.701196e-03
       55 -1.370397e-03
       56 -1.103114e-03
       57 -5.187424e-03
       58 -2.577680e-03
       59 -4.506130e-04
       60 -7.931678e-04
       61  2.455865e-07
       62 -1.587520e-04
       63 -3.533032e-04
       64 -2.947208e-04
       65 -1.378301e-03
       66 -2.050599e-03
       67 -1.140038e-03
       68  4.606650e-05
       69 -1.095171e-05
       70 -5.721999e-05
       71 -3.837571e-04
       72  1.546346e-04
       73  2.545599e-05
       74 -5.388703e-05
       75  3.445991e-06
       76 -1.913882e-03
       77 -1.310247e-04
       78 -4.221934e-03
       79  1.440037e-03
       80 -7.381084e-05
       81 -9.243358e-04
       82 -6.114002e-07
       83 -1.031243e-04
       84 -6.852209e-04
       85 -5.481022e-04
       86 -3.141799e-04
       87 -9.735077e-05
       88  1.252255e-06
       89 -5.470849e-05
       90 -3.761909e-05
       91 -1.489532e-05
       92 -2.448756e-05
       93  8.381504e-04
       94  2.704505e-05
       95 -9.435809e-05
       96  1.433611e-04
       97  6.919173e-05
       98 -1.908505e-05
       99  8.594094e-05
      100  2.550716e-04
      101 -4.361188e-03
      102 -3.466261e-03
      103  1.173638e-04
      104 -3.388743e-04
      105  5.847481e-06
      106 -5.223679e-03
      107 -1.207206e-04
      108 -1.859822e-05
      109 -1.733349e-06
      110 -8.427945e-05
      111  3.420832e-05
      112 -3.855382e-05
      113  3.278294e-05
      114 -4.197398e-05
      115  3.377035e-05
      116 -5.699198e-05
      117  3.393191e-05
      118 -1.350995e-04
      119 -8.954467e-06
      120 -5.495937e-05
      121 -1.572174e-04
      122 -1.024081e-04
      123 -1.809432e-04
      124  2.048154e-05
      125 -3.362412e-05
      126 -1.578571e-06
      127  2.359189e-04
      128 -2.180825e-05
      129 -1.559499e-05
      130 -3.901329e-05
      131 -4.749259e-05
      132 -5.800967e-04
      133 -1.325371e-05
      134 -1.180208e-04
      135 -1.352898e-04
      136  3.323627e-06
      137 -2.051739e-04
      138  3.475398e-05
      139 -5.558478e-05
      140 -5.725455e-06
      141 -1.178546e-04
      142  3.501644e-04
      143 -1.456053e-04
      144 -1.767866e-04
      145 -1.545225e-04
      146  1.042266e-04
      147 -5.437754e-06
      148 -4.957970e-07
      149  8.644409e-05
      150 -1.309682e-04
      151 -4.119629e-05
      152  1.700647e-06
      153  3.938522e-05
      154  4.819164e-06
      155  3.767112e-05
      156  2.151810e-06
      157 -9.383069e-07
      158  8.549546e-05
      159  2.170814e-05