pos          info
        0 -2.178910e-04
        1  1.885341e-10
        2 -9.351122e-05
        3  4.430053e-05
        4 -3.834728e-04
        5  5.608242e-06
        6 -7.353067e-05
        7  1.524483e-03
        8 -1.551054e-04
        9  1.156630e-04
       10 -3.105948e-05
       11 -2.458744e-04
       12 -2.250465e-05
       13 -2.794738e-04
       14  4.192907e-05
       15 -5.931392e-06
       16 -4.936632e-04
       17 -1.944020e-04
       18 -2.642592e-06
       19 -7.260018e-05
       20 -2.600880e-05
       21 -2.141636e-04
       22 -2.126954e-06
       23  5.741660e-05
       24  1.625684e-04
       25  6.464094e-05
       26 -4.296464e-04
       27  1.056173e-05
       28 -4.981320e-05
       29 -8.292091e-04
       30 -3.008611e-05
       31 -3.161883e-05
       32  6.529040e-06
       33 -1.414689e-04
       34 -1.371177e-04
       35  1.073361e-05
       36 -1.997393e-06
       37  2.141317e-04
       38 -8.225368e-05
       39  4.170156e-03
       40 -9.236883e-06
       41  1.010253e-03
       42  2.804829e-06
       43 -1.287158e-04
       44 -4.238241e-05
       45  6.611981e-05
       46  1.912764e-04
       47 -1.318068e-04
       48 -2.395752e-04
       49  1.824957e-05
       50  2.704945e-04
       51  7.405357e-05
       52  4.215420e-04
       53 -4.446906e-04
       54 -2.959341e-04
       55  7.470063e-06
       56  4.353868e-07
       57 -3.831336e-04
       58  8.385105e-08
       59  6.972228e-04
       60 -2.734515e-05
       61 -4.309000e-06
       62 -9.332961e-06
       63 -2.434589e-05
       64  2.126736e-04
       65 -2.158909e-05
       66 -4.653334e-05
       67  2.518448e-05
       68 -2.471481e-08
       69 -2.355827e-05
       70  1.437493e-04
       71  1.105281e-09
       72  1.442614e-05
       73  2.028057e-08
       74 -3.250507e-07
       75 -4.577722e-04
       76  4.009672e-05
       77  1.637581e-03
       78 -5.758334e-07
       79 -2.914066e-05
       80  2.255219e-04
       81 -4.197745e-05
       82  1.904654e-05
       83 -1.160860e-04
       84 -3.700567e-06
       85 -4.474455e-05
       86 -1.007271e-05
       87 -3.389270e-05
       88 -1.180857e-05
       89 -1.340334e-05
       90 -1.451962e-04
       91  3.953635e-06
       92  2.031407e-04
       93  8.058344e-05
       94  2.538513e-04
       95 -1.457709e-07
       96  8.384524e-05
       97  1.192019e-04
       98  4.290915e-04
       99 -3.578270e-04
      100  1.109929e-05
      101 -3.272236e-04
      102 -6.268804e-05
      103 -1.176665e-05
      104 -1.141573e-04
      105 -5.835131e-05
      106 -4.414081e-04
      107 -2.723934e-04
      108 -7.769463e-06
      109  1.431099e-04
      110  1.014513e-05
      111  1.467799e-04
      112 -5.793059e-06
      113 -1.220584e-04
      114 -3.097815e-05
      115 -1.943941e-05
      116  6.767995e-06
      117  2.628815e-05
      118 -1.102403e-04
      119  1.530143e-04
      120  1.550848e-05
      121 -1.384490e-06
      122 -3.225749e-05
      123 -1.438139e-07
      124 -2.538840e-06
      125 -1.622456e-05
      126 -1.333077e-06
      127  1.014226e-05
      128 -7.237124e-05
      129 -1.500131e-04
      130  5.441782e-04
      131  1.394026e-04
      132 -8.532177e-05
      133 -1.344933e-05
      134 -1.970357e-05
      135  1.482220e-05
      136 -3.129644e-05
      137 -7.554826e-05
      138 -1.666800e-04
      139 -3.672800e-04
      140  4.787086e-05
      141  1.329212e-04
      142  1.346354e-04
      143 -3.253935e-05
      144 -1.427479e-04
      145  5.300572e-04
      146  4.477759e-05
      147 -2.967500e-04
      148 -1.038296e-04
      149  1.782303e-04
      150  6.522267e-08
      151  3.504338e-05
      152 -4.312577e-05
      153  2.717403e-04
      154  1.382689e-07
      155  2.561280e-04
      156  1.460380e-06
      157 -9.327091e-05
      158  1.797080e-03
      159  1.264285e-04