pos       info
        0  -0.000311
        1  -0.000085
        2  -0.000067
        3   0.000044
        4   0.000057
        5   0.000035
        6   0.000021
        7  -0.000008
        8  -0.000010
        9   0.000011
       10  -0.000001
       11   0.000027
       12   0.000044
       13   0.000042
       14   0.000023
       15   0.000094
       16   0.000214
       17   0.000230
       18   0.000213
       19   0.000120
       20  -0.000262
       21  -0.000507
       22  -0.000557
       23  -0.000197
       24  -0.000029
       25  -0.000035
       26  -0.000040
       27  -0.000403
       28  -0.000345
       29  -0.000321
       30   0.000067
       31   0.000014
       32   0.000003
       33  -0.000038
       34  -0.000023
       35   0.000003
       36   0.000039
       37   0.000046
       38   0.000150
       39   0.000129
       40   0.000127
       41   0.000051
       42   0.000015
       43  -0.000052
       44  -0.000108
       45  -0.000073
       46  -0.000006
       47   0.000072
       48   0.000103
       49   0.000179
       50   0.000101
       51   0.000104
       52  -0.000180
       53  -0.000183
       54  -0.000280
       55  -0.000067
       56  -0.000058
       57   0.000827
       58   0.000339
       59   0.000970
       60   0.000658
       61   0.001218
       62   0.001216
       63   0.000931
       64   0.001076
       65   0.000415
       66   0.000187
       67  -0.000031
       68   0.000017
       69   0.000019
       70   0.000086
       71   0.000084
       72   0.000178
       73  -0.000238
       74  -0.000170
       75  -0.000131
       76  -0.000544
       77  -0.000571
       78  -0.000706
       79   0.000055
       80  -0.000757
       81  -0.000295
       82  -0.000459
       83   0.000361
       84  -0.000100
       85   0.000190
       86  -0.000016
       87  -0.000015
       88  -0.000280
       89  -0.000124
       90  -0.000123
       91   0.000026
       92   0.000059
       93   0.000044
       94   0.000060
       95  -0.000032
       96  -0.000079
       97  -0.000324
       98  -0.000276
       99  -0.000205
      100   0.000016
      101   0.000012
      102  -0.000005
      103   0.000056
      104   0.000070
      105  -0.000054
      106  -0.000116
      107  -0.000092
      108   0.000085
      109   0.000016
      110  -0.000022
      111   0.000168
      112   0.000326
      113   0.000322
      114   0.000113
      115  -0.000044
      116  -0.000040
      117  -0.000002
      118   0.000024
      119   0.000025
      120  -0.000089
      121  -0.000129
      122  -0.000100
      123  -0.000048
      124   0.000032
      125   0.000044
      126   0.000033
      127   0.000053
      128  -0.000101
      129  -0.000010
      130  -0.000120
      131  -0.000038
      132  -0.000130
      133  -0.000028
      134   0.000007
      135  -0.000055
      136  -0.000081
      137  -0.000085
      138  -0.000007
      139   0.000005
      140   0.000015
      141   0.000002
      142  -0.000003
      143  -0.000014
      144   0.000001
      145   0.000120
      146   0.000190
      147   0.000184
      148  -0.000118
      149  -0.000134
      150  -0.000142
      151   0.000061
      152   0.000009
      153   0.000010
      154  -0.000021
      155  -0.000015
      156  -0.000010
      157   0.000000
      158   0.000000
      159   0.000000