pos          info
        0 -1.836059e-04
        1 -8.685932e-06
        2 -8.212688e-06
        3  1.917870e-05
        4  1.011744e-04
        5  1.369648e-04
        6  1.087251e-04
        7 -5.101255e-05
        8 -8.578592e-05
        9 -6.347359e-06
       10  8.601690e-05
       11  8.877195e-05
       12  3.731019e-05
       13 -9.971648e-06
       14 -1.284757e-05
       15  5.039340e-05
       16  1.396607e-04
       17  1.044168e-04
       18  2.321467e-05
       19 -1.268077e-05
       20 -1.044727e-04
       21 -1.308300e-04
       22 -1.916188e-04
       23 -8.934286e-05
       24 -2.610774e-05
       25  5.746212e-06
       26  1.753712e-06
       27 -2.719216e-04
       28 -2.174700e-04
       29 -1.568897e-04
       30  1.765635e-04
       31  1.258476e-04
       32  1.678291e-04
       33  1.350696e-04
       34  1.468252e-04
       35  3.415336e-04
       36  4.750204e-04
       37  4.684821e-04
       38  2.888434e-04
       39  9.047149e-05
       40  7.764764e-05
       41  5.205154e-05
       42  4.217378e-05
       43 -2.370717e-06
       44  1.752532e-05
       45  4.781396e-05
       46  4.459242e-05
       47  5.585889e-05
       48  7.504551e-05
       49  3.964544e-04
       50  3.334924e-04
       51  3.103491e-04
       52 -4.023912e-05
       53 -6.060983e-05
       54 -1.346138e-04
       55 -4.517916e-05
       56 -5.269992e-05
       57  1.211855e-03
       58  7.555654e-04
       59  1.852223e-03
       60  1.348649e-03
       61  2.124637e-03
       62  1.331916e-03
       63  1.361853e-03
       64  1.175596e-03
       65  8.714787e-04
       66  1.189283e-04
       67  3.654967e-06
       68  5.852440e-05
       69  1.022759e-04
       70  8.320319e-05
       71  3.139127e-05
       72  1.387417e-05
       73 -2.812813e-04
       74 -2.218451e-04
       75 -3.595906e-05
       76 -5.751768e-04
       77 -6.172763e-04
       78 -8.148334e-04
       79  2.030923e-05
       80 -5.872123e-04
       81  6.982340e-04
       82  5.523907e-04
       83  1.571340e-03
       84  4.033557e-04
       85  9.206928e-04
       86  4.444807e-04
       87  3.197746e-04
       88 -5.184544e-05
       89  9.104200e-05
       90  9.855137e-05
       91  1.509494e-04
       92  6.754609e-05
       93  9.384585e-05
       94  4.844857e-05
       95  2.311890e-05
       96 -8.125791e-05
       97 -2.296472e-04
       98 -2.208440e-04
       99 -1.217824e-04
      100  1.921254e-05
      101  1.893643e-05
      102 -9.507363e-07
      103 -2.757974e-07
      104  1.185502e-05
      105 -4.768343e-05
      106 -3.578713e-05
      107 -1.907261e-05
      108  4.829636e-05
      109  3.643294e-05
      110 -2.751777e-05
      111 -1.234886e-05
      112 -1.267227e-05
      113  2.001213e-05
      114  2.154363e-05
      115  8.933319e-06
      116  1.584026e-05
      117 -1.561037e-05
      118 -3.718094e-05
      119 -1.792353e-05
      120 -4.729037e-05
      121 -5.165100e-05
      122 -6.953682e-05
      123 -3.486604e-05
      124  1.685163e-06
      125  6.371786e-06
      126  2.531790e-05
      127  9.977246e-05
      128 -8.473423e-05
      129 -9.464078e-05
      130 -2.386339e-04
      131 -6.158360e-05
      132 -6.690134e-05
      133  2.926288e-05
      134  5.814889e-05
      135 -1.095521e-05
      136 -6.997585e-05
      137 -1.083176e-04
      138 -4.349094e-05
      139 -8.035857e-06
      140  7.786412e-06
      141  3.215492e-06
      142 -1.113251e-05
      143 -1.749829e-05
      144 -7.908157e-06
      145  1.280436e-04
      146  1.651130e-04
      147  1.662310e-04
      148 -9.888452e-05
      149 -1.209155e-04
      150 -1.260200e-04
      151  6.092682e-05
      152  5.202970e-05
      153  5.224789e-05
      154 -4.319836e-05
      155 -6.870276e-05
      156 -6.899369e-05
      157  0.000000e+00
      158  0.000000e+00
      159  0.000000e+00