pos       info
        0   0.000004
        1  -0.000003
        2  -0.000139
        3  -0.000093
        4  -0.000017
        5   0.000063
        6  -0.000006
        7  -0.000026
        8  -0.000004
        9   0.000333
       10   0.001028
       11   0.001534
       12   0.001338
       13   0.001406
       14   0.001776
       15   0.001676
       16   0.001249
       17   0.000464
       18   0.000675
       19   0.000203
       20   0.000110
       21  -0.000073
       22   0.000132
       23   0.000135
       24   0.000135
       25   0.000060
       26   0.000234
       27   0.000234
       28  -0.000193
       29  -0.000388
       30  -0.000393
       31   0.000039
       32   0.000073
       33   0.000077
       34   0.000021
       35  -0.000013
       36   0.000024
       37  -0.000008
       38  -0.000018
       39  -0.000047
       40  -0.000008
       41   0.000096
       42   0.000057
       43   0.000042
       44  -0.000034
       45  -0.000036
       46  -0.000091
       47  -0.000111
       48  -0.000069
       49  -0.000962
       50  -0.000957
       51  -0.001088
       52  -0.000035
       53  -0.000008
       54   0.000121
       55   0.000020
       56   0.000017
       57  -0.000203
       58  -0.000148
       59  -0.000205
       60  -0.000011
       61  -0.000131
       62  -0.000083
       63  -0.000049
       64   0.000013
       65   0.000018
       66  -0.000070
       67  -0.000093
       68  -0.000437
       69  -0.000302
       70  -0.000311
       71   0.000004
       72  -0.000054
       73   0.000010
       74   0.000019
       75  -0.000037
       76  -0.000161
       77  -0.000079
       78  -0.000017
       79   0.000104
       80   0.000103
       81   0.000111
       82   0.000073
       83  -0.000048
       84  -0.000034
       85  -0.000006
       86   0.000057
       87   0.000018
       88   0.000002
       89   0.000178
       90   0.000180
       91   0.000231
       92   0.000152
       93   0.000262
       94   0.000212
       95   0.000105
       96  -0.000032
       97  -0.000053
       98   0.000067
       99   0.000100
      100   0.000138
      101   0.000137
      102  -0.000009
      103  -0.000016
      104  -0.000113
      105   0.000032
      106   0.000119
      107   0.000166
      108   0.000208
      109   0.000122
      110  -0.000030
      111  -0.000117
      112  -0.000134
      113  -0.000049
      114  -0.000005
      115  -0.000028
      116  -0.000043
      117  -0.000043
      118  -0.000017
      119   0.000118
      120   0.000242
      121   0.000244
      122   0.000123
      123   0.000003
      124   0.000002
      125   0.000004
      126   0.000091
      127   0.000092
      128   0.000103
      129   0.000002
      130  -0.000113
      131  -0.000125
      132  -0.000234
      133  -0.000082
      134  -0.000024
      135   0.000187
      136   0.000262
      137   0.000226
      138   0.000225
      139   0.000142
      140   0.000204
      141   0.000113
      142   0.000083
      143   0.000045
      144   0.000045
      145   0.000141
      146   0.000095
      147   0.000090
      148  -0.000020
      149   0.000051
      150   0.000056
      151   0.000030
      152  -0.000042
      153  -0.000069
      154  -0.000122
      155  -0.000129
      156  -0.000078
      157   0.000000
      158   0.000000
      159   0.000000