pos          info
        0  2.460704e-05
        1  4.499664e-05
        2  8.703942e-06
        3  6.208002e-06
        4  2.238515e-05
        5  6.444565e-06
        6  1.746658e-04
        7 -8.334942e-06
        8  5.238341e-04
        9  7.635129e-07
       10 -3.743376e-08
       11  1.982759e-04
       12 -1.456918e-08
       13 -7.018638e-05
       14  1.724399e-04
       15  2.200232e-04
       16  3.362212e-04
       17 -4.062269e-06
       18 -5.647879e-05
       19  2.053482e-05
       20  3.906883e-04
       21  2.126069e-05
       22 -1.949657e-06
       23  6.006164e-05
       24 -2.416672e-06
       25  1.105699e-05
       26  7.414629e-05
       27 -1.939030e-05
       28  5.263353e-05
       29  1.462113e-04
       30 -1.077141e-04
       31  6.666253e-05
       32  1.409905e-06
       33  2.387796e-05
       34  1.039519e-04
       35  4.048666e-05
       36  6.842106e-06
       37  1.687653e-05
       38  1.283571e-05
       39  1.296071e-05
       40  1.222417e-05
       41  1.050569e-04
       42  1.356408e-05
       43  5.982492e-05
       44  3.768423e-04
       45  1.122988e-04
       46 -5.505990e-05
       47  2.117568e-04
       48  8.152549e-05
       49 -1.216647e-04
       50  1.069422e-04
       51  8.756497e-05
       52  6.133530e-06
       53 -4.105434e-06
       54  5.175056e-05
       55 -4.589700e-05
       56 -4.138548e-06
       57  4.295014e-04
       58  1.714440e-04
       59 -3.609521e-05
       60  6.215194e-05
       61 -5.348342e-06
       62 -9.922317e-06
       63  2.788984e-04
       64 -9.701202e-06
       65 -6.639974e-06
       66 -4.795220e-05
       67 -1.023917e-07
       68 -3.476319e-06
       69 -1.893177e-06
       70  1.462240e-04
       71 -2.220173e-04
       72  3.182132e-05
       73  8.921393e-05
       74  2.246111e-05
       75 -2.423795e-05
       76 -4.771020e-06
       77 -1.849889e-04
       78 -3.300424e-05
       79 -4.058117e-04
       80 -7.303137e-05
       81  5.899805e-04
       82 -8.038822e-04
       83 -1.482357e-07
       84  3.855473e-05
       85 -8.266277e-05
       86 -1.123965e-05
       87  5.368052e-05
       88 -4.843242e-06
       89 -2.205372e-05
       90  1.975509e-06
       91  1.122008e-04
       92  2.748964e-04
       93  5.590005e-05
       94 -3.532259e-08
       95 -2.779408e-08
       96  2.468572e-05
       97 -3.327507e-05
       98  2.035698e-04
       99 -1.535830e-04
      100 -6.883603e-04
      101  1.800636e-04
      102  2.042411e-04
      103  7.024879e-04
      104  1.337581e-06
      105 -8.643808e-06
      106 -2.921635e-05
      107  6.478992e-05
      108  8.780271e-04
      109 -1.072357e-04
      110 -2.303602e-05
      111  1.541395e-05
      112  6.348388e-05
      113  8.843562e-05
      114 -6.993119e-04
      115  5.407248e-07
      116  2.051029e-06
      117  9.910771e-05
      118  2.666462e-06
      119  2.082778e-04
      120 -7.076861e-05
      121 -1.127198e-04
      122 -1.112299e-05
      123  4.030745e-05
      124  8.467603e-05
      125 -2.651953e-04
      126 -3.750057e-05
      127  2.743078e-07
      128 -6.646414e-05
      129  4.665720e-04
      130  1.273141e-04
      131  1.027449e-05
      132  1.164419e-05
      133  1.459719e-04
      134 -5.619626e-06
      135 -1.831420e-04
      136  8.897386e-05
      137  9.707552e-05
      138 -1.439061e-04
      139  3.055744e-08
      140 -1.444111e-04
      141  1.263052e-05
      142 -8.930777e-08
      143  1.363581e-04
      144 -1.523620e-05
      145 -2.442962e-05
      146 -1.363278e-04
      147 -1.978296e-06
      148 -1.039338e-04
      149  2.308777e-04
      150  5.058510e-06
      151 -1.028587e-04
      152  1.316015e-04
      153  1.235137e-05
      154 -2.047240e-04
      155 -9.304093e-07
      156  3.785700e-04
      157  7.691300e-09
      158  3.479832e-06
      159  1.126872e-04