pos          info
        0  4.642992e-05
        1  4.950023e-05
        2  1.225655e-05
        3  3.733433e-05
        4 -5.307588e-05
        5 -6.962816e-05
        6  8.761310e-07
        7  8.887356e-05
        8  9.788015e-05
        9  1.145523e-05
       10 -1.346554e-04
       11 -2.040257e-04
       12 -1.956101e-04
       13 -2.878585e-05
       14  1.238181e-04
       15  1.059522e-04
       16  8.583498e-05
       17  1.958884e-05
       18  1.347125e-04
       19  1.691811e-04
       20  1.247144e-04
       21  4.597218e-05
       22  6.926481e-06
       23  3.493380e-05
       24  1.069429e-04
       25  1.070406e-04
       26  7.368754e-05
       27 -1.392744e-05
       28 -1.019938e-04
       29 -6.532304e-05
       30 -1.019423e-04
       31  1.210687e-05
       32 -1.455561e-06
       33  5.005267e-05
       34  6.019788e-05
       35  7.141138e-05
       36  3.370328e-05
       37  4.577322e-06
       38 -6.174392e-06
       39  3.887094e-05
       40  3.630095e-05
       41  3.451803e-05
       42  7.765728e-05
       43  8.174500e-05
       44  8.239890e-05
       45  3.523834e-05
       46  3.070103e-05
       47  3.086423e-05
       48  1.504385e-05
       49  3.264447e-05
       50  2.441330e-05
       51 -2.641428e-06
       52 -1.502784e-05
       53 -2.866131e-05
       54 -5.362317e-05
       55  8.202790e-05
       56  1.848139e-04
       57  2.208851e-04
       58  1.051022e-04
       59  3.628441e-05
       60  8.031499e-06
       61  1.864359e-05
       62 -9.710261e-05
       63 -6.887820e-05
       64 -1.248840e-04
       65 -1.979611e-05
       66 -8.089208e-06
       67  1.124573e-05
       68 -6.770202e-06
       69 -3.099613e-06
       70  1.049705e-06
       71  7.723016e-05
       72  6.874992e-05
       73  6.315110e-05
       74 -9.424058e-06
       75 -2.283597e-04
       76 -2.430518e-04
       77 -3.923932e-04
       78 -3.735606e-04
       79 -1.463415e-04
       80 -7.872982e-05
       81  9.967256e-05
       82 -6.243383e-05
       83  5.431926e-06
       84  1.612397e-05
       85 -2.837745e-05
       86 -4.065909e-07
       87 -4.907088e-05
       88 -5.914213e-05
       89 -1.864616e-05
       90  6.217704e-05
       91  2.646483e-05
       92 -4.603430e-06
       93 -8.194298e-05
       94 -5.769417e-06
       95 -6.626659e-05
       96  7.315559e-05
       97 -3.417566e-05
       98 -2.517803e-04
       99 -2.961996e-04
      100 -1.906764e-04
      101  2.526894e-04
      102  4.307438e-04
      103  3.991499e-04
      104  1.033129e-04
      105 -1.540618e-04
      106  1.794747e-04
      107  3.026140e-04
      108  2.992444e-04
      109 -8.468834e-06
      110 -3.166037e-05
      111 -1.038899e-05
      112 -3.681578e-04
      113 -3.442554e-04
      114 -3.283078e-04
      115  2.004233e-05
      116  1.740886e-05
      117  1.806972e-05
      118  5.740447e-06
      119 -4.939318e-05
      120 -9.011855e-05
      121 -9.420287e-05
      122 -3.187100e-05
      123 -5.569184e-06
      124 -2.478571e-05
      125  4.604487e-06
      126  2.738466e-05
      127  9.500515e-05
      128  9.000038e-05
      129  8.089484e-05
      130  8.353947e-05
      131  5.464173e-05
      132  5.755580e-05
      133  3.175968e-06
      134  1.323737e-05
      135  1.079144e-05
      136  4.061691e-06
      137 -1.217558e-05
      138 -6.872463e-05
      139 -5.864231e-05
      140 -5.520892e-05
      141  1.097405e-05
      142  7.304353e-06
      143  2.750229e-05
      144 -1.087183e-04
      145 -1.050902e-04
      146 -1.542102e-04
      147  5.655428e-05
      148  6.076412e-05
      149  7.510492e-05
      150  3.723567e-05
      151  3.281899e-05
      152  6.206512e-05
      153  1.067890e-05
      154  5.141895e-05
      155  4.091772e-05
      156  7.395626e-05
      157  0.000000e+00
      158  0.000000e+00
      159  0.000000e+00