pos          info
        0  1.064877e-04
        1  2.448454e-04
        2  9.766369e-05
        3 -3.251568e-05
        4 -1.963818e-04
        5 -2.569154e-04
        6 -1.155005e-04
        7 -9.850674e-05
        8  5.136928e-05
        9  3.407669e-05
       10 -5.838830e-06
       11 -5.348286e-05
       12 -1.806573e-04
       13 -2.525198e-05
       14  2.494972e-04
       15  3.762616e-04
       16  2.689318e-04
       17  3.793923e-06
       18 -1.489559e-04
       19 -1.342683e-04
       20 -1.417466e-04
       21  1.152728e-05
       22  3.404260e-04
       23  5.170241e-04
       24  4.454516e-04
       25 -1.984566e-04
       26 -5.135507e-04
       27 -3.394209e-04
       28  3.892070e-05
       29  1.098248e-04
       30  3.572332e-05
       31 -2.351921e-05
       32  4.154571e-05
       33  4.411992e-05
       34  3.703669e-05
       35  1.214898e-04
       36  2.269506e-04
       37  2.823370e-04
       38  1.975533e-04
       39  5.959100e-05
       40 -1.755153e-04
       41 -1.627372e-04
       42 -1.762853e-04
       43  7.483358e-06
       44  1.149109e-04
       45  1.312398e-04
       46  1.233320e-04
       47  3.456986e-05
       48  2.023232e-05
       49  1.830967e-05
       50 -1.279164e-05
       51 -1.695769e-04
       52 -1.697745e-04
       53  4.023178e-04
       54  2.772645e-04
       55  1.246862e-04
       56 -4.387418e-04
       57 -1.903721e-04
       58  1.944150e-04
       59  2.176112e-04
       60  2.692808e-04
       61  3.125147e-05
       62 -4.159443e-05
       63 -3.927241e-05
       64 -3.224980e-05
       65 -1.217718e-04
       66 -1.090038e-04
       67 -1.198924e-05
       68  1.206549e-04
       69  6.707786e-05
       70  9.223706e-05
       71  8.248672e-05
       72  9.129755e-05
       73  2.803338e-04
       74  2.847865e-04
       75  3.469631e-04
       76  1.569116e-04
       77  7.586670e-05
       78 -1.075733e-04
       79 -6.082883e-04
       80 -8.940998e-04
       81 -7.499534e-04
       82 -3.745074e-04
       83 -3.733353e-05
       84  1.775872e-04
       85  1.479624e-04
       86  1.636350e-04
       87 -5.636895e-05
       88 -2.395046e-05
       89 -4.683233e-06
       90  2.385882e-06
       91  1.560726e-04
       92  1.563619e-04
       93  1.379597e-04
       94 -1.112456e-05
       95  2.022755e-06
       96 -1.522103e-05
       97 -2.838656e-05
       98 -4.633698e-05
       99 -5.534938e-05
      100  3.120120e-04
      101  2.807657e-04
      102  3.378556e-04
      103  8.600644e-04
      104  7.594749e-04
      105  7.924268e-04
      106 -2.605658e-04
      107 -4.579894e-04
      108 -2.764580e-04
      109 -1.459509e-04
      110  1.841456e-04
      111 -4.297901e-05
      112  3.924981e-06
      113 -1.922984e-06
      114  6.558431e-06
      115 -1.780079e-05
      116  6.422118e-05
      117  1.835230e-05
      118  3.741906e-05
      119 -1.572830e-04
      120 -1.149736e-04
      121 -7.158317e-05
      122  4.654025e-05
      123  3.935714e-05
      124 -2.863740e-05
      125  2.162809e-04
      126  1.976758e-04
      127  2.236206e-04
      128 -8.727573e-05
      129 -6.755058e-05
      130 -4.988951e-05
      131 -5.290880e-06
      132 -1.308523e-04
      133 -1.492884e-04
      134 -1.372207e-04
      135 -8.247438e-06
      136 -2.728744e-05
      137 -2.658097e-06
      138 -1.145428e-04
      139 -1.587022e-04
      140 -1.674729e-04
      141 -5.791291e-05
      142  2.522920e-05
      143 -4.986817e-08
      144  1.068456e-04
      145  8.341244e-05
      146  1.028762e-04
      147 -3.997106e-06
      148  1.188748e-04
      149  1.708365e-04
      150  1.543701e-04
      151 -3.858320e-06
      152 -5.341142e-05
      153 -2.418505e-05
      154  4.221277e-05
      155 -3.630098e-05
      156 -9.400213e-05
      157  0.000000e+00
      158  0.000000e+00
      159  0.000000e+00