pos          info
        0  5.090565e-05
        1 -6.925164e-04
        2 -1.026147e-04
        3 -3.054919e-04
        4  7.994645e-06
        5  6.036920e-05
        6  1.818375e-05
        7  3.002372e-05
        8 -6.337331e-04
        9  1.807402e-04
       10 -1.923562e-04
       11 -1.048338e-05
       12 -1.749682e-05
       13 -2.809456e-06
       14  1.724536e-04
       15 -1.839244e-04
       16 -5.282967e-04
       17  3.652468e-05
       18  2.087040e-05
       19  1.008457e-05
       20  2.894448e-04
       21 -3.614910e-07
       22 -4.189831e-04
       23  2.184274e-04
       24 -8.128843e-04
       25 -3.030810e-05
       26  5.081158e-05
       27  8.050724e-04
       28  4.877575e-04
       29 -1.119882e-04
       30 -3.100341e-06
       31  8.480089e-05
       32 -5.883585e-05
       33 -4.856994e-05
       34  6.085291e-06
       35 -6.012392e-04
       36 -7.648270e-05
       37 -4.549090e-04
       38 -1.753687e-04
       39 -3.343687e-04
       40  7.830963e-06
       41  1.058956e-06
       42  4.665533e-04
       43  3.073245e-06
       44  8.633652e-07
       45 -2.004168e-04
       46 -4.902273e-04
       47 -1.096437e-05
       48 -1.613608e-05
       49  8.477817e-07
       50  4.814520e-04
       51  1.571568e-04
       52 -1.616464e-05
       53  2.487324e-04
       54  3.990570e-05
       55 -1.304520e-03
       56  8.113817e-04
       57  2.905253e-04
       58 -8.856201e-05
       59  7.913150e-06
       60 -6.620761e-04
       61 -2.842205e-04
       62  8.077446e-06
       63  1.157672e-04
       64  5.675400e-08
       65  7.394529e-06
       66 -3.722569e-05
       67  3.705654e-04
       68 -3.173178e-04
       69 -5.574020e-04
       70 -5.517000e-05
       71  3.315062e-07
       72 -1.069967e-04
       73 -1.267201e-06
       74  7.893995e-05
       75 -6.576127e-04
       76 -4.186146e-05
       77 -2.262198e-05
       78 -1.812269e-04
       79  1.779750e-04
       80  2.717155e-04
       81  4.969279e-04
       82  5.919758e-04
       83  2.909433e-05
       84 -1.999031e-06
       85  7.894149e-05
       86 -5.668319e-04
       87 -4.111904e-06
       88  2.385263e-04
       89 -7.615425e-08
       90  3.791245e-07
       91  6.460292e-06
       92 -1.466836e-07
       93 -2.266910e-04
       94 -2.146036e-05
       95  9.958891e-06
       96 -1.430302e-04
       97 -9.915742e-05
       98  2.690114e-05
       99  3.024485e-05
      100  2.429159e-05
      101  4.094654e-05
      102 -1.217605e-03
      103  4.414902e-05
      104 -1.257533e-04
      105 -2.086756e-03
      106  1.210262e-04
      107 -8.865521e-05
      108  2.077130e-04
      109  9.447253e-04
      110 -6.582012e-04
      111  1.880482e-05
      112 -9.865123e-06
      113 -8.321794e-06
      114 -3.862200e-05
      115 -3.935908e-05
      116 -6.236613e-06
      117  1.288560e-04
      118 -2.811222e-04
      119  1.095619e-04
      120  1.302635e-05
      121  3.356604e-04
      122 -8.786417e-05
      123 -1.530688e-04
      124  2.580484e-04
      125 -3.985368e-08
      126  2.822366e-04
      127 -9.064527e-04
      128  3.699541e-04
      129 -8.433717e-05
      130 -1.212143e-04
      131 -9.467148e-06
      132 -1.212003e-05
      133  1.665604e-04
      134  2.950801e-04
      135 -3.513253e-05
      136 -1.585663e-05
      137 -1.470347e-04
      138  2.752061e-04
      139 -2.373544e-04
      140  4.190851e-04
      141  9.649652e-05
      142 -3.622398e-05
      143 -8.747587e-06
      144 -4.411202e-05
      145  4.097731e-05
      146 -4.125105e-04
      147  2.053130e-05
      148 -1.813369e-05
      149  1.993542e-07
      150 -1.820105e-04
      151 -9.583509e-05
      152  3.826804e-05
      153  2.420538e-05
      154  2.937269e-06
      155 -4.398538e-05
      156 -1.215938e-05
      157  1.098968e-04
      158  2.194086e-04
      159 -2.235718e-04