pos          info
        0  1.089001e-07
        1 -3.295629e-04
        2  5.825709e-04
        3 -1.303956e-04
        4  1.860671e-04
        5 -6.764309e-04
        6 -1.074372e-04
        7  1.023564e-05
        8 -3.604368e-06
        9  3.055515e-04
       10  3.071613e-04
       11  4.654750e-08
       12 -1.051604e-04
       13 -7.068055e-06
       14 -1.727710e-04
       15  2.720020e-06
       16 -7.400439e-06
       17 -3.685870e-05
       18 -3.758631e-05
       19 -2.457871e-04
       20  1.791730e-05
       21  1.637762e-05
       22  4.081068e-07
       23  5.365881e-06
       24  9.432956e-05
       25  1.413019e-05
       26 -3.798444e-05
       27 -7.091581e-05
       28  4.581863e-05
       29  1.369751e-06
       30  3.942386e-05
       31 -8.440403e-06
       32 -3.237941e-04
       33 -3.122414e-06
       34 -2.247962e-05
       35 -1.490642e-05
       36  3.788408e-05
       37 -2.215670e-06
       38  2.100139e-04
       39  4.156913e-06
       40 -7.915912e-05
       41  1.383468e-04
       42  4.223748e-04
       43 -5.716162e-06
       44 -2.287350e-04
       45  9.155566e-05
       46  4.234322e-05
       47  7.052661e-05
       48 -2.090487e-04
       49  6.050804e-05
       50 -4.739180e-06
       51 -7.405528e-05
       52 -2.681351e-06
       53  2.571231e-05
       54  8.216171e-05
       55  7.024220e-05
       56  1.846167e-04
       57  5.489252e-05
       58  8.543643e-05
       59  3.975855e-04
       60 -2.713204e-05
       61  2.679334e-05
       62 -6.032607e-05
       63 -1.637908e-04
       64 -7.444681e-06
       65 -4.464697e-04
       66  1.297402e-04
       67 -6.996023e-05
       68  6.621034e-04
       69 -3.228131e-06
       70 -7.270444e-06
       71  8.863839e-08
       72  9.938562e-05
       73  3.332384e-04
       74  3.159059e-05
       75 -2.857143e-05
       76  2.044603e-05
       77 -7.640430e-04
       78  5.431053e-05
       79 -5.324236e-05
       80  6.754942e-04
       81  6.052376e-03
       82  4.693817e-03
       83  4.933222e-03
       84  2.394404e-03
       85  3.646858e-07
       86  6.255581e-04
       87  1.822154e-03
       88 -3.742086e-04
       89 -8.602190e-05
       90 -1.051885e-03
       91  5.570940e-06
       92 -7.292702e-04
       93 -6.208119e-04
       94 -2.563757e-03
       95 -1.963911e-03
       96  8.981602e-07
       97 -1.323517e-03
       98  6.740294e-05
       99  1.762283e-03
      100  7.534485e-04
      101 -7.100201e-05
      102  2.820406e-07
      103 -2.897496e-04
      104  1.659564e-03
      105  3.608084e-03
      106 -1.895599e-03
      107  8.921742e-04
      108  6.476854e-04
      109 -2.623788e-03
      110 -2.990983e-04
      111 -1.076712e-04
      112  2.400456e-04
      113  5.999601e-07
      114  5.903997e-05
      115  3.802098e-06
      116 -2.335111e-04
      117 -7.763231e-05
      118  1.713443e-04
      119 -9.626552e-07
      120 -3.823735e-05
      121 -4.189297e-05
      122  2.019109e-05
      123  3.731479e-05
      124 -2.556660e-05
      125 -2.631918e-06
      126  3.382246e-07
      127  1.357038e-05
      128  2.079227e-04
      129 -5.008953e-05
      130 -2.571502e-05
      131  3.019821e-06
      132 -2.797090e-07
      133  7.645554e-06
      134 -4.939998e-05
      135 -5.015629e-05
      136 -1.015074e-03
      137 -4.513280e-04
      138  1.470386e-05
      139 -5.968048e-04
      140 -9.984790e-06
      141 -2.120970e-05
      142  6.990368e-05
      143 -4.809644e-05
      144  1.993108e-04
      145  3.028169e-04
      146  7.288883e-06
      147 -2.808848e-05
      148  3.695074e-06
      149 -1.277882e-04
      150 -9.287305e-05
      151 -1.064684e-04
      152  7.091642e-06
      153  3.652772e-06
      154  8.197483e-06
      155 -6.136902e-07
      156  2.552319e-05
      157  9.265957e-06
      158  2.738370e-05
      159 -3.053394e-06