pos          info
        0  1.333641e-04
        1  8.611986e-05
        2  9.702808e-05
        3 -1.263474e-04
        4 -8.584073e-05
        5 -8.812476e-05
        6 -1.097362e-05
        7  1.063689e-04
        8  1.120891e-04
        9  9.921591e-05
       10 -5.015707e-05
       11 -7.303001e-05
       12 -5.333941e-05
       13 -1.607049e-05
       14 -9.528549e-06
       15 -5.566976e-06
       16 -2.452093e-05
       17 -5.724226e-05
       18 -5.881362e-05
       19 -2.668306e-05
       20  1.203957e-05
       21  1.074633e-05
       22  8.011692e-06
       23  5.380492e-06
       24  4.408544e-05
       25  3.886271e-05
       26  3.216177e-05
       27 -7.707800e-06
       28 -8.587916e-06
       29  2.587138e-05
       30  1.999810e-05
       31  1.640533e-05
       32 -4.415644e-05
       33 -6.855413e-05
       34 -4.644859e-05
       35 -1.751370e-05
       36  4.702983e-05
       37  2.803329e-05
       38  2.788893e-05
       39  7.098909e-06
       40  9.261486e-05
       41  9.727666e-05
       42  6.496963e-05
       43 -1.415618e-05
       44 -4.063115e-05
       45 -2.055668e-05
       46 -3.615086e-05
       47  3.884637e-05
       48  3.837403e-05
       49  1.296744e-05
       50 -4.261489e-05
       51 -2.350712e-05
       52  1.961215e-05
       53  2.471726e-05
       54  2.453182e-05
       55  1.698247e-05
       56  2.816190e-05
       57  1.045699e-04
       58  1.041135e-04
       59  9.862664e-05
       60  4.046086e-06
       61 -5.735642e-06
       62 -1.236753e-05
       63 -1.556719e-04
       64 -1.313152e-04
       65 -1.367249e-04
       66  3.402546e-05
       67 -5.055211e-05
       68 -5.126258e-05
       69 -8.546277e-05
       70 -9.469564e-06
       71  8.357018e-05
       72  8.986939e-05
       73  8.116052e-05
       74 -9.473751e-06
       75 -1.014345e-04
       76 -9.375323e-05
       77 -1.282230e-04
       78  1.987345e-05
       79  5.901686e-04
       80  1.150690e-03
       81  1.706356e-03
       82  1.318940e-03
       83  7.637624e-04
       84  2.637361e-04
       85  5.449073e-04
       86  5.789569e-04
       87  4.384599e-04
       88 -1.981462e-04
       89 -1.959583e-04
       90 -1.935447e-04
       91 -9.087491e-05
       92 -3.787263e-04
       93 -4.964298e-04
       94 -4.312314e-04
       95 -2.154058e-04
       96 -7.121470e-05
       97  2.605078e-04
       98  5.395143e-04
       99  5.036252e-04
      100  1.998029e-04
      101 -8.635160e-05
      102  8.194184e-05
      103  3.848441e-04
      104  2.470815e-04
      105  1.586859e-04
      106 -3.613495e-05
      107 -3.166030e-04
      108 -4.495433e-04
      109 -6.488331e-04
      110 -1.010107e-04
      111 -2.210638e-05
      112  4.312435e-05
      113  6.631645e-06
      114 -5.851058e-06
      115 -3.762359e-05
      116  1.101746e-05
      117  3.404015e-05
      118  6.635404e-05
      119  5.674226e-06
      120 -9.171121e-06
      121 -1.204682e-05
      122 -1.438924e-05
      123  1.235356e-06
      124  8.001635e-06
      125  6.617046e-05
      126  1.075098e-04
      127  8.622948e-05
      128  2.869425e-05
      129 -7.800212e-06
      130  1.417229e-06
      131  1.012035e-06
      132 -5.028109e-05
      133 -4.296978e-05
      134 -1.771902e-04
      135 -2.510986e-04
      136 -2.533022e-04
      137 -1.739345e-04
      138 -5.496608e-05
      139 -6.942365e-05
      140  1.321996e-05
      141  1.163358e-05
      142  5.757929e-05
      143  7.106848e-05
      144  7.268762e-05
      145  4.712857e-08
      146 -3.417326e-05
      147 -3.970449e-05
      148 -6.318607e-08
      149 -4.932522e-05
      150 -5.231001e-05
      151 -5.822069e-05
      152 -1.321385e-05
      153 -3.089659e-05
      154 -2.396795e-05
      155 -2.700947e-05
      156  2.373507e-06
      157  0.000000e+00
      158  0.000000e+00
      159  0.000000e+00