pos          info
        0  1.763525e-05
        1  1.748068e-05
        2 -2.569519e-05
        3 -8.226750e-05
        4 -4.199717e-05
        5 -1.246178e-05
        6  5.762285e-05
        7  3.204851e-05
        8  2.537741e-05
        9  1.423977e-05
       10  4.376316e-05
       11  4.667740e-05
       12 -4.750605e-05
       13 -2.298154e-04
       14 -3.102535e-04
       15 -2.968524e-04
       16 -1.563947e-04
       17 -1.346653e-05
       18  7.529771e-05
       19  1.056098e-04
       20 -1.035517e-05
       21 -6.285850e-06
       22 -6.584968e-05
       23 -1.477894e-05
       24 -2.922546e-05
       25  4.034554e-06
       26  8.858403e-05
       27  9.122604e-05
       28  1.039239e-04
       29  4.789873e-05
       30 -1.988329e-05
       31 -3.876117e-05
       32 -6.672159e-05
       33 -1.706252e-05
       34 -2.655085e-05
       35  3.361416e-05
       36  7.775060e-05
       37  8.990615e-05
       38  1.968572e-05
       39 -4.780934e-05
       40 -6.156200e-05
       41 -5.276387e-05
       42 -2.749856e-06
       43  9.186221e-06
       44  9.880612e-06
       45 -6.297745e-06
       46 -1.560036e-05
       47  2.245517e-04
       48  6.913130e-05
       49  6.704547e-05
       50 -1.902316e-04
       51 -1.510105e-05
       52 -4.667895e-06
       53  6.099218e-05
       54  4.893481e-05
       55  5.773072e-05
       56  4.717617e-06
       57  9.349169e-07
       58 -4.101191e-05
       59 -3.437869e-05
       60 -2.840375e-05
       61  4.852149e-06
       62 -7.357003e-07
       63 -7.543274e-06
       64 -3.933351e-06
       65  1.287559e-05
       66  1.594052e-05
       67 -1.760696e-05
       68  4.338938e-05
       69  4.418322e-05
       70  1.386370e-04
       71  1.648488e-04
       72  3.303083e-04
       73  3.999729e-04
       74  3.252374e-04
       75  1.596982e-04
       76 -3.498204e-04
       77  4.697631e-05
       78 -1.195447e-03
       79 -8.947596e-04
       80 -1.644763e-03
       81 -2.565748e-04
       82 -1.712959e-04
       83  3.238126e-04
       84  1.286430e-04
       85  1.386518e-04
       86 -3.612236e-05
       87  1.889397e-05
       88  1.752245e-05
       89  3.764734e-05
       90  3.170069e-05
       91  4.668759e-05
       92  3.760503e-05
       93 -1.062026e-04
       94 -1.015345e-04
       95 -1.180001e-03
       96 -9.946521e-04
       97 -2.048686e-04
       98  1.660215e-03
       99  1.611485e-03
      100  1.517650e-03
      101  1.333801e-03
      102  1.122159e-03
      103  3.753772e-05
      104 -5.612175e-04
      105  8.027369e-04
      106  8.994334e-04
      107  6.514072e-04
      108 -4.771816e-04
      109 -2.863974e-04
      110 -6.919292e-05
      111 -9.284011e-05
      112 -2.562683e-05
      113  2.235067e-04
      114  1.437095e-04
      115  1.385937e-04
      116 -2.861030e-05
      117  1.595279e-04
      118  2.346262e-04
      119  1.457165e-04
      120  4.597250e-05
      121 -3.090705e-05
      122  3.989796e-05
      123  3.800934e-05
      124 -2.097452e-05
      125 -5.578730e-05
      126 -5.487698e-05
      127  2.218060e-05
      128  5.440503e-05
      129  6.682579e-05
      130  4.984648e-05
      131  8.000466e-05
      132  6.779735e-06
      133 -1.333081e-05
      134  1.660060e-04
      135  2.248600e-04
      136  2.766567e-04
      137  5.987508e-05
      138  6.204740e-05
      139  4.693848e-05
      140  1.570531e-05
      141  2.943925e-05
      142 -7.248035e-05
      143 -7.146652e-05
      144  5.208612e-05
      145  1.491513e-04
      146  4.881074e-04
      147  3.655181e-04
      148  3.545950e-04
      149  1.532693e-05
      150 -4.536618e-05
      151 -2.242485e-05
      152 -2.041796e-05
      153  5.468582e-05
      154  7.949123e-05
      155  8.072687e-05
      156  7.827266e-05
      157  0.000000e+00
      158  0.000000e+00
      159  0.000000e+00