pos          info
        0  3.591034e-05
        1  2.114645e-05
        2 -6.719586e-05
        3 -4.138282e-05
        4 -3.008493e-05
        5 -1.703369e-05
        6  7.322130e-05
        7  1.112369e-04
        8  9.975892e-05
        9  4.191133e-05
       10  4.675798e-06
       11  3.361603e-05
       12  9.275580e-06
       13 -3.604335e-05
       14 -9.807545e-05
       15 -1.084252e-04
       16 -7.175853e-05
       17 -3.458109e-05
       18  2.875145e-05
       19  5.238990e-05
       20  4.652707e-05
       21  4.202339e-06
       22 -1.156088e-04
       23 -1.414447e-04
       24 -1.286819e-04
       25 -1.192104e-05
       26  1.574449e-05
       27  1.175051e-05
       28 -9.450816e-06
       29  5.048186e-06
       30 -6.344321e-05
       31 -5.615708e-05
       32 -6.860146e-05
       33  4.770306e-06
       34  1.988186e-06
       35  3.344138e-05
       36  8.247678e-05
       37  8.353664e-05
       38  3.652922e-05
       39 -1.338095e-05
       40 -9.370430e-05
       41 -1.082977e-04
       42 -1.079518e-04
       43 -1.732595e-05
       44  7.235646e-06
       45 -2.316783e-05
       46 -3.100984e-06
       47  4.786396e-05
       48 -1.669686e-04
       49 -2.011600e-04
       50 -2.846103e-04
       51 -1.883563e-05
       52  7.882030e-06
       53  4.921557e-05
       54  2.920710e-05
       55  9.106287e-05
       56  8.484110e-05
       57  8.515412e-05
       58  3.631810e-07
       59 -4.246102e-06
       60 -5.471240e-06
       61 -9.912301e-06
       62 -2.313974e-05
       63 -4.847586e-05
       64 -3.132417e-05
       65 -7.716550e-06
       66  3.248272e-05
       67  1.112609e-05
       68  1.688939e-04
       69  1.590401e-04
       70  1.867626e-04
       71  2.054742e-04
       72  4.044604e-04
       73  5.907897e-04
       74  4.085459e-04
       75  2.367295e-04
       76 -8.383140e-05
       77  7.254282e-04
       78 -6.749639e-04
       79 -7.280370e-04
       80 -1.803655e-03
       81 -3.439118e-04
       82 -8.890141e-05
       83  3.122831e-04
       84  2.209974e-04
       85  1.264277e-04
       86 -4.736786e-06
       87  2.394857e-05
       88  4.213353e-05
       89  4.007384e-05
       90  1.167716e-05
       91  1.888151e-05
       92  4.295589e-05
       93 -3.003096e-05
       94 -4.357656e-05
       95 -8.029456e-04
       96 -5.948368e-04
       97  1.962244e-04
       98  1.615935e-03
       99  1.461918e-03
      100  1.182347e-03
      101  1.033744e-03
      102  6.696583e-04
      103 -3.540547e-04
      104 -9.282637e-04
      105  7.249416e-04
      106  1.001728e-03
      107  5.421010e-04
      108 -7.303118e-04
      109 -5.354857e-04
      110 -6.861065e-05
      111 -8.707224e-05
      112 -3.066741e-05
      113  3.983020e-05
      114 -4.217873e-05
      115 -6.052631e-05
      116 -8.635479e-05
      117  3.215964e-05
      118  7.792941e-05
      119 -3.251646e-06
      120 -1.691951e-05
      121 -6.437798e-05
      122 -2.160411e-06
      123 -4.556491e-06
      124 -3.715532e-07
      125 -4.526523e-06
      126  5.165465e-06
      127  4.817160e-05
      128  1.672905e-04
      129  2.573554e-04
      130  2.101799e-04
      131  2.359161e-04
      132  4.764394e-05
      133 -2.095217e-05
      134 -8.218154e-05
      135  5.444954e-06
      136  1.305486e-04
      137  1.988195e-04
      138  2.037575e-04
      139  1.950874e-04
      140 -1.994044e-08
      141  4.690176e-05
      142 -5.166057e-05
      143  1.917588e-05
      144  1.052162e-04
      145  1.854283e-04
      146  7.076058e-04
      147  5.930742e-04
      148  5.481710e-04
      149  2.962281e-05
      150  7.716308e-06
      151  2.313478e-05
      152  3.123254e-05
      153  5.959511e-05
      154  3.241442e-04
      155  3.024163e-04
      156  3.570098e-04
      157  0.000000e+00
      158  0.000000e+00
      159  0.000000e+00