pos          info
        0 -4.450954e-06
        1 -1.734484e-05
        2  4.653125e-06
        3  3.184011e-05
        4  3.894419e-07
        5  5.819929e-05
        6 -5.321847e-05
        7 -1.364547e-05
        8 -2.880945e-04
        9 -1.324347e-04
       10 -1.778726e-05
       11 -2.813879e-05
       12 -2.958913e-05
       13 -3.924239e-05
       14  1.738914e-04
       15  4.496033e-04
       16  2.274176e-04
       17  2.126749e-04
       18  2.371530e-05
       19 -2.006136e-04
       20 -1.743522e-05
       21 -2.616415e-05
       22  1.101939e-08
       23  1.329810e-04
       24  1.003932e-04
       25  1.585572e-04
       26 -2.900285e-05
       27  5.038793e-06
       28 -8.426280e-05
       29  2.744167e-05
       30 -2.044129e-05
       31 -2.739014e-04
       32  1.930351e-04
       33 -1.134549e-05
       34  7.987717e-10
       35  7.529267e-06
       36  1.098722e-05
       37 -7.713257e-05
       38 -1.016856e-04
       39  6.782483e-05
       40  6.014484e-05
       41  2.131872e-05
       42  3.088473e-04
       43  4.351514e-05
       44 -7.087685e-05
       45  2.735264e-05
       46  1.135734e-06
       47  6.558945e-05
       48 -1.885244e-06
       49 -2.689411e-04
       50  4.840212e-04
       51  7.081240e-05
       52 -4.118440e-07
       53 -4.214070e-05
       54  1.771672e-08
       55 -1.062434e-05
       56 -4.865824e-05
       57 -1.114963e-04
       58  1.763270e-04
       59  4.319448e-05
       60  5.791437e-05
       61 -8.664803e-06
       62 -5.796950e-07
       63 -1.105948e-05
       64  7.879953e-05
       65 -3.170828e-07
       66 -6.472483e-05
       67 -6.322484e-05
       68  2.439069e-05
       69  6.318723e-08
       70 -6.567163e-04
       71  6.185019e-06
       72 -4.485813e-05
       73 -4.936736e-04
       74 -2.768292e-04
       75 -1.073339e-03
       76 -1.720723e-06
       77  5.079170e-08
       78  6.502793e-04
       79 -2.116122e-03
       80  4.127718e-03
       81  4.627553e-04
       82  1.039135e-03
       83 -1.420880e-04
       84 -1.028781e-04
       85 -6.523385e-04
       86 -1.443291e-05
       87 -2.137777e-05
       88 -1.390856e-05
       89  6.089269e-06
       90 -3.829179e-04
       91 -2.028241e-05
       92 -1.036137e-04
       93 -1.937024e-05
       94 -5.493808e-05
       95  5.661007e-04
       96 -5.455397e-05
       97  1.776878e-03
       98 -2.555458e-04
       99 -1.838398e-03
      100 -1.686715e-03
      101  9.007774e-06
      102 -1.558194e-03
      103 -1.421482e-03
      104  4.006165e-04
      105  1.080137e-03
      106 -5.226443e-05
      107 -3.598374e-03
      108  1.298735e-03
      109  6.203540e-04
      110 -2.387314e-05
      111  2.243163e-04
      112  8.318950e-06
      113  1.691256e-06
      114 -7.936201e-05
      115 -3.376579e-04
      116  4.926909e-04
      117  4.754939e-06
      118 -8.433064e-05
      119 -9.869556e-05
      120 -7.123497e-05
      121  2.057316e-04
      122 -8.473167e-05
      123 -8.022779e-05
      124 -3.483477e-05
      125  9.056716e-06
      126  7.027947e-05
      127 -1.356656e-05
      128 -2.664147e-05
      129 -2.975235e-05
      130 -1.586752e-04
      131 -1.443465e-04
      132  1.009581e-05
      133 -2.757846e-04
      134  3.126218e-04
      135  6.917952e-05
      136 -1.053918e-04
      137  1.920380e-05
      138 -4.407023e-05
      139 -3.358192e-04
      140  3.410837e-05
      141 -5.106271e-05
      142 -2.815307e-06
      143 -1.141888e-04
      144  3.674381e-05
      145 -3.051439e-06
      146 -6.708887e-04
      147 -1.763086e-04
      148 -1.037903e-03
      149 -5.360482e-05
      150 -9.778026e-05
      151 -1.462825e-05
      152 -4.483922e-05
      153 -3.122633e-04
      154 -1.808330e-04
      155 -2.342297e-04
      156 -6.287081e-04
      157 -3.016610e-08
      158 -2.859972e-05
      159 -3.733706e-05