pos          info
        0  1.985270e-05
        1  2.624686e-04
        2 -1.745903e-04
        3 -2.443895e-05
        4 -2.558301e-06
        5 -9.715121e-05
        6  9.454723e-06
        7  3.659541e-05
        8  1.736138e-04
        9  1.235014e-04
       10  2.161559e-06
       11  7.102168e-08
       12  1.179481e-05
       13  8.898224e-05
       14 -7.295032e-05
       15 -1.241620e-04
       16 -9.711406e-05
       17 -1.039995e-04
       18 -1.416207e-05
       19  1.441827e-05
       20  8.599814e-05
       21  5.675328e-05
       22 -3.170207e-06
       23 -4.097606e-05
       24 -3.026802e-04
       25 -8.067771e-05
       26 -2.687840e-06
       27  4.760244e-05
       28  2.318869e-06
       29 -1.466979e-05
       30 -1.600153e-05
       31  4.581588e-05
       32 -2.201440e-04
       33  5.856864e-06
       34  8.482730e-06
       35 -2.867730e-08
       36 -2.489493e-06
       37  1.028423e-04
       38  1.470775e-04
       39  6.900774e-07
       40 -3.817995e-05
       41 -2.652970e-06
       42 -2.402800e-04
       43 -8.196006e-05
       44 -1.615314e-06
       45  3.159753e-05
       46 -8.275281e-06
       47 -9.282573e-05
       48  9.179806e-05
       49  1.446195e-04
       50 -7.373234e-04
       51 -1.077600e-05
       52 -1.057316e-04
       53  6.000074e-05
       54  6.937697e-05
       55  1.826900e-05
       56 -2.465683e-08
       57  2.549443e-04
       58 -3.963277e-07
       59  9.144272e-07
       60  5.714436e-07
       61 -1.422418e-05
       62 -2.760987e-06
       63 -1.275174e-05
       64 -5.390650e-05
       65 -7.876935e-05
       66  3.870335e-05
       67  1.691635e-05
       68  4.182845e-05
       69 -2.536654e-05
       70  4.902199e-04
       71  1.226703e-05
       72  5.780077e-05
       73  5.463546e-04
       74  6.092256e-04
       75  6.167887e-04
       76 -3.765477e-07
       77  9.377638e-05
       78 -3.448940e-04
       79  2.427402e-03
       80 -4.107400e-03
       81 -5.041133e-04
       82 -7.994521e-04
       83  2.718300e-04
       84  2.609178e-04
       85  4.041013e-04
       86 -2.026961e-06
       87 -2.279139e-05
       88  1.060799e-05
       89  8.402910e-05
       90  3.176350e-05
       91  4.428913e-06
       92 -1.160946e-06
       93  5.337657e-05
       94  7.665206e-05
       95 -2.201215e-04
       96  1.273979e-05
       97 -2.201455e-03
       98  4.042048e-04
       99  2.385923e-03
      100  2.057675e-03
      101 -5.784588e-05
      102  1.547211e-03
      103  1.611867e-03
      104 -1.150103e-03
      105 -1.523928e-03
      106 -1.107600e-04
      107  3.809513e-03
      108 -6.935692e-04
      109 -1.489641e-03
      110 -7.725791e-06
      111 -1.090907e-04
      112 -8.901544e-05
      113 -6.311057e-05
      114  6.012377e-05
      115  1.224774e-04
      116 -3.091374e-04
      117  5.081026e-06
      118  4.499196e-05
      119  4.640593e-05
      120  1.423903e-04
      121 -1.985512e-04
      122  5.402352e-06
      123  1.492401e-08
      124 -1.189851e-05
      125 -1.785885e-06
      126  1.256974e-05
      127 -2.436342e-05
      128  2.729008e-05
      129  1.415881e-04
      130  3.329932e-04
      131  2.974847e-04
      132  6.161888e-08
      133  4.102018e-04
      134 -2.673316e-04
      135 -2.057267e-04
      136  2.265137e-04
      137 -4.452093e-06
      138  1.695844e-04
      139  4.313264e-04
      140  1.036165e-05
      141  1.435742e-04
      142 -1.539956e-04
      143  1.511267e-04
      144 -1.521128e-04
      145  5.851371e-05
      146  4.092478e-04
      147  8.852343e-05
      148  1.625046e-03
      149  6.565282e-05
      150 -4.618616e-05
      151  6.940178e-05
      152 -6.669242e-08
      153  6.926216e-08
      154  9.369504e-05
      155  8.502103e-05
      156  7.937165e-04
      157  2.851122e-05
      158  2.488016e-04
      159 -8.933889e-06