pos          info
        0 -1.757867e-06
        1  1.610069e-04
        2  2.302414e-05
        3 -1.917014e-04
        4 -2.539875e-06
        5  4.283151e-06
        6 -7.075949e-05
        7  1.463228e-05
        8 -6.003868e-05
        9  4.815724e-05
       10  2.826828e-04
       11 -3.199632e-05
       12 -5.754544e-06
       13  1.962873e-04
       14 -1.749352e-05
       15 -2.989094e-04
       16 -2.681187e-05
       17 -5.708221e-05
       18 -9.914011e-05
       19  1.447520e-04
       20 -1.106279e-04
       21  6.716374e-05
       22 -6.044121e-05
       23 -3.843405e-04
       24 -1.169774e-05
       25 -9.176382e-05
       26  7.841867e-05
       27  1.342137e-04
       28  8.318532e-05
       29  4.038168e-05
       30  7.929980e-05
       31  8.955874e-05
       32 -5.174928e-05
       33  1.523668e-05
       34 -5.505163e-06
       35 -3.839592e-05
       36  1.109294e-04
       37  4.444980e-04
       38  2.742392e-08
       39  3.391417e-05
       40  2.415287e-06
       41  1.055079e-04
       42 -7.453557e-05
       43  5.015379e-05
       44 -7.004266e-05
       45  1.589637e-04
       46 -5.006835e-05
       47 -7.237586e-05
       48  1.302669e-04
       49  1.610829e-04
       50 -3.307532e-05
       51 -1.808675e-05
       52  1.321758e-04
       53  1.281752e-05
       54  7.534733e-05
       55  9.626094e-05
       56  2.418476e-04
       57  2.593965e-04
       58 -1.897643e-06
       59 -1.238184e-05
       60  7.421225e-05
       61 -1.680921e-08
       62 -2.322896e-04
       63  3.104140e-05
       64 -4.366029e-06
       65  5.925331e-06
       66 -2.758558e-05
       67  3.291420e-05
       68  9.311197e-06
       69 -3.602493e-04
       70 -1.145656e-06
       71  3.345828e-08
       72  4.667261e-04
       73  1.154889e-05
       74  4.311259e-04
       75  2.273615e-04
       76  4.227911e-05
       77  1.771721e-05
       78 -2.065884e-04
       79  6.122846e-04
       80 -2.728971e-03
       81 -1.140036e-05
       82 -5.989040e-04
       83  1.974186e-04
       84 -2.021374e-04
       85  4.715099e-04
       86  9.329120e-05
       87  5.867888e-04
       88  4.065919e-06
       89 -1.340636e-05
       90 -6.529671e-05
       91 -2.782295e-05
       92  1.414347e-04
       93  7.017973e-05
       94 -2.000487e-05
       95  3.503626e-05
       96  9.567014e-05
       97 -1.765701e-03
       98  6.180534e-05
       99  4.679217e-04
      100  4.212931e-04
      101 -1.058617e-04
      102  1.248194e-03
      103  2.204046e-04
      104 -8.150657e-05
      105 -4.052750e-04
      106 -5.768653e-06
      107  3.057745e-04
      108 -4.565999e-05
      109 -5.584106e-04
      110  1.016287e-04
      111  4.302210e-07
      112 -4.853695e-04
      113 -3.576902e-05
      114  5.776792e-05
      115  3.038467e-04
      116 -2.932386e-04
      117  2.046022e-05
      118  3.728818e-04
      119  1.449124e-04
      120  7.780534e-05
      121 -2.461919e-04
      122  4.038102e-05
      123 -9.251616e-06
      124  1.853279e-05
      125  1.017796e-04
      126 -1.397526e-05
      127 -2.433922e-06
      128 -3.029386e-07
      129  2.070243e-05
      130 -9.327847e-05
      131  1.949371e-04
      132 -1.361654e-06
      133  1.715752e-05
      134 -2.543203e-04
      135 -9.074206e-05
      136  2.016308e-04
      137 -7.660358e-06
      138  1.858258e-04
      139  6.303530e-05
      140 -3.278676e-05
      141 -1.466329e-09
      142  2.496135e-04
      143  1.990600e-07
      144 -2.803410e-04
      145  5.387941e-05
      146  7.995915e-06
      147  4.020475e-04
      148  1.731556e-04
      149  1.805785e-04
      150  5.451778e-04
      151  1.012983e-04
      152 -2.477344e-06
      153  3.246980e-05
      154 -1.006787e-04
      155 -1.333419e-06
      156  3.136602e-06
      157 -9.319559e-08
      158  5.684754e-05
      159  6.951378e-05