pos          info
        0  1.859726e-05
        1 -1.505981e-05
        2 -4.553060e-05
        3 -3.442310e-05
        4 -4.973352e-05
        5  1.732803e-05
        6  6.832502e-05
        7  8.024311e-05
        8  2.378573e-05
        9  3.653552e-05
       10  2.916976e-05
       11  4.915804e-05
       12  1.433786e-04
       13  1.364737e-04
       14  1.205089e-04
       15  9.803518e-06
       16 -3.968015e-05
       17  2.835546e-05
       18  2.954119e-05
       19  9.305492e-05
       20 -5.189638e-06
       21 -3.504440e-06
       22 -1.459217e-05
       23  2.139561e-05
       24  6.781202e-05
       25  5.513413e-05
       26  8.218362e-05
       27  1.497413e-05
       28  6.897351e-05
       29 -1.553775e-04
       30 -1.031625e-04
       31 -1.120615e-04
       32  6.111813e-05
       33  6.372304e-05
       34  3.815006e-05
       35  4.273735e-05
       36 -1.053494e-04
       37 -1.596599e-04
       38 -1.425295e-04
       39 -3.148949e-05
       40  1.506396e-05
       41  8.437826e-05
       42  1.150793e-04
       43  1.458624e-04
       44  5.938776e-05
       45  3.071983e-05
       46  1.422245e-05
       47  6.211758e-05
       48  8.223451e-05
       49  8.113608e-05
       50  2.458429e-05
       51  9.543666e-05
       52 -7.895759e-05
       53 -2.115983e-05
       54  6.298936e-05
       55  2.277293e-04
       56  1.651002e-04
       57 -1.582972e-05
       58 -4.824168e-05
       59 -2.678311e-05
       60 -1.945358e-05
       61  2.567502e-05
       62 -1.729974e-07
       63 -3.862590e-05
       64 -7.236537e-05
       65 -5.936504e-05
       66 -1.581321e-04
       67 -1.214247e-04
       68 -1.368215e-04
       69  6.923347e-07
       70  9.665666e-05
       71  1.168564e-04
       72  5.144396e-05
       73 -1.903418e-04
       74 -2.276424e-04
       75 -1.696676e-04
       76 -1.505212e-04
       77  3.746222e-04
       78  5.405398e-04
       79  9.447452e-04
       80  3.205479e-05
       81 -1.359320e-04
       82 -4.856993e-04
       83 -7.393189e-05
       84 -5.658230e-05
       85 -6.756878e-06
       86  5.525710e-06
       87 -6.000403e-06
       88 -5.820922e-06
       89 -1.966910e-06
       90  3.349888e-06
       91  1.566598e-04
       92  1.923066e-04
       93  2.121846e-04
       94  8.395218e-05
       95  1.002517e-04
       96  1.405757e-04
       97  3.654080e-05
       98  2.575145e-04
       99  2.110313e-04
      100  6.600662e-04
      101 -4.278075e-04
      102 -1.503612e-04
      103 -5.211738e-04
      104  4.277590e-04
      105  2.762746e-04
      106  2.810612e-04
      107  1.504508e-04
      108  3.614532e-05
      109 -5.319132e-04
      110 -5.396773e-04
      111 -5.336101e-04
      112  3.928412e-05
      113  4.053306e-05
      114 -3.956605e-06
      115 -5.919586e-05
      116  4.032421e-05
      117 -1.010038e-04
      118 -2.261137e-04
      119 -3.500896e-04
      120 -2.005628e-04
      121 -1.799741e-05
      122  6.742727e-05
      123 -2.708518e-07
      124 -3.498150e-05
      125 -1.036430e-04
      126  6.285623e-06
      127  2.931019e-05
      128 -2.807768e-05
      129 -2.398021e-05
      130 -2.012934e-05
      131  4.509619e-05
      132 -6.626090e-05
      133 -6.285133e-05
      134 -3.404444e-05
      135  2.082530e-05
      136  1.379634e-05
      137 -1.690060e-05
      138 -1.426633e-05
      139  4.371818e-06
      140 -1.466604e-05
      141  3.501946e-05
      142  2.240708e-05
      143  3.116451e-05
      144 -1.782798e-05
      145 -6.083140e-04
      146 -6.087274e-04
      147 -5.984827e-04
      148 -8.393769e-06
      149 -6.144409e-05
      150 -6.344299e-05
      151  5.132572e-05
      152  6.094017e-05
      153  8.094903e-05
      154  2.295067e-05
      155  7.697254e-05
      156  5.858911e-05
      157  0.000000e+00
      158  0.000000e+00
      159  0.000000e+00