pos          info
        0  1.721742e-04
        1 -1.369946e-07
        2  1.859269e-07
        3  3.778443e-06
        4  8.579981e-06
        5 -1.032252e-04
        6  6.417171e-08
        7  1.023181e-04
        8  1.763929e-05
        9  7.363112e-06
       10  2.933259e-06
       11  4.011898e-05
       12  1.051478e-04
       13  8.902256e-05
       14  1.545806e-04
       15 -8.862138e-05
       16  2.183488e-05
       17 -1.201705e-05
       18 -3.797178e-05
       19  2.244586e-04
       20  4.702095e-05
       21  7.791835e-05
       22 -1.952232e-05
       23 -4.687207e-05
       24  9.371112e-05
       25  7.227443e-05
       26  1.986278e-04
       27  2.225336e-08
       28  8.191613e-07
       29 -1.078289e-04
       30  4.907750e-05
       31 -2.723986e-04
       32  2.743923e-06
       33  2.250012e-04
       34  1.518361e-05
       35  7.263870e-05
       36  7.020985e-05
       37  1.223337e-04
       38 -1.151963e-04
       39  2.939797e-07
       40  1.155777e-04
       41  9.947110e-06
       42  1.065451e-05
       43  2.671026e-05
       44  4.515512e-05
       45  3.781502e-05
       46  1.207443e-04
       47 -1.225453e-06
       48  1.207006e-04
       49  2.015692e-04
       50  2.549951e-07
       51 -6.550568e-06
       52 -4.900413e-06
       53  1.545178e-04
       54 -1.217188e-04
       55  5.482244e-05
       56  4.094617e-04
       57  9.364484e-06
       58 -1.604249e-04
       59 -4.169129e-06
       60 -3.585300e-05
       61  1.509050e-05
       62  1.518974e-05
       63 -3.144520e-07
       64 -7.177598e-05
       65  1.303880e-05
       66 -4.705490e-05
       67 -3.825981e-05
       68 -4.708171e-04
       69  3.494007e-06
       70 -2.486541e-06
       71  4.725721e-05
       72  2.033016e-05
       73  1.037745e-07
       74 -4.356390e-04
       75 -3.397947e-04
       76 -1.755803e-04
       77  1.488967e-05
       78 -2.486743e-05
       79  5.900151e-04
       80  4.550856e-04
       81  2.180299e-04
       82 -1.124457e-03
       83 -2.385851e-06
       84 -9.700560e-05
       85 -1.141249e-05
       86  1.730691e-07
       87 -6.892838e-05
       88  3.725660e-05
       89 -1.474163e-05
       90 -1.518786e-05
       91  4.385253e-05
       92  6.689067e-05
       93  1.016305e-05
       94  1.446234e-04
       95  1.472643e-05
       96  1.722396e-04
       97  1.613929e-04
       98  2.426459e-04
       99 -3.112152e-05
      100  3.433361e-04
      101  8.574955e-07
      102  8.508811e-04
      103 -1.789580e-03
      104  6.848759e-04
      105 -5.926628e-05
      106  3.428148e-04
      107  7.115303e-04
      108 -7.203826e-05
      109  8.021770e-06
      110  5.937670e-05
      111 -1.592777e-03
      112  1.846892e-06
      113  2.033818e-06
      114  4.855736e-05
      115  3.485836e-06
      116 -6.145863e-07
      117 -7.358489e-05
      118  3.102532e-04
      119 -6.007895e-04
      120 -2.457134e-04
      121 -2.486577e-04
      122 -2.104265e-04
      123  1.469373e-05
      124  8.499271e-06
      125 -2.080393e-04
      126 -5.429785e-05
      127 -8.725479e-05
      128 -5.152760e-06
      129 -4.299723e-05
      130 -2.420975e-04
      131  1.544764e-04
      132 -1.080092e-05
      133 -5.527748e-06
      134 -8.097234e-05
      135  3.235955e-05
      136  4.008140e-05
      137 -1.943937e-05
      138  1.056842e-05
      139 -2.218281e-05
      140 -5.232787e-05
      141  9.671983e-05
      142 -9.126783e-05
      143  5.593455e-04
      144  1.055608e-05
      145 -3.655250e-06
      146 -4.287067e-05
      147 -2.947957e-03
      148  1.198758e-05
      149  8.035645e-06
      150 -1.078853e-04
      151 -6.876534e-04
      152  4.469988e-05
      153  2.704293e-04
      154 -1.473837e-04
      155  1.149556e-04
      156  1.729824e-05
      157 -7.586863e-06
      158  3.751440e-05
      159 -1.535724e-04