pos          info
        0 -1.427264e-04
        1 -9.675718e-05
        2  8.076902e-05
        3 -5.075554e-05
        4 -3.198872e-05
        5  1.054023e-04
        6  8.100598e-07
        7 -4.830826e-05
        8  8.012394e-06
        9  6.777438e-06
       10 -9.188234e-06
       11 -5.780977e-05
       12 -1.683233e-05
       13 -2.157076e-04
       14 -3.325148e-04
       15  2.868259e-07
       16 -3.050218e-06
       17  1.900195e-05
       18  1.370030e-04
       19 -8.768194e-05
       20 -2.415189e-06
       21 -4.440158e-06
       22 -2.806993e-06
       23 -1.935691e-07
       24 -4.506681e-05
       25 -1.012121e-04
       26 -2.580732e-04
       27  3.886936e-06
       28 -1.066083e-04
       29  4.976657e-05
       30 -5.058420e-05
       31  4.430631e-04
       32 -2.577744e-05
       33 -4.035887e-04
       34  1.574768e-06
       35 -1.738420e-04
       36 -1.049455e-04
       37 -9.439331e-06
       38  1.273274e-04
       39  2.815342e-06
       40 -1.918423e-05
       41  1.534691e-05
       42 -4.696766e-06
       43 -1.195115e-04
       44 -9.976105e-05
       45 -6.732934e-05
       46 -1.075709e-04
       47 -3.948763e-07
       48 -1.272960e-04
       49 -5.077175e-07
       50 -3.120685e-05
       51 -2.786369e-06
       52  1.846457e-05
       53 -2.112818e-04
       54  6.040242e-04
       55 -1.416770e-04
       56 -5.033786e-04
       57  3.746954e-10
       58  1.436993e-05
       59  4.790383e-06
       60  2.523209e-05
       61 -3.049487e-06
       62 -6.175282e-07
       63 -6.143119e-06
       64  3.686316e-05
       65  1.978150e-04
       66  7.311961e-05
       67  1.322517e-06
       68  3.935032e-04
       69 -1.633391e-04
       70  7.611222e-05
       71 -2.960103e-05
       72 -2.052044e-04
       73 -1.594755e-04
       74  1.567987e-04
       75  3.675531e-04
       76  1.349772e-04
       77  1.431544e-05
       78  4.679895e-05
       79 -1.123548e-03
       80 -5.596460e-04
       81 -7.095849e-04
       82  1.020586e-03
       83  1.016699e-06
       84  1.519032e-04
       85 -4.214355e-06
       86 -8.283909e-06
       87  1.322530e-04
       88  2.961998e-06
       89  7.281456e-06
       90  1.515518e-10
       91 -3.194670e-05
       92  1.055188e-06
       93 -7.923138e-05
       94 -2.117954e-04
       95 -7.666444e-06
       96 -1.126415e-04
       97 -3.407158e-04
       98 -3.645018e-04
       99  1.676366e-04
      100 -6.242853e-04
      101 -3.239422e-05
      102 -1.051018e-03
      103  2.362886e-03
      104 -9.327170e-04
      105  3.624946e-05
      106 -4.615611e-04
      107 -6.641277e-04
      108 -8.649682e-07
      109 -3.387786e-05
      110 -8.633053e-05
      111  1.884003e-03
      112 -8.484756e-06
      113 -4.150680e-05
      114 -5.346445e-06
      115  4.928147e-07
      116  2.129053e-05
      117  1.033629e-04
      118 -4.886907e-04
      119  3.785467e-04
      120  3.065983e-04
      121  4.999458e-05
      122  4.194569e-05
      123 -5.182122e-05
      124 -1.423339e-05
      125  1.100067e-04
      126  3.960466e-06
      127 -2.008660e-08
      128 -4.217168e-05
      129  2.374268e-05
      130  3.234914e-04
      131 -1.560722e-04
      132  2.414695e-05
      133  1.805056e-06
      134  4.440715e-04
      135 -1.248753e-05
      136 -3.917972e-05
      137  1.182453e-04
      138 -3.458683e-06
      139 -6.603414e-08
      140  2.026220e-05
      141 -4.326582e-07
      142  6.059541e-05
      143 -2.312064e-04
      144  1.126030e-06
      145  8.443008e-05
      146  1.649227e-06
      147  1.701637e-03
      148  1.249615e-05
      149  1.344734e-06
      150  3.608218e-06
      151  1.009334e-04
      152 -4.369331e-06
      153 -4.434938e-04
      154  1.945049e-04
      155 -1.470767e-04
      156 -1.662669e-04
      157  6.795559e-06
      158 -2.800936e-06
      159  9.626800e-05