pos          info
        0  5.338693e-06
        1  5.192429e-06
        2 -4.938790e-06
        3 -4.664476e-07
        4 -4.429674e-06
        5  5.983268e-06
        6 -4.379830e-06
        7 -4.501364e-07
        8 -2.832988e-05
        9 -4.016219e-05
       10 -2.367828e-05
       11  6.359271e-06
       12  2.557862e-05
       13  5.138701e-06
       14 -3.072605e-05
       15 -3.776623e-05
       16 -4.074579e-05
       17  1.293119e-05
       18 -2.268123e-06
       19  8.454509e-06
       20 -1.166646e-05
       21  5.289191e-06
       22  1.227786e-06
       23  1.381497e-06
       24  2.185234e-05
       25  2.241086e-05
       26  2.392204e-05
       27  1.968385e-06
       28 -7.488703e-06
       29 -1.056771e-05
       30 -1.113649e-05
       31 -2.521636e-06
       32 -5.728483e-07
       33 -1.164026e-06
       34 -2.935126e-06
       35 -2.658734e-06
       36 -3.296798e-06
       37 -8.473312e-07
       38  4.268737e-05
       39  3.540103e-05
       40  8.123753e-05
       41  3.697261e-05
       42  4.335798e-05
       43 -2.469309e-06
       44  6.347268e-06
       45  4.794906e-05
       46  4.520432e-05
       47  3.599973e-05
       48 -6.764507e-06
       49 -3.858216e-06
       50 -1.529850e-05
       51 -1.371107e-05
       52 -1.716309e-05
       53 -7.413444e-06
       54 -6.427310e-06
       55 -3.219084e-06
       56  3.469893e-06
       57  3.016835e-05
       58  1.296821e-05
       59  3.302280e-06
       60 -1.851681e-05
       61  2.400326e-06
       62  6.180737e-05
       63  6.695257e-05
       64  6.608895e-05
       65 -4.670889e-06
       66 -1.339313e-05
       67  1.592633e-05
       68  3.237582e-05
       69  3.196099e-05
       70  5.824013e-06
       71  5.780160e-06
       72  3.550148e-07
       73 -8.251452e-06
       74 -1.237797e-05
       75 -6.738469e-06
       76  4.815987e-05
       77  4.982264e-05
       78  4.602277e-05
       79  5.479580e-06
       80  7.658347e-06
       81  6.239261e-06
       82  6.156090e-07
       83  1.322773e-06
       84  1.449857e-05
       85  7.337786e-05
       86  7.300888e-05
       87  6.617515e-05
       88  3.159304e-06
       89 -2.106152e-06
       90 -3.274269e-06
       91 -9.352387e-06
       92  6.486715e-06
       93  4.485191e-06
       94  8.345878e-06
       95 -5.774503e-06
       96 -3.649142e-06
       97 -6.525934e-06
       98 -1.172695e-05
       99  7.255287e-06
      100  9.635827e-06
      101  1.723006e-05
      102 -1.498916e-06
      103  1.465473e-05
      104  1.633275e-05
      105  1.589693e-05
      106  2.014608e-06
      107  1.598511e-06
      108  1.525436e-06
      109 -3.907411e-07
      110 -6.127003e-06
      111 -1.610052e-05
      112 -2.133953e-05
      113 -1.435358e-05
      114 -1.326729e-05
      115 -2.416880e-06
      116 -3.753208e-06
      117  1.789767e-05
      118  7.350346e-06
      119  4.662689e-06
      120 -9.720765e-06
      121 -1.188406e-05
      122 -1.508007e-05
      123 -1.330801e-05
      124 -1.497767e-05
      125 -1.016794e-05
      126 -1.117555e-05
      127 -4.678284e-06
      128 -6.902591e-06
      129 -9.118685e-06
      130 -6.438486e-06
      131  5.353765e-05
      132  5.683836e-05
      133  3.338896e-05
      134 -2.331856e-05
      135 -2.247375e-05
      136  3.712638e-06
      137  9.077947e-05
      138  8.643358e-05
      139  7.649785e-05
      140 -1.599469e-05
      141 -1.329622e-05
      142 -1.134129e-07
      143 -2.912252e-05
      144  2.856128e-05
      145 -7.885627e-05
      146 -4.444867e-05
      147 -1.036882e-04
      148  1.912806e-05
      149  8.452452e-06
      150  3.033343e-05
      151  5.483389e-06
      152 -1.050510e-04
      153 -1.280462e-04
      154 -1.182959e-04
      155  3.050319e-05
      156  6.860172e-05
      157  0.000000e+00
      158  0.000000e+00
      159  0.000000e+00