pos       info
        0   0.000143
        1  -0.000011
        2  -0.000115
        3   0.000134
        4   0.000115
        5   0.000170
        6  -0.000074
        7  -0.000088
        8  -0.000097
        9  -0.000108
       10  -0.000067
       11   0.000015
       12   0.000055
       13   0.000041
       14   0.000148
       15   0.000105
       16   0.000162
       17   0.000238
       18   0.000235
       19   0.000008
       20  -0.000200
       21  -0.000210
       22  -0.000120
       23  -0.000070
       24  -0.000046
       25   0.000078
       26   0.000042
       27   0.000024
       28  -0.000033
       29   0.000060
       30   0.000166
       31   0.000168
       32   0.000095
       33   0.000007
       34   0.000031
       35   0.000012
       36   0.000089
       37   0.000009
       38   0.000043
       39  -0.000016
       40  -0.000203
       41  -0.000229
       42  -0.000254
       43   0.000035
       44   0.000081
       45   0.000077
       46   0.000030
       47   0.000013
       48   0.000070
       49   0.000073
       50   0.000080
       51   0.000047
       52   0.000015
       53  -0.000014
       54   0.000206
       55   0.000236
       56   0.000231
       57   0.000042
       58   0.000041
       59   0.000045
       60  -0.000019
       61  -0.000051
       62  -0.000050
       63  -0.000120
       64  -0.000116
       65  -0.000112
       66  -0.000023
       67   0.000004
       68   0.000006
       69   0.000030
       70   0.000032
       71   0.000035
       72   0.000010
       73  -0.000005
       74  -0.000012
       75  -0.000013
       76   0.000002
       77   0.000037
       78   0.000057
       79   0.000057
       80  -0.000079
       81  -0.000108
       82  -0.000140
       83  -0.000108
       84  -0.000173
       85  -0.000186
       86  -0.000176
       87  -0.000113
       88  -0.000058
       89  -0.000005
       90   0.000015
       91   0.000014
       92  -0.000068
       93  -0.000031
       94  -0.000041
       95   0.000029
       96  -0.000018
       97  -0.000020
       98   0.000011
       99  -0.000004
      100  -0.000051
      101  -0.000055
      102  -0.000077
      103  -0.000089
      104  -0.000168
      105  -0.000144
      106  -0.000083
      107  -0.000015
      108   0.000020
      109   0.000024
      110  -0.000030
      111   0.000056
      112  -0.000238
      113  -0.000211
      114  -0.000227
      115   0.000144
      116   0.000180
      117  -0.000127
      118  -0.000206
      119  -0.000257
      120  -0.000055
      121  -0.000038
      122  -0.000131
      123  -0.000095
      124  -0.000025
      125   0.000227
      126   0.000204
      127   0.000149
      128   0.000101
      129   0.000168
      130   0.000095
      131   0.000053
      132   0.000041
      133   0.000056
      134   0.000056
      135  -0.000029
      136  -0.000011
      137  -0.000084
      138  -0.000047
      139  -0.000045
      140   0.000056
      141   0.000051
      142   0.000039
      143   0.000026
      144   0.000008
      145   0.000027
      146   0.000119
      147   0.000153
      148  -0.000027
      149  -0.000177
      150  -0.000214
      151  -0.000040
      152   0.000062
      153   0.000127
      154   0.000138
      155   0.000085
      156   0.000037
      157   0.000000
      158   0.000000
      159   0.000000