pos          info
        0  2.121898e-05
        1  1.682204e-05
        2  2.275897e-07
        3  2.495399e-06
        4  6.251094e-06
        5  6.216775e-05
        6  2.872669e-05
        7  3.578584e-07
        8 -1.705509e-05
        9 -1.258154e-04
       10 -3.537032e-05
       11  5.022902e-06
       12 -9.803802e-05
       13  1.536097e-04
       14 -3.027784e-05
       15  4.975258e-05
       16 -4.330799e-05
       17  9.606407e-05
       18 -2.637545e-05
       19  7.546854e-08
       20  1.220063e-05
       21 -2.065433e-04
       22  7.369080e-05
       23  1.094072e-06
       24 -3.252801e-05
       25 -8.223132e-06
       26 -2.044627e-05
       27  1.069054e-07
       28 -9.374791e-06
       29 -6.839413e-05
       30 -8.080628e-06
       31 -2.021929e-04
       32 -6.375204e-05
       33 -2.154493e-04
       34 -7.000571e-07
       35 -6.926490e-08
       36  2.780861e-05
       37  1.233938e-06
       38 -1.002976e-04
       39  4.699849e-05
       40  1.957807e-04
       41  8.294217e-06
       42  2.937857e-06
       43 -1.182393e-04
       44  1.386621e-05
       45 -1.996285e-04
       46 -2.966443e-04
       47  9.900845e-07
       48  7.287076e-06
       49  3.103119e-05
       50 -1.686001e-04
       51 -1.303579e-04
       52 -1.072925e-04
       53  1.293727e-05
       54 -2.121322e-06
       55  1.745247e-05
       56  3.237488e-05
       57  6.487578e-06
       58 -4.466158e-07
       59 -9.614678e-05
       60 -1.166846e-04
       61 -4.012624e-07
       62  1.597762e-05
       63  9.842062e-10
       64  1.201683e-04
       65 -3.286419e-05
       66  2.316781e-05
       67 -9.467147e-05
       68 -2.045515e-05
       69  1.191406e-05
       70 -1.114989e-04
       71  4.138250e-05
       72 -1.153616e-04
       73 -3.987554e-05
       74 -1.587084e-04
       75  1.798323e-05
       76  3.509381e-04
       77  4.605876e-05
       78  8.857261e-08
       79 -8.626544e-05
       80 -7.585724e-03
       81 -3.580254e-03
       82 -5.402342e-03
       83 -5.330014e-03
       84 -4.423820e-03
       85 -1.108451e-04
       86  3.189605e-04
       87 -2.393039e-05
       88  3.078967e-05
       89  7.259646e-05
       90 -8.187919e-06
       91  5.961550e-04
       92  4.217353e-05
       93  4.995136e-04
       94  1.019997e-04
       95 -1.935346e-05
       96 -1.622598e-04
       97  3.484661e-05
       98  1.949737e-04
       99  2.752010e-04
      100  6.822573e-05
      101  4.024899e-06
      102  2.078133e-04
      103 -6.771647e-03
      104 -6.352421e-03
      105 -1.252200e-03
      106  3.086615e-05
      107  1.634561e-04
      108 -6.606247e-03
      109  4.837472e-04
      110  7.851186e-04
      111  5.391220e-05
      112  5.285244e-04
      113  3.749727e-04
      114  2.288037e-04
      115  2.520764e-04
      116  3.767473e-04
      117  3.466352e-04
      118 -3.862356e-07
      119  2.138740e-04
      120  5.784446e-04
      121  1.262864e-03
      122  1.337973e-04
      123  4.444343e-04
      124  2.384966e-04
      125  5.654250e-04
      126 -2.616970e-05
      127  5.085550e-06
      128  8.198719e-05
      129 -6.992978e-07
      130 -2.986514e-04
      131 -4.812246e-04
      132 -5.929589e-05
      133 -1.618556e-06
      134 -3.642330e-06
      135 -2.028598e-05
      136 -3.212859e-06
      137 -4.438496e-06
      138 -6.415003e-05
      139 -3.329697e-05
      140 -6.040484e-05
      141 -2.231614e-04
      142 -3.130605e-05
      143 -2.137138e-04
      144 -3.432868e-05
      145 -3.393892e-07
      146  4.374701e-05
      147 -1.514803e-04
      148 -1.089401e-05
      149 -1.442760e-04
      150 -3.215361e-05
      151  1.172741e-05
      152 -1.570745e-04
      153 -8.707032e-06
      154 -1.459489e-04
      155 -6.872705e-05
      156 -1.150808e-05
      157  8.371199e-06
      158  7.730482e-08
      159 -3.286185e-06