pos          info
        0 -1.812786e-07
        1 -1.517629e-07
        2 -1.241010e-07
        3  9.831640e-09
        4 -1.902088e-08
        5 -2.705770e-08
        6 -1.385194e-08
        7 -3.405543e-08
        8 -2.009954e-08
        9 -2.460335e-08
       10 -2.007538e-09
       11 -2.159059e-08
       12 -6.590186e-08
       13 -7.193501e-08
       14 -4.831433e-08
       15 -8.614420e-09
       16  2.337192e-08
       17  1.862262e-08
       18  2.325804e-08
       19 -4.373237e-09
       20 -8.632165e-08
       21 -8.364043e-08
       22  1.890786e-08
       23  1.100361e-07
       24  1.040291e-07
       25  5.494084e-09
       26 -1.171783e-09
       27  2.720881e-08
       28  2.968772e-08
       29  5.727879e-08
       30  4.959752e-08
       31  2.398489e-08
       32 -4.644720e-10
       33  2.402805e-09
       34  1.936494e-08
       35  1.814092e-08
       36  5.319224e-08
       37  5.982902e-08
       38  1.108413e-07
       39  5.201567e-08
       40  6.338791e-08
       41  1.493075e-07
       42  1.526254e-07
       43  1.380334e-07
       44  2.765717e-09
       45  2.924522e-08
       46  1.248712e-08
       47  5.109344e-09
       48 -2.086881e-08
       49 -5.505710e-09
       50  2.616443e-09
       51  8.395155e-08
       52  8.861190e-08
       53  8.893799e-08
       54  1.702942e-08
       55  9.691759e-09
       56 -9.930949e-09
       57 -1.965030e-08
       58  1.007070e-07
       59  1.211587e-07
       60  1.241440e-07
       61  7.868269e-08
       62  5.672539e-08
       63  5.398111e-08
       64 -2.812946e-08
       65 -4.515165e-09
       66 -3.324125e-08
       67 -2.492967e-09
       68 -8.871833e-09
       69  1.829294e-08
       70 -2.662043e-09
       71  1.551776e-08
       72  4.847497e-09
       73  4.802200e-09
       74 -8.610008e-09
       75  1.056454e-08
       76  1.073924e-08
       77  4.814967e-09
       78  2.056037e-08
       79  2.064243e-08
       80  2.275845e-08
       81  2.953952e-08
       82  3.814067e-08
       83 -5.799052e-08
       84 -5.283591e-08
       85 -8.724207e-08
       86  4.776081e-09
       87 -2.877902e-08
       88  7.180317e-09
       89  1.066055e-08
       90  1.176341e-09
       91 -3.646069e-08
       92 -4.481808e-08
       93 -3.571742e-08
       94 -6.535092e-09
       95  2.630350e-09
       96  1.496618e-09
       97 -2.052383e-08
       98  2.633282e-08
       99  2.662175e-08
      100  9.515650e-09
      101 -2.877702e-08
      102  3.378986e-08
      103  8.627472e-08
      104  6.549400e-08
      105  3.198084e-09
      106 -1.135260e-08
      107 -7.795008e-09
      108  4.840976e-08
      109  4.654574e-08
      110  7.077350e-08
      111  3.387457e-08
      112  6.289874e-08
      113  4.449346e-08
      114  2.547816e-08
      115 -5.656919e-10
      116 -9.558572e-11
      117 -5.331098e-09
      118 -6.816059e-08
      119 -6.181570e-08
      120 -8.694461e-08
      121 -1.126630e-07
      122 -1.183791e-07
      123 -8.872281e-08
      124 -4.003723e-08
      125 -2.863349e-08
      126 -2.830004e-08
      127  3.921958e-08
      128  3.296243e-08
      129  3.167790e-08
      130 -4.127530e-08
      131 -5.530599e-08
      132 -6.581386e-08
      133  1.127671e-08
      134  2.028111e-08
      135  4.333071e-08
      136  1.390039e-08
      137  1.741715e-08
      138 -3.014321e-09
      139 -2.684836e-08
      140 -1.807487e-08
      141 -5.830734e-09
      142  3.107783e-09
      143 -1.942034e-08
      144 -2.331530e-08
      145  2.455964e-09
      146  1.835753e-08
      147  1.892289e-08
      148 -4.960716e-08
      149 -5.150538e-08
      150 -4.813752e-08
      151  5.616215e-09
      152  5.926179e-08
      153  5.598030e-08
      154  5.592480e-08
      155 -3.038404e-08
      156 -1.399497e-08
      157  0.000000e+00
      158  0.000000e+00
      159  0.000000e+00