pos          info
        0  4.969294e-05
        1  5.531639e-06
        2  2.553734e-05
        3  3.818829e-05
        4  1.894995e-05
        5 -1.826923e-05
        6 -3.458152e-05
        7 -1.622709e-05
        8  6.997242e-07
        9 -1.430129e-06
       10 -1.201004e-05
       11 -4.032580e-06
       12  3.476563e-05
       13  4.004860e-05
       14  3.098681e-05
       15 -7.322775e-06
       16 -7.697058e-06
       17  8.764728e-07
       18  9.413456e-06
       19  5.440666e-05
       20  2.427104e-04
       21  2.510871e-04
       22  1.810174e-04
       23  3.251310e-05
       24 -1.229542e-05
       25  1.401400e-04
       26  1.015134e-04
       27  2.192562e-04
       28  1.395441e-04
       29  9.069926e-05
       30 -1.830556e-06
       31 -3.158156e-05
       32  2.654084e-04
       33  4.585553e-04
       34  4.556230e-04
       35  2.953772e-04
       36  1.698907e-04
       37  1.555126e-04
       38  1.142250e-04
       39  3.849832e-05
       40  1.939717e-05
       41 -2.887246e-05
       42  1.537299e-04
       43  3.546974e-04
       44  3.764072e-04
       45  2.007889e-04
       46  1.663977e-05
       47 -5.325513e-05
       48 -6.381596e-05
       49 -9.707150e-05
       50 -3.321310e-05
       51 -2.391857e-05
       52  8.216051e-05
       53  6.743756e-05
       54  8.674704e-05
       55  2.571913e-05
       56  8.542099e-05
       57  8.658296e-05
       58  3.062790e-05
       59  6.352372e-06
       60 -8.718767e-05
       61 -5.038518e-05
       62 -8.713194e-05
       63 -1.351484e-05
       64 -6.854495e-06
       65 -2.476923e-04
       66 -2.436817e-04
       67 -2.618328e-04
       68 -9.604708e-06
       69  8.359223e-06
       70  5.916600e-06
       71  9.656132e-06
       72 -6.442907e-05
       73 -1.877792e-05
       74 -3.180997e-05
       75 -2.868702e-05
       76 -1.065049e-04
       77 -5.588089e-04
       78  7.596565e-04
       79  1.494639e-03
       80  3.299094e-03
       81  1.719978e-03
       82  1.039205e-03
       83 -3.548951e-04
       84 -5.265407e-05
       85 -1.020181e-04
       86 -6.201285e-05
       87 -4.519009e-05
       88 -4.599894e-05
       89 -9.963033e-05
       90 -1.284162e-04
       91 -1.054829e-04
       92 -4.955695e-04
       93 -4.902153e-04
       94 -4.686573e-04
       95 -2.319140e-05
       96  7.488586e-05
       97  1.971808e-04
       98  1.966955e-04
       99  1.596795e-04
      100  1.528718e-04
      101  2.056868e-03
      102  5.840917e-03
      103  5.661213e-03
      104  4.171725e-03
      105  4.600806e-04
      106  3.713783e-03
      107  3.298000e-03
      108  3.152961e-03
      109  2.430148e-05
      110  3.195069e-05
      111  7.513295e-05
      112 -2.405773e-05
      113 -1.886205e-05
      114 -1.747098e-05
      115  2.447337e-05
      116  3.429085e-05
      117  6.563071e-05
      118 -4.371871e-05
      119 -9.262126e-05
      120 -1.458673e-04
      121 -3.462029e-05
      122 -9.285801e-05
      123 -3.291089e-04
      124 -3.594794e-04
      125 -3.326933e-04
      126 -2.212524e-04
      127 -3.209620e-04
      128 -2.628225e-04
      129 -1.216455e-04
      130  9.079646e-06
      131 -7.063251e-06
      132  5.790355e-06
      133  2.448981e-04
      134  2.611007e-04
      135  2.125014e-04
      136 -2.406149e-05
      137  3.164637e-06
      138  5.130215e-05
      139  4.667790e-05
      140  8.046166e-05
      141  5.856023e-05
      142  6.182706e-05
      143  3.674516e-06
      144  3.752458e-06
      145  3.989483e-05
      146  4.846443e-05
      147 -6.393407e-05
      148 -1.042494e-04
      149 -5.771275e-05
      150  5.762100e-05
      151  6.272118e-05
      152  1.461313e-05
      153 -1.331473e-05
      154 -1.552624e-05
      155 -4.303409e-05
      156 -1.532519e-04
      157  0.000000e+00
      158  0.000000e+00
      159  0.000000e+00