pos          info
        0  1.889325e-04
        1  1.247602e-04
        2  1.837194e-04
        3  2.240121e-04
        4  1.196203e-04
        5  6.743483e-05
        6 -5.853382e-06
        7  3.100632e-04
        8  6.874552e-05
        9  9.954550e-07
       10 -1.060683e-04
       11  1.074241e-04
       12  3.326831e-05
       13 -6.684774e-05
       14 -4.510423e-05
       15 -1.458474e-05
       16  1.256848e-05
       17  2.493098e-05
       18  4.219284e-05
       19 -2.907678e-06
       20 -1.101270e-05
       21  1.586359e-05
       22  3.655061e-05
       23  4.502555e-04
       24  4.883395e-04
       25  5.087457e-04
       26  8.277830e-05
       27 -2.409392e-04
       28 -3.250435e-04
       29 -3.117397e-04
       30 -1.014586e-05
       31  5.013735e-05
       32  6.555040e-05
       33  1.700490e-05
       34  7.260271e-05
       35  6.352430e-05
       36  6.240232e-05
       37  7.205645e-05
       38 -7.569546e-05
       39 -5.344327e-05
       40 -2.314196e-04
       41 -9.028881e-05
       42 -1.080364e-04
       43  4.112866e-05
       44  9.036286e-05
       45  8.818368e-05
       46  5.386641e-05
       47  4.270509e-06
       48 -2.317680e-05
       49 -7.965316e-05
       50 -1.020043e-04
       51 -9.575884e-05
       52 -1.121962e-04
       53 -9.282736e-05
       54 -1.156704e-04
       55 -1.134449e-05
       56 -1.021089e-04
       57 -3.916784e-05
       58 -6.119795e-05
       59  3.994674e-05
       60  8.720805e-06
       61 -2.482932e-06
       62  2.286503e-05
       63  4.314489e-05
       64  3.688243e-05
       65 -1.334096e-04
       66 -4.348891e-04
       67 -4.277754e-04
       68 -3.125436e-04
       69 -2.597154e-05
       70 -2.694096e-05
       71 -1.032053e-04
       72 -8.342869e-05
       73 -7.134054e-05
       74  1.311321e-05
       75 -7.587964e-05
       76 -9.175700e-05
       77 -7.638978e-05
       78  6.660986e-05
       79  7.021691e-05
       80  6.344739e-05
       81 -2.296390e-05
       82 -8.436135e-05
       83 -7.915023e-05
       84  2.851459e-04
       85  3.242410e-04
       86  3.320342e-04
       87 -2.367700e-05
       88  2.949941e-04
       89 -9.164290e-06
       90  7.582010e-05
       91 -7.758629e-05
       92  1.364046e-04
       93 -4.911232e-05
       94 -1.826276e-04
       95 -8.320442e-05
       96 -1.625822e-05
       97  4.771409e-05
       98  2.103286e-05
       99  8.428202e-05
      100  9.304351e-06
      101  3.275311e-04
      102  2.841750e-04
      103  2.855159e-04
      104 -3.034789e-07
      105  6.502546e-05
      106 -5.619408e-05
      107 -7.874033e-05
      108 -1.167635e-04
      109 -5.743172e-06
      110 -5.659698e-06
      111 -4.888761e-05
      112 -3.967375e-05
      113 -4.643334e-05
      114  6.066389e-05
      115  8.473098e-05
      116  5.395248e-05
      117 -1.119999e-05
      118 -4.584609e-05
      119 -9.241207e-07
      120  3.131454e-05
      121  6.707933e-05
      122  9.477023e-05
      123  5.891934e-05
      124  1.317286e-04
      125  6.563883e-05
      126  1.017729e-04
      127 -1.411982e-04
      128  1.644333e-04
      129  1.675654e-04
      130  3.477511e-04
      131  8.824626e-05
      132 -1.190153e-05
      133 -4.014530e-05
      134 -5.890015e-05
      135  2.325300e-06
      136 -3.845604e-06
      137 -2.341429e-07
      138  1.745517e-06
      139 -6.880254e-05
      140 -5.716000e-05
      141 -6.171543e-05
      142  1.845665e-05
      143  3.795412e-06
      144  4.388012e-06
      145 -5.113784e-06
      146 -4.267680e-05
      147 -1.105962e-05
      148 -4.110940e-05
      149 -1.023107e-04
      150 -1.301238e-04
      151 -9.385968e-05
      152 -8.556691e-05
      153 -2.863546e-05
      154 -5.106298e-05
      155  4.242262e-05
      156 -5.553124e-05
      157  0.000000e+00
      158  0.000000e+00
      159  0.000000e+00