pos          info
        0  8.847539e-06
        1 -5.776237e-05
        2 -2.199688e-05
        3 -1.981365e-05
        4  3.517991e-05
        5  6.653369e-05
        6  6.710195e-05
        7  6.534929e-05
        8  5.042599e-05
        9  1.491209e-04
       10  2.558285e-04
       11  2.034906e-04
       12  1.208259e-04
       13  6.807472e-05
       14  7.071047e-05
       15  1.196564e-04
       16  6.642848e-05
       17  1.453932e-04
       18  1.156858e-04
       19  1.181430e-04
       20  4.688966e-05
       21  6.957821e-05
       22  4.933324e-05
       23 -4.715757e-05
       24 -1.186216e-04
       25 -9.623476e-05
       26  3.020946e-05
       27  7.264116e-05
       28  2.666714e-05
       29 -3.845066e-05
       30 -6.763041e-05
       31  1.483873e-04
       32  1.719602e-04
       33  1.809895e-04
       34 -8.783008e-07
       35  2.182402e-06
       36 -3.005753e-05
       37  4.202876e-05
       38  2.796610e-05
       39  5.005453e-05
       40 -3.556605e-05
       41 -2.032599e-06
       42  8.474536e-06
       43  1.519384e-05
       44 -5.525603e-06
       45 -2.173545e-05
       46  1.047082e-04
       47  1.002775e-04
       48  1.644977e-05
       49 -9.587066e-05
       50  9.986948e-06
       51  1.130504e-04
       52  1.096385e-04
       53  9.335620e-06
       54 -5.221747e-06
       55 -8.983622e-05
       56 -9.746506e-05
       57 -9.494229e-05
       58 -1.724782e-05
       59 -2.589910e-05
       60 -8.843513e-05
       61 -3.565692e-05
       62 -1.394568e-04
       63 -5.693645e-05
       64 -9.223735e-05
       65  2.387143e-04
       66  1.924385e-03
       67  3.086391e-03
       68  2.868530e-03
       69  1.244195e-03
       70 -4.464714e-04
       71 -3.943410e-04
       72 -5.312983e-04
       73  7.544331e-05
       74 -1.113662e-05
       75 -2.782498e-05
       76 -1.567599e-04
       77 -6.318648e-05
       78  6.849860e-06
       79  3.374905e-05
       80 -1.536465e-04
       81 -1.514804e-04
       82 -1.320891e-04
       83  2.676006e-04
       84 -4.765597e-04
       85 -4.777539e-04
       86 -9.661056e-04
       87  9.581630e-05
       88  5.134786e-05
       89  1.342007e-03
       90  2.010425e-03
       91  2.054653e-03
       92  9.824773e-04
       93  5.787419e-04
       94  2.589766e-03
       95  2.636930e-03
       96  2.041817e-03
       97 -2.061240e-04
       98 -2.540488e-04
       99 -2.411053e-04
      100 -4.295813e-05
      101 -2.811188e-05
      102  3.386543e-05
      103  6.014384e-05
      104 -3.933586e-07
      105 -6.101738e-05
      106 -5.575793e-05
      107 -6.057631e-06
      108  5.874263e-06
      109  1.030149e-05
      110 -1.294851e-05
      111 -9.338777e-05
      112 -1.258563e-04
      113 -1.033850e-04
      114 -3.157559e-04
      115 -3.050100e-04
      116 -3.033277e-04
      117 -2.739907e-04
      118 -2.385892e-04
      119 -2.296790e-04
      120  2.172145e-05
      121  1.072444e-05
      122  4.979283e-05
      123  1.241974e-04
      124  1.510921e-04
      125  9.817759e-05
      126 -1.565658e-05
      127 -1.129821e-04
      128 -8.434432e-05
      129 -3.984799e-05
      130  7.031532e-05
      131  7.596786e-05
      132  6.944362e-05
      133  1.395681e-05
      134 -4.902490e-06
      135  1.781624e-05
      136  8.153795e-05
      137  5.735795e-05
      138 -1.597451e-04
      139 -2.433316e-04
      140 -2.611967e-04
      141 -6.158003e-05
      142  8.917545e-05
      143  1.069191e-04
      144  1.019160e-04
      145 -7.212072e-06
      146  6.889187e-06
      147  2.361837e-05
      148  9.975997e-06
      149  3.354637e-05
      150  1.498371e-05
      151  2.269800e-05
      152 -2.967903e-05
      153 -1.997532e-05
      154 -8.344719e-06
      155  3.544676e-06
      156  3.118570e-05
      157  0.000000e+00
      158  0.000000e+00
      159  0.000000e+00