pos          info
        0  2.854601e-05
        1 -5.175595e-06
        2  3.616803e-05
        3  3.098309e-06
        4  7.919497e-07
        5  1.541255e-05
        6 -3.464149e-05
        7 -1.038994e-08
        8  6.076772e-06
        9 -4.336961e-05
       10  1.270632e-04
       11  2.549767e-04
       12  3.155460e-05
       13  5.066844e-06
       14  9.199795e-05
       15 -3.371493e-06
       16  1.053885e-06
       17  2.338123e-04
       18  5.157995e-05
       19 -2.316478e-07
       20 -1.036977e-06
       21  3.124283e-05
       22  2.519385e-05
       23  4.531929e-06
       24 -7.759856e-05
       25 -7.813144e-05
       26  3.780001e-05
       27 -1.939177e-05
       28  2.309733e-06
       29  3.903242e-05
       30 -1.366537e-07
       31 -5.342692e-05
       32 -1.966487e-04
       33  1.033752e-04
       34  3.968018e-07
       35  1.405513e-05
       36 -9.829281e-05
       37  1.742253e-05
       38  5.987287e-06
       39  1.589314e-04
       40 -3.443054e-05
       41 -7.164592e-06
       42 -1.668489e-04
       43  1.419032e-04
       44  4.923473e-06
       45 -2.535807e-04
       46  3.093352e-05
       47 -1.224029e-04
       48  2.955463e-05
       49 -7.355951e-06
       50 -2.087691e-07
       51  3.983350e-05
       52  7.802022e-05
       53  7.678819e-05
       54 -3.184113e-06
       55  3.669427e-05
       56  2.545472e-05
       57 -3.424865e-04
       58 -5.968894e-05
       59  8.171256e-06
       60 -3.180434e-05
       61  2.352272e-05
       62 -1.057737e-04
       63  2.226301e-05
       64 -5.771877e-06
       65  1.727601e-04
       66 -7.847769e-08
       67  9.048876e-04
       68  6.424836e-03
       69  4.262972e-03
       70 -5.042140e-05
       71  2.011963e-04
       72 -1.167503e-03
       73  4.803876e-04
       74 -2.575596e-06
       75  3.525131e-05
       76 -1.890352e-05
       77 -9.007382e-05
       78 -2.130043e-05
       79  3.279660e-04
       80 -1.764278e-04
       81  6.051200e-05
       82 -3.442053e-04
       83  7.064511e-05
       84 -5.351562e-05
       85  7.119009e-05
       86 -2.057253e-03
       87  4.356011e-05
       88 -7.138444e-04
       89  2.568387e-03
       90 -7.683600e-05
       91  7.192776e-03
       92  6.825063e-03
       93 -8.964299e-06
       94 -4.256000e-04
       95  3.944341e-03
       96  9.782515e-03
       97  1.842626e-04
       98  3.517898e-05
       99 -9.303638e-05
      100 -2.976758e-07
      101  1.786631e-04
      102 -1.198576e-04
      103  1.121131e-04
      104 -3.310246e-06
      105 -1.462601e-06
      106  1.385660e-07
      107  1.229726e-04
      108  8.247524e-05
      109 -6.224940e-06
      110 -1.618750e-06
      111 -7.175224e-06
      112 -5.669467e-05
      113 -5.324691e-05
      114  8.099996e-06
      115  2.574297e-05
      116 -3.922240e-04
      117  2.733123e-06
      118  9.751028e-06
      119 -5.735070e-04
      120  2.038121e-05
      121  2.174295e-04
      122 -1.460773e-05
      123 -6.276513e-06
      124  1.982740e-04
      125  2.144638e-04
      126  4.904214e-05
      127 -1.010653e-05
      128 -1.669315e-06
      129 -2.010499e-04
      130  8.602374e-06
      131  6.736596e-05
      132 -1.042172e-04
      133  6.845348e-05
      134  2.833024e-05
      135 -2.360391e-05
      136  2.812484e-05
      137 -1.233809e-06
      138  8.752759e-06
      139 -9.433070e-05
      140 -5.443003e-04
      141 -2.477870e-04
      142 -4.503725e-06
      143  9.426717e-05
      144  3.075544e-05
      145 -6.890723e-05
      146  1.287413e-05
      147  6.484548e-05
      148  2.183608e-06
      149  1.381449e-06
      150 -6.222286e-09
      151  3.157633e-04
      152  1.212965e-06
      153  3.381826e-05
      154 -1.528488e-04
      155 -1.745795e-06
      156  6.662642e-05
      157 -1.886776e-06
      158  3.257513e-06
      159  1.765176e-04