pos          info
        0 -1.102219e-04
        1 -5.220671e-04
        2 -7.256738e-05
        3  3.333489e-07
        4  5.389073e-05
        5 -7.134640e-05
        6  7.727813e-07
        7  1.512502e-05
        8 -2.358401e-04
        9 -6.251085e-05
       10 -3.225812e-08
       11 -1.471307e-06
       12 -6.201413e-06
       13  4.714335e-05
       14 -1.809230e-06
       15  2.113700e-05
       16 -2.852433e-05
       17  6.384949e-08
       18  7.846010e-07
       19  1.472492e-05
       20  1.750511e-05
       21 -9.411266e-05
       22  5.776540e-05
       23 -1.626593e-04
       24 -1.359175e-04
       25 -1.454618e-05
       26 -2.331449e-09
       27  6.215006e-05
       28 -3.461598e-06
       29  3.689920e-09
       30 -1.274048e-05
       31 -5.209430e-05
       32 -6.797093e-05
       33 -2.152599e-05
       34 -4.723365e-05
       35  2.262720e-05
       36  2.166550e-04
       37  1.457399e-05
       38 -1.257680e-06
       39 -1.143537e-04
       40 -1.370184e-05
       41  2.914058e-06
       42 -1.958004e-05
       43  3.170562e-04
       44 -2.741451e-05
       45 -2.058627e-07
       46 -1.699238e-05
       47  1.009820e-05
       48  1.583523e-04
       49  6.838407e-06
       50 -5.726384e-04
       51 -2.157171e-04
       52  1.401292e-05
       53  6.182588e-06
       54 -7.574911e-05
       55 -2.853012e-05
       56 -1.742791e-08
       57 -2.138382e-07
       58  8.014034e-06
       59  9.586127e-07
       60  8.486057e-07
       61  1.535625e-04
       62 -3.146977e-05
       63 -1.273168e-04
       64 -8.573212e-07
       65 -2.579382e-06
       66 -1.330088e-05
       67 -7.161854e-05
       68 -7.568387e-05
       69  8.240805e-06
       70  1.235567e-05
       71  3.513131e-05
       72  2.489645e-05
       73 -4.704219e-07
       74 -2.761896e-06
       75  2.614308e-05
       76 -7.296684e-06
       77 -3.687911e-05
       78 -1.896700e-05
       79  5.182948e-05
       80  6.185917e-05
       81  1.729868e-04
       82  6.471886e-05
       83  5.250209e-05
       84 -1.623576e-04
       85 -1.546998e-04
       86 -3.149165e-05
       87 -1.984524e-07
       88  4.278879e-05
       89 -2.320878e-04
       90 -2.441741e-06
       91  3.071965e-05
       92 -6.674761e-06
       93  5.942649e-05
       94  4.070002e-04
       95 -2.009563e-05
       96  6.291666e-07
       97  1.027061e-04
       98 -6.398904e-04
       99  1.627279e-04
      100 -4.294419e-04
      101  3.450066e-05
      102 -1.251658e-05
      103 -5.855888e-04
      104 -3.013475e-04
      105 -1.300653e-04
      106  4.652805e-05
      107 -3.031735e-04
      108 -6.427794e-04
      109 -2.571159e-04
      110 -2.900767e-04
      111  1.423756e-04
      112  2.134607e-04
      113 -9.707560e-05
      114  1.990641e-06
      115 -6.313757e-05
      116  2.016853e-05
      117 -4.607828e-05
      118  5.392325e-05
      119  3.121055e-05
      120  4.898223e-05
      121 -2.641058e-05
      122  9.420097e-05
      123 -7.335907e-05
      124  7.571752e-07
      125 -9.712880e-05
      126  1.277673e-04
      127 -2.242541e-04
      128 -1.405581e-04
      129 -4.645948e-05
      130 -6.073753e-05
      131  3.882170e-05
      132  2.367371e-04
      133  9.107630e-05
      134  1.383648e-04
      135 -2.543545e-04
      136  6.012925e-05
      137  3.109625e-06
      138 -1.083864e-04
      139  9.995613e-05
      140  2.710550e-06
      141  7.962223e-05
      142  1.183385e-09
      143 -8.324283e-06
      144 -4.903827e-05
      145 -5.080317e-05
      146 -1.447075e-05
      147 -2.927214e-08
      148 -9.432941e-05
      149 -5.482469e-06
      150 -7.681590e-06
      151  1.597740e-04
      152 -2.343823e-05
      153  3.273021e-05
      154  2.255201e-06
      155 -8.115913e-05
      156 -4.146240e-06
      157  2.346588e-05
      158 -6.814464e-05
      159  3.287217e-07