pos          info
        0  1.035747e-05
        1  1.160257e-04
        2  9.150964e-05
        3 -1.141274e-06
        4 -1.073849e-04
        5 -8.655687e-05
        6 -5.859605e-05
        7 -2.552798e-05
        8  1.715612e-04
        9 -1.620348e-05
       10 -1.300069e-06
       11 -7.165874e-05
       12  2.639758e-04
       13  5.136479e-05
       14 -7.372299e-05
       15 -4.988586e-05
       16  3.149726e-07
       17 -6.145100e-05
       18 -1.045653e-05
       19 -1.164315e-06
       20  5.259636e-06
       21 -2.961430e-05
       22 -1.985408e-04
       23  4.166903e-05
       24 -2.157569e-06
       25 -8.371460e-05
       26 -6.444138e-05
       27 -5.683081e-05
       28 -1.531395e-05
       29 -7.598143e-05
       30 -3.607729e-05
       31  6.279970e-05
       32  1.767307e-05
       33  5.694587e-07
       34  5.084810e-04
       35  5.629856e-05
       36 -2.864280e-05
       37 -2.227795e-05
       38 -4.141733e-06
       39  2.196155e-05
       40  6.969108e-06
       41 -2.151146e-04
       42 -3.386261e-05
       43 -1.071767e-04
       44 -4.589284e-05
       45  3.081672e-04
       46  2.185892e-04
       47  3.564919e-06
       48 -1.176805e-05
       49  1.433719e-05
       50  1.569938e-04
       51  1.428149e-04
       52 -1.029330e-06
       53 -6.593490e-05
       54  4.459616e-07
       55 -2.783319e-05
       56 -7.268805e-06
       57  1.268397e-04
       58  7.521080e-06
       59  2.061451e-06
       60 -1.177210e-05
       61  1.660201e-05
       62  1.434713e-05
       63  9.638167e-05
       64 -4.794600e-06
       65  1.518383e-04
       66 -3.271087e-05
       67 -3.802352e-05
       68  1.833405e-04
       69  1.959601e-04
       70  3.599849e-05
       71 -1.006381e-05
       72 -2.561950e-05
       73  9.215937e-08
       74  2.346845e-05
       75 -2.720088e-04
       76  7.573635e-05
       77  1.780687e-06
       78 -7.112946e-05
       79  3.523156e-05
       80  5.562067e-05
       81 -1.358831e-04
       82 -2.813862e-04
       83 -1.334288e-04
       84  2.946122e-04
       85  1.206681e-05
       86  1.165878e-05
       87  6.258659e-05
       88 -1.069511e-05
       89  1.666710e-04
       90 -4.614588e-08
       91 -9.114584e-08
       92 -5.282002e-05
       93 -4.910271e-05
       94 -7.931904e-06
       95  1.462117e-05
       96  2.945702e-06
       97 -4.768210e-05
       98  8.169577e-04
       99 -4.642102e-04
      100  9.622255e-04
      101  7.621594e-07
      102  1.039849e-03
      103  5.929647e-04
      104  1.553777e-03
      105  3.207932e-04
      106 -2.071095e-04
      107  3.461918e-04
      108  1.959451e-03
      109  3.363384e-04
      110  3.092347e-04
      111  9.813823e-06
      112 -1.072719e-04
      113  3.269534e-05
      114 -3.160459e-06
      115 -9.276381e-05
      116 -1.498522e-04
      117  2.581382e-06
      118  4.543913e-05
      119 -2.670585e-05
      120  9.608890e-06
      121 -5.087786e-06
      122 -4.835597e-05
      123  2.344944e-04
      124 -1.604636e-04
      125  2.204656e-04
      126 -2.207624e-05
      127  1.921967e-05
      128  1.676308e-04
      129  8.625104e-05
      130 -2.518080e-05
      131 -1.096458e-05
      132 -4.375670e-05
      133 -1.817566e-04
      134 -3.749143e-05
      135  5.132067e-05
      136 -8.947218e-05
      137  6.463243e-05
      138  2.237326e-04
      139 -6.664037e-05
      140 -1.120602e-04
      141 -1.405712e-04
      142 -2.071479e-06
      143  2.803805e-06
      144 -5.087515e-07
      145 -1.237667e-05
      146  3.594527e-05
      147 -3.055279e-05
      148  1.975843e-04
      149  3.806407e-04
      150 -7.827568e-06
      151 -5.298613e-04
      152 -2.118761e-06
      153  1.188241e-04
      154 -2.125141e-04
      155 -3.766473e-06
      156 -2.427634e-05
      157  2.434948e-05
      158  1.992772e-04
      159  7.976180e-05