pos          info
        0 -1.257358e-03
        1 -1.098749e-03
        2  9.323611e-06
        3 -2.019934e-06
        4  2.701363e-05
        5  6.280142e-05
        6  8.291582e-05
        7 -3.497716e-05
        8 -7.003556e-05
        9 -7.320864e-05
       10  6.958671e-05
       11  8.156741e-05
       12  5.295941e-05
       13 -1.573471e-05
       14 -1.835070e-04
       15 -1.963249e-04
       16 -1.727641e-04
       17 -1.608658e-05
       18  3.383724e-05
       19  7.426558e-05
       20  1.416416e-04
       21  1.049508e-04
       22  7.143140e-05
       23  4.761075e-05
       24  8.705104e-05
       25  2.009616e-04
       26  1.631463e-04
       27  1.121751e-04
       28 -2.436112e-05
       29  2.425535e-06
       30  2.781621e-05
       31  4.674891e-05
       32  2.357273e-05
       33 -8.569147e-05
       34 -7.907713e-05
       35 -7.955519e-05
       36  1.143812e-05
       37 -3.555436e-07
       38 -9.310996e-06
       39 -7.999540e-06
       40 -1.735336e-05
       41 -1.740130e-05
       42 -1.408766e-05
       43  3.645864e-05
       44  3.766354e-05
       45  4.779923e-06
       46 -1.548014e-05
       47 -1.474644e-05
       48 -2.447930e-05
       49 -1.228592e-04
       50 -1.240360e-04
       51 -7.992018e-05
       52 -4.375435e-06
       53  2.713565e-05
       54  1.583173e-04
       55  1.712311e-04
       56  1.366973e-04
       57 -5.709386e-06
       58  1.497725e-05
       59  2.436580e-05
       60  3.106284e-05
       61 -7.198539e-07
       62 -7.257919e-06
       63 -7.430519e-06
       64 -7.292429e-07
       65 -5.821167e-06
       66 -8.919487e-07
       67 -5.068455e-05
       68 -1.866367e-04
       69 -8.743541e-05
       70 -2.621825e-05
       71  1.271430e-04
       72  5.495515e-06
       73 -2.944904e-06
       74 -3.498996e-05
       75  1.121895e-04
       76  3.223675e-04
       77  3.427674e-04
       78  3.381634e-05
       79 -1.772679e-04
       80 -1.785118e-04
       81 -4.369113e-07
       82  9.346853e-05
       83  9.509952e-05
       84  9.963030e-05
       85  1.910679e-05
       86  1.931593e-05
       87  3.101092e-05
       88  1.074587e-05
       89 -2.991989e-06
       90  4.140834e-06
       91  2.151619e-05
       92  1.042096e-04
       93  9.495184e-05
       94  1.479893e-04
       95  9.466937e-05
       96  7.366761e-05
       97  2.846727e-05
       98  1.032217e-05
       99  8.873005e-05
      100  7.008183e-05
      101  4.475142e-04
      102  4.673256e-04
      103  2.697336e-04
      104 -2.524556e-05
      105  8.861518e-05
      106  2.908655e-04
      107  2.025799e-04
      108 -4.926869e-06
      109 -1.996347e-05
      110 -3.285362e-05
      111 -2.675277e-05
      112  3.697862e-05
      113  6.202628e-05
      114  6.329466e-05
      115 -3.427055e-05
      116 -5.565190e-05
      117 -2.647883e-05
      118 -8.609858e-06
      119  1.069682e-05
      120 -2.152807e-05
      121 -5.134446e-05
      122 -1.045141e-04
      123 -1.061470e-04
      124 -2.243677e-05
      125  2.716856e-05
      126  2.645012e-05
      127 -2.877189e-06
      128 -1.754030e-05
      129 -2.526599e-05
      130 -2.543127e-05
      131 -6.753694e-06
      132  2.604204e-06
      133  4.610968e-06
      134  1.241926e-05
      135  7.989558e-06
      136  1.224528e-05
      137 -1.961108e-05
      138 -1.459420e-05
      139 -2.874651e-05
      140 -8.999150e-06
      141 -4.805822e-06
      142  3.895144e-05
      143  1.875217e-04
      144  1.870274e-04
      145  1.555455e-04
      146  2.492851e-05
      147  2.521943e-06
      148 -1.249223e-06
      149  3.460796e-05
      150  2.558296e-05
      151 -3.949344e-05
      152 -7.690668e-05
      153 -2.540155e-05
      154  3.751268e-05
      155  3.199142e-05
      156  2.045320e-06
      157  0.000000e+00
      158  0.000000e+00
      159  0.000000e+00