pos          info
        0 -7.759591e-05
        1 -7.413844e-05
        2 -6.565284e-05
        3 -3.983775e-06
        4 -6.400057e-06
        5 -4.325934e-06
        6  2.943580e-05
        7 -7.246682e-06
        8 -2.557048e-05
        9 -2.525355e-05
       10  2.596896e-05
       11  1.155870e-04
       12  2.828482e-05
       13  1.422870e-05
       14 -9.347151e-05
       15 -7.476307e-05
       16 -7.330797e-05
       17 -3.916422e-05
       18  7.731530e-05
       19  7.849444e-05
       20  7.893203e-05
       21 -1.791038e-05
       22  5.916813e-05
       23  8.792707e-05
       24  1.078563e-04
       25  4.899881e-05
       26  5.036489e-05
       27  3.782556e-05
       28  3.795325e-06
       29  1.216803e-04
       30  1.340538e-04
       31  1.937212e-04
       32  7.815073e-05
       33 -2.259498e-05
       34  6.831444e-06
       35 -2.936280e-05
       36  1.291961e-04
       37  5.115925e-05
       38  4.847743e-05
       39  1.214680e-05
       40  2.974922e-07
       41  2.710097e-06
       42 -2.386129e-05
       43 -1.196053e-05
       44 -1.621880e-06
       45 -3.431518e-05
       46  2.354155e-05
       47  2.428941e-05
       48 -4.404568e-05
       49 -9.658602e-05
       50 -7.611020e-05
       51  4.969045e-05
       52  2.378730e-05
       53  3.258585e-06
       54  1.943400e-04
       55  2.218567e-04
       56  2.263292e-04
       57  3.389272e-05
       58  1.333774e-04
       59  1.464359e-04
       60  1.678001e-04
       61  6.133501e-05
       62  8.047691e-05
       63  4.879615e-05
       64  5.073758e-05
       65 -3.480421e-05
       66 -4.584658e-05
       67 -1.866032e-04
       68 -3.977421e-04
       69 -1.209343e-04
       70  4.051066e-05
       71  3.116763e-04
       72 -6.982943e-05
       73 -7.734946e-05
       74 -9.520771e-05
       75  1.630840e-04
       76  4.339784e-04
       77  4.351291e-04
       78 -1.717889e-04
       79 -3.467845e-04
       80 -5.284277e-04
       81 -7.291952e-05
       82 -5.672727e-05
       83  1.238108e-04
       84  1.245402e-04
       85  2.803062e-05
       86  3.264989e-05
       87  1.239228e-04
       88 -2.966945e-05
       89 -3.455547e-05
       90 -1.335757e-04
       91 -1.007818e-05
       92 -8.963223e-06
       93  1.125660e-06
       94  9.975736e-05
       95  9.887678e-05
       96 -3.209029e-05
       97 -1.341635e-04
       98 -1.208775e-04
       99  7.592284e-05
      100  1.071669e-04
      101  7.369602e-04
      102  9.643543e-04
      103  4.794388e-04
      104  1.462780e-04
      105  3.045070e-04
      106  7.640731e-04
      107  4.376019e-04
      108 -1.654836e-05
      109 -2.569036e-05
      110 -8.597928e-06
      111  2.568264e-05
      112  1.051895e-04
      113  1.318578e-04
      114  9.939335e-05
      115 -1.241096e-06
      116 -4.133104e-05
      117  3.644275e-06
      118  3.240412e-05
      119  4.778064e-05
      120  1.573300e-06
      121 -7.894830e-05
      122 -1.171013e-04
      123 -1.056602e-04
      124  7.615152e-06
      125  1.185560e-04
      126  1.039628e-04
      127  7.226518e-05
      128 -9.999326e-06
      129 -6.481029e-06
      130 -8.773875e-05
      131 -6.064569e-05
      132 -8.198005e-05
      133 -1.803141e-05
      134 -5.671843e-05
      135 -5.278289e-05
      136 -4.192444e-05
      137 -2.601495e-05
      138 -1.123701e-05
      139 -5.440829e-06
      140  1.979359e-05
      141  9.569560e-05
      142  1.310570e-04
      143  1.851394e-04
      144  1.112216e-04
      145  1.316264e-04
      146  3.372553e-05
      147  2.903479e-05
      148  8.896232e-05
      149  2.095131e-04
      150  2.128139e-04
      151  9.711028e-05
      152 -1.398913e-06
      153  1.118555e-04
      154  1.404897e-04
      155  1.341663e-04
      156  1.015593e-05
      157  0.000000e+00
      158  0.000000e+00
      159  0.000000e+00