pos          info
        0  4.517661e-04
        1  1.499518e-03
        2  1.503212e-03
        3  5.911300e-04
        4  3.733184e-04
        5  2.962147e-04
        6  4.042253e-04
        7  4.873085e-04
        8  2.909813e-04
        9  9.076007e-05
       10  7.469135e-06
       11  1.810044e-04
       12  2.231807e-04
       13  1.823726e-04
       14  1.019526e-05
       15  5.460222e-05
       16  5.772157e-05
       17  3.656530e-05
       18 -3.782868e-05
       19 -5.429495e-05
       20 -6.444972e-05
       21 -2.873261e-04
       22 -4.372887e-04
       23 -4.070942e-04
       24 -2.813889e-04
       25 -1.539224e-04
       26 -1.536554e-04
       27 -3.656130e-05
       28  1.337588e-05
       29  2.092942e-05
       30  2.749855e-05
       31 -2.547066e-05
       32 -1.728194e-05
       33 -1.969982e-05
       34  5.375680e-05
       35  1.967560e-04
       36  1.534904e-04
       37  1.098415e-04
       38 -1.254972e-04
       39 -8.596999e-05
       40 -6.939581e-05
       41  4.779801e-06
       42 -1.123668e-05
       43 -1.770663e-05
       44  1.957133e-05
       45  5.909651e-05
       46  3.841578e-05
       47  2.996769e-06
       48 -4.168483e-05
       49 -2.228992e-05
       50 -2.402852e-05
       51 -5.777062e-05
       52 -5.015481e-05
       53 -4.315563e-05
       54  3.926189e-06
       55  8.952017e-05
       56  7.874143e-05
       57  8.622324e-05
       58 -7.420059e-06
       59 -2.488559e-05
       60 -2.342662e-05
       61 -1.796945e-05
       62  1.202424e-05
       63  1.654595e-05
       64  6.378494e-05
       65  9.288714e-05
       66  9.053019e-05
       67  5.209063e-05
       68 -2.554975e-05
       69 -2.760798e-05
       70 -4.153040e-05
       71 -8.549979e-06
       72 -6.649442e-05
       73 -6.936993e-05
       74 -6.158243e-05
       75 -6.395281e-06
       76 -9.200542e-06
       77 -8.377522e-06
       78  2.189814e-05
       79  2.778995e-05
       80  2.849711e-05
       81 -4.374296e-05
       82 -4.995962e-05
       83  1.499047e-05
       84  5.287903e-05
       85  4.341995e-05
       86 -1.227022e-05
       87 -5.728595e-06
       88 -8.687494e-05
       89 -7.432346e-05
       90 -1.407292e-04
       91 -8.053103e-05
       92 -2.540354e-04
       93 -1.871386e-04
       94 -1.481769e-04
       95 -1.871948e-06
       96 -5.031506e-05
       97 -6.301237e-05
       98 -4.588765e-05
       99  9.255585e-06
      100  1.993939e-05
      101  2.669636e-05
      102  3.068526e-05
      103  3.085532e-05
      104  2.111636e-05
      105  4.699223e-06
      106  2.791947e-05
      107 -3.673143e-05
      108 -3.852702e-05
      109 -2.236699e-05
      110 -1.183789e-05
      111  1.321412e-06
      112 -3.936300e-05
      113  1.870156e-05
      114  1.257569e-05
      115  2.685094e-05
      116  6.760001e-05
      117  7.510646e-05
      118  5.578166e-05
      119  3.020493e-05
      120  2.255339e-05
      121  1.219524e-05
      122 -4.581728e-05
      123 -5.733424e-05
      124 -1.795459e-05
      125  6.912407e-05
      126  1.403337e-04
      127  1.392289e-04
      128  1.075043e-04
      129 -2.770809e-06
      130 -5.877146e-05
      131 -9.213590e-05
      132 -1.522900e-06
      133  5.300144e-05
      134 -5.442742e-05
      135 -8.958045e-05
      136 -1.113432e-04
      137  1.435040e-05
      138 -4.680762e-05
      139 -6.483282e-05
      140 -8.622901e-05
      141 -1.316852e-05
      142  7.247974e-06
      143  1.227570e-04
      144  1.393948e-04
      145  7.089259e-05
      146 -8.116356e-05
      147 -1.179602e-05
      148  5.617289e-05
      149  1.203608e-04
      150  4.020207e-05
      151  5.710521e-05
      152  4.018557e-05
      153  1.788981e-05
      154 -3.291969e-07
      155 -3.093362e-06
      156 -5.408175e-05
      157  0.000000e+00
      158  0.000000e+00
      159  0.000000e+00