pos          info
        0  2.091951e-07
        1  1.842697e-06
        2  1.816091e-06
        3  1.138347e-06
        4  8.068857e-07
        5  4.797559e-07
        6  6.430045e-07
        7  5.768222e-07
        8  4.428729e-07
        9  4.293631e-08
       10 -5.278562e-08
       11  2.240595e-07
       12  3.026229e-07
       13  2.898743e-07
       14  1.622020e-07
       15  2.368347e-07
       16  2.115740e-07
       17  6.684773e-08
       18 -5.832045e-09
       19  8.615733e-09
       20 -1.838128e-08
       21 -5.141081e-07
       22 -5.140896e-07
       23 -4.242909e-07
       24 -9.686922e-08
       25 -6.149659e-07
       26 -6.577420e-07
       27 -4.067325e-07
       28  2.363842e-07
       29  4.695660e-07
       30  5.616706e-07
       31  1.332693e-07
       32  7.935388e-08
       33  1.896734e-07
       34  5.560606e-07
       35  4.314999e-07
       36  9.014355e-08
       37 -6.176601e-09
       38 -1.871150e-07
       39 -1.631586e-07
       40 -1.595213e-07
       41 -7.642667e-08
       42 -5.390985e-08
       43 -5.325382e-08
       44 -2.688781e-08
       45  3.386324e-09
       46 -6.830860e-09
       47 -1.835191e-08
       48 -5.784239e-08
       49 -4.076669e-09
       50 -7.512018e-08
       51 -8.514747e-08
       52 -1.806734e-07
       53 -7.068439e-08
       54 -9.551469e-08
       55  2.389461e-07
       56  3.827938e-07
       57  4.709623e-07
       58 -5.365601e-09
       59 -2.220230e-07
       60 -2.547722e-07
       61 -2.449055e-08
       62  4.306818e-08
       63  2.965518e-07
       64  8.527748e-07
       65  9.908001e-07
       66  6.469490e-07
       67  2.412525e-07
       68 -5.237864e-08
       69 -1.267061e-07
       70 -2.835787e-07
       71 -6.593593e-08
       72  7.898933e-08
       73  9.119721e-08
       74  3.510227e-08
       75  4.745458e-08
       76 -5.384053e-08
       77 -8.542607e-08
       78 -7.971027e-08
       79  1.217119e-07
       80  1.129297e-07
       81 -1.717139e-07
       82 -3.633048e-07
       83 -1.483784e-07
       84  7.638755e-08
       85  8.593930e-08
       86 -1.769693e-07
       87 -1.244092e-07
       88 -7.121518e-08
       89  8.954266e-09
       90 -3.535032e-07
       91 -3.119792e-08
       92 -5.801393e-08
       93  3.209317e-07
       94  3.006107e-08
       95  4.599012e-08
       96 -2.184951e-07
       97 -3.436532e-07
       98 -2.330535e-07
       99 -4.422127e-10
      100  1.119842e-07
      101 -1.165277e-08
      102 -2.791142e-08
      103 -3.152709e-09
      104  3.260211e-08
      105  4.710050e-09
      106  8.939168e-08
      107  3.281266e-08
      108 -1.543489e-07
      109 -2.602716e-07
      110 -2.433694e-07
      111  4.689913e-10
      112  3.480904e-08
      113  7.482140e-08
      114  5.905654e-08
      115  9.069678e-08
      116  1.822692e-08
      117  2.617985e-08
      118 -3.570063e-08
      119  1.250666e-08
      120 -6.900941e-08
      121 -7.182259e-08
      122 -1.919250e-07
      123 -1.105731e-07
      124  1.215480e-08
      125  1.332559e-07
      126  8.683009e-07
      127  8.122168e-07
      128  8.031524e-07
      129  5.018869e-08
      130 -1.729787e-08
      131 -1.183793e-07
      132 -2.058073e-07
      133 -2.172353e-07
      134 -1.250662e-07
      135 -3.874153e-08
      136  1.649066e-07
      137  1.843825e-07
      138 -1.863834e-07
      139 -4.400616e-07
      140 -4.589176e-07
      141 -1.216605e-07
      142 -7.059628e-08
      143 -8.462936e-08
      144  1.078246e-07
      145  6.048574e-08
      146  7.826423e-08
      147  1.207295e-06
      148  1.270809e-06
      149  1.468139e-06
      150  2.766061e-07
      151  4.242596e-07
      152  1.679089e-07
      153  3.143582e-08
      154 -1.139519e-07
      155 -6.799247e-08
      156 -1.199428e-07
      157  0.000000e+00
      158  0.000000e+00
      159  0.000000e+00