pos          info
        0 -3.327350e-04
        1  1.510242e-03
        2  3.041018e-03
        3  4.313882e-04
        4  6.833485e-04
        5  4.127511e-04
        6  3.420206e-04
        7  2.652800e-04
        8  5.295772e-04
        9  3.654047e-04
       10 -8.132410e-07
       11 -1.458366e-05
       12  3.521694e-06
       13  9.208940e-04
       14  4.077471e-05
       15  5.983693e-06
       16  3.755232e-05
       17  8.831402e-05
       18  7.548529e-05
       19 -8.857665e-06
       20  2.198330e-05
       21 -2.280012e-04
       22 -3.459658e-05
       23 -9.227505e-04
       24 -1.270840e-04
       25  3.016054e-07
       26 -2.876217e-04
       27 -7.309796e-04
       28 -1.191411e-04
       29 -1.503897e-06
       30  3.260850e-05
       31  1.409298e-04
       32  3.393934e-04
       33 -1.969907e-04
       34  1.479225e-04
       35  5.378999e-05
       36  2.511238e-04
       37  7.920768e-04
       38 -4.060340e-06
       39 -1.723133e-04
       40  2.241169e-05
       41  7.455885e-05
       42  2.088118e-04
       43 -2.747145e-04
       44  1.863749e-05
       45  6.727666e-05
       46  2.396870e-09
       47  3.485373e-05
       48 -1.635876e-05
       49 -2.082068e-04
       50 -2.937957e-08
       51 -1.777350e-06
       52 -1.758821e-06
       53 -3.710680e-05
       54 -1.563502e-05
       55  5.231756e-06
       56  1.315336e-05
       57  2.442673e-04
       58  2.431350e-04
       59  3.586539e-05
       60 -2.913572e-05
       61 -3.155411e-07
       62  3.253360e-05
       63  2.939292e-05
       64  2.906606e-04
       65  1.232013e-04
       66  4.901636e-04
       67  2.778637e-05
       68 -2.973311e-05
       69  1.403862e-06
       70 -3.759360e-05
       71 -3.255752e-04
       72  7.675356e-08
       73 -8.261833e-05
       74 -2.165882e-04
       75 -4.250927e-05
       76 -1.287668e-06
       77  8.374135e-05
       78 -1.820910e-04
       79  3.862953e-07
       80  1.708426e-05
       81  1.723259e-04
       82  1.986500e-05
       83 -3.219694e-04
       84 -5.638914e-05
       85  7.459697e-05
       86  2.109920e-06
       87  2.121830e-06
       88  1.233280e-04
       89 -2.272731e-05
       90 -4.353495e-04
       91 -1.098446e-10
       92 -7.861161e-04
       93 -6.901029e-05
       94 -3.961146e-04
       95  9.394340e-06
       96 -1.105010e-06
       97 -4.728492e-06
       98 -4.175365e-05
       99 -6.702715e-06
      100 -1.084564e-08
      101  1.537630e-04
      102  7.118176e-07
      103 -1.184755e-05
      104 -2.443606e-06
      105 -1.832333e-06
      106  2.823052e-06
      107  5.550637e-05
      108  1.706993e-04
      109 -1.159006e-04
      110 -1.854497e-05
      111  2.360092e-07
      112 -2.273693e-04
      113  9.879725e-05
      114 -7.375273e-06
      115  3.244269e-05
      116 -2.843736e-05
      117  2.584897e-05
      118  3.593636e-06
      119  5.637573e-05
      120 -2.409702e-06
      121  8.320352e-05
      122 -1.041246e-04
      123  7.759712e-05
      124 -7.716137e-05
      125 -2.962413e-05
      126 -2.719918e-06
      127  5.498305e-04
      128  6.185234e-04
      129  8.974074e-05
      130  2.815049e-05
      131 -1.146749e-04
      132  6.647098e-05
      133  4.192333e-06
      134  8.829712e-07
      135  6.834082e-07
      136 -2.276228e-04
      137  2.637116e-06
      138  3.394123e-04
      139  1.047052e-04
      140 -4.680625e-05
      141 -2.362966e-04
      142 -7.985252e-05
      143  3.355846e-04
      144  8.715790e-06
      145  2.619613e-04
      146  1.222483e-04
      147 -5.763889e-04
      148 -1.081725e-05
      149  7.078903e-04
      150  7.725088e-07
      151  2.616871e-04
      152  2.871253e-04
      153  1.827774e-04
      154 -1.295544e-05
      155  1.898840e-04
      156  1.703916e-06
      157 -2.074519e-04
      158 -7.886208e-05
      159 -1.868832e-05