pos          info
        0 -3.314420e-04
        1  1.392765e-03
        2  2.605391e-03
        3  4.381594e-04
        4  6.258109e-04
        5  3.195201e-04
        6  3.242486e-04
        7  3.014817e-04
        8  5.111236e-04
        9  3.918939e-04
       10 -1.998209e-06
       11 -1.053607e-05
       12  1.269874e-06
       13  8.994161e-04
       14  3.180314e-05
       15  6.482052e-06
       16  2.382105e-05
       17  8.338241e-05
       18  6.691540e-05
       19 -3.462951e-06
       20  2.968249e-05
       21 -1.960844e-04
       22 -2.816633e-05
       23 -9.905492e-04
       24 -1.353631e-04
       25  1.610318e-06
       26 -3.097074e-04
       27 -7.400210e-04
       28 -1.151154e-04
       29 -2.234386e-07
       30  2.780165e-05
       31  1.354977e-04
       32  3.266759e-04
       33 -2.410656e-04
       34  1.679676e-04
       35  4.618975e-05
       36  2.356533e-04
       37  7.719491e-04
       38 -4.576869e-06
       39 -1.304058e-04
       40  2.200322e-05
       41  6.279312e-05
       42  1.951751e-04
       43 -2.893996e-04
       44  2.778360e-05
       45  7.515014e-05
       46  4.640487e-09
       47  4.255793e-05
       48 -1.801924e-05
       49 -2.037965e-04
       50  1.142537e-06
       51 -1.151014e-06
       52 -2.591221e-06
       53 -4.258598e-05
       54 -2.621221e-05
       55  6.528617e-06
       56  1.153536e-05
       57  2.524829e-04
       58  2.072892e-04
       59  3.659692e-05
       60 -4.142902e-05
       61 -8.355505e-07
       62  3.345174e-05
       63  1.879213e-05
       64  2.855521e-04
       65  1.248400e-04
       66  4.837208e-04
       67  3.805896e-05
       68 -2.669624e-05
       69  1.152463e-06
       70 -3.323011e-05
       71 -3.224479e-04
       72 -5.422827e-07
       73 -7.052360e-05
       74 -2.010825e-04
       75 -5.019651e-05
       76 -1.219009e-08
       77  8.768551e-05
       78 -1.731514e-04
       79  9.279436e-07
       80  1.601823e-05
       81  1.620067e-04
       82  2.681711e-05
       83 -3.176864e-04
       84 -4.574393e-05
       85  7.334401e-05
       86  6.300171e-07
       87  1.932728e-06
       88  1.046835e-04
       89 -2.357748e-05
       90 -4.948924e-04
       91 -1.536523e-07
       92 -9.118281e-04
       93 -3.857671e-05
       94 -4.211837e-04
       95  8.415455e-06
       96 -1.783733e-06
       97 -7.932817e-06
       98 -5.107551e-05
       99 -1.773323e-06
      100  2.516351e-06
      101  1.302961e-04
      102  9.825048e-07
      103 -1.652935e-05
      104 -4.193587e-06
      105 -1.406318e-06
      106  5.026666e-06
      107  5.539417e-05
      108  1.436786e-04
      109 -1.440675e-04
      110 -9.630190e-06
      111  1.191940e-07
      112 -2.483701e-04
      113  9.067023e-05
      114 -1.512381e-06
      115  3.828758e-05
      116 -2.093561e-05
      117  1.960226e-05
      118  4.954529e-06
      119  5.896956e-05
      120 -2.163999e-06
      121  7.605958e-05
      122 -9.255354e-05
      123  7.207201e-05
      124 -7.401401e-05
      125 -2.422897e-05
      126 -6.086433e-06
      127  5.497374e-04
      128  5.408250e-04
      129  1.016891e-04
      130  1.855364e-05
      131 -1.104777e-04
      132  6.462091e-05
      133  1.108539e-05
      134  2.689182e-06
      135  1.178698e-06
      136 -2.612948e-04
      137  4.877477e-06
      138  2.990178e-04
      139  1.087610e-04
      140 -3.684660e-05
      141 -2.630190e-04
      142 -7.512759e-05
      143  3.514129e-04
      144  4.286401e-06
      145  2.735278e-04
      146  1.329373e-04
      147 -5.983477e-04
      148 -1.488021e-05
      149  6.560965e-04
      150  3.608862e-06
      151  2.746505e-04
      152  2.545604e-04
      153  1.524544e-04
      154 -2.317282e-05
      155  1.805630e-04
      156  4.239280e-06
      157 -1.934265e-04
      158 -6.628086e-05
      159 -3.135935e-05