pos       info
        0   0.001133
        1   0.001592
        2   0.001575
        3   0.000697
        4   0.000440
        5   0.000229
        6   0.000141
        7   0.000137
        8   0.000097
        9   0.000004
       10  -0.000014
       11   0.000130
       12   0.000175
       13   0.000171
       14   0.000034
       15   0.000050
       16   0.000041
       17   0.000039
       18  -0.000039
       19  -0.000061
       20  -0.000060
       21  -0.000182
       22  -0.000397
       23  -0.000430
       24  -0.000317
       25  -0.000317
       26  -0.000319
       27  -0.000237
       28  -0.000009
       29   0.000080
       30   0.000049
       31   0.000007
       32   0.000200
       33   0.000487
       34   0.000572
       35   0.000378
       36   0.000088
       37   0.000032
       38  -0.000057
       39  -0.000033
       40  -0.000032
       41  -0.000017
       42  -0.000021
       43  -0.000023
       44   0.000002
       45  -0.000009
       46  -0.000006
       47  -0.000013
       48   0.000007
       49   0.000005
       50   0.000008
       51  -0.000024
       52   0.000015
       53   0.000015
       54   0.000030
       55   0.000004
       56   0.000050
       57   0.000055
       58   0.000011
       59  -0.000037
       60   0.000032
       61   0.000105
       62   0.000313
       63   0.000322
       64   0.000592
       65   0.000473
       66   0.000428
       67   0.000132
       68  -0.000047
       69  -0.000198
       70  -0.000243
       71  -0.000182
       72  -0.000167
       73  -0.000149
       74  -0.000019
       75   0.000148
       76   0.000081
       77  -0.000016
       78   0.000040
       79   0.000186
       80   0.000153
       81  -0.000023
       82  -0.000105
       83  -0.000059
       84  -0.000101
       85  -0.000013
       86  -0.000024
       87   0.000073
       88  -0.000050
       89  -0.000038
       90  -0.000070
       91  -0.000187
       92  -0.000252
       93  -0.000215
       94  -0.000051
       95  -0.000018
       96  -0.000037
       97  -0.000084
       98  -0.000067
       99  -0.000041
      100   0.000019
      101   0.000012
      102   0.000029
      103  -0.000016
      104  -0.000003
      105  -0.000027
      106   0.000096
      107   0.000061
      108  -0.000037
      109  -0.000108
      110  -0.000247
      111  -0.000140
      112  -0.000173
      113   0.000001
      114  -0.000004
      115   0.000030
      116   0.000076
      117   0.000129
      118   0.000170
      119   0.000182
      120   0.000120
      121   0.000048
      122  -0.000016
      123  -0.000028
      124  -0.000012
      125  -0.000005
      126   0.000054
      127   0.000143
      128   0.000156
      129   0.000072
      130  -0.000016
      131  -0.000027
      132   0.000030
      133   0.000031
      134  -0.000014
      135   0.000039
      136   0.000039
      137   0.000101
      138  -0.000002
      139  -0.000113
      140  -0.000185
      141  -0.000099
      142   0.000015
      143   0.000082
      144   0.000086
      145   0.000073
      146   0.000047
      147   0.000061
      148   0.000064
      149   0.000263
      150   0.000213
      151   0.000414
      152   0.000221
      153   0.000239
      154   0.000032
      155  -0.000121
      156  -0.000164
      157   0.000000
      158   0.000000
      159   0.000000