pos          info
        0  1.207615e-03
        1  1.646130e-03
        2  1.626803e-03
        3  6.878967e-04
        4  4.433380e-04
        5  2.417997e-04
        6  1.600044e-04
        7  1.511275e-04
        8  1.073084e-04
        9  1.813249e-05
       10  2.383618e-06
       11  1.253417e-04
       12  1.549599e-04
       13  1.569365e-04
       14  3.737442e-05
       15  5.689575e-05
       16  3.895896e-05
       17  3.805800e-05
       18 -3.768065e-05
       19 -5.855982e-05
       20 -5.535135e-05
       21 -2.016745e-04
       22 -4.189748e-04
       23 -4.631762e-04
       24 -3.397819e-04
       25 -3.529924e-04
       26 -3.370971e-04
       27 -2.467402e-04
       28 -2.847157e-06
       29  8.131377e-05
       30  4.872623e-05
       31  1.262867e-05
       32  1.740823e-04
       33  4.825514e-04
       34  5.585714e-04
       35  3.991408e-04
       36  8.835118e-05
       37  3.728652e-05
       38 -6.055307e-05
       39 -3.339276e-05
       40 -3.170479e-05
       41 -1.876916e-05
       42 -2.441688e-05
       43 -2.452777e-05
       44  5.232815e-07
       45 -1.093576e-05
       46 -7.704699e-06
       47 -1.305237e-05
       48  6.849191e-06
       49  3.711111e-06
       50  7.243450e-06
       51 -2.286116e-05
       52  1.945998e-05
       53  1.971083e-05
       54  3.623058e-05
       55  1.429383e-05
       56  4.384310e-05
       57  4.523084e-05
       58  1.255954e-06
       59 -3.301372e-05
       60  3.609486e-05
       61  1.070548e-04
       62  3.079718e-04
       63  3.313611e-04
       64  5.728754e-04
       65  4.697353e-04
       66  4.103501e-04
       67  1.387618e-04
       68 -3.625663e-05
       69 -1.859888e-04
       70 -2.270646e-04
       71 -1.759772e-04
       72 -1.753017e-04
       73 -1.607749e-04
       74 -3.481461e-05
       75  1.704848e-04
       76  1.044830e-04
       77  1.091980e-05
       78  3.462935e-05
       79  1.743434e-04
       80  1.442042e-04
       81 -2.164292e-05
       82 -9.956433e-05
       83 -5.696271e-05
       84 -9.314741e-05
       85 -1.603638e-05
       86 -2.869237e-05
       87  6.233231e-05
       88 -4.486422e-05
       89 -2.102375e-05
       90 -5.878719e-05
       91 -1.837673e-04
       92 -2.635053e-04
       93 -2.246759e-04
       94 -5.623533e-05
       95 -1.989479e-05
       96 -3.624261e-05
       97 -8.923362e-05
       98 -7.092436e-05
       99 -3.993125e-05
      100  2.474308e-05
      101  2.074711e-05
      102  3.395005e-05
      103 -1.053217e-05
      104  5.154026e-07
      105 -2.605541e-05
      106  1.016238e-04
      107  5.722026e-05
      108 -6.743049e-05
      109 -1.435423e-04
      110 -2.851539e-04
      111 -1.525722e-04
      112 -1.882422e-04
      113 -3.476027e-07
      114 -5.936672e-06
      115  3.784159e-05
      116  8.957075e-05
      117  1.521374e-04
      118  2.074272e-04
      119  2.083694e-04
      120  1.363274e-04
      121  4.493014e-05
      122 -1.632943e-05
      123 -2.628751e-05
      124 -1.309924e-05
      125 -5.586197e-06
      126  6.117435e-05
      127  1.613541e-04
      128  1.816496e-04
      129  8.897860e-05
      130 -9.690680e-06
      131 -2.731057e-05
      132  2.658427e-05
      133  2.976186e-05
      134 -1.713338e-05
      135  3.080353e-05
      136  3.059778e-05
      137  9.393030e-05
      138  2.156656e-06
      139 -9.871220e-05
      140 -1.726569e-04
      141 -1.016972e-04
      142  9.169301e-07
      143  6.498948e-05
      144  8.540179e-05
      145  7.367352e-05
      146  5.231363e-05
      147  6.584904e-05
      148  6.763915e-05
      149  2.530068e-04
      150  1.935811e-04
      151  4.102645e-04
      152  2.333656e-04
      153  2.591379e-04
      154  3.578723e-05
      155 -1.338665e-04
      156 -1.774563e-04
      157  0.000000e+00
      158  0.000000e+00
      159  0.000000e+00