       pos          info
         0 -3.344269e-05
         1 -2.413627e-05
         2 -9.854147e-06
         3 -7.383782e-05
         4 -2.889173e-05
         5 -3.085098e-05
         6  8.019305e-05
         7  3.509087e-05
         8  1.027848e-04
         9  1.085235e-04
        10 -1.405470e-05
        11 -8.310456e-05
        12 -9.275495e-05
        13  2.979012e-05
        14  1.662816e-05
        15 -1.612197e-05
        16 -4.605514e-05
        17 -5.998068e-05
        18 -6.058941e-05
        19 -3.061920e-05
        20 -7.350050e-05
        21 -6.479941e-05
        22 -7.339212e-06
        23  6.905485e-05
        24  7.942277e-05
        25  6.125314e-05
        26  8.750596e-05
        27  8.819255e-05
        28  5.096311e-05
        29 -1.589570e-04
        30 -1.817150e-04
        31 -1.817445e-04
        32 -3.398345e-05
        33 -1.768727e-05
        34 -2.340269e-05
        35  1.566772e-05
        36 -2.921147e-05
        37 -4.104303e-05
        38 -2.747237e-05
        39  7.189240e-05
        40  7.681477e-05
        41  5.472686e-05
        42 -1.362526e-05
        43 -2.402931e-05
        44 -2.466488e-05
        45 -5.011397e-05
        46  3.503738e-05
        47  3.971233e-05
        48  7.945181e-05
        49 -3.859303e-05
        50 -4.232505e-05
        51 -7.688847e-05
        52 -1.169506e-05
        53 -3.757053e-05
        54 -1.616156e-05
        55  1.139569e-04
        56  2.031615e-04
        57  1.996447e-04
        58  5.110342e-05
        59 -1.032991e-05
        60 -3.792964e-06
        61  2.895421e-06
        62  2.919743e-06
        63 -4.308231e-07
        64 -1.014786e-07
        65  4.143501e-05
        66  5.626764e-05
        67  1.312444e-04
        68  8.157719e-05
        69  6.649563e-05
        70 -4.188803e-06
        71 -2.596751e-05
        72  4.051503e-05
        73  3.097535e-05
        74 -5.896250e-04
        75 -5.058853e-04
        76 -1.753541e-04
        77  6.928201e-04
        78  7.724125e-04
        79  4.497310e-04
        80  1.542793e-04
        81 -6.179002e-05
        82 -4.194130e-06
        83  9.239323e-05
        84  8.048153e-05
        85  3.674887e-05
        86 -5.624272e-06
        87 -1.453310e-05
        88 -2.861674e-05
        89  8.048469e-05
        90  2.993028e-05
        91  4.876288e-05
        92 -3.609001e-05
        93  2.432383e-05
        94  1.161083e-05
        95  1.091222e-05
        96  8.561802e-06
        97  1.929224e-04
        98  2.125594e-04
        99  2.150924e-04
       100  2.047160e-04
       101  2.394291e-04
       102  3.619127e-04
       103  1.806041e-04
       104  1.462328e-04
       105 -6.500169e-05
       106 -6.498318e-05
       107 -2.097399e-04
       108 -9.425962e-05
       109 -9.251225e-05
       110  1.272990e-05
       111 -2.891205e-05
       112 -3.381554e-05
       113 -3.462837e-04
       114 -3.944145e-04
       115 -5.113184e-04
       116 -1.889718e-04
       117 -1.765257e-04
       118 -7.437398e-05
       119 -5.808399e-05
       120 -4.115050e-06
       121  1.107976e-04
       122  1.083623e-04
       123  8.245297e-05
       124  6.591149e-05
       125  6.498657e-05
       126  1.155408e-04
       127  2.035390e-05
       128 -3.961352e-05
       129 -4.170827e-05
       130 -2.236552e-05
       131  3.953762e-05
       132  2.988070e-05
       133  2.223854e-06
       134 -2.554520e-05
       135 -2.168924e-05
       136  3.408575e-05
       137  1.242169e-04
       138  5.568981e-05
       139  2.185254e-05
       140 -1.416876e-05
       141  1.125760e-05
       142  1.124160e-05
       143 -1.109731e-05
       144 -2.432539e-05
       145  5.986105e-05
       146  1.013852e-04
       147  1.295551e-04
       148  4.516769e-05
       149 -1.800910e-06
       150 -7.964155e-05
       151 -4.340455e-05
       152 -4.600949e-05
       153  8.591728e-05
       154  9.161506e-05
       155  1.693107e-04
       156  2.233322e-04
       157  0.000000e+00
       158  0.000000e+00
       159  0.000000e+00