pos          info
        0 -1.749111e-06
        1 -1.974874e-05
        2  2.068027e-05
        3 -5.149969e-07
        4  1.949915e-05
        5  2.253880e-07
        6  4.661872e-06
        7 -6.688629e-06
        8 -3.265271e-05
        9  6.190816e-06
       10 -1.371251e-04
       11 -1.127996e-04
       12  4.393642e-05
       13 -2.947466e-05
       14 -2.992327e-04
       15  2.491749e-05
       16  7.416876e-06
       17 -3.184376e-05
       18  4.671432e-05
       19  5.930481e-05
       20 -7.032738e-05
       21  8.184450e-06
       22 -9.441302e-06
       23 -8.149324e-06
       24  4.761420e-05
       25 -4.234369e-05
       26 -2.519629e-05
       27 -3.044004e-05
       28 -8.008277e-07
       29 -8.480633e-05
       30 -5.105671e-05
       31 -1.655813e-05
       32 -6.245365e-06
       33 -1.998536e-05
       34 -6.005241e-06
       35  3.725612e-05
       36 -2.701270e-05
       37 -4.112957e-07
       38  5.727270e-06
       39  1.957547e-06
       40 -4.318026e-05
       41 -8.603112e-05
       42 -2.195326e-07
       43  4.389466e-05
       44  1.008036e-05
       45  1.007438e-05
       46 -9.879188e-05
       47  9.723185e-05
       48 -1.254855e-05
       49  7.818498e-06
       50 -4.434230e-05
       51 -1.147499e-05
       52 -7.014120e-05
       53  7.919144e-05
       54 -4.405442e-07
       55  2.230006e-04
       56 -5.640967e-06
       57 -1.290329e-04
       58  2.540615e-05
       59  7.932860e-05
       60 -4.637329e-05
       61  1.123281e-07
       62  5.167849e-05
       63 -4.684014e-05
       64  1.003773e-05
       65  7.813744e-05
       66 -4.314644e-06
       67 -1.996772e-04
       68  1.508179e-05
       69 -2.076536e-04
       70  2.412158e-04
       71 -1.561246e-04
       72 -8.454638e-05
       73  3.983400e-05
       74 -1.880437e-04
       75 -5.824127e-05
       76  3.337843e-03
       77 -9.011045e-04
       78 -1.272456e-03
       79 -5.612921e-04
       80 -1.992202e-04
       81 -4.919075e-05
       82  1.273716e-05
       83  3.125828e-06
       84 -5.100434e-05
       85 -3.326037e-05
       86 -1.381952e-05
       87 -7.068019e-06
       88  1.225637e-06
       89 -1.886910e-06
       90  2.014785e-05
       91 -3.253773e-05
       92  1.439747e-05
       93 -2.724828e-05
       94 -1.606665e-04
       95  4.025423e-04
       96 -8.790669e-05
       97  5.987120e-06
       98  3.140169e-05
       99 -2.188194e-03
      100 -1.716103e-03
      101  1.696698e-05
      102 -1.017154e-03
      103 -7.845672e-04
      104 -2.004401e-03
      105 -6.344455e-05
      106  2.934612e-05
      107  6.037297e-05
      108  1.459294e-04
      109  1.758051e-05
      110 -1.135598e-06
      111 -1.235287e-05
      112  1.835086e-04
      113  1.035374e-05
      114  3.772021e-05
      115  2.242680e-04
      116  6.438671e-05
      117  1.029656e-04
      118  7.346348e-05
      119  1.343255e-05
      120  1.265468e-04
      121  1.972440e-05
      122  2.882423e-05
      123 -1.790080e-04
      124  4.455880e-06
      125 -6.242253e-06
      126 -9.516924e-06
      127 -2.042359e-06
      128 -9.667426e-05
      129 -1.676617e-07
      130  2.372406e-04
      131 -6.893787e-05
      132  9.553312e-08
      133  2.124661e-05
      134  1.233752e-04
      135  6.983175e-05
      136 -6.065557e-07
      137 -5.725503e-05
      138  4.420226e-05
      139 -2.184334e-05
      140  2.001024e-05
      141 -4.966430e-07
      142  2.358882e-05
      143  1.481013e-05
      144  1.275575e-05
      145 -1.450853e-06
      146 -5.576948e-07
      147 -4.392777e-05
      148  6.556341e-08
      149 -2.995058e-04
      150 -4.247167e-05
      151 -1.009827e-04
      152  4.817355e-04
      153  5.846322e-06
      154  1.535762e-05
      155  1.106808e-04
      156 -1.267001e-04
      157 -1.900544e-04
      158 -1.778713e-04
      159  5.036669e-05