pos          info
        0 -1.725766e-06
        1  1.270418e-06
        2  9.382764e-05
        3  4.834167e-07
        4  2.996097e-05
        5  8.594952e-06
        6  8.507107e-06
        7 -6.438011e-06
        8 -1.808744e-05
        9  1.387989e-04
       10 -2.933352e-04
       11 -4.342073e-05
       12  2.451967e-05
       13  2.868675e-05
       14 -2.124871e-04
       15  2.093798e-05
       16  6.800655e-06
       17 -2.415907e-05
       18  9.903164e-07
       19  6.091381e-05
       20 -8.542358e-06
       21  4.318987e-05
       22 -3.268538e-08
       23  2.623999e-07
       24  2.469922e-06
       25 -5.302341e-06
       26 -4.049316e-05
       27 -9.115649e-05
       28 -4.829208e-09
       29 -7.704655e-05
       30 -7.279460e-05
       31 -1.886106e-05
       32  2.907393e-06
       33 -3.679401e-05
       34  1.256218e-05
       35  2.590828e-05
       36 -4.609717e-06
       37 -3.568233e-06
       38  5.845358e-08
       39 -5.222212e-06
       40 -3.681740e-05
       41 -3.960856e-05
       42  2.285255e-05
       43  4.064179e-05
       44  1.954563e-05
       45  3.539560e-05
       46 -5.321960e-05
       47  7.859761e-05
       48 -2.381314e-05
       49  7.863069e-07
       50 -5.520370e-05
       51  3.218102e-05
       52 -2.154621e-05
       53  1.341057e-04
       54 -3.218429e-05
       55  1.717896e-04
       56  6.647252e-06
       57 -1.187397e-04
       58  4.120066e-05
       59  1.100121e-04
       60 -3.106694e-05
       61 -5.781978e-06
       62  4.178652e-05
       63 -2.981986e-05
       64 -8.027998e-06
       65  8.638636e-05
       66 -5.144611e-05
       67 -1.799194e-04
       68 -2.706332e-06
       69 -2.672416e-04
       70  2.237447e-04
       71 -5.414133e-05
       72 -5.270928e-05
       73  2.469124e-05
       74 -6.003228e-05
       75 -2.030576e-05
       76  3.114224e-03
       77 -9.672038e-04
       78 -1.000732e-03
       79 -6.177893e-04
       80 -2.077185e-04
       81 -1.057444e-04
       82  4.380578e-05
       83  1.499401e-05
       84 -1.003234e-04
       85 -7.557701e-05
       86 -7.909677e-06
       87 -7.047904e-07
       88  2.279084e-05
       89  1.598383e-06
       90  3.141802e-05
       91 -5.756050e-06
       92  3.466071e-06
       93 -1.123941e-04
       94 -6.632864e-05
       95  5.019459e-04
       96 -5.514508e-05
       97  1.020228e-05
       98  6.728377e-05
       99 -1.809158e-03
      100 -2.037854e-03
      101  6.059299e-05
      102 -7.769069e-04
      103 -5.955700e-04
      104 -1.953895e-03
      105 -5.250308e-05
      106 -1.243447e-06
      107  3.600089e-05
      108  1.062514e-04
      109  1.826358e-07
      110 -1.631669e-05
      111 -1.842811e-06
      112  2.002471e-04
      113  1.850075e-04
      114  1.069357e-09
      115  1.453726e-04
      116  5.975993e-05
      117  1.520899e-04
      118  1.573308e-04
      119  1.092616e-05
      120  6.935354e-05
      121  5.824756e-06
      122  3.814471e-05
      123 -2.421494e-04
      124 -1.516012e-06
      125 -1.147526e-07
      126 -4.214226e-07
      127 -1.339121e-05
      128 -1.603731e-05
      129 -1.893137e-05
      130  1.758990e-04
      131 -6.287268e-06
      132  4.727787e-07
      133  1.567696e-05
      134  9.173923e-05
      135  2.296657e-05
      136  1.097327e-05
      137 -1.323700e-04
      138  3.854172e-06
      139 -1.527219e-04
      140 -2.322870e-05
      141 -1.139023e-06
      142 -1.398449e-05
      143 -1.115390e-05
      144  1.610569e-05
      145 -2.541894e-05
      146  1.530701e-05
      147 -3.906261e-06
      148 -2.942984e-05
      149 -6.211261e-05
      150 -1.401082e-05
      151 -1.581096e-04
      152  6.528905e-04
      153 -7.098644e-06
      154  3.830255e-05
      155  6.574734e-06
      156 -8.427855e-05
      157 -1.915596e-04
      158 -9.243492e-05
      159  1.128699e-04