pos          info
        0 -3.112410e-05
        1 -3.186049e-05
        2 -4.142401e-05
        3 -1.301311e-05
        4 -1.568768e-05
        5 -3.554683e-06
        6  5.339449e-06
        7 -3.809115e-05
        8  5.754126e-05
        9  6.598569e-05
       10  1.040788e-04
       11 -3.261898e-06
       12  5.309357e-05
       13  5.428746e-05
       14  6.158283e-05
       15 -1.193189e-06
       16  5.456034e-06
       17 -1.258169e-05
       18 -1.778726e-05
       19 -3.185378e-05
       20 -1.153828e-05
       21 -1.447320e-05
       22 -8.998788e-07
       23  8.566731e-07
       24  1.444186e-05
       25  4.565066e-05
       26  4.388483e-05
       27  5.606929e-05
       28  4.994866e-05
       29  5.623407e-05
       30  2.958276e-05
       31  1.758256e-05
       32  7.108148e-06
       33 -5.588159e-07
       34 -1.128691e-05
       35 -5.910112e-06
       36  2.706499e-06
       37  2.910664e-06
       38  1.399372e-05
       39  2.721606e-05
       40  1.785780e-05
       41 -7.961923e-06
       42 -2.767999e-05
       43 -3.186100e-05
       44 -5.738752e-07
       45 -2.025787e-05
       46 -5.216242e-07
       47 -1.852359e-05
       48  2.607684e-05
       49  7.412124e-06
       50  1.485630e-05
       51 -4.824684e-05
       52 -2.679174e-05
       53 -9.123701e-05
       54 -4.875086e-05
       55 -1.989907e-05
       56  2.363059e-05
       57 -1.082437e-05
       58 -4.004861e-05
       59 -2.438773e-05
       60 -1.645865e-06
       61 -2.061559e-06
       62 -1.312886e-06
       63 -1.617950e-05
       64 -8.970750e-06
       65  4.832637e-05
       66  7.802394e-05
       67  1.499558e-04
       68  1.540108e-05
       69  3.254608e-05
       70 -3.896469e-05
       71  2.738646e-05
       72  2.935011e-05
       73  1.854893e-05
       74 -1.011295e-03
       75 -7.089049e-04
       76 -3.820962e-04
       77  8.619083e-04
       78  6.087465e-04
       79  3.104174e-04
       80  8.988571e-05
       81  1.564822e-05
       82  1.384121e-05
       83  5.363548e-05
       84  6.127004e-05
       85  2.806383e-05
       86 -4.725458e-06
       87 -7.894811e-06
       88 -1.860241e-05
       89 -9.086783e-06
       90 -9.709346e-06
       91  3.822801e-05
       92  5.841888e-05
       93 -1.077411e-04
       94 -1.268241e-04
       95 -1.523344e-04
       96 -7.446992e-06
       97  5.772241e-04
       98  1.259910e-03
       99  1.262140e-03
      100  9.180561e-04
      101  4.372946e-04
      102  1.108791e-03
      103  8.673228e-04
      104  6.692139e-04
      105  5.915213e-06
      106 -4.700294e-05
      107 -4.747831e-05
      108 -3.003911e-05
      109  5.992289e-06
      110 -6.069588e-05
      111 -1.278040e-04
      112 -1.284186e-04
      113 -1.101271e-04
      114 -6.837787e-05
      115 -1.190741e-04
      116 -1.230602e-04
      117 -1.067823e-04
      118 -7.920349e-05
      119 -2.870149e-05
      120 -3.777434e-05
      121  6.605997e-05
      122  6.850689e-05
      123  8.126005e-05
      124  6.840623e-07
      125  4.642463e-06
      126  9.949984e-06
      127  1.611997e-05
      128 -4.697677e-05
      129 -5.022678e-05
      130 -5.669483e-05
      131 -3.287489e-06
      132 -3.596299e-05
      133 -4.346092e-05
      134 -4.189303e-05
      135  3.281006e-05
      136  3.918086e-05
      137  9.374591e-05
      138  5.736547e-05
      139  5.902986e-05
      140  1.278407e-05
      141  8.759140e-06
      142  3.010902e-06
      143  6.822383e-06
      144 -1.997920e-06
      145  4.672731e-06
      146  6.009699e-06
      147  3.181624e-05
      148  3.518443e-05
      149  7.807767e-05
      150 -1.602567e-04
      151 -1.625608e-04
      152 -2.280315e-04
      153 -1.259288e-05
      154  1.313376e-05
      155  8.975448e-05
      156  1.227577e-04
      157  0.000000e+00
      158  0.000000e+00
      159  0.000000e+00