pos          info
        0 -6.901658e-06
        1 -2.981675e-05
        2 -3.851194e-05
        3 -3.524345e-05
        4 -3.306404e-05
        5 -1.445897e-05
        6 -3.537736e-06
        7 -6.537215e-06
        8 -1.647079e-05
        9 -1.760050e-05
       10 -1.448248e-05
       11  9.658303e-06
       12  1.634361e-05
       13  2.635238e-05
       14 -7.086537e-05
       15 -6.392713e-05
       16 -7.261936e-05
       17  1.073926e-05
       18 -2.729542e-06
       19  3.677483e-05
       20  5.774705e-05
       21  6.782833e-05
       22  6.848411e-05
       23  4.811328e-05
       24  1.127346e-04
       25  6.147745e-05
       26  6.626371e-05
       27  6.999874e-06
       28  1.846374e-05
       29 -3.867035e-06
       30 -1.722217e-05
       31 -9.749780e-06
       32 -2.691464e-05
       33 -2.586135e-05
       34  4.030106e-05
       35  5.870155e-05
       36  6.603040e-05
       37 -2.905066e-05
       38 -7.193391e-06
       39 -1.527718e-05
       40  6.374229e-06
       41  3.575467e-05
       42  3.556504e-05
       43  3.473678e-05
       44  3.062395e-05
       45  5.146117e-06
       46 -2.436230e-05
       47 -2.919308e-05
       48 -4.445439e-06
       49  2.487119e-05
       50  3.767542e-05
       51  5.964097e-05
       52  5.905401e-05
       53  2.728405e-05
       54 -6.713594e-05
       55 -6.609625e-05
       56 -6.536263e-05
       57  7.633003e-06
       58  7.449605e-06
       59 -8.220333e-06
       60 -1.276237e-05
       61 -8.821941e-05
       62  1.066578e-04
       63  1.122857e-04
       64  1.191382e-04
       65 -6.727516e-05
       66 -8.699954e-05
       67 -2.639324e-05
       68 -4.488584e-05
       69 -2.619111e-05
       70 -1.940259e-06
       71  1.446938e-05
       72  1.496255e-05
       73 -2.708983e-06
       74 -9.469453e-07
       75 -5.387563e-06
       76 -4.047417e-06
       77 -4.280557e-05
       78 -4.333538e-05
       79 -1.044931e-05
       80  2.317279e-06
       81  8.764982e-06
       82 -2.456762e-05
       83  1.120975e-05
       84  1.338090e-05
       85  1.748007e-05
       86  1.171866e-05
       87 -4.576021e-08
       88 -2.154103e-04
       89 -2.210505e-04
       90 -2.055373e-04
       91  7.649425e-06
       92  1.284391e-05
       93  4.278202e-05
       94 -8.368263e-05
       95 -2.566795e-05
       96 -6.275869e-05
       97  5.451734e-05
       98  1.766236e-04
       99  1.741566e-04
      100  1.729161e-04
      101  4.803832e-05
      102  8.711832e-05
      103  1.183659e-04
      104  4.844018e-05
      105 -3.842329e-05
      106 -2.712964e-05
      107 -2.518146e-05
      108  3.204560e-05
      109 -1.445429e-06
      110  1.605698e-05
      111 -4.433034e-05
      112 -5.759178e-05
      113 -6.688218e-05
      114 -1.524124e-05
      115 -2.333643e-05
      116  1.699082e-06
      117 -1.286250e-05
      118 -4.000346e-05
      119 -6.451406e-05
      120 -4.894140e-05
      121 -9.580792e-06
      122 -7.020923e-07
      123  7.187832e-08
      124  5.644965e-05
      125  5.688855e-05
      126  8.660656e-05
      127  3.815732e-05
      128  2.869208e-05
      129 -1.064198e-05
      130 -9.393983e-05
      131 -9.325956e-05
      132 -8.451766e-05
      133 -7.128645e-08
      134  1.202104e-05
      135  1.935570e-05
      136  2.306149e-05
      137  2.744882e-05
      138  1.927403e-05
      139  4.517656e-05
      140  3.721677e-05
      141 -3.791073e-05
      142 -6.837487e-05
      143 -7.439615e-05
      144  2.924850e-06
      145  3.957458e-05
      146  3.497904e-05
      147  7.619383e-05
      148  1.556258e-05
      149  6.218325e-05
      150  1.970767e-05
      151  2.227715e-05
      152 -2.025542e-05
      153  1.186149e-05
      154  8.494799e-05
      155  6.927356e-05
      156  5.122690e-05
      157  0.000000e+00
      158  0.000000e+00
      159  0.000000e+00