pos          info
        0  1.917764e-08
        1  2.680404e-05
        2  4.741918e-04
        3 -9.507091e-06
        4  1.397012e-04
        5  2.908093e-05
        6  1.742826e-05
        7  4.073509e-06
        8  8.110239e-05
        9  1.591804e-05
       10  5.134790e-05
       11  1.810900e-04
       12 -2.120560e-05
       13  7.408163e-05
       14 -3.997591e-05
       15 -7.252170e-06
       16 -2.114349e-05
       17 -5.401182e-05
       18 -1.331278e-05
       19 -1.933910e-05
       20 -2.172735e-04
       21 -1.185014e-05
       22 -1.072754e-04
       23  4.986310e-06
       24 -4.326971e-05
       25  4.025953e-05
       26 -6.644882e-04
       27  1.879977e-04
       28 -5.969792e-08
       29 -2.794111e-04
       30 -4.406457e-06
       31  5.592339e-04
       32 -2.194782e-07
       33 -3.311818e-04
       34  3.441305e-05
       35 -3.095533e-05
       36 -7.237513e-04
       37  2.086337e-05
       38  6.787282e-05
       39  2.656677e-06
       40  9.726977e-05
       41  7.894612e-06
       42 -1.061648e-04
       43 -2.149985e-06
       44 -6.948577e-05
       45  2.579647e-05
       46 -1.478786e-06
       47  7.637225e-05
       48  1.216097e-04
       49  4.366957e-06
       50  1.300295e-05
       51  2.096193e-04
       52  5.431137e-06
       53  2.061636e-07
       54  1.261041e-06
       55  1.019910e-04
       56  6.196605e-05
       57 -2.920264e-04
       58 -7.617286e-05
       59 -1.160772e-07
       60  8.752173e-05
       61  3.681235e-05
       62  3.256098e-04
       63  2.529597e-04
       64 -2.912483e-04
       65 -3.207054e-05
       66 -9.472888e-05
       67 -5.396340e-05
       68  2.015369e-05
       69  1.281409e-05
       70  4.400123e-05
       71 -2.047037e-05
       72 -4.998919e-06
       73 -3.255895e-05
       74 -1.466930e-04
       75 -1.512116e-04
       76 -6.452469e-05
       77 -5.896808e-05
       78  7.574739e-06
       79  6.140987e-04
       80 -2.623420e-05
       81 -4.247316e-04
       82  1.627669e-05
       83  2.525542e-07
       84  1.115190e-05
       85 -1.565414e-04
       86 -1.584349e-04
       87 -4.930424e-05
       88 -5.987002e-06
       89  5.295447e-04
       90  3.975580e-05
       91  4.668251e-07
       92  6.788239e-06
       93 -1.987533e-05
       94 -4.352826e-05
       95 -4.092098e-05
       96  1.552009e-03
       97 -4.380033e-04
       98 -3.746516e-05
       99 -3.487750e-05
      100 -7.896264e-04
      101  6.060018e-06
      102  2.755092e-06
      103 -2.863578e-04
      104 -3.264847e-04
      105 -1.118793e-04
      106  1.870815e-05
      107  5.995171e-04
      108  1.654363e-04
      109  5.016763e-04
      110 -2.543340e-04
      111  1.156595e-04
      112 -3.892615e-05
      113  9.091588e-05
      114 -3.066341e-06
      115  1.584169e-04
      116  1.281178e-05
      117  1.151185e-06
      118 -4.403915e-05
      119  1.575618e-05
      120  6.827023e-07
      121  1.005978e-05
      122 -4.796502e-07
      123  1.073548e-04
      124 -1.138859e-04
      125 -1.879796e-05
      126 -2.876559e-04
      127 -2.713931e-04
      128  1.865910e-06
      129 -2.410441e-04
      130 -7.560039e-05
      131  3.005442e-04
      132  2.599823e-04
      133 -2.955358e-05
      134  1.708520e-04
      135  9.152117e-04
      136 -3.069233e-05
      137 -3.473523e-05
      138 -3.576016e-05
      139 -1.974661e-04
      140  3.125461e-06
      141 -5.581094e-06
      142  2.533971e-07
      143  3.195646e-04
      144  5.707508e-05
      145  3.124201e-04
      146  3.713083e-05
      147 -1.755335e-04
      148  1.211118e-05
      149 -3.311039e-04
      150  1.801451e-04
      151  6.800227e-05
      152  4.408461e-06
      153  2.402590e-04
      154 -1.112233e-04
      155 -1.669043e-04
      156  4.620649e-05
      157  9.220816e-05
      158 -3.477820e-04
      159 -1.734348e-04