pos          info
        0  8.194056e-05
        1  8.262214e-05
        2  1.362705e-04
        3  6.734707e-05
        4  2.956700e-04
        5  2.449284e-04
        6  2.339647e-04
        7 -1.504057e-04
        8 -1.555441e-04
        9 -1.323424e-04
       10 -3.145998e-05
       11 -6.327648e-05
       12 -1.578708e-04
       13 -1.135924e-04
       14 -9.425295e-05
       15  3.183522e-05
       16  1.445865e-04
       17  1.413707e-04
       18  1.575034e-04
       19 -4.086925e-05
       20 -9.221012e-05
       21 -1.340932e-04
       22 -4.945291e-05
       23  1.629534e-06
       24 -3.440855e-05
       25  3.090726e-06
       26  2.856867e-06
       27  2.637667e-05
       28  7.632445e-05
       29  2.201026e-04
       30  2.130860e-04
       31  9.743145e-05
       32 -4.286926e-05
       33 -2.464868e-05
       34 -2.002104e-04
       35 -1.590197e-04
       36 -2.887408e-04
       37 -2.747644e-06
       38 -4.646929e-05
       39  7.086019e-05
       40 -7.986123e-05
       41 -1.272656e-04
       42 -1.569522e-04
       43 -7.680516e-06
       44  2.886187e-05
       45  1.067220e-04
       46  9.412204e-05
       47  1.044719e-04
       48  5.701394e-05
       49  1.027399e-05
       50  1.050629e-05
       51  8.988728e-06
       52 -1.552210e-05
       53  5.896399e-05
       54  1.040170e-04
       55  1.538509e-04
       56  9.011048e-05
       57  1.943072e-05
       58  8.302942e-06
       59  3.994734e-09
       60  2.385965e-04
       61  2.339147e-04
       62  8.332720e-05
       63 -1.287767e-04
       64 -1.312995e-04
       65 -7.753285e-06
       66  5.786959e-05
       67  4.089681e-05
       68  9.350824e-05
       69  1.261127e-04
       70  1.239462e-04
       71  9.568857e-05
       72 -2.447315e-05
       73 -4.035370e-05
       74 -4.572717e-05
       75  2.666768e-05
       76  3.503969e-05
       77  4.094248e-05
       78  9.085287e-05
       79 -1.555506e-06
       80  1.162143e-05
       81 -8.930175e-05
       82  1.273298e-05
       83 -7.014641e-06
       84 -1.808555e-05
       85 -7.316581e-05
       86 -6.916555e-05
       87 -4.026985e-05
       88  3.853483e-05
       89  6.896673e-05
       90  6.066817e-05
       91  3.536754e-05
       92 -5.299149e-05
       93 -6.687209e-05
       94  2.702480e-04
       95  3.254871e-04
       96  3.871025e-04
       97  4.613846e-05
       98 -3.273758e-04
       99 -4.334696e-04
      100 -4.252466e-04
      101 -7.773655e-05
      102 -4.801962e-05
      103 -1.113842e-04
      104 -7.575279e-05
      105  1.712163e-04
      106  2.285333e-04
      107  2.386437e-04
      108 -3.818885e-05
      109  5.660923e-06
      110 -5.693743e-05
      111  2.425307e-05
      112 -1.151025e-04
      113 -6.172446e-05
      114 -9.911984e-05
      115  4.523540e-05
      116 -6.277875e-07
      117  2.198513e-05
      118 -2.675382e-05
      119  1.436949e-05
      120 -2.321377e-05
      121 -1.564606e-05
      122 -4.167305e-05
      123 -1.003557e-04
      124 -1.193516e-04
      125 -8.232303e-05
      126 -3.620102e-06
      127  1.177214e-05
      128  1.200083e-04
      129  1.280956e-04
      130  6.415023e-04
      131  5.155197e-04
      132  5.465024e-04
      133  1.147029e-04
      134  9.680036e-05
      135  1.216372e-04
      136  2.599198e-05
      137  4.982187e-05
      138 -1.331261e-05
      139  4.597687e-05
      140  4.454191e-05
      141  6.016676e-04
      142  5.697734e-04
      143  5.808713e-04
      144  1.649562e-04
      145  2.311312e-05
      146  1.291570e-04
      147 -1.824709e-04
      148  5.303352e-06
      149 -1.203324e-04
      150  3.374403e-05
      151 -2.188819e-05
      152 -2.547915e-06
      153  9.600966e-06
      154 -1.297288e-05
      155  4.553102e-05
      156  2.433898e-05
      157  0.000000e+00
      158  0.000000e+00
      159  0.000000e+00