pos          info
        0  6.266768e-06
        1 -2.585241e-06
        2 -4.363310e-06
        3 -3.308484e-05
        4 -1.949885e-05
        5 -3.270132e-05
        6 -1.414856e-05
        7 -2.008861e-05
        8  3.263577e-05
        9  3.586885e-05
       10  3.597594e-05
       11  2.737142e-05
       12  2.528319e-05
       13  2.128402e-05
       14 -1.004668e-05
       15 -1.196238e-05
       16 -1.414445e-05
       17 -3.891078e-05
       18 -2.641504e-05
       19 -2.805075e-05
       20 -3.405076e-06
       21 -1.402104e-05
       22 -4.599876e-05
       23 -3.348470e-05
       24 -2.906439e-05
       25  1.020616e-05
       26  2.201044e-05
       27  1.640393e-05
       28  4.823285e-05
       29 -1.296424e-05
       30 -8.472521e-06
       31 -4.632056e-06
       32  3.972937e-05
       33  2.640037e-05
       34 -9.166617e-06
       35  1.235960e-06
       36  6.365446e-06
       37  6.206261e-06
       38 -4.893484e-06
       39  1.828694e-06
       40 -2.965318e-05
       41  2.707754e-05
       42  2.178728e-05
       43  5.380730e-05
       44 -2.159076e-05
       45 -1.875132e-05
       46 -5.539318e-05
       47 -3.496489e-05
       48 -2.012031e-05
       49  2.475490e-05
       50  1.924850e-05
       51 -4.149219e-05
       52 -3.869239e-05
       53 -2.991143e-05
       54  9.083916e-06
       55 -1.338077e-05
       56 -1.194356e-05
       57 -5.919855e-06
       58 -1.340234e-05
       59  4.475856e-05
       60  5.004165e-05
       61  1.022642e-04
       62 -5.593826e-05
       63 -7.791360e-05
       64 -1.072802e-04
       65  1.112310e-05
       66  1.982712e-05
       67  3.207311e-05
       68 -9.320068e-05
       69 -8.264720e-05
       70 -6.225543e-05
       71 -8.591671e-07
       72  3.182132e-06
       73 -1.710391e-05
       74 -2.349788e-05
       75 -2.795418e-05
       76 -1.460118e-05
       77  3.079107e-05
       78  2.152376e-03
       79  3.665587e-03
       80  3.676328e-03
       81  1.856233e-03
       82  1.109535e-03
       83  1.777657e-03
       84  1.688352e-03
       85  8.947923e-04
       86  2.447741e-04
       87  3.642952e-05
       88  3.450502e-05
       89  6.255455e-05
       90  1.375660e-04
       91  1.368567e-04
       92  1.476755e-04
       93  6.464640e-05
       94  7.514425e-05
       95  8.307779e-05
       96  1.313120e-04
       97  7.273355e-05
       98  1.009314e-03
       99  1.474003e-03
      100  1.763883e-03
      101  1.382093e-03
      102  3.530123e-03
      103  3.651195e-03
      104  2.887388e-03
      105  7.482326e-04
      106  5.629084e-04
      107  8.013329e-04
      108  2.794579e-04
      109  1.126153e-04
      110  5.336499e-05
      111  9.907812e-05
      112  6.583893e-05
      113  2.351933e-04
      114  1.883581e-04
      115  3.019450e-04
      116 -2.014118e-04
      117 -1.691842e-04
      118 -2.634489e-04
      119  2.702650e-05
      120  1.618047e-04
      121  1.182931e-04
      122  1.066011e-04
      123 -7.343795e-05
      124 -2.240032e-05
      125 -2.590906e-05
      126 -1.861480e-05
      127 -1.436980e-04
      128 -1.250496e-04
      129 -8.613930e-05
      130  3.375796e-05
      131  1.561627e-05
      132 -7.056571e-06
      133  7.406962e-06
      134  2.144833e-05
      135  8.581996e-06
      136 -1.123066e-05
      137 -6.839721e-06
      138  7.508391e-06
      139  1.244197e-05
      140 -1.869549e-05
      141 -7.113542e-05
      142 -8.087001e-05
      143 -1.014178e-04
      144 -1.129878e-04
      145 -1.291591e-04
      146 -1.331094e-04
      147 -1.491181e-04
      148 -9.046395e-05
      149 -3.431033e-05
      150  4.193604e-05
      151  9.682776e-06
      152  1.130163e-05
      153  3.759051e-06
      154  1.122874e-04
      155  1.746490e-04
      156  1.848889e-04
      157  0.000000e+00
      158  0.000000e+00
      159  0.000000e+00