pos          info
        0  1.942694e-05
        1 -1.063148e-05
        2  2.535553e-05
        3 -1.822931e-05
        4 -1.354925e-05
        5 -6.101202e-05
        6  1.429514e-05
        7 -5.223404e-05
        8 -1.279572e-06
        9 -8.665235e-07
       10  1.118132e-04
       11  1.111243e-05
       12  6.401921e-08
       13  6.968580e-05
       14  1.059563e-06
       15 -9.261559e-06
       16 -2.823001e-05
       17 -7.806549e-06
       18 -2.133577e-05
       19 -1.023658e-04
       20  1.748929e-05
       21 -2.100309e-05
       22 -2.811640e-05
       23  1.194235e-06
       24 -1.237243e-04
       25  2.413333e-05
       26  4.461510e-06
       27 -2.104145e-06
       28  3.989809e-05
       29 -1.005308e-06
       30  1.037916e-04
       31 -1.167102e-04
       32  5.386311e-06
       33  1.308805e-04
       34  8.613458e-06
       35 -2.036564e-05
       36 -4.625432e-08
       37  3.083167e-05
       38 -1.694007e-05
       39 -6.693508e-06
       40 -1.209232e-07
       41  4.019070e-06
       42 -1.297203e-04
       43  1.751669e-04
       44 -1.081624e-05
       45  4.872175e-08
       46 -4.405408e-05
       47 -1.188267e-07
       48 -1.386063e-04
       49  3.039054e-06
       50  5.744116e-05
       51  2.677625e-05
       52 -1.171431e-05
       53 -1.601157e-04
       54  1.800098e-05
       55  1.682236e-05
       56 -2.520775e-05
       57 -2.494615e-05
       58  1.835937e-05
       59 -4.704201e-07
       60 -3.801361e-05
       61  2.153352e-04
       62  2.058702e-05
       63  9.033781e-05
       64 -2.431381e-04
       65 -6.437948e-05
       66  1.121060e-05
       67  7.604602e-05
       68 -4.192808e-05
       69  4.432511e-05
       70 -2.815850e-04
       71  4.903751e-06
       72  1.039973e-04
       73 -1.307265e-04
       74  8.857188e-06
       75  5.450735e-05
       76 -1.379663e-04
       77  3.184413e-06
       78  8.698248e-05
       79 -1.715760e-06
       80  6.268505e-03
       81  4.627303e-03
       82  3.501702e-05
       83  8.887011e-04
       84  2.348807e-03
       85  2.085634e-03
       86  6.657534e-04
       87  5.823786e-07
       88  8.014390e-05
       89  2.079217e-05
       90  4.493027e-07
       91  1.335128e-04
       92  2.302095e-04
       93 -1.187063e-06
       94  2.144497e-04
       95 -5.397187e-06
       96  3.323063e-05
       97  2.070059e-04
       98  1.312486e-04
       99 -1.207250e-04
      100  3.088036e-03
      101  1.482039e-03
      102  6.889820e-04
      103  1.762444e-03
      104  8.077697e-03
      105  1.245997e-03
      106 -4.139956e-04
      107  1.619054e-03
      108  5.471246e-04
      109  3.537108e-04
      110 -5.566747e-06
      111  3.301132e-05
      112  1.511073e-04
      113  1.132952e-04
      114 -8.540279e-05
      115  6.434419e-04
      116 -9.438511e-06
      117  3.096531e-04
      118 -9.011328e-04
      119  9.599318e-05
      120 -1.324248e-05
      121  1.330186e-06
      122  4.391334e-04
      123 -1.320565e-04
      124 -3.229029e-05
      125 -4.378761e-05
      126  1.460861e-05
      127 -3.481214e-05
      128 -4.090869e-05
      129 -3.247631e-04
      130  1.589852e-05
      131  7.005304e-05
      132 -3.680179e-06
      133 -1.895619e-05
      134  1.169582e-05
      135  5.685120e-05
      136  7.713477e-06
      137 -1.563105e-05
      138 -7.457734e-06
      139  1.516763e-05
      140  2.273655e-05
      141 -1.969309e-06
      142 -1.032958e-04
      143 -1.045106e-04
      144 -3.969879e-05
      145 -1.436075e-04
      146 -1.556900e-04
      147 -9.305845e-05
      148 -1.282225e-04
      149 -2.010290e-04
      150  9.605573e-05
      151  6.656979e-06
      152  1.119074e-05
      153 -1.323924e-06
      154  2.381041e-05
      155 -1.850070e-05
      156  3.288058e-04
      157  1.912347e-04
      158  2.161079e-05
      159 -2.542528e-06