pos          info
        0  4.139458e-05
        1  5.968188e-05
        2  3.713251e-05
        3  4.955084e-05
        4  1.898848e-05
        5  1.529574e-05
        6  9.699645e-06
        7  6.903746e-06
        8  1.674502e-05
        9 -4.171518e-05
       10 -6.584517e-05
       11 -7.573740e-05
       12 -4.051045e-06
       13  2.747884e-05
       14  2.685261e-05
       15  2.584717e-05
       16  3.275577e-05
       17  3.420381e-05
       18  7.647116e-06
       19 -2.028903e-05
       20 -2.209448e-05
       21 -3.168879e-05
       22 -1.722462e-05
       23 -1.856995e-05
       24  1.220487e-05
       25  1.167356e-05
       26  1.370395e-05
       27 -3.935035e-06
       28 -4.181725e-06
       29  2.223699e-05
       30  5.160537e-05
       31  5.025061e-05
       32  1.572928e-06
       33 -1.766939e-05
       34 -1.122214e-05
       35  6.195598e-06
       36  6.699882e-06
       37 -4.920455e-06
       38  2.553860e-05
       39  1.907177e-05
       40  4.894083e-05
       41  4.025607e-05
       42  3.540001e-05
       43  1.672551e-05
       44  1.261356e-05
       45  3.631364e-07
       46  1.161947e-05
       47 -1.706655e-05
       48  8.191954e-06
       49 -1.249498e-05
       50  3.519741e-06
       51 -4.632964e-06
       52 -1.030997e-05
       53 -1.666719e-05
       54 -1.663734e-05
       55  1.891296e-04
       56  2.471403e-04
       57  2.377533e-04
       58  4.747486e-05
       59 -9.398122e-06
       60 -8.024931e-07
       61 -4.123488e-05
       62 -3.549358e-05
       63 -4.827119e-05
       64 -2.166659e-05
       65 -3.036505e-05
       66 -6.837507e-06
       67  1.611276e-06
       68  3.063566e-05
       69  2.045055e-05
       70  1.676237e-05
       71 -4.278668e-06
       72 -1.414225e-05
       73  5.589946e-05
       74  9.881926e-05
       75  1.038076e-04
       76  3.977664e-05
       77  3.388100e-05
       78 -1.418004e-06
       79 -1.438362e-05
       80 -2.673129e-05
       81  3.070590e-06
       82 -3.081330e-05
       83 -5.856012e-05
       84 -6.180401e-05
       85 -1.146179e-05
       86 -4.521909e-06
       87 -2.569442e-06
       88 -1.161543e-05
       89 -1.427272e-05
       90 -2.110752e-05
       91 -1.762860e-05
       92 -6.284699e-05
       93 -3.542222e-05
       94 -7.775340e-05
       95 -3.037455e-05
       96 -4.856144e-05
       97 -2.419192e-05
       98 -7.698122e-05
       99 -6.415751e-05
      100 -2.413181e-05
      101  1.215447e-05
      102  8.211967e-06
      103 -2.687451e-05
      104  7.451767e-06
      105 -1.600343e-05
      106 -2.476558e-06
      107 -4.267353e-05
      108 -1.884169e-05
      109 -3.877753e-05
      110 -1.416830e-05
      111 -1.822877e-05
      112  5.041971e-06
      113 -5.672135e-06
      114  4.575671e-06
      115 -1.906886e-06
      116  2.387492e-05
      117  3.183477e-05
      118  3.491995e-05
      119  6.510033e-06
      120 -1.740761e-05
      121 -1.270409e-05
      122 -5.516360e-06
      123  4.527019e-06
      124 -1.136045e-05
      125  4.089694e-06
      126  4.337081e-08
      127  2.818790e-05
      128  1.325654e-05
      129  7.957065e-06
      130 -1.518712e-05
      131 -1.516362e-05
      132 -1.367385e-05
      133 -6.992425e-06
      134 -2.563210e-05
      135 -1.710259e-05
      136 -2.117755e-05
      137 -2.784151e-05
      138 -2.909788e-05
      139 -2.751630e-05
      140 -2.679443e-06
      141  1.447403e-05
      142  5.854652e-06
      143  6.814609e-05
      144  7.196067e-05
      145  9.158496e-05
      146  3.065396e-05
      147  2.533129e-05
      148  1.246579e-05
      149  1.499728e-05
      150  9.370033e-06
      151  2.765942e-05
      152  1.745930e-05
      153  7.999110e-06
      154 -1.606057e-05
      155 -8.944192e-06
      156 -9.163523e-06
      157  0.000000e+00
      158  0.000000e+00
      159  0.000000e+00