pos          info
        0 -8.224331e-06
        1 -3.686781e-06
        2 -8.709115e-07
        3  1.130107e-05
        4  1.152029e-05
        5  1.192444e-05
        6 -9.448361e-07
        7 -1.342217e-06
        8 -1.543389e-06
        9  1.495300e-07
       10 -5.678874e-08
       11 -1.813374e-07
       12 -1.468506e-06
       13 -1.328541e-06
       14 -1.514816e-06
       15 -7.079284e-07
       16 -1.014538e-06
       17 -2.663826e-07
       18 -5.713150e-06
       19 -6.117007e-06
       20 -6.219114e-06
       21 -3.575347e-06
       22 -6.604498e-07
       23 -9.042042e-07
       24  2.092442e-06
       25  3.473900e-06
       26  3.579005e-06
       27  2.815999e-06
       28 -2.836301e-06
       29  1.055030e-07
       30 -2.949541e-06
       31 -1.347697e-06
       32 -8.213009e-06
       33 -5.546676e-06
       34 -4.805950e-06
       35 -9.451821e-07
       36  4.910009e-07
       37 -2.657651e-06
       38 -2.774261e-06
       39 -1.668410e-06
       40  2.898779e-06
       41  8.440269e-06
       42  5.778040e-06
       43  5.894429e-06
       44  3.002924e-06
       45  4.115160e-06
       46  8.640285e-06
       47  2.335797e-06
       48  3.891755e-06
       49 -2.432569e-06
       50  4.831936e-06
       51  2.755161e-06
       52 -3.628085e-07
       53 -9.006323e-07
       54 -3.138147e-07
       55  1.135694e-05
       56  1.120990e-05
       57  6.122789e-06
       58 -3.910694e-06
       59 -7.473819e-06
       60 -1.588144e-06
       61 -2.554054e-06
       62  7.049589e-06
       63  5.985675e-06
       64  8.140662e-06
       65 -6.342476e-07
       66  7.507315e-06
       67  7.325715e-06
       68  1.655754e-05
       69  8.601697e-06
       70  9.222384e-06
       71  5.460896e-07
       72  5.907402e-07
       73  4.916429e-07
       74  2.320079e-07
       75  3.035787e-07
       76  5.558215e-06
       77  1.976944e-05
       78  1.410697e-05
       79  7.801644e-06
       80 -4.722196e-06
       81 -6.377824e-07
       82 -6.133749e-06
       83 -8.218630e-06
       84 -6.649297e-06
       85  2.440971e-07
       86  3.512707e-07
       87  4.589564e-07
       88 -3.583183e-07
       89  3.800319e-06
       90  3.669156e-06
       91  4.158153e-06
       92  7.634308e-08
       93  2.946765e-05
       94  2.376615e-05
       95  2.586395e-05
       96 -3.141828e-06
       97  2.059753e-06
       98 -3.058192e-06
       99 -1.214311e-06
      100  3.792901e-06
      101  7.387918e-07
      102 -2.855127e-06
      103 -9.275314e-06
      104  8.112233e-06
      105  9.258487e-06
      106  9.902775e-06
      107 -1.181666e-05
      108 -1.129894e-05
      109 -1.004475e-05
      110  3.184396e-07
      111 -1.659519e-06
      112  2.414097e-07
      113 -9.468969e-06
      114 -8.488134e-06
      115 -1.171849e-05
      116  2.650675e-06
      117  4.073790e-06
      118  5.171368e-06
      119  1.516937e-07
      120  2.752013e-06
      121  3.146824e-06
      122  3.235974e-06
      123 -8.033175e-07
      124 -3.481262e-06
      125  9.906711e-06
      126  1.039716e-05
      127  1.430699e-05
      128 -4.497318e-07
      129 -7.040496e-07
      130 -1.471845e-06
      131 -1.189792e-07
      132 -2.109131e-06
      133 -1.485645e-06
      134 -4.411594e-06
      135 -1.403422e-06
      136 -3.997891e-06
      137 -1.474461e-06
      138 -1.972477e-06
      139 -6.083128e-07
      140 -1.628751e-07
      141  2.465502e-06
      142  2.079956e-06
      143  1.638652e-05
      144  1.374654e-05
      145  1.547831e-05
      146  4.196215e-06
      147  4.003005e-06
      148 -1.126796e-06
      149 -3.946443e-06
      150 -3.711945e-06
      151  5.906609e-07
      152 -4.855398e-07
      153 -1.073068e-06
      154 -3.598291e-06
      155 -6.059200e-06
      156 -5.217287e-06
      157  0.000000e+00
      158  0.000000e+00
      159  0.000000e+00