pos          info
        0 -4.946647e-07
        1 -7.201433e-05
        2  3.545002e-05
        3 -2.933540e-05
        4 -3.672115e-04
        5 -1.770442e-04
        6 -1.677467e-06
        7 -5.886742e-05
        8 -8.041638e-06
        9  3.991690e-05
       10 -1.307470e-05
       11  3.180090e-05
       12  7.732027e-06
       13 -8.190846e-08
       14  4.819014e-05
       15 -3.326541e-05
       16  1.084930e-05
       17 -4.463725e-05
       18 -6.453219e-05
       19 -2.852006e-05
       20  1.020666e-04
       21 -1.276777e-06
       22  5.294586e-05
       23  1.474807e-04
       24 -7.581821e-05
       25  1.092733e-06
       26 -1.566986e-07
       27 -1.033544e-05
       28 -1.346818e-06
       29  3.834066e-08
       30  3.802083e-05
       31 -2.971677e-07
       32  2.362888e-05
       33  1.417053e-05
       34  9.644490e-05
       35  5.367134e-07
       36  1.008303e-06
       37  1.067741e-04
       38 -1.041999e-05
       39  3.737225e-08
       40 -1.693037e-05
       41 -4.138170e-06
       42 -1.073647e-04
       43 -1.736148e-05
       44  2.221761e-05
       45 -7.563183e-06
       46  1.227644e-05
       47 -9.301440e-06
       48 -1.255999e-04
       49  1.672832e-04
       50 -7.520619e-05
       51 -1.098453e-06
       52  5.496819e-05
       53 -1.211190e-05
       54  1.081342e-04
       55  1.377651e-05
       56 -5.568194e-06
       57 -9.561813e-04
       58 -1.394398e-04
       59  2.429044e-07
       60 -3.036762e-05
       61  1.285684e-04
       62  2.998191e-06
       63  4.924512e-05
       64 -1.067547e-04
       65  3.269882e-05
       66  5.606074e-05
       67  3.953632e-05
       68 -6.694742e-05
       69 -1.000611e-05
       70 -5.592134e-06
       71 -2.663145e-09
       72  9.025803e-05
       73 -1.143727e-04
       74  9.260794e-05
       75 -2.469257e-04
       76 -4.952569e-05
       77 -1.042298e-06
       78 -5.937440e-05
       79 -1.026928e-04
       80  1.893365e-04
       81  6.851055e-05
       82 -7.614009e-04
       83  9.462532e-06
       84  1.113852e-04
       85  2.699107e-05
       86 -1.961345e-06
       87 -1.158971e-06
       88 -1.191242e-04
       89 -2.304687e-05
       90  2.194934e-05
       91 -3.159857e-06
       92  3.906445e-06
       93  3.215655e-06
       94  3.340589e-05
       95 -8.983201e-07
       96  1.496380e-04
       97 -3.069771e-07
       98  8.058953e-05
       99  6.281918e-05
      100  1.513314e-04
      101 -1.265566e-05
      102 -4.522928e-05
      103  5.052858e-05
      104  1.384522e-04
      105  9.189039e-05
      106 -2.744051e-04
      107  2.102491e-04
      108 -1.829891e-06
      109  1.798422e-04
      110 -3.530163e-07
      111  1.532389e-05
      112 -1.644025e-05
      113  9.266237e-07
      114 -1.598654e-04
      115  1.249397e-04
      116  2.757106e-05
      117  2.670177e-05
      118 -9.778561e-06
      119 -1.747012e-06
      120  1.326428e-04
      121 -2.848136e-05
      122  6.171661e-07
      123  1.385536e-06
      124 -1.228485e-04
      125 -8.926092e-07
      126  2.084456e-04
      127 -9.352682e-06
      128  1.013179e-04
      129 -5.961730e-05
      130  6.132140e-06
      131  6.159660e-05
      132  6.417944e-07
      133 -8.820115e-07
      134  8.946170e-07
      135 -2.087899e-04
      136  4.258843e-05
      137  1.541204e-05
      138  4.789702e-05
      139  1.803769e-05
      140  3.180609e-05
      141  2.837937e-06
      142  9.066320e-05
      143 -1.152157e-10
      144  1.206844e-04
      145 -5.062126e-04
      146 -2.735699e-04
      147  3.331664e-06
      148 -3.369830e-05
      149  7.552955e-06
      150  7.286995e-06
      151 -3.384893e-06
      152  2.242512e-06
      153 -2.098904e-04
      154  1.571883e-04
      155  7.148329e-07
      156 -4.723518e-06
      157  2.027261e-05
      158 -7.719323e-05
      159  7.450849e-05