pos          info
        0  3.351347e-06
        1 -1.342395e-05
        2  2.887291e-05
        3 -2.320468e-05
        4 -1.875816e-05
        5 -5.729168e-05
        6  1.755328e-05
        7 -5.836555e-05
        8 -1.633420e-06
        9 -2.668680e-07
       10  9.980761e-05
       11  8.065803e-06
       12  5.440244e-08
       13  7.399407e-05
       14  1.801087e-06
       15 -1.194310e-05
       16 -1.999802e-05
       17 -3.946015e-06
       18 -1.848933e-05
       19 -9.429699e-05
       20  3.354121e-05
       21 -2.339647e-05
       22 -2.035997e-05
       23  1.693317e-06
       24 -1.193296e-04
       25  1.718220e-05
       26  1.495425e-05
       27 -1.517964e-06
       28  5.259504e-05
       29 -1.865295e-06
       30  9.396882e-05
       31 -1.309962e-04
       32  1.160986e-05
       33  1.054902e-04
       34  2.088048e-06
       35 -2.837715e-05
       36 -1.210749e-06
       37  3.329578e-05
       38 -1.298869e-05
       39 -1.688305e-06
       40 -3.458530e-09
       41  7.177844e-06
       42 -9.613392e-05
       43  1.701887e-04
       44 -8.692925e-06
       45 -7.386486e-08
       46 -5.600548e-05
       47 -1.746147e-07
       48 -1.099994e-04
       49  5.279377e-06
       50  4.435913e-05
       51  2.462620e-05
       52 -1.123983e-05
       53 -1.378629e-04
       54  3.302559e-05
       55  1.510304e-05
       56 -2.087688e-05
       57 -3.436847e-05
       58  1.941468e-05
       59 -2.805779e-06
       60 -5.681592e-05
       61  1.938974e-04
       62  1.304351e-05
       63  9.985167e-05
       64 -2.807099e-04
       65 -5.288252e-05
       66  1.175174e-05
       67  7.450008e-05
       68 -2.677048e-05
       69  4.848973e-05
       70 -3.013213e-04
       71  4.889984e-06
       72  1.096650e-04
       73 -1.171325e-04
       74  1.701388e-05
       75  4.880689e-05
       76 -1.363144e-04
       77  3.644987e-06
       78  8.886588e-05
       79 -1.376621e-07
       80  6.368400e-03
       81  4.628499e-03
       82  3.208563e-05
       83  9.081140e-04
       84  2.388406e-03
       85  2.036450e-03
       86  6.402010e-04
       87  7.725762e-06
       88  8.639536e-05
       89  1.516743e-05
       90  1.952278e-06
       91  1.705440e-04
       92  2.402018e-04
       93 -1.755899e-07
       94  2.030002e-04
       95 -8.885418e-06
       96  3.131794e-05
       97  2.268009e-04
       98  1.358171e-04
       99 -1.444173e-04
      100  3.036542e-03
      101  1.529885e-03
      102  7.252204e-04
      103  1.891174e-03
      104  7.973974e-03
      105  1.088437e-03
      106 -4.002484e-04
      107  1.556509e-03
      108  5.324649e-04
      109  3.150251e-04
      110 -9.116264e-06
      111  3.193695e-05
      112  1.372743e-04
      113  1.280231e-04
      114 -6.778062e-05
      115  6.453374e-04
      116 -1.248254e-05
      117  2.729800e-04
      118 -8.647328e-04
      119  8.420025e-05
      120 -9.814206e-06
      121  6.693455e-06
      122  4.885348e-04
      123 -1.403490e-04
      124 -2.838256e-05
      125 -5.158233e-05
      126  1.276391e-05
      127 -3.890878e-05
      128 -2.969955e-05
      129 -3.624857e-04
      130  1.703637e-05
      131  8.703141e-05
      132 -2.793900e-06
      133 -3.738869e-05
      134  1.901288e-05
      135  4.059670e-05
      136  4.735414e-06
      137 -1.958613e-05
      138 -1.884126e-05
      139  1.790822e-05
      140  2.345821e-05
      141 -4.040535e-06
      142 -7.550413e-05
      143 -1.338616e-04
      144 -3.324432e-05
      145 -1.371475e-04
      146 -1.685716e-04
      147 -8.175831e-05
      148 -1.489983e-04
      149 -2.165977e-04
      150  9.420418e-05
      151  1.946255e-05
      152  1.214140e-05
      153 -2.555621e-06
      154  2.431911e-05
      155 -1.048633e-05
      156  3.230296e-04
      157  2.114037e-04
      158  2.023339e-05
      159 -1.998499e-06