pos          info
        0  5.704851e-04
        1  2.690692e-11
        2  2.104601e-04
        3 -8.100285e-04
        4 -9.675211e-05
        5 -4.337574e-04
        6 -1.173075e-05
        7 -2.185086e-05
        8 -4.801590e-07
        9 -7.738215e-05
       10 -2.213223e-04
       11  1.651174e-03
       12  2.367595e-04
       13  1.803039e-04
       14 -7.466520e-05
       15  5.426551e-05
       16  1.672580e-04
       17  1.372217e-04
       18  5.492249e-05
       19 -8.692480e-06
       20  2.099046e-04
       21 -7.940845e-05
       22 -2.195191e-04
       23 -1.321517e-05
       24 -1.026580e-04
       25  3.606041e-04
       26 -4.561343e-09
       27  4.538828e-05
       28 -3.052268e-04
       29  7.665389e-05
       30  1.699362e-06
       31 -2.266745e-05
       32  3.593381e-04
       33 -1.038515e-04
       34  4.296741e-05
       35  8.382700e-05
       36  6.777481e-05
       37  7.482975e-06
       38 -2.255560e-04
       39 -2.131229e-05
       40 -1.316235e-05
       41  7.421787e-06
       42 -7.088831e-05
       43 -1.603639e-04
       44  4.489609e-04
       45 -1.550027e-04
       46  5.731289e-05
       47  3.855987e-04
       48 -3.043757e-05
       49 -4.845706e-05
       50 -3.343885e-04
       51  7.810972e-05
       52 -4.447981e-06
       53  2.537054e-04
       54 -2.474032e-05
       55 -3.536619e-06
       56  2.017651e-04
       57  5.791666e-06
       58  9.418787e-06
       59 -1.043448e-04
       60  5.858796e-05
       61 -3.098888e-05
       62  6.103520e-07
       63  5.618965e-06
       64 -2.595087e-05
       65 -1.112680e-06
       66 -4.537662e-05
       67 -6.446258e-05
       68  8.050760e-05
       69  3.540100e-07
       70  1.388014e-04
       71 -1.098601e-05
       72  1.851616e-04
       73  2.199185e-05
       74  1.465777e-04
       75  4.349840e-05
       76  6.282183e-04
       77  3.993837e-06
       78  2.268426e-07
       79  1.560091e-05
       80 -2.631211e-04
       81 -9.163935e-05
       82 -3.168151e-05
       83  1.119429e-05
       84  4.034171e-04
       85  1.708603e-04
       86  1.291404e-04
       87 -1.408502e-05
       88  3.146799e-04
       89 -1.276603e-04
       90  2.482319e-04
       91  3.611603e-05
       92  2.054553e-04
       93 -9.896591e-05
       94  1.674575e-04
       95  4.793452e-04
       96 -4.212983e-04
       97 -2.707547e-04
       98 -5.928944e-05
       99 -2.397234e-05
      100 -1.530367e-06
      101  4.707697e-04
      102 -6.274978e-05
      103 -1.133939e-05
      104 -7.627472e-05
      105  3.193766e-04
      106  5.928789e-05
      107 -2.550981e-06
      108  2.150641e-05
      109  5.170958e-05
      110  1.183899e-05
      111  3.766862e-04
      112  1.587065e-04
      113  1.295950e-06
      114 -4.309707e-08
      115 -6.881376e-06
      116  1.032445e-04
      117 -6.684426e-05
      118 -6.379612e-06
      119 -1.581969e-04
      120  2.747412e-04
      121  1.625741e-07
      122  5.258035e-07
      123  1.846711e-04
      124  1.431941e-05
      125 -1.923206e-05
      126  6.678410e-06
      127 -5.301991e-05
      128  1.045567e-04
      129  3.547998e-05
      130  7.504578e-05
      131 -6.594683e-05
      132 -7.000836e-05
      133  5.801860e-05
      134  1.608600e-04
      135 -5.546589e-05
      136  8.926285e-06
      137  9.145583e-06
      138 -2.724086e-05
      139 -2.905866e-04
      140 -3.845685e-04
      141  7.924585e-05
      142 -2.454367e-06
      143 -4.461829e-05
      144 -1.400270e-05
      145  5.952371e-04
      146  7.521980e-05
      147 -1.404377e-08
      148  3.222881e-08
      149  8.509655e-05
      150 -1.298643e-05
      151  1.578510e-06
      152 -2.348250e-06
      153  2.605609e-06
      154  8.147013e-06
      155 -4.078226e-05
      156 -4.942511e-07
      157 -3.336974e-05
      158 -2.045754e-04
      159  5.924310e-05