pos          info
        0  2.907971e-05
        1  8.218183e-06
        2 -2.044340e-04
        3 -2.185709e-04
        4 -1.920383e-04
        5  5.444444e-05
        6  3.485505e-05
        7 -7.809668e-06
        8 -9.021936e-05
        9 -5.972169e-05
       10 -4.955442e-05
       11  5.680457e-05
       12  2.753067e-05
       13  3.499654e-05
       14 -2.733814e-05
       15 -1.739054e-05
       16 -1.693193e-05
       17 -1.382754e-04
       18 -1.391264e-04
       19 -1.218223e-04
       20  2.027240e-05
       21 -5.039939e-05
       22  4.566966e-05
       23  7.934771e-05
       24  6.567234e-05
       25 -9.448474e-06
       26 -8.661218e-05
       27 -7.364752e-06
       28 -4.501033e-05
       29  6.011172e-07
       30  8.026404e-05
       31  9.536158e-06
       32  4.550511e-07
       33 -6.338721e-05
       34 -6.190356e-06
       35  6.743492e-05
       36  5.302010e-05
       37  7.446663e-05
       38  5.844917e-05
       39 -1.316387e-05
       40 -3.063244e-05
       41 -8.512067e-05
       42  2.428632e-06
       43  6.524319e-05
       44  1.154941e-04
       45  1.536956e-04
       46  5.773580e-05
       47  1.476107e-05
       48 -4.382963e-05
       49  7.090614e-05
       50  7.799405e-05
       51  9.424675e-05
       52  1.788718e-05
       53 -1.000344e-04
       54 -6.233543e-05
       55 -7.757669e-05
       56  2.718418e-05
       57 -6.499060e-05
       58  2.304253e-04
       59  2.311899e-04
       60  2.755624e-04
       61 -7.976317e-07
       62 -1.298676e-06
       63  2.089710e-05
       64  1.288422e-05
       65  3.332445e-05
       66 -9.336767e-05
       67 -7.138245e-06
       68 -1.037484e-04
       69 -3.752926e-05
       70 -9.790211e-05
       71 -8.897356e-06
       72 -7.822045e-06
       73 -3.656701e-05
       74 -5.329537e-05
       75 -3.362104e-05
       76 -2.279069e-05
       77 -1.895866e-05
       78 -3.068967e-06
       79 -3.086589e-06
       80  1.191816e-04
       81  1.302068e-04
       82  1.301249e-04
       83  4.913707e-06
       84 -1.275172e-06
       85 -1.897825e-04
       86 -1.502852e-04
       87 -1.843760e-04
       88 -1.603749e-06
       89 -3.151403e-05
       90 -2.645666e-05
       91 -1.956657e-05
       92  2.947123e-05
       93  5.818868e-05
       94  4.321108e-05
       95 -3.639644e-05
       96 -3.914609e-05
       97 -9.351014e-05
       98 -9.505596e-05
       99 -7.502101e-05
      100 -2.041322e-05
      101  6.262579e-05
      102  4.073497e-05
      103  4.785135e-05
      104 -9.238239e-06
      105 -9.986863e-06
      106  9.088417e-05
      107  7.669708e-05
      108  7.932819e-05
      109 -2.414313e-06
      110  1.297676e-05
      111  1.263846e-05
      112  4.871791e-06
      113  2.277062e-06
      114  1.071162e-04
      115  7.597063e-05
      116  1.286923e-05
      117 -1.000769e-04
      118 -7.379763e-05
      119 -1.853435e-05
      120  1.741997e-05
      121  1.622007e-05
      122  3.878851e-05
      123  1.214479e-05
      124 -3.061238e-05
      125  6.942554e-06
      126  4.870466e-05
      127  4.489964e-05
      128 -6.171909e-06
      129 -4.882480e-05
      130 -9.507728e-05
      131 -9.360911e-05
      132 -9.177048e-05
      133 -4.789663e-05
      134  2.083170e-04
      135  2.071011e-04
      136  2.473885e-04
      137 -5.782449e-05
      138 -8.849605e-05
      139 -8.436636e-05
      140 -2.261959e-05
      141  8.336732e-06
      142  5.470100e-05
      143  3.340129e-04
      144  2.782903e-04
      145  2.674251e-04
      146  4.998493e-06
      147  6.439997e-05
      148  5.569614e-05
      149  6.635370e-05
      150  5.076390e-05
      151  2.956212e-05
      152 -3.885415e-06
      153  4.674014e-05
      154  2.305569e-05
      155  1.318998e-05
      156 -1.647654e-05
      157  0.000000e+00
      158  0.000000e+00
      159  0.000000e+00