pos          info
        0 -1.114257e-05
        1  1.228385e-06
        2  5.900270e-05
        3  4.137734e-06
        4  8.142943e-07
        5 -2.174984e-06
        6 -1.146231e-05
        7  2.709820e-07
        8  1.106141e-05
        9 -1.680593e-05
       10  3.952754e-06
       11 -4.297667e-05
       12 -1.297986e-05
       13  1.791485e-05
       14  5.010013e-05
       15  4.075365e-08
       16 -4.233837e-05
       17  2.419799e-06
       18  3.273782e-05
       19  1.015577e-05
       20 -2.043930e-04
       21 -2.042304e-06
       22 -5.042437e-05
       23 -2.177646e-06
       24  6.647477e-06
       25 -3.453991e-05
       26  6.195690e-06
       27 -8.464808e-05
       28 -7.559923e-06
       29  4.210436e-08
       30 -4.392226e-06
       31  8.660271e-05
       32  3.885407e-08
       33  1.940184e-04
       34 -5.816338e-05
       35  4.208303e-06
       36 -2.746752e-05
       37 -3.248060e-06
       38  4.431433e-08
       39  5.252656e-07
       40 -3.228348e-06
       41  1.384783e-07
       42 -3.298960e-08
       43 -1.910354e-05
       44 -8.270556e-09
       45 -3.420838e-06
       46  1.646134e-08
       47 -2.685249e-07
       48 -6.449874e-07
       49  9.986484e-06
       50 -2.421851e-07
       51 -1.400656e-08
       52 -1.308757e-05
       53 -3.608998e-05
       54  1.195202e-05
       55  1.320302e-04
       56  1.120539e-08
       57 -3.008973e-06
       58 -6.796106e-05
       59  4.558405e-08
       60  1.491081e-06
       61 -5.640221e-06
       62  8.502520e-05
       63 -5.826276e-07
       64 -1.627152e-05
       65  2.409154e-05
       66  1.450967e-06
       67  1.408042e-05
       68  5.334282e-05
       69  3.388340e-05
       70  2.663400e-05
       71 -6.222425e-04
       72  1.662750e-05
       73  7.886657e-06
       74  1.003004e-04
       75  2.698903e-05
       76 -9.113998e-05
       77  4.062221e-05
       78  1.246692e-05
       79  4.084691e-05
       80  1.955507e-06
       81 -2.126426e-06
       82 -2.462260e-05
       83 -2.307916e-05
       84 -1.968587e-04
       85 -4.562088e-05
       86  4.161782e-05
       87  9.755804e-06
       88 -7.391754e-05
       89 -9.739162e-05
       90  1.566021e-04
       91 -1.165052e-06
       92  5.511042e-06
       93 -1.374887e-06
       94  5.185142e-07
       95  1.419470e-05
       96  6.133108e-06
       97 -5.727843e-05
       98  1.375701e-04
       99  8.679305e-05
      100 -1.055157e-07
      101 -5.493444e-06
      102  3.427994e-05
      103  4.260460e-05
      104  1.072759e-04
      105  2.170667e-04
      106 -8.283939e-05
      107  7.174410e-05
      108 -1.265005e-04
      109  2.087127e-04
      110  1.131476e-05
      111  7.577541e-08
      112 -1.452133e-04
      113 -1.220497e-05
      114  3.082597e-06
      115 -5.501115e-05
      116 -1.360973e-05
      117 -4.703347e-05
      118 -3.782090e-05
      119 -2.218263e-04
      120 -8.681810e-06
      121 -1.738946e-04
      122 -5.418327e-05
      123  2.019126e-05
      124  1.422915e-06
      125 -6.626895e-05
      126  9.458764e-06
      127  1.913485e-06
      128  2.121295e-06
      129  1.020644e-04
      130  7.553513e-05
      131  5.776599e-07
      132 -2.381567e-07
      133  1.597577e-06
      134 -5.508488e-05
      135  6.670284e-08
      136 -6.086759e-05
      137 -6.342307e-08
      138 -3.689091e-05
      139  6.859201e-05
      140 -5.698455e-05
      141 -9.697936e-06
      142 -1.793365e-05
      143 -2.725394e-06
      144  1.896287e-08
      145 -1.448318e-05
      146 -3.637591e-06
      147 -8.048299e-07
      148  4.910913e-06
      149 -1.139728e-08
      150 -5.337558e-06
      151 -1.171386e-05
      152  3.331474e-06
      153 -1.168631e-04
      154 -2.522402e-05
      155  3.714001e-05
      156  9.461680e-06
      157  5.963413e-06
      158  4.976810e-05
      159 -7.555986e-05