pos          info
        0 -5.491932e-05
        1 -7.672194e-05
        2  1.657126e-05
        3  1.757535e-06
        4  6.577446e-05
        5  4.342992e-06
        6  8.333339e-06
        7 -9.636899e-05
        8 -2.518187e-05
        9 -1.949716e-05
       10  1.370438e-04
       11  1.911255e-05
       12  9.168013e-07
       13 -2.352032e-05
       14 -1.489029e-04
       15  1.827958e-04
       16 -9.141475e-05
       17 -2.085207e-05
       18 -4.375475e-05
       19  7.286202e-05
       20 -7.586291e-05
       21 -7.040552e-06
       22  4.845776e-05
       23  1.585617e-05
       24  2.913281e-05
       25  3.784568e-05
       26 -1.407691e-04
       27  1.442311e-04
       28 -5.985941e-05
       29 -2.388235e-05
       30  2.742817e-05
       31  5.592565e-05
       32 -5.272948e-06
       33  3.371350e-05
       34  1.758356e-04
       35 -3.631916e-05
       36  3.568836e-04
       37  4.151859e-04
       38 -3.204187e-06
       39 -2.758313e-06
       40 -4.714289e-06
       41  4.574511e-05
       42 -2.256121e-04
       43  2.905135e-04
       44 -1.496596e-05
       45 -6.165317e-04
       46  1.047785e-04
       47  3.106226e-05
       48 -4.277206e-04
       49 -1.193779e-08
       50 -1.904070e-04
       51  1.226768e-04
       52 -1.176431e-04
       53  5.748922e-05
       54  2.572493e-06
       55 -4.411383e-07
       56 -2.746559e-06
       57  8.888627e-05
       58 -1.998064e-04
       59 -1.442734e-04
       60  3.670293e-06
       61 -1.734616e-04
       62  1.187216e-04
       63  3.593632e-05
       64 -6.779180e-06
       65  7.597734e-06
       66 -8.068464e-06
       67 -7.265198e-04
       68 -6.917565e-05
       69  1.724947e-04
       70  8.653141e-05
       71  3.678486e-04
       72  1.601653e-03
       73  8.423534e-05
       74 -4.726676e-06
       75  2.130339e-04
       76 -9.478150e-06
       77  5.365320e-05
       78 -1.944130e-03
       79  8.721354e-04
       80  4.862355e-04
       81 -3.948437e-03
       82 -3.991378e-03
       83  6.636143e-06
       84 -3.569480e-05
       85  3.280025e-04
       86  1.239889e-05
       87  1.332980e-04
       88 -1.460912e-04
       89  1.513930e-04
       90 -3.237916e-07
       91  6.815156e-05
       92 -5.060067e-06
       93  2.642607e-06
       94  6.262672e-05
       95  1.644333e-05
       96 -3.560152e-05
       97 -1.410463e-06
       98  1.562341e-05
       99  3.207094e-04
      100 -4.253835e-04
      101  1.088658e-04
      102  1.931997e-03
      103  1.001417e-03
      104  3.969097e-04
      105  2.222369e-04
      106  6.186394e-04
      107  2.523884e-03
      108 -4.108970e-04
      109 -1.946216e-04
      110 -3.047420e-04
      111  5.940101e-04
      112 -3.015970e-04
      113 -3.459459e-05
      114 -5.165627e-05
      115 -8.824586e-06
      116  5.756278e-04
      117 -6.170296e-05
      118  4.096510e-05
      119  1.400651e-04
      120  1.186152e-04
      121  8.124119e-06
      122 -3.088383e-05
      123  6.146329e-04
      124  3.868739e-04
      125  1.194074e-03
      126 -4.221418e-07
      127  1.843389e-05
      128  3.790136e-04
      129 -4.691763e-05
      130 -4.988937e-05
      131  5.043319e-05
      132  4.457669e-04
      133 -3.170151e-05
      134 -1.089027e-05
      135 -1.812914e-05
      136  1.004275e-05
      137  9.331448e-05
      138  5.236561e-05
      139  1.977615e-05
      140  9.435432e-05
      141  1.517622e-04
      142  3.488437e-04
      143  4.052935e-05
      144 -2.050496e-05
      145 -5.189626e-07
      146 -7.121383e-06
      147  1.936357e-04
      148  6.843480e-05
      149 -9.506204e-07
      150  3.675262e-07
      151 -5.602192e-06
      152  8.078050e-05
      153  3.632824e-05
      154 -1.102268e-06
      155 -2.211984e-04
      156  5.988203e-06
      157  6.731073e-06
      158 -4.421844e-06
      159 -1.362535e-06