pos          info
        0 -1.866503e-06
        1  5.763962e-05
        2  6.756180e-05
        3  8.985422e-05
        4  4.531700e-05
        5  1.887693e-05
        6 -1.535302e-05
        7 -5.063168e-05
        8 -2.297421e-05
        9  2.449142e-05
       10  1.254131e-04
       11  1.128322e-04
       12  1.743453e-05
       13 -6.052759e-05
       14 -5.676937e-05
       15 -3.269561e-05
       16 -3.835998e-05
       17  2.936288e-05
       18  4.851619e-05
       19  5.545253e-05
       20 -1.050196e-05
       21 -1.161110e-05
       22 -2.527797e-05
       23 -8.712298e-06
       24 -7.151741e-05
       25 -3.938772e-05
       26 -6.740401e-05
       27  1.052599e-05
       28  4.829075e-05
       29  9.910577e-05
       30  8.749182e-05
       31  1.016925e-04
       32  5.824855e-05
       33  7.406617e-05
       34 -9.344865e-08
       35  8.470352e-05
       36  9.074225e-05
       37  1.146510e-04
       38  9.715486e-05
       39  8.706345e-05
       40  3.414137e-05
       41 -2.624693e-05
       42 -2.759133e-05
       43 -9.335193e-05
       44 -7.296264e-05
       45 -7.181047e-05
       46 -1.026762e-04
       47 -2.369743e-04
       48 -3.340289e-04
       49 -1.836836e-04
       50 -7.618415e-05
       51  3.340217e-05
       52  3.977214e-05
       53  5.412820e-05
       54  2.786217e-05
       55 -4.982577e-06
       56 -1.667705e-05
       57 -5.583703e-05
       58 -1.196721e-05
       59 -6.860865e-05
       60 -1.769102e-05
       61 -5.777323e-05
       62 -8.223266e-06
       63 -1.684320e-05
       64 -5.188308e-05
       65 -2.763157e-04
       66 -2.961076e-04
       67 -1.924064e-04
       68  9.806132e-05
       69  5.044998e-04
       70  9.237286e-04
       71  9.680444e-04
       72  5.698661e-04
       73  1.088710e-04
       74  6.864449e-06
       75  2.920849e-05
       76 -3.823858e-04
       77  3.208586e-04
       78  2.716704e-04
       79 -4.053205e-04
       80 -2.231335e-03
       81 -2.188781e-03
       82 -1.127827e-03
       83 -5.492922e-07
       84 -4.002412e-05
       85  3.951927e-05
       86 -2.783259e-05
       87  7.398218e-05
       88  1.746165e-07
       89  6.771188e-05
       90  4.925861e-06
       91 -1.529867e-05
       92 -5.554009e-05
       93 -5.269966e-05
       94 -3.966087e-05
       95 -4.125113e-06
       96  1.215388e-04
       97  1.755079e-04
       98 -8.349461e-05
       99 -1.910222e-04
      100  5.849746e-04
      101  1.308531e-03
      102  1.306268e-03
      103  5.741368e-04
      104  2.468990e-04
      105  8.765441e-04
      106  6.784236e-04
      107  5.431801e-04
      108 -1.626542e-04
      109  1.855450e-05
      110 -3.093679e-05
      111  2.488506e-05
      112 -1.152389e-04
      113 -9.778932e-05
      114 -2.688307e-05
      115  4.056383e-05
      116  6.509786e-05
      117  1.142125e-05
      118  5.939503e-05
      119  6.882915e-05
      120  4.515931e-05
      121  1.189948e-04
      122  3.145842e-04
      123  3.836085e-04
      124  2.543020e-04
      125  5.995323e-05
      126  6.698474e-05
      127  8.800138e-05
      128  5.010104e-05
      129 -1.735942e-05
      130  1.404711e-04
      131  1.691227e-04
      132  1.987387e-04
      133  1.911942e-05
      134  1.111546e-05
      135 -1.332294e-06
      136 -1.332208e-06
      137  1.682679e-05
      138  4.050693e-06
      139  3.364196e-06
      140  2.772879e-05
      141  1.151649e-04
      142  1.014447e-04
      143  6.630830e-05
      144 -5.819443e-05
      145  4.343064e-05
      146  1.400268e-04
      147  1.834196e-04
      148  1.093469e-04
      149  2.343310e-05
      150  3.608774e-05
      151  4.169018e-05
      152  3.654153e-05
      153 -1.311226e-04
      154 -9.524159e-05
      155 -9.559961e-05
      156  5.633417e-05
      157  0.000000e+00
      158  0.000000e+00
      159  0.000000e+00