pos          info
        0 -5.504159e-05
        1 -4.742988e-05
        2  2.196990e-05
        3 -1.066260e-06
        4  4.420880e-05
        5  1.278565e-05
        6  1.103781e-05
        7 -1.172594e-04
        8 -1.961539e-05
        9 -2.292324e-05
       10  1.533147e-04
       11  2.009478e-05
       12  1.249652e-07
       13 -2.378665e-05
       14 -1.128344e-04
       15  1.638824e-04
       16 -1.314262e-04
       17 -2.543010e-05
       18 -3.871103e-05
       19  6.504221e-05
       20 -1.131425e-04
       21 -2.639431e-06
       22  5.690340e-05
       23  2.239188e-05
       24  3.817133e-05
       25  4.893549e-05
       26 -1.278120e-04
       27  1.667482e-04
       28 -6.136634e-05
       29 -2.625631e-05
       30  2.678930e-05
       31  2.262572e-05
       32 -3.857548e-06
       33  6.183907e-05
       34  1.590331e-04
       35 -2.583506e-05
       36  3.431697e-04
       37  4.478531e-04
       38 -1.607831e-06
       39 -4.915526e-06
       40 -1.324266e-06
       41  4.294254e-05
       42 -3.158834e-04
       43  2.898296e-04
       44 -1.486949e-05
       45 -5.762891e-04
       46  6.178463e-05
       47  4.296485e-05
       48 -4.727065e-04
       49 -3.098193e-07
       50 -1.716053e-04
       51  1.462166e-04
       52 -1.058202e-04
       53  4.105346e-05
       54  7.363592e-08
       55  1.378550e-06
       56 -6.459034e-06
       57  7.786225e-05
       58 -1.777581e-04
       59 -1.580821e-04
       60  9.199587e-06
       61 -1.399846e-04
       62  6.658918e-05
       63  5.356554e-05
       64 -7.088346e-06
       65  5.798628e-07
       66 -1.664336e-05
       67 -6.920811e-04
       68 -7.567437e-05
       69  1.563918e-04
       70  6.836710e-05
       71  3.727843e-04
       72  1.566287e-03
       73  8.475724e-05
       74 -4.848939e-06
       75  2.063330e-04
       76 -2.941558e-06
       77  3.185421e-05
       78 -1.897385e-03
       79  8.213761e-04
       80  3.955266e-04
       81 -3.977287e-03
       82 -4.077048e-03
       83  3.935330e-06
       84 -2.303065e-05
       85  2.927647e-04
       86  4.502480e-06
       87  1.309252e-04
       88 -1.007275e-04
       89  1.219488e-04
       90  3.489424e-09
       91  8.133886e-05
       92  8.549650e-10
       93  4.134969e-06
       94  7.918731e-05
       95  5.011368e-06
       96 -3.520542e-05
       97 -1.640295e-06
       98  1.855852e-05
       99  3.061078e-04
      100 -4.273462e-04
      101  1.107057e-04
      102  1.835600e-03
      103  9.379917e-04
      104  3.957283e-04
      105  2.556199e-04
      106  5.617798e-04
      107  2.618314e-03
      108 -4.390202e-04
      109 -1.453487e-04
      110 -3.644340e-04
      111  5.767558e-04
      112 -2.811198e-04
      113 -2.199760e-05
      114 -5.188570e-05
      115 -7.141834e-06
      116  6.109444e-04
      117 -5.925749e-05
      118  2.151836e-05
      119  1.094288e-04
      120  1.077282e-04
      121  1.634154e-06
      122 -1.547492e-05
      123  5.562845e-04
      124  3.404162e-04
      125  1.137402e-03
      126  1.005601e-06
      127  3.081820e-05
      128  3.168476e-04
      129 -4.780660e-05
      130 -5.014879e-05
      131  6.731564e-05
      132  4.653276e-04
      133 -1.900475e-05
      134 -3.929872e-06
      135 -3.118929e-05
      136  7.347793e-06
      137  8.878358e-05
      138  3.351125e-05
      139  2.560196e-05
      140  6.109668e-05
      141  8.910766e-05
      142  3.377350e-04
      143  7.377522e-05
      144 -3.217600e-05
      145 -2.621295e-08
      146 -7.270578e-06
      147  1.697899e-04
      148  8.557865e-05
      149 -1.437511e-06
      150  3.671207e-07
      151 -1.060897e-05
      152  7.172841e-05
      153  3.371412e-05
      154 -4.004203e-07
      155 -2.806251e-04
      156  1.747350e-06
      157  7.374428e-06
      158 -1.620593e-06
      159 -4.723489e-06