pos          info
        0 -8.756913e-05
        1 -1.671607e-04
        2 -1.724133e-04
        3  8.438592e-05
        4  1.133549e-04
        5  2.244615e-04
        6  1.730052e-04
        7  1.323890e-04
        8  3.838484e-05
        9 -8.566487e-05
       10 -3.682184e-05
       11  2.138443e-05
       12  2.598138e-05
       13  1.083965e-04
       14  1.687625e-04
       15  1.943139e-04
       16  9.786674e-05
       17  1.935433e-05
       18 -7.428701e-05
       19 -3.233297e-05
       20 -8.806284e-05
       21 -2.711987e-05
       22  3.913521e-05
       23  9.473614e-05
       24  8.753611e-05
       25 -7.239463e-06
       26 -1.237573e-04
       27 -9.827047e-05
       28 -7.833559e-05
       29  4.810751e-05
       30  2.558665e-05
       31  3.906888e-07
       32 -6.498183e-06
       33  1.259295e-05
       34  7.696145e-05
       35  1.673195e-06
       36 -4.628276e-06
       37 -6.279157e-05
       38  1.419464e-04
       39  1.365220e-04
       40  1.361852e-04
       41  8.405974e-05
       42  1.354992e-04
       43  1.349345e-04
       44  5.374649e-05
       45 -7.256826e-06
       46 -9.889462e-05
       47 -8.002159e-05
       48 -7.516227e-05
       49  5.501560e-05
       50  3.253841e-05
       51  1.426075e-05
       52  4.119641e-06
       53 -1.218074e-04
       54 -1.037275e-04
       55 -1.429425e-04
       56 -2.941513e-05
       57 -2.689759e-05
       58  6.173476e-06
       59  2.181556e-05
       60  1.489104e-04
       61  3.736647e-04
       62  3.455490e-04
       63  2.263017e-04
       64  3.835986e-05
       65 -9.040611e-05
       66 -6.105393e-05
       67 -8.618776e-05
       68  6.485213e-05
       69 -3.093099e-05
       70 -2.584954e-04
       71 -1.050159e-04
       72 -1.101315e-05
       73  1.906163e-04
       74  1.624543e-05
       75 -2.435415e-05
       76 -3.166665e-05
       77 -9.858304e-06
       78 -1.655084e-04
       79 -1.668188e-04
       80 -2.599548e-04
       81 -7.020953e-05
       82 -6.881560e-05
       83 -2.438571e-04
       84 -5.309782e-04
       85 -4.118470e-04
       86 -2.457673e-04
       87 -4.135620e-04
       88 -1.104662e-03
       89 -1.182085e-03
       90 -7.555737e-04
       91 -1.868275e-04
       92 -2.067123e-04
       93 -2.087257e-04
       94 -2.600911e-04
       95 -5.434558e-05
       96  5.038108e-06
       97  5.953340e-05
       98  5.944266e-05
       99  1.080511e-04
      100  3.821683e-04
      101  3.956898e-04
      102 -3.569403e-04
      103 -5.538515e-04
      104 -5.602407e-04
      105  1.171375e-04
      106  4.594422e-05
      107  7.428419e-05
      108 -2.521513e-04
      109  1.518482e-05
      110 -2.431248e-05
      111  2.770542e-04
      112  6.289908e-07
      113 -3.292511e-04
      114 -3.366438e-04
      115 -3.304848e-04
      116  3.317212e-05
      117  4.757475e-05
      118 -7.628830e-05
      119 -1.049330e-04
      120 -1.250064e-04
      121 -1.285588e-05
      122 -1.374304e-05
      123 -5.130407e-05
      124 -3.705819e-05
      125 -3.489117e-05
      126  4.565069e-05
      127  1.788611e-05
      128  1.051412e-04
      129  1.135121e-04
      130  1.022501e-04
      131 -1.453996e-04
      132 -2.083634e-04
      133 -1.811618e-04
      134 -2.486782e-05
      135 -2.962677e-06
      136  4.284445e-05
      137  4.932164e-05
      138  2.571353e-04
      139  1.695660e-04
      140  1.658264e-04
      141 -8.209564e-06
      142 -2.045683e-05
      143 -1.045779e-04
      144  8.793576e-05
      145  2.260782e-04
      146  3.015861e-04
      147  1.896213e-04
      148  1.118860e-04
      149  2.233220e-04
      150  1.159895e-04
      151  1.194193e-04
      152  1.928139e-04
      153  2.337324e-04
      154  4.752763e-04
      155  2.968217e-04
      156  2.080584e-04
      157  0.000000e+00
      158  0.000000e+00
      159  0.000000e+00