pos          info
        0  3.644682e-05
        1  5.293048e-05
        2  8.467674e-05
        3 -1.287328e-04
        4 -1.330542e-04
        5 -2.496097e-04
        6 -1.405716e-04
        7 -1.114330e-04
        8  4.140483e-05
        9  1.088073e-04
       10  8.313386e-05
       11 -3.354250e-05
       12 -4.463313e-05
       13 -4.713775e-05
       14  1.485708e-06
       15 -9.876182e-06
       16  1.518366e-06
       17 -6.539928e-06
       18  1.629425e-05
       19  3.921978e-06
       20  1.217379e-05
       21 -2.955620e-07
       22 -3.670022e-05
       23 -3.730435e-05
       24 -4.078923e-05
       25  1.556730e-06
       26  1.463149e-04
       27  1.538208e-04
       28  9.661501e-05
       29 -4.616021e-05
       30 -5.251079e-05
       31  2.567988e-05
       32  2.413854e-05
       33  9.879663e-06
       34 -3.316567e-05
       35  1.237564e-05
       36  3.555682e-05
       37  7.018446e-05
       38 -2.967205e-05
       39 -1.498651e-05
       40 -6.880309e-05
       41 -2.543888e-05
       42 -6.175381e-05
       43  8.525749e-06
       44 -1.971057e-05
       45 -2.659055e-05
       46  2.822700e-05
       47  6.756504e-05
       48  1.419905e-04
       49 -6.246462e-05
       50 -3.177591e-05
       51 -8.245837e-05
       52 -1.085271e-05
       53  1.106171e-04
       54  1.097348e-04
       55  1.527907e-04
       56  6.601484e-07
       57 -3.052413e-06
       58 -1.100376e-05
       59 -1.137094e-05
       60 -1.553631e-05
       61 -6.223559e-05
       62 -5.103618e-05
       63 -6.368046e-05
       64 -1.599494e-05
       65  4.793041e-05
       66  1.638124e-05
       67  9.786924e-07
       68  2.716167e-05
       69  9.052992e-05
       70  2.940316e-04
       71  1.308913e-04
       72  1.649458e-05
       73 -1.559441e-04
       74 -9.174467e-05
       75  1.176132e-05
       76  3.295057e-06
       77  1.334001e-06
       78  6.051666e-05
       79  5.855126e-05
       80  1.929638e-04
       81  6.274084e-05
       82  5.820350e-05
       83  1.427679e-04
       84  4.995494e-04
       85  4.142231e-04
       86  2.640074e-04
       87  1.912359e-04
       88  8.806102e-04
       89  9.861374e-04
       90  7.532967e-04
       91  1.515293e-04
       92  2.587567e-04
       93  2.822218e-04
       94  3.040201e-04
       95 -2.973139e-05
       96 -3.266961e-05
       97 -1.013839e-05
       98  4.390247e-05
       99 -5.699010e-06
      100 -1.752527e-04
      101 -2.013630e-04
      102  3.126191e-04
      103  3.763291e-04
      104  3.714359e-04
      105 -1.939509e-04
      106 -1.343368e-04
      107 -1.444455e-04
      108  1.424228e-04
      109 -1.644179e-04
      110 -1.183102e-04
      111 -3.139952e-04
      112 -3.806449e-06
      113  3.535659e-04
      114  3.580455e-04
      115  3.002214e-04
      116 -7.444200e-05
      117 -7.648244e-05
      118  8.617115e-06
      119  3.273245e-05
      120  3.833072e-05
      121  1.134334e-05
      122  3.168318e-05
      123  3.800611e-05
      124  6.171491e-05
      125  2.007650e-05
      126  1.051263e-05
      127  3.051006e-05
      128  3.361506e-05
      129  3.325968e-05
      130  7.551165e-06
      131  3.125528e-05
      132  5.181131e-05
      133  3.605815e-05
      134  1.970909e-05
      135 -1.480034e-05
      136 -5.499371e-05
      137 -5.997691e-05
      138 -2.036860e-04
      139 -1.333690e-04
      140 -1.326876e-04
      141  2.790739e-05
      142  2.348846e-05
      143  5.396732e-05
      144 -7.541463e-06
      145 -6.514733e-05
      146 -9.975537e-05
      147 -7.412505e-05
      148 -4.525742e-05
      149 -1.610227e-04
      150 -1.246859e-04
      151 -1.216394e-04
      152 -1.634435e-04
      153 -1.659867e-04
      154 -3.536804e-04
      155 -1.603279e-04
      156 -1.512134e-04
      157  0.000000e+00
      158  0.000000e+00
      159  0.000000e+00