pos          info
        0  3.335259e-05
        1 -2.282527e-04
        2 -4.850277e-06
        3 -1.428965e-04
        4 -1.487062e-04
        5  2.655684e-04
        6 -3.119525e-05
        7  3.118536e-05
        8  5.507671e-06
        9  1.438329e-06
       10 -1.845810e-04
       11  8.573391e-05
       12 -4.688104e-05
       13  5.888621e-05
       14 -3.483118e-06
       15 -1.106900e-05
       16  2.117576e-04
       17 -2.387506e-08
       18 -6.877451e-05
       19  1.432054e-05
       20 -2.297468e-05
       21  1.736076e-05
       22 -4.176938e-05
       23  1.012220e-04
       24  8.712297e-05
       25  1.423710e-04
       26  1.328923e-05
       27 -2.833669e-05
       28 -5.821992e-04
       29 -7.408670e-05
       30  5.774498e-05
       31  1.666495e-06
       32  4.352454e-06
       33  3.417085e-05
       34  7.173681e-06
       35 -4.542442e-06
       36  2.266134e-05
       37 -1.694161e-04
       38 -3.271962e-04
       39 -9.450275e-06
       40  4.112033e-04
       41  2.074701e-07
       42  2.488901e-05
       43 -1.088641e-05
       44  6.821899e-05
       45  4.429161e-06
       46  5.742340e-04
       47  7.129247e-04
       48  5.519078e-05
       49  9.075418e-05
       50  3.498789e-05
       51  2.843407e-04
       52 -2.317299e-05
       53 -5.596535e-05
       54  1.122219e-04
       55 -6.967644e-06
       56  6.347939e-05
       57 -3.035539e-05
       58  2.693262e-07
       59  5.751262e-04
       60  7.262362e-05
       61  5.408052e-04
       62  3.637537e-04
       63  8.139861e-04
       64 -1.124553e-05
       65  5.461854e-05
       66  5.326675e-06
       67  2.219016e-05
       68  2.991135e-04
       69  5.734362e-04
       70  1.933427e-04
       71 -3.321948e-04
       72 -3.175124e-05
       73  1.006664e-03
       74  7.947533e-04
       75 -4.964628e-05
       76  1.304270e-04
       77  1.296488e-05
       78  3.064940e-05
       79  6.142241e-04
       80 -1.083319e-05
       81  2.313413e-04
       82 -1.496923e-04
       83  1.264318e-03
       84  4.306781e-05
       85 -5.752546e-04
       86 -1.058530e-03
       87  6.581784e-04
       88 -7.051926e-04
       89 -1.020531e-03
       90 -1.223348e-03
       91 -4.172542e-04
       92  3.177873e-05
       93 -2.514976e-04
       94 -3.810809e-04
       95 -1.193663e-04
       96 -7.344252e-05
       97  3.629502e-05
       98  1.429344e-03
       99  6.698263e-07
      100 -4.741546e-06
      101  4.965517e-04
      102  6.109237e-04
      103  1.772964e-04
      104 -2.693439e-03
      105  2.295185e-05
      106  9.725290e-04
      107  1.837111e-03
      108  3.168114e-04
      109  1.706597e-03
      110 -5.374263e-04
      111  5.346963e-03
      112  2.171979e-06
      113  1.038730e-05
      114 -7.858547e-06
      115 -1.016453e-03
      116 -2.549769e-05
      117  2.922856e-04
      118  2.728401e-04
      119  1.434702e-05
      120  1.491898e-05
      121 -2.661643e-08
      122 -1.483193e-05
      123 -3.433297e-05
      124 -2.384161e-04
      125 -1.405680e-04
      126  6.229240e-05
      127  2.384198e-05
      128  9.052574e-05
      129 -8.422608e-05
      130  2.531607e-04
      131  3.397115e-06
      132 -1.272383e-04
      133 -2.228205e-05
      134 -5.408481e-04
      135 -9.374389e-06
      136 -5.559887e-05
      137  1.843397e-04
      138 -3.015775e-05
      139 -1.458722e-05
      140 -1.599906e-07
      141 -4.015843e-05
      142 -8.474064e-06
      143  1.167675e-04
      144 -1.997075e-05
      145  6.586413e-07
      146  5.964927e-05
      147  9.324697e-05
      148  8.909622e-06
      149  3.812778e-05
      150 -2.067381e-05
      151  5.763791e-05
      152  2.729289e-05
      153  3.504536e-04
      154  3.203458e-04
      155  8.545879e-05
      156  2.122647e-04
      157 -7.775515e-08
      158 -3.974776e-08
      159  1.238658e-04