pos          info
        0 -9.909096e-05
        1 -8.347290e-05
        2 -1.355352e-04
        3 -1.133504e-05
        4 -4.791425e-07
        5  1.613702e-05
        6  1.660868e-05
        7 -2.187730e-05
        8  2.301568e-05
        9  1.066578e-04
       10  1.763354e-04
       11  1.777223e-04
       12  1.216754e-04
       13  7.402250e-05
       14  5.780118e-05
       15 -1.388469e-04
       16 -1.108009e-04
       17 -1.420889e-04
       18  7.011233e-05
       19  1.650272e-04
       20  1.281863e-04
       21  1.287380e-04
       22  8.019849e-06
       23  3.091206e-06
       24 -1.976269e-04
       25 -1.962575e-04
       26 -1.506401e-04
       27 -1.928319e-05
       28 -1.987157e-05
       29 -1.350110e-05
       30 -1.160342e-05
       31 -9.818689e-06
       32  9.281191e-05
       33  1.141958e-04
       34  1.169528e-04
       35  1.276107e-05
       36  2.326829e-05
       37 -3.277067e-05
       38 -3.143600e-05
       39 -5.042582e-05
       40 -1.351147e-05
       41 -1.402628e-05
       42  8.103665e-05
       43  7.355779e-05
       44  6.903815e-05
       45  5.298070e-05
       46 -8.624246e-05
       47 -1.304639e-04
       48 -2.065762e-04
       49 -1.339264e-04
       50 -7.999353e-05
       51 -9.801682e-05
       52 -2.392479e-05
       53 -7.377150e-05
       54 -4.741531e-06
       55 -3.076057e-05
       56 -1.696615e-05
       57 -6.729207e-05
       58 -2.785756e-05
       59  3.423627e-06
       60  1.160043e-04
       61  1.156230e-04
       62  2.644649e-04
       63  1.906341e-04
       64  1.936891e-04
       65  6.133423e-05
       66  1.301521e-04
       67  1.285407e-04
       68  1.108152e-04
       69  2.620187e-07
       70  3.137340e-06
       71 -1.337458e-05
       72 -4.682037e-05
       73 -4.681954e-05
       74  8.282808e-05
       75  2.720534e-04
       76  2.621712e-04
       77  1.012606e-03
       78  1.258515e-03
       79  2.347763e-03
       80  2.562286e-03
       81  2.993232e-03
       82  2.469243e-03
       83  1.398458e-03
       84  5.757181e-04
       85  2.309304e-05
       86  5.417547e-05
       87 -4.011622e-05
       88 -4.663746e-05
       89 -1.340332e-04
       90 -1.020403e-04
       91 -1.017467e-04
       92 -4.566978e-05
       93  2.606491e-05
       94  3.183299e-05
       95  3.427870e-05
       96  9.497560e-06
       97  2.284414e-05
       98 -5.324620e-05
       99  2.978323e-05
      100  1.052167e-03
      101  1.188412e-03
      102  1.218212e-03
      103 -6.126028e-06
      104 -4.723402e-05
      105 -1.012145e-03
      106 -6.022906e-04
      107 -5.392446e-04
      108  1.921067e-04
      109  3.139881e-06
      110 -1.494720e-04
      111 -3.212258e-05
      112 -4.394537e-05
      113  2.147399e-05
      114  3.154183e-05
      115  5.060599e-06
      116 -1.735043e-04
      117 -1.754706e-04
      118 -1.805672e-04
      119  4.146813e-05
      120  9.848911e-05
      121  8.361452e-05
      122  3.678763e-05
      123 -2.848298e-05
      124  1.668732e-04
      125  1.373988e-04
      126 -1.621614e-04
      127 -4.184020e-04
      128 -3.586346e-04
      129 -6.312454e-05
      130  3.832370e-04
      131  3.602428e-04
      132  1.581430e-04
      133 -3.031958e-04
      134 -2.981711e-04
      135 -3.638522e-05
      136  6.036420e-05
      137  1.362599e-04
      138  9.426869e-05
      139  9.790636e-05
      140  7.795239e-05
      141  8.480813e-05
      142  8.121032e-05
      143 -9.096929e-06
      144 -3.618452e-05
      145  6.252072e-05
      146  6.760652e-05
      147  1.033003e-04
      148  5.593778e-05
      149  1.218081e-04
      150  1.164878e-04
      151 -1.702781e-05
      152 -9.534612e-05
      153 -1.193252e-04
      154 -4.473668e-05
      155  6.263552e-05
      156  4.123671e-05
      157  0.000000e+00
      158  0.000000e+00
      159  0.000000e+00