pos          info
        0 -9.916600e-05
        1 -8.031624e-05
        2 -1.217070e-04
        3 -7.810053e-06
        4 -9.618198e-07
        5  1.736593e-05
        6  2.320274e-05
        7 -2.306519e-05
        8  1.730130e-05
        9  7.433645e-05
       10  1.436029e-04
       11  1.388948e-04
       12  1.161806e-04
       13  7.109774e-05
       14  7.056508e-05
       15 -1.375007e-04
       16 -1.068455e-04
       17 -1.449858e-04
       18  4.857319e-05
       19  1.252390e-04
       20  9.562860e-05
       21  1.193748e-04
       22  1.705860e-05
       23  1.079799e-05
       24 -1.877559e-04
       25 -1.868703e-04
       26 -1.507003e-04
       27 -2.349810e-05
       28 -2.310842e-05
       29 -8.054742e-06
       30 -4.544611e-06
       31 -1.653350e-06
       32  1.134817e-04
       33  1.293635e-04
       34  1.311969e-04
       35  1.201171e-05
       36  2.142580e-05
       37 -3.752237e-05
       38 -3.406480e-05
       39 -5.081254e-05
       40 -1.226252e-05
       41 -1.530709e-05
       42  8.034354e-05
       43  6.537393e-05
       44  6.280345e-05
       45  3.964123e-05
       46 -7.313000e-05
       47 -1.221139e-04
       48 -1.909292e-04
       49 -1.302865e-04
       50 -7.895572e-05
       51 -1.004115e-04
       52 -2.996866e-05
       53 -6.588352e-05
       54  3.974225e-06
       55 -3.108789e-05
       56 -4.522056e-05
       57 -9.474683e-05
       58 -5.208289e-05
       59 -1.246807e-06
       60  1.025894e-04
       61  1.042505e-04
       62  2.316734e-04
       63  1.651221e-04
       64  1.724319e-04
       65  6.884136e-05
       66  1.454789e-04
       67  1.397722e-04
       68  1.163521e-04
       69 -8.061296e-07
       70  3.894884e-06
       71 -1.608623e-05
       72 -4.010905e-05
       73 -4.405217e-05
       74  9.079240e-05
       75  2.552434e-04
       76  2.437469e-04
       77  9.629825e-04
       78  1.306562e-03
       79  2.525739e-03
       80  2.904379e-03
       81  3.279573e-03
       82  2.679857e-03
       83  1.468466e-03
       84  6.167864e-04
       85  1.630848e-05
       86  4.946643e-05
       87 -4.763589e-05
       88 -5.607529e-05
       89 -1.404766e-04
       90 -1.088009e-04
       91 -1.079074e-04
       92 -4.588267e-05
       93  3.928503e-05
       94  4.349136e-05
       95  4.260089e-05
       96  1.396727e-05
       97  2.173409e-05
       98 -6.414318e-05
       99  2.264778e-05
      100  1.227279e-03
      101  1.363088e-03
      102  1.375991e-03
      103  4.261730e-06
      104 -2.548335e-05
      105 -1.033220e-03
      106 -6.545162e-04
      107 -6.111456e-04
      108  1.794335e-04
      109  1.350426e-06
      110 -1.375386e-04
      111 -2.617843e-05
      112 -4.965186e-05
      113  1.833964e-05
      114  2.853321e-05
      115  6.197084e-06
      116 -1.629941e-04
      117 -1.659008e-04
      118 -1.749469e-04
      119  2.382953e-05
      120  8.116831e-05
      121  5.488993e-05
      122  2.162410e-05
      123 -4.866808e-05
      124  1.732874e-04
      125  1.454329e-04
      126 -1.324155e-04
      127 -3.871408e-04
      128 -3.381599e-04
      129 -5.206583e-05
      130  4.402914e-04
      131  4.252075e-04
      132  2.074219e-04
      133 -3.069525e-04
      134 -2.927554e-04
      135 -2.764002e-05
      136  6.271998e-05
      137  1.297518e-04
      138  9.383162e-05
      139  9.703215e-05
      140  8.236329e-05
      141  8.114016e-05
      142  7.726331e-05
      143 -1.593843e-05
      144 -3.377929e-05
      145  7.506454e-05
      146  7.757523e-05
      147  1.051822e-04
      148  5.363402e-05
      149  1.258124e-04
      150  1.335936e-04
      151 -1.136452e-05
      152 -9.166523e-05
      153 -1.180765e-04
      154 -3.671186e-05
      155  7.101167e-05
      156  4.310428e-05
      157  0.000000e+00
      158  0.000000e+00
      159  0.000000e+00