pos          info
        0 -7.178601e-05
        1  5.792037e-04
        2  2.039033e-04
        3 -1.490369e-04
        4  1.180378e-05
        5 -1.411662e-05
        6 -1.483582e-05
        7  1.186315e-05
        8 -1.279048e-05
        9  7.520479e-06
       10  6.318639e-05
       11  8.118023e-05
       12 -7.727200e-05
       13  4.286115e-04
       14 -2.592166e-06
       15 -1.122246e-04
       16 -8.847152e-05
       17 -2.671248e-06
       18 -2.030923e-06
       19  7.638747e-08
       20 -5.475626e-05
       21 -7.684772e-05
       22 -1.404373e-04
       23 -1.436694e-05
       24  1.876844e-06
       25  4.138835e-06
       26 -2.050307e-04
       27 -1.664314e-04
       28  2.455863e-05
       29 -1.622573e-05
       30  4.727401e-05
       31 -3.167026e-06
       32  2.688576e-04
       33  1.374589e-04
       34  7.921897e-07
       35 -1.051667e-04
       36 -4.389928e-04
       37 -2.284925e-04
       38 -8.381664e-05
       39 -1.425262e-04
       40 -1.236689e-04
       41 -2.454323e-05
       42 -1.575216e-04
       43 -1.676676e-03
       44 -1.183114e-03
       45 -1.053956e-04
       46  1.282407e-04
       47 -2.911592e-04
       48 -7.988523e-05
       49  4.237510e-04
       50  1.269069e-04
       51  3.886357e-06
       52 -6.777591e-05
       53  2.501932e-05
       54 -1.520835e-04
       55 -6.172606e-04
       56 -5.727694e-04
       57  2.164045e-06
       58  8.874485e-05
       59 -4.794390e-04
       60 -3.378713e-04
       61 -5.858949e-04
       62  2.425563e-05
       63  1.512021e-04
       64 -1.065997e-03
       65 -8.063550e-04
       66 -5.282325e-04
       67 -5.949905e-04
       68 -2.371183e-05
       69 -4.496360e-05
       70 -1.177804e-04
       71 -1.652715e-05
       72 -5.250533e-04
       73 -3.492946e-03
       74 -1.592293e-03
       75 -1.240338e-03
       76  4.215669e-04
       77 -5.399275e-04
       78  5.800768e-05
       79 -1.687587e-05
       80  7.901311e-08
       81 -1.120220e-04
       82 -3.414324e-05
       83 -1.111906e-05
       84 -4.783623e-04
       85  7.979120e-05
       86 -1.000884e-05
       87 -1.947781e-06
       88 -5.489723e-04
       89 -1.831341e-04
       90  1.370299e-04
       91  1.611612e-04
       92 -1.954814e-04
       93  1.189021e-03
       94 -2.214500e-03
       95 -1.636563e-03
       96 -2.571465e-03
       97 -1.940913e-04
       98 -1.465682e-03
       99  5.772483e-04
      100  9.259052e-04
      101  3.017157e-04
      102  1.318145e-03
      103  2.959001e-05
      104  1.373386e-04
      105 -2.756806e-04
      106 -1.711615e-04
      107 -4.309399e-04
      108  2.929311e-05
      109 -4.521827e-04
      110 -2.136350e-04
      111  1.936004e-05
      112  5.914628e-08
      113 -8.102310e-05
      114 -3.468318e-06
      115  4.441165e-07
      116 -6.533949e-05
      117 -4.239044e-04
      118 -1.146422e-07
      119  3.557889e-06
      120 -1.340368e-04
      121  3.690927e-05
      122 -9.139928e-06
      123  2.118192e-04
      124 -1.058983e-05
      125  2.373614e-04
      126 -2.433113e-05
      127  3.715361e-04
      128 -1.979849e-06
      129  5.412520e-05
      130  5.256227e-05
      131 -2.192628e-05
      132 -2.527062e-04
      133  3.239356e-06
      134 -3.356096e-06
      135 -1.176430e-06
      136 -2.354992e-05
      137 -1.273344e-04
      138 -8.555183e-06
      139 -1.980059e-04
      140 -7.525757e-05
      141  1.138885e-05
      142 -2.515849e-06
      143 -1.427731e-07
      144 -8.433074e-04
      145 -2.816996e-04
      146  2.261606e-05
      147  6.772204e-05
      148  1.415289e-04
      149 -9.073436e-05
      150 -8.812595e-05
      151  3.675164e-05
      152  1.922327e-05
      153  3.778556e-05
      154  2.561441e-04
      155  3.544287e-05
      156  5.374377e-06
      157 -8.978377e-04
      158  1.341757e-04
      159  2.159999e-04