pos          info
        0  6.310048e-08
        1 -2.132730e-05
        2  7.811458e-05
        3 -7.109266e-08
        4 -5.629584e-06
        5 -1.879719e-04
        6 -6.894205e-04
        7 -2.471302e-05
        8  2.826932e-05
        9  1.562000e-04
       10 -5.236090e-05
       11 -4.037515e-05
       12  1.459110e-04
       13 -1.120970e-04
       14 -1.796019e-05
       15 -1.051036e-05
       16 -1.127742e-05
       17  3.444308e-05
       18 -3.848942e-06
       19 -2.916062e-04
       20  1.591628e-05
       21  7.725942e-05
       22 -5.833461e-06
       23  5.384065e-06
       24 -1.281357e-05
       25  4.197891e-04
       26  2.966332e-04
       27 -2.267532e-05
       28  1.748086e-04
       29  6.979805e-05
       30 -1.305596e-06
       31 -7.145458e-05
       32 -3.256173e-05
       33  9.434187e-06
       34 -1.280178e-04
       35  1.265744e-04
       36 -2.379610e-04
       37 -1.792201e-06
       38  3.860559e-04
       39 -5.595480e-06
       40  1.036792e-04
       41  1.088921e-05
       42 -1.468360e-04
       43 -7.676397e-06
       44  5.741156e-04
       45  2.746412e-05
       46  1.596443e-04
       47 -1.506625e-06
       48  4.370272e-07
       49 -5.728758e-06
       50  1.139606e-05
       51  8.990070e-05
       52  2.719231e-04
       53  2.981344e-04
       54  4.842461e-04
       55 -1.914677e-04
       56 -6.159372e-05
       57  4.329723e-07
       58 -1.138718e-04
       59  1.601635e-04
       60  6.460272e-04
       61 -9.822962e-06
       62  8.281375e-05
       63 -6.365223e-04
       64  1.395527e-04
       65 -3.456540e-07
       66  1.634844e-06
       67  1.034443e-04
       68  1.165904e-09
       69 -3.748054e-05
       70  1.984351e-04
       71 -2.118122e-04
       72 -9.919211e-05
       73  2.454922e-04
       74 -8.838853e-06
       75 -2.697507e-04
       76  1.747468e-04
       77  8.168437e-04
       78  9.834536e-04
       79  1.734164e-03
       80  3.986490e-03
       81  3.023635e-03
       82 -4.965149e-05
       83 -3.345147e-04
       84  2.014041e-04
       85 -7.491712e-06
       86  7.260075e-06
       87 -1.661725e-04
       88 -6.135783e-05
       89 -7.267738e-04
       90 -1.343796e-04
       91 -7.251644e-05
       92 -9.152961e-05
       93  1.085561e-06
       94  1.970480e-06
       95  8.765841e-05
       96  1.305175e-04
       97 -5.459266e-04
       98  6.865044e-06
       99 -1.378366e-04
      100  3.073492e-04
      101  8.093899e-06
      102  5.906932e-03
      103  4.697461e-03
      104 -4.781826e-04
      105 -3.283472e-04
      106  2.028440e-03
      107  3.122273e-03
      108 -3.638522e-05
      109  1.823902e-06
      110  2.998490e-04
      111 -1.558780e-05
      112  1.665996e-05
      113  2.381577e-04
      114 -1.570695e-04
      115  7.507586e-05
      116  2.291168e-06
      117 -1.283221e-04
      118  1.310910e-04
      119  1.809116e-07
      120 -1.764205e-05
      121 -4.649427e-04
      122 -2.708288e-04
      123 -1.053514e-04
      124 -1.356271e-04
      125  1.894682e-05
      126  2.886372e-06
      127 -2.329065e-05
      128  7.752514e-06
      129 -1.189034e-04
      130 -1.964855e-04
      131  1.677555e-04
      132  9.498206e-05
      133 -7.140494e-05
      134  9.012793e-04
      135 -3.774152e-05
      136  1.873619e-04
      137  1.233523e-05
      138  1.563124e-06
      139 -3.376529e-05
      140 -3.669089e-05
      141 -3.005009e-07
      142 -5.017779e-06
      143  7.136809e-05
      144  7.802209e-07
      145 -3.864277e-05
      146  4.068590e-04
      147 -8.030831e-06
      148 -1.244802e-07
      149 -8.900638e-06
      150 -1.569343e-05
      151 -1.964453e-04
      152  1.484546e-06
      153  9.513063e-05
      154 -7.682115e-05
      155 -9.579462e-06
      156  2.302102e-04
      157 -7.908377e-06
      158 -6.120444e-05
      159 -1.170521e-04