pos          info
        0  4.185368e-04
        1 -1.755558e-04
        2 -2.908854e-04
        3  7.465432e-04
        4 -1.460364e-05
        5 -3.767609e-04
        6 -1.066097e-05
        7 -7.961651e-06
        8  1.138445e-04
        9 -1.220907e-04
       10  1.442078e-04
       11  1.736303e-05
       12  1.736127e-04
       13  1.618630e-04
       14  1.080952e-04
       15 -1.838557e-05
       16  1.391015e-04
       17 -1.025650e-04
       18  9.250165e-06
       19 -2.498342e-05
       20  4.145042e-06
       21  3.885702e-05
       22 -7.132661e-06
       23  5.163467e-05
       24 -1.663163e-04
       25  3.388239e-06
       26 -2.079085e-05
       27 -3.248145e-04
       28 -9.017176e-05
       29 -3.140179e-06
       30 -1.347748e-05
       31  2.048912e-04
       32  5.014782e-06
       33  5.565595e-05
       34 -2.450739e-04
       35  9.255808e-09
       36  4.161684e-07
       37 -4.654617e-04
       38 -6.887902e-06
       39 -3.377332e-04
       40  1.036612e-05
       41  4.825944e-05
       42 -4.208076e-04
       43 -5.967942e-05
       44  1.246699e-05
       45 -1.798286e-04
       46 -1.210018e-06
       47  2.813433e-09
       48  8.048166e-06
       49 -1.048817e-04
       50  6.588703e-06
       51  8.887478e-05
       52  7.312606e-04
       53 -9.394009e-05
       54  6.090077e-07
       55  6.141923e-04
       56  2.002445e-04
       57  2.622101e-04
       58  2.275726e-06
       59 -2.932794e-05
       60  2.397585e-04
       61  3.535641e-04
       62 -2.258560e-05
       63 -1.837489e-04
       64  2.896217e-04
       65  1.783352e-06
       66 -6.523612e-04
       67  5.934934e-05
       68  3.053841e-05
       69 -1.824836e-06
       70  8.643059e-04
       71 -3.390175e-05
       72  6.795751e-05
       73 -2.089113e-04
       74  1.486963e-05
       75  1.090922e-04
       76 -6.447999e-06
       77  3.786285e-04
       78 -5.751287e-06
       79 -7.217763e-06
       80  5.859853e-05
       81  2.205569e-05
       82  1.425714e-04
       83  1.319354e-04
       84  5.772001e-06
       85  2.986228e-05
       86 -9.571436e-05
       87  4.090853e-05
       88 -9.478774e-06
       89  1.245314e-06
       90  9.858001e-05
       91  2.733011e-04
       92 -1.052541e-04
       93 -2.016409e-04
       94 -5.856775e-06
       95  8.781757e-05
       96  1.071016e-04
       97  6.871575e-07
       98  1.232933e-04
       99 -3.863140e-05
      100  1.325964e-05
      101  4.394608e-04
      102  1.229667e-04
      103 -1.251608e-05
      104 -1.959483e-04
      105 -1.224023e-04
      106 -2.810590e-05
      107 -3.746931e-05
      108  1.769558e-07
      109 -1.500156e-04
      110 -5.805956e-05
      111 -4.423842e-05
      112  3.829793e-05
      113 -1.347099e-04
      114 -1.599142e-04
      115 -6.633056e-06
      116  2.003134e-05
      117 -9.528790e-07
      118 -7.229875e-05
      119 -6.417529e-05
      120  1.524988e-04
      121  2.369606e-04
      122  2.586976e-04
      123  1.069624e-05
      124 -7.627795e-05
      125 -4.632484e-07
      126  3.750600e-05
      127 -4.160118e-06
      128 -9.659817e-05
      129 -2.466984e-05
      130  3.794224e-04
      131 -5.296395e-07
      132  1.506609e-04
      133  2.166737e-06
      134 -5.004163e-06
      135  7.516318e-05
      136 -3.760559e-04
      137  4.352385e-04
      138 -1.280628e-06
      139 -1.058990e-05
      140 -4.972099e-06
      141 -4.940269e-05
      142  2.092930e-05
      143 -6.856930e-04
      144  1.007457e-04
      145  4.529687e-04
      146  4.643404e-08
      147  7.623624e-06
      148  1.887575e-04
      149 -9.476841e-05
      150 -7.504716e-04
      151 -1.077239e-04
      152 -1.052434e-04
      153  2.600599e-04
      154 -4.941789e-05
      155  6.900201e-05
      156  4.868057e-05
      157  1.098865e-04
      158  1.498634e-04
      159 -9.937029e-05