pos          info
        0  8.267971e-10
        1  2.245889e-05
        2 -1.803911e-06
        3 -3.815008e-06
        4  2.965767e-05
        5  1.753797e-05
        6  4.419436e-07
        7  1.235565e-04
        8 -1.447506e-04
        9 -8.125945e-07
       10  2.809186e-04
       11  3.324629e-07
       12 -5.829495e-05
       13 -1.293487e-04
       14 -1.513521e-04
       15 -7.328255e-06
       16 -2.796491e-05
       17  4.257586e-04
       18 -7.455828e-05
       19 -1.932378e-06
       20 -1.138285e-04
       21 -1.048760e-04
       22  2.425486e-04
       23  1.778591e-06
       24  1.076820e-07
       25  4.522493e-06
       26  6.366160e-07
       27  1.231065e-05
       28  3.668795e-05
       29 -7.141333e-05
       30  3.375533e-05
       31  1.244356e-04
       32  7.290204e-05
       33  7.210492e-05
       34  7.745484e-04
       35 -7.452278e-05
       36  3.018762e-04
       37 -3.283436e-06
       38  1.814785e-04
       39  1.072673e-04
       40 -1.602781e-06
       41 -1.639079e-04
       42  4.244917e-06
       43 -2.145668e-04
       44  2.597765e-04
       45  1.944101e-04
       46 -3.940102e-05
       47  2.224623e-04
       48  1.346792e-06
       49  4.408662e-05
       50  6.220122e-06
       51 -1.279494e-05
       52  6.347534e-05
       53 -1.798684e-05
       54  2.507696e-06
       55 -6.835645e-06
       56  2.627148e-05
       57  8.191728e-06
       58  1.077390e-05
       59 -5.299436e-05
       60  4.935445e-05
       61  1.645024e-04
       62 -1.148978e-04
       63 -2.246594e-07
       64 -1.309686e-04
       65  5.801588e-06
       66  7.558433e-05
       67 -2.630538e-04
       68  4.389592e-05
       69 -1.419575e-05
       70  3.402213e-05
       71 -1.319839e-06
       72 -2.239784e-04
       73  1.890995e-04
       74 -2.369941e-05
       75  1.064077e-05
       76  1.076502e-04
       77  1.042845e-04
       78 -1.638241e-05
       79 -1.716387e-04
       80  9.752672e-06
       81 -2.533173e-04
       82 -6.258996e-05
       83  3.006073e-04
       84  1.562598e-07
       85  1.619463e-04
       86  3.969286e-04
       87 -4.820023e-04
       88  1.760249e-05
       89 -1.051785e-03
       90  2.443895e-05
       91 -1.090485e-04
       92 -1.303031e-05
       93  6.663608e-05
       94 -1.611805e-04
       95 -1.972598e-05
       96 -2.925926e-05
       97  1.665754e-04
       98  3.019950e-05
       99  2.316222e-05
      100  7.200639e-04
      101  1.189205e-04
      102 -1.162622e-04
      103 -5.840959e-05
      104 -1.290756e-05
      105 -3.974622e-06
      106 -1.476080e-04
      107 -2.196168e-05
      108 -2.794090e-07
      109 -9.576748e-05
      110 -1.971816e-05
      111  4.888737e-05
      112 -4.289842e-05
      113  2.860404e-05
      114 -3.413534e-05
      115 -9.108769e-05
      116  1.745226e-04
      117  3.657212e-05
      118  1.533501e-06
      119  3.578616e-05
      120  9.305188e-05
      121 -1.904324e-04
      122  1.940631e-04
      123  7.787554e-06
      124  1.588319e-04
      125  5.784421e-07
      126 -1.148709e-04
      127  3.365981e-05
      128  6.310408e-06
      129  5.682903e-05
      130 -1.926489e-08
      131 -2.370139e-06
      132  3.726698e-04
      133 -2.505330e-09
      134  2.675085e-04
      135 -5.976645e-05
      136  2.379834e-05
      137 -1.243728e-05
      138  2.664612e-04
      139 -4.252953e-05
      140 -5.154452e-06
      141  6.227771e-05
      142 -1.321137e-06
      143  5.192776e-05
      144 -6.123535e-05
      145  3.747425e-06
      146  6.565481e-05
      147 -8.718461e-05
      148 -7.682476e-05
      149  3.872787e-04
      150  1.761768e-05
      151 -4.170783e-04
      152 -3.171995e-05
      153 -1.323815e-05
      154  5.403914e-05
      155  3.855013e-04
      156 -4.013941e-04
      157 -3.899851e-04
      158 -3.027112e-04
      159  2.083628e-05