pos          info
        0  6.377685e-05
        1 -4.792201e-04
        2 -3.987247e-06
        3 -5.592676e-09
        4 -7.901348e-05
        5 -7.204925e-05
        6 -9.415500e-05
        7 -7.055278e-04
        8 -1.223261e-06
        9 -5.120337e-04
       10 -2.412446e-04
       11  6.262274e-05
       12  9.057791e-05
       13  5.125698e-04
       14 -5.348528e-04
       15 -3.512755e-05
       16  3.293172e-05
       17 -2.028644e-04
       18  1.941881e-05
       19 -8.613447e-05
       20  4.522161e-06
       21  5.090218e-04
       22  2.207080e-04
       23  1.208463e-05
       24 -9.812784e-05
       25  1.074899e-04
       26  9.101222e-05
       27  3.803919e-05
       28 -2.649538e-04
       29  9.212379e-05
       30 -7.100233e-05
       31  4.413361e-05
       32 -3.268134e-04
       33 -7.532109e-08
       34 -1.571788e-05
       35  3.946705e-05
       36  1.950463e-04
       37  1.627830e-04
       38 -2.203780e-04
       39  2.919881e-06
       40  1.749953e-03
       41  5.297216e-10
       42 -6.451965e-05
       43  7.795986e-04
       44  1.088418e-05
       45  2.226867e-05
       46  3.781386e-04
       47 -2.540859e-05
       48 -2.773804e-06
       49 -4.140946e-06
       50  6.014008e-04
       51  3.841710e-06
       52  1.704375e-04
       53 -4.045926e-08
       54 -7.924684e-06
       55  1.577641e-04
       56  9.914324e-07
       57  7.502751e-06
       58 -1.521574e-04
       59  8.851709e-05
       60 -5.671985e-06
       61 -2.576846e-05
       62  8.193591e-06
       63  4.057429e-05
       64 -1.108080e-04
       65  2.539331e-05
       66 -9.731833e-05
       67 -1.699953e-04
       68 -1.904280e-05
       69 -3.816785e-04
       70 -7.033274e-05
       71 -8.917995e-05
       72  3.035910e-06
       73 -4.165737e-06
       74  1.548563e-04
       75  4.757613e-05
       76 -1.586972e-05
       77  6.174983e-04
       78 -1.198657e-05
       79 -6.628903e-06
       80  4.655498e-05
       81 -1.520896e-04
       82 -1.801799e-04
       83  3.670613e-04
       84  3.390725e-05
       85 -2.357019e-04
       86 -1.914936e-05
       87  7.440476e-07
       88  4.974465e-04
       89  7.463749e-05
       90 -2.353307e-06
       91 -1.719028e-05
       92 -2.390561e-04
       93 -1.051609e-04
       94 -3.730436e-06
       95  1.543181e-04
       96 -6.855048e-05
       97 -2.160818e-04
       98  9.847938e-04
       99  3.458178e-06
      100  1.162999e-04
      101 -5.731679e-04
      102  6.736181e-05
      103 -4.602474e-04
      104  2.100610e-04
      105  5.965815e-05
      106  3.067685e-04
      107  4.469763e-05
      108 -6.647418e-05
      109  8.403720e-05
      110  7.988478e-05
      111 -3.493708e-05
      112  2.435763e-05
      113  5.314650e-05
      114 -1.748624e-04
      115  3.632178e-04
      116  1.562559e-04
      117  3.141983e-05
      118 -6.460420e-05
      119 -9.006607e-05
      120 -1.575186e-04
      121  1.784939e-04
      122  1.280231e-06
      123  1.948472e-04
      124  1.416255e-04
      125 -4.205815e-04
      126  3.047707e-06
      127 -3.796225e-04
      128  1.598711e-05
      129 -7.103393e-05
      130 -1.840355e-04
      131 -4.299357e-04
      132 -1.418871e-05
      133  5.528464e-06
      134 -1.619859e-05
      135  1.100967e-04
      136  1.542908e-04
      137  1.624631e-07
      138 -1.191805e-03
      139  8.001349e-05
      140 -1.640903e-04
      141 -3.070894e-04
      142 -1.354925e-04
      143 -1.141350e-06
      144  1.834038e-04
      145  8.449875e-05
      146 -2.568609e-07
      147  3.943859e-04
      148  5.925244e-04
      149  2.870819e-04
      150 -1.307270e-04
      151 -5.300004e-05
      152  7.929899e-06
      153 -1.991570e-04
      154 -2.678559e-04
      155  4.480542e-04
      156  7.604759e-06
      157  1.267727e-05
      158  2.108792e-04
      159  3.554243e-04