pos          info
        0 -1.373838e-05
        1  2.435593e-05
        2  5.313498e-05
        3  2.391733e-06
        4  1.060990e-05
        5  2.487061e-05
        6  3.911856e-05
        7  7.031288e-05
        8  8.900480e-05
        9  7.186603e-05
       10  3.251826e-05
       11  9.617893e-07
       12  7.758325e-07
       13  1.876370e-05
       14  1.146326e-05
       15  1.153771e-05
       16  1.527899e-05
       17 -3.311751e-05
       18  1.026001e-04
       19  8.439580e-05
       20  1.866686e-04
       21  5.176041e-05
       22  1.246490e-04
       23  3.622205e-05
       24  4.008440e-05
       25 -3.511928e-05
       26 -9.168369e-06
       27 -1.802570e-05
       28 -1.559011e-05
       29  7.105280e-06
       30  1.173977e-05
       31 -1.773034e-05
       32 -2.538425e-05
       33 -2.519815e-05
       34  9.819207e-06
       35  1.229734e-04
       36  8.530568e-05
       37  7.156008e-05
       38 -3.956090e-04
       39 -3.551462e-04
       40 -2.900658e-04
       41  3.058880e-04
       42  2.920960e-04
       43  2.346359e-04
       44  2.113114e-06
       45  1.045415e-05
       46  3.327712e-06
       47 -6.197355e-06
       48 -4.242695e-06
       49 -7.975368e-05
       50 -6.611761e-05
       51 -9.816201e-05
       52  4.670683e-06
       53  4.236626e-06
       54 -1.424359e-05
       55 -8.265625e-05
       56 -1.866064e-04
       57 -1.143006e-04
       58 -6.922012e-05
       59  3.864963e-05
       60  1.682055e-05
       61  2.268209e-05
       62  5.970042e-06
       63  1.081143e-05
       64  1.934914e-05
       65  1.386494e-05
       66  3.819917e-05
       67  6.813580e-06
       68  1.202453e-05
       69 -4.541807e-05
       70  1.332127e-04
       71  1.581155e-04
       72  3.932597e-04
       73  2.321147e-04
       74  2.042699e-04
       75 -2.982494e-06
       76 -2.908548e-05
       77 -2.098796e-05
       78 -1.516506e-04
       79 -2.251577e-04
       80 -2.299855e-04
       81 -9.846667e-05
       82 -2.784852e-05
       83 -2.812317e-05
       84 -1.027275e-05
       85 -7.099814e-05
       86 -1.072113e-04
       87 -1.200100e-04
       88  8.313111e-05
       89  1.149642e-04
       90  1.103188e-04
       91  2.031872e-05
       92  1.286920e-05
       93 -1.080874e-04
       94 -1.230959e-04
       95 -1.118136e-04
       96 -7.033222e-05
       97 -7.977013e-05
       98  5.888752e-06
       99  1.620563e-04
      100  1.700952e-04
      101  7.931673e-05
      102  5.162528e-05
      103  4.175702e-05
      104  4.731173e-05
      105  6.160839e-05
      106  5.615094e-05
      107  1.394856e-05
      108 -1.627437e-05
      109 -8.055608e-06
      110 -3.801534e-05
      111 -7.171631e-05
      112 -6.862616e-05
      113  8.744339e-06
      114 -6.778587e-06
      115  2.042044e-05
      116 -1.501780e-06
      117  8.343020e-05
      118  5.390716e-05
      119  6.073924e-05
      120  1.113958e-05
      121  1.318509e-05
      122  7.879463e-05
      123  9.125404e-05
      124  8.791078e-05
      125  7.625262e-05
      126  6.067340e-05
      127  7.674417e-05
      128  5.166138e-05
      129  3.683398e-05
      130  7.493483e-05
      131  5.952319e-05
      132  6.024282e-05
      133 -5.073417e-05
      134 -4.882447e-05
      135 -7.483607e-05
      136 -1.826034e-05
      137 -2.757692e-05
      138  3.031890e-04
      139  2.370542e-04
      140  2.461759e-04
      141 -6.109867e-05
      142  4.075060e-05
      143 -2.261538e-05
      144 -2.658604e-05
      145 -2.156894e-04
      146 -1.688751e-04
      147 -1.063935e-04
      148 -4.102223e-04
      149 -4.579226e-04
      150 -5.096170e-04
      151 -3.264134e-05
      152 -4.631876e-06
      153 -1.029744e-05
      154 -1.279338e-05
      155  1.207972e-05
      156  2.444732e-05
      157  0.000000e+00
      158  0.000000e+00
      159  0.000000e+00