pos          info
        0 -3.198955e-04
        1 -2.288660e-04
        2  2.186932e-05
        3  2.689639e-05
        4 -8.717998e-05
        5  1.569307e-04
        6  3.560092e-05
        7  7.927015e-05
        8  2.081436e-06
        9 -8.285048e-05
       10  6.368435e-05
       11  4.014061e-06
       12  2.959799e-05
       13 -4.379890e-05
       14  8.129974e-05
       15 -1.357044e-10
       16 -4.872034e-05
       17  6.192606e-06
       18  7.392887e-05
       19 -4.906412e-07
       20  7.429065e-05
       21  1.491484e-05
       22  1.601562e-04
       23 -5.276513e-05
       24  1.720496e-04
       25 -1.309049e-04
       26 -3.096791e-05
       27  4.691861e-06
       28 -8.816551e-06
       29  2.681919e-05
       30 -5.113849e-05
       31 -1.307550e-07
       32  1.224937e-05
       33 -4.838008e-05
       34  8.737993e-05
       35  2.059828e-06
       36 -4.271228e-06
       37 -3.038488e-05
       38 -3.544035e-05
       39  8.436777e-06
       40 -1.659642e-04
       41  2.790366e-05
       42  3.004826e-05
       43  1.688329e-04
       44 -1.294464e-04
       45  1.311473e-04
       46  2.637609e-05
       47  4.866400e-06
       48 -1.769297e-04
       49 -1.187787e-05
       50 -9.529858e-06
       51 -4.377862e-05
       52 -4.703470e-06
       53 -1.312988e-04
       54  1.800484e-06
       55  9.576059e-05
       56 -1.078365e-04
       57 -3.398564e-06
       58 -5.562894e-05
       59  1.062741e-04
       60  2.581007e-04
       61  1.015868e-05
       62 -6.840304e-05
       63  4.045077e-05
       64  1.486067e-05
       65  1.462638e-04
       66  1.700830e-04
       67  2.135549e-05
       68 -3.547862e-05
       69  1.150440e-07
       70 -4.613630e-05
       71 -2.385365e-04
       72  9.362436e-05
       73  1.055752e-04
       74  2.602945e-04
       75  4.582961e-05
       76  3.516147e-05
       77 -1.367765e-06
       78 -1.374183e-04
       79  1.098728e-04
       80 -3.655933e-04
       81 -1.648390e-06
       82  2.290554e-07
       83  7.995962e-06
       84 -6.365087e-04
       85 -8.247337e-06
       86  2.387627e-04
       87  4.692120e-05
       88 -5.473007e-05
       89  5.156923e-07
       90  6.608424e-04
       91  1.649204e-04
       92  4.779023e-05
       93  1.442213e-06
       94  7.789471e-06
       95 -4.550879e-04
       96 -8.795092e-06
       97  1.424823e-06
       98 -8.423980e-05
       99 -1.009166e-05
      100  2.930897e-04
      101  1.947430e-04
      102  2.099615e-08
      103 -1.343369e-06
      104  5.241515e-04
      105 -3.247161e-05
      106 -4.446886e-07
      107  2.396175e-04
      108 -2.966596e-05
      109 -2.052762e-04
      110  3.144581e-04
      111 -3.418048e-06
      112 -1.148683e-04
      113  8.918509e-05
      114  8.857203e-05
      115  1.043478e-04
      116  5.930940e-05
      117  1.386683e-04
      118  3.298725e-04
      119  1.072961e-05
      120 -4.347269e-05
      121  2.058243e-05
      122  5.826098e-05
      123  8.021706e-05
      124  2.870097e-05
      125  4.642732e-05
      126 -6.064023e-05
      127  1.414588e-04
      128  7.061300e-05
      129 -3.753940e-06
      130  3.840971e-04
      131  1.977726e-04
      132  3.704046e-04
      133 -2.512226e-07
      134  4.559905e-05
      135 -3.824574e-06
      136 -2.681646e-06
      137 -1.502333e-05
      138 -1.082189e-05
      139  1.447711e-04
      140  5.126528e-04
      141 -1.580233e-04
      142  2.894351e-05
      143 -5.133993e-04
      144 -4.451752e-06
      145 -7.093278e-05
      146  8.546996e-07
      147 -1.140175e-03
      148  1.018457e-04
      149  5.535200e-05
      150 -1.538588e-03
      151 -3.540564e-04
      152  4.426517e-05
      153  3.305019e-05
      154 -2.424699e-06
      155  1.775664e-06
      156  1.176886e-04
      157 -8.422090e-05
      158  2.789658e-05
      159 -1.045132e-04