pos          info
        0 -4.294621e-05
        1 -3.029683e-05
        2  2.091483e-09
        3  3.742599e-05
        4  3.051960e-08
        5  2.254827e-05
        6  1.743053e-05
        7  1.097443e-04
        8 -3.856706e-07
        9 -2.929125e-05
       10  2.819756e-04
       11 -6.402953e-05
       12  7.108611e-05
       13  3.041727e-07
       14  1.481658e-04
       15  1.769770e-05
       16 -2.298164e-04
       17  3.267545e-05
       18  2.803658e-05
       19 -1.622082e-05
       20  1.287306e-04
       21  1.545683e-04
       22 -1.385668e-09
       23 -1.718853e-04
       24  1.397577e-04
       25 -1.538579e-04
       26  1.411822e-07
       27  1.383085e-05
       28 -5.061552e-06
       29  9.624527e-06
       30  5.340660e-05
       31 -4.082791e-06
       32  8.199515e-06
       33 -9.561833e-08
       34  1.519335e-04
       35 -7.545559e-06
       36 -3.039034e-05
       37 -1.307950e-06
       38 -5.033836e-05
       39 -1.498413e-04
       40 -4.705620e-04
       41  4.163066e-06
       42  4.729037e-05
       43  2.494287e-04
       44 -7.929524e-05
       45  7.380233e-05
       46  7.163942e-05
       47 -1.192716e-04
       48 -3.586233e-04
       49 -1.753427e-05
       50  2.347223e-05
       51 -3.687274e-05
       52 -1.520199e-05
       53 -8.969387e-05
       54 -1.103055e-05
       55 -2.161105e-07
       56 -1.239378e-07
       57 -6.385166e-05
       58 -1.407847e-04
       59  2.671385e-05
       60  4.419902e-05
       61 -1.038974e-08
       62 -1.618254e-04
       63  1.389075e-04
       64  5.295819e-06
       65  8.610022e-05
       66  5.300123e-05
       67  2.064790e-05
       68 -7.766520e-05
       69 -4.337760e-05
       70 -7.705837e-05
       71 -8.556087e-05
       72  7.247575e-05
       73  2.227194e-05
       74  1.499154e-04
       75  4.946169e-06
       76  3.084194e-05
       77 -1.546059e-05
       78 -8.790606e-05
       79  1.262328e-05
       80 -5.001051e-04
       81 -7.217082e-06
       82  9.832300e-06
       83  6.541465e-05
       84 -5.545577e-04
       85 -2.997864e-05
       86  2.386343e-04
       87  4.979898e-05
       88 -2.522974e-06
       89  4.996320e-05
       90  3.841070e-04
       91  4.160161e-05
       92  4.659655e-07
       93  6.556859e-05
       94  1.116400e-04
       95 -2.013238e-04
       96  6.335398e-07
       97 -3.494218e-06
       98 -4.308093e-05
       99 -2.496032e-08
      100  3.848821e-04
      101  6.124016e-05
      102 -3.107059e-05
      103 -2.243692e-05
      104  5.520892e-04
      105 -1.000456e-05
      106  1.112196e-04
      107  1.989716e-04
      108 -8.168115e-06
      109 -7.098922e-05
      110  1.545902e-04
      111 -9.383760e-06
      112 -5.963099e-05
      113  1.880497e-05
      114  8.667815e-05
      115  2.038602e-04
      116  9.394971e-06
      117  9.391327e-06
      118  1.182334e-04
      119 -2.243378e-05
      120 -3.497564e-05
      121  4.315855e-06
      122  7.214837e-05
      123  1.812343e-05
      124  3.689247e-05
      125  1.077684e-05
      126 -1.885708e-05
      127  2.246505e-04
      128  1.166208e-05
      129  7.473625e-06
      130  1.451144e-04
      131  1.565014e-04
      132  4.127488e-04
      133  6.871789e-05
      134  2.236346e-05
      135 -2.620606e-05
      136 -1.236374e-04
      137 -5.901959e-06
      138  2.925171e-06
      139  1.597195e-04
      140  3.422436e-04
      141 -1.107578e-04
      142  1.947000e-06
      143 -3.751726e-04
      144 -2.081047e-06
      145 -1.837709e-05
      146 -1.915569e-05
      147 -9.777398e-04
      148 -2.944555e-07
      149 -1.762017e-07
      150 -1.700639e-03
      151 -3.525652e-04
      152  1.111239e-04
      153 -8.435161e-06
      154  2.177796e-06
      155 -5.484378e-06
      156  7.703862e-05
      157 -1.226000e-04
      158  6.613223e-05
      159 -8.022255e-05