pos          info
        0 -9.768868e-06
        1 -9.460181e-06
        2 -8.520951e-06
        3 -6.479398e-06
        4 -2.296596e-05
        5 -1.461562e-05
        6  1.406561e-05
        7  3.939390e-05
        8  3.558898e-05
        9  5.968794e-06
       10  6.018673e-05
       11  5.914485e-05
       12  5.819983e-05
       13 -2.255520e-05
       14 -1.724942e-05
       15 -1.627322e-05
       16  4.582748e-06
       17 -5.561280e-05
       18 -5.707425e-05
       19 -5.728659e-05
       20  9.341400e-06
       21  3.549497e-05
       22 -2.139246e-05
       23 -3.230880e-05
       24 -5.144723e-05
       25  2.268803e-06
       26  4.126654e-05
       27  4.065619e-05
       28  4.267953e-05
       29 -5.026856e-06
       30 -5.680078e-05
       31 -1.499116e-04
       32 -8.664618e-05
       33 -6.248919e-05
       34  1.540275e-05
       35 -7.444859e-05
       36 -5.450983e-05
       37  1.517671e-06
       38  4.240867e-05
       39  1.769856e-05
       40 -2.975530e-05
       41 -6.829569e-05
       42  2.323273e-05
       43  3.275714e-05
       44  7.155923e-05
       45  5.307320e-05
       46  1.552949e-05
       47  2.024145e-05
       48 -7.536767e-05
       49 -4.131553e-05
       50 -4.833267e-05
       51  1.178740e-05
       52  1.022020e-05
       53 -5.745255e-05
       54  2.272495e-05
       55  3.161386e-05
       56  9.325947e-05
       57 -1.142148e-04
       58 -1.148589e-04
       59 -1.199723e-04
       60 -1.836759e-06
       61 -7.999391e-06
       62  8.548886e-07
       63 -1.076373e-04
       64 -8.869729e-05
       65 -8.648987e-05
       66  1.908306e-05
       67 -1.881935e-06
       68 -1.482255e-06
       69  2.235827e-05
       70  3.348614e-05
       71  6.088976e-05
       72  3.892713e-05
       73  5.969148e-05
       74  3.368630e-05
       75  2.300990e-05
       76  1.769796e-06
       77 -2.004720e-07
       78  7.428099e-05
       79  3.088583e-05
       80  3.836387e-05
       81  2.327633e-05
       82  6.006266e-05
       83  5.159466e-05
       84  1.530952e-04
       85  1.511088e-04
       86  1.525630e-04
       87  5.507129e-05
       88  1.667052e-05
       89  6.921948e-05
       90  1.674947e-05
       91  5.484035e-05
       92  1.347995e-06
       93  2.386590e-05
       94  4.764223e-06
       95  2.186369e-06
       96 -4.016240e-05
       97 -1.639035e-05
       98 -1.178461e-04
       99 -1.155584e-04
      100 -1.194668e-04
      101 -1.488662e-05
      102  3.362691e-06
      103 -2.151021e-05
      104  2.117882e-05
      105  5.761683e-05
      106  1.290304e-04
      107  7.937925e-05
      108  6.091066e-05
      109  2.822465e-04
      110  3.572083e-04
      111  2.504762e-04
      112 -9.785847e-05
      113 -1.667908e-04
      114 -5.364869e-05
      115  1.708368e-05
      116  3.372116e-05
      117  7.856388e-06
      118  1.644642e-05
      119 -1.073585e-06
      120  6.565534e-06
      121 -4.719922e-05
      122 -9.564760e-05
      123 -9.523881e-05
      124 -3.479103e-05
      125 -2.193962e-06
      126 -9.997607e-06
      127  5.922633e-05
      128  7.299761e-05
      129  7.207495e-05
      130 -5.157135e-06
      131 -1.784389e-06
      132  1.389687e-05
      133  1.619115e-05
      134  8.571066e-06
      135  1.698547e-05
      136  1.588558e-05
      137  3.257739e-05
      138  8.646538e-06
      139  8.034344e-06
      140 -8.619513e-06
      141 -7.541086e-06
      142 -1.165110e-04
      143 -6.080967e-05
      144 -4.298352e-05
      145  6.588441e-05
      146  1.358887e-05
      147 -8.599951e-06
      148 -8.955961e-06
      149 -1.554928e-05
      150  3.894772e-05
      151  7.649510e-05
      152  1.815317e-05
      153 -3.671966e-05
      154 -7.797747e-05
      155 -1.220646e-05
      156 -2.308476e-05
      157  0.000000e+00
      158  0.000000e+00
      159  0.000000e+00