       pos       info
         0  -0.000502
         1  -0.000304
         2  -0.000433
         3   0.000125
         4  -0.000004
         5  -0.000087
         6  -0.000049
         7  -0.000188
         8  -0.000243
         9  -0.000352
        10  -0.000201
        11  -0.000031
        12   0.000032
        13   0.000002
        14  -0.000209
        15  -0.000280
        16  -0.000278
        17   0.000040
        18   0.000115
        19   0.000151
        20  -0.000003
        21   0.000182
        22   0.000192
        23   0.000227
        24   0.000037
        25   0.000084
        26   0.000081
        27   0.000080
        28  -0.000037
        29  -0.000078
        30  -0.000104
        31   0.000382
        32   0.000642
        33   0.000664
        34   0.000254
        35  -0.000360
        36  -0.000383
        37  -0.000406
        38  -0.000025
        39  -0.000026
        40  -0.000077
        41  -0.000105
        42  -0.000033
        43   0.000404
        44   0.000419
        45   0.000367
        46  -0.000014
        47   0.000003
        48   0.000006
        49  -0.000016
        50   0.000057
        51  -0.000228
        52   0.000163
        53   0.000088
        54   0.000358
        55   0.000113
        56   0.000085
        57   0.000117
        58   0.000162
        59   0.000371
        60   0.000597
        61   0.000451
        62   0.000264
        63   0.000025
        64   0.000141
        65  -0.000008
        66   0.000141
        67  -0.000031
        68   0.000139
        69   0.000134
        70   0.000097
        71   0.000075
        72  -0.000040
        73  -0.000112
        74  -0.000704
        75  -0.000912
        76  -0.000925
        77  -0.000426
        78  -0.000236
        79  -0.000031
        80   0.000066
        81   0.000074
        82   0.000052
        83  -0.000075
        84  -0.000016
        85  -0.000056
        86   0.000062
        87  -0.000054
        88  -0.000009
        89  -0.000082
        90  -0.000029
        91   0.000018
        92   0.000094
        93   0.000097
        94   0.000011
        95   0.000039
        96   0.000022
        97   0.000026
        98   0.000043
        99   0.000225
       100   0.000239
       101   0.000158
       102   0.000181
       103   0.000215
       104   0.000288
       105   0.000070
       106   0.000021
       107  -0.000228
       108  -0.000169
       109  -0.000894
       110  -0.000799
       111  -0.000982
       112  -0.000249
       113  -0.000103
       114   0.000022
       115  -0.000029
       116  -0.000130
       117   0.000025
       118   0.000105
       119  -0.000164
       120  -0.000246
       121  -0.000092
       122   0.000260
       123   0.000213
       124   0.000002
       125   0.000003
       126   0.000372
       127   0.000446
       128   0.000376
       129  -0.000130
       130  -0.000219
       131  -0.000207
       132  -0.000092
       133  -0.000050
       134   0.000087
       135   0.000099
       136   0.000086
       137   0.000006
       138   0.000017
       139   0.000067
       140   0.000051
       141   0.000067
       142   0.000251
       143   0.000093
       144   0.000075
       145  -0.000125
       146  -0.000015
       147  -0.000445
       148  -0.000397
       149  -0.000462
       150  -0.000043
       151  -0.000149
       152  -0.000026
       153  -0.000002
       154   0.000134
       155   0.000155
       156   0.000134
       157   0.000000
       158   0.000000
       159   0.000000