pos          info
        0  3.724526e-05
        1  4.142849e-08
        2  5.143589e-05
        3 -5.799506e-07
        4 -4.191041e-05
        5 -7.941976e-05
        6 -1.136896e-05
        7  2.834897e-04
        8 -1.913766e-05
        9 -2.408936e-04
       10 -2.455174e-06
       11  7.196082e-11
       12 -7.629270e-05
       13 -2.313141e-04
       14 -3.200925e-04
       15  1.606985e-05
       16  9.100699e-05
       17 -1.127450e-06
       18  1.096623e-05
       19  1.307118e-03
       20 -4.343283e-04
       21 -3.147931e-06
       22  5.837266e-04
       23  3.251434e-05
       24  4.831922e-05
       25  6.508114e-04
       26  2.662724e-04
       27  4.655289e-05
       28 -8.640072e-05
       29 -9.224051e-05
       30  2.595234e-05
       31 -7.089681e-08
       32 -2.066032e-04
       33 -5.137716e-05
       34  8.334169e-05
       35 -8.416717e-04
       36 -1.211743e-05
       37 -8.627612e-05
       38  1.202585e-03
       39 -4.129305e-06
       40 -2.668745e-07
       41  4.830004e-05
       42  1.423071e-04
       43 -1.322874e-05
       44 -1.076044e-05
       45  8.644751e-05
       46 -8.162781e-05
       47 -2.905483e-06
       48 -1.830751e-05
       49  1.481119e-05
       50  5.423785e-04
       51  1.807554e-05
       52  2.512110e-04
       53 -8.786084e-06
       54 -3.061663e-06
       55  1.420420e-04
       56  4.777661e-04
       57  2.478110e-06
       58  2.375164e-07
       59  3.230333e-07
       60  7.229352e-05
       61  6.196687e-05
       62  2.474690e-04
       63  8.073864e-05
       64  2.095679e-05
       65  5.762568e-05
       66  1.400053e-04
       67 -2.890689e-04
       68 -1.718377e-05
       69 -1.167415e-03
       70  3.409499e-05
       71  2.020499e-04
       72  1.505319e-04
       73  8.216397e-05
       74  5.009494e-05
       75  1.282375e-05
       76 -8.024802e-06
       77 -2.367033e-05
       78 -2.021085e-03
       79 -6.344983e-04
       80 -3.661542e-05
       81 -1.131841e-04
       82  7.955893e-06
       83 -3.013236e-06
       84  3.124299e-06
       85  7.037018e-04
       86 -7.499120e-05
       87  1.860752e-04
       88 -4.971265e-05
       89 -1.109484e-04
       90  2.221674e-05
       91  2.234324e-05
       92  3.114594e-04
       93 -2.480698e-05
       94  1.238913e-05
       95  3.163240e-05
       96  2.482268e-04
       97 -1.047184e-03
       98  4.884596e-04
       99  1.492904e-03
      100  6.673466e-05
      101  1.188989e-03
      102  7.717899e-04
      103 -6.728070e-05
      104  7.066715e-04
      105  1.160232e-04
      106  1.389596e-04
      107  4.420573e-04
      108  6.746072e-04
      109 -1.289643e-04
      110 -3.327965e-05
      111  6.943832e-08
      112 -4.438086e-04
      113 -3.782299e-05
      114 -1.122979e-03
      115 -1.099931e-04
      116 -1.769088e-05
      117 -7.367698e-06
      118 -1.222551e-04
      119  2.998684e-05
      120 -1.104001e-05
      121 -3.179611e-05
      122  1.065045e-04
      123  5.220424e-05
      124  1.199139e-04
      125 -1.252995e-04
      126  2.603245e-05
      127  6.032259e-06
      128  8.022869e-06
      129  7.556151e-05
      130  4.635540e-05
      131 -4.036901e-05
      132 -5.675879e-05
      133 -6.603136e-05
      134 -2.108785e-04
      135  8.553391e-05
      136 -8.907428e-05
      137  6.350542e-04
      138  6.680458e-04
      139  2.341198e-05
      140  3.554537e-05
      141  3.870202e-04
      142  3.380304e-04
      143  1.247504e-04
      144 -7.405871e-05
      145 -1.221094e-05
      146 -3.205743e-05
      147 -8.673468e-05
      148 -3.254132e-04
      149 -2.654092e-04
      150 -2.417756e-04
      151 -1.777949e-06
      152 -7.585740e-05
      153  3.970331e-07
      154 -1.358289e-04
      155 -1.303738e-04
      156 -2.077295e-04
      157 -3.766604e-05
      158 -1.565627e-04
      159  8.947074e-06