pos          info
        0 -4.001280e-05
        1 -2.579440e-05
        2  1.542548e-05
        3 -4.038992e-05
        4 -1.202387e-04
        5 -1.462777e-04
        6 -1.710445e-04
        7 -2.246725e-05
        8 -1.214482e-05
        9  6.408318e-05
       10 -2.072944e-06
       11 -8.803767e-06
       12  1.026952e-05
       13  8.242614e-06
       14  1.379786e-05
       15  1.114056e-05
       16 -2.896443e-05
       17 -3.948158e-05
       18 -3.990490e-05
       19  4.246014e-06
       20  1.729203e-05
       21  2.301432e-05
       22  1.216755e-04
       23  1.164914e-04
       24  9.913308e-05
       25 -5.667557e-05
       26  1.794822e-05
       27  2.441321e-05
       28  7.835886e-05
       29  6.575925e-06
       30 -3.097964e-06
       31 -2.416092e-05
       32 -2.432748e-05
       33 -1.995245e-05
       34  1.669960e-05
       35  3.965597e-05
       36  1.789445e-05
       37  1.078553e-05
       38  3.075113e-05
       39  3.252607e-05
       40  3.859623e-05
       41 -1.833983e-05
       42  9.982577e-07
       43 -1.896772e-05
       44 -1.226041e-05
       45 -1.278101e-05
       46 -4.703131e-06
       47 -2.819139e-05
       48 -2.406377e-05
       49 -2.716576e-05
       50  1.884251e-06
       51 -4.716232e-08
       52  1.165053e-05
       53  1.307400e-05
       54  1.092965e-05
       55 -2.433937e-07
       56 -3.518229e-06
       57 -3.575143e-06
       58  1.916849e-04
       59  2.061461e-04
       60  1.478906e-04
       61 -4.701168e-05
       62 -5.483663e-05
       63  7.722997e-05
       64  5.282643e-05
       65  5.755984e-05
       66 -1.329657e-05
       67  9.382414e-06
       68  9.075379e-05
       69  1.177014e-04
       70  1.204534e-04
       71  5.781081e-05
       72  2.804574e-05
       73  2.915440e-05
       74  2.905251e-05
       75  5.276002e-06
       76 -6.862666e-07
       77  5.678750e-06
       78  4.546884e-05
       79  6.317032e-05
       80  3.105720e-05
       81  1.255729e-05
       82 -1.671302e-06
       83 -1.583185e-05
       84  1.044882e-05
       85  2.241444e-05
       86  4.895116e-05
       87  3.084416e-05
       88 -4.253752e-05
       89 -6.049481e-05
       90 -6.708967e-05
       91  1.319206e-04
       92  9.572918e-05
       93  9.730719e-05
       94 -3.752120e-05
       95 -3.452453e-05
       96 -2.488574e-05
       97 -3.184710e-05
       98 -2.743878e-05
       99 -1.283400e-04
      100 -1.303737e-04
      101 -9.828318e-05
      102  1.273578e-05
      103  1.838912e-05
      104 -2.426302e-05
      105 -3.476529e-05
      106 -3.368402e-05
      107  1.080158e-05
      108  1.085700e-06
      109  4.339410e-06
      110  2.052923e-05
      111  9.535200e-06
      112  1.551732e-05
      113 -4.538851e-06
      114  5.806000e-07
      115 -8.148941e-06
      116  1.866142e-05
      117 -3.623218e-05
      118 -5.321118e-05
      119 -7.576468e-05
      120 -4.014860e-05
      121 -2.418930e-05
      122 -4.676500e-05
      123 -2.153055e-05
      124 -2.078387e-05
      125  1.876559e-05
      126  2.635154e-05
      127  2.560929e-05
      128  2.158373e-05
      129  1.470390e-05
      130  7.955291e-06
      131 -6.398422e-06
      132 -7.424016e-06
      133 -9.141325e-05
      134 -9.008781e-05
      135 -9.362914e-05
      136 -1.216064e-05
      137  1.273018e-04
      138  1.581224e-04
      139  1.688983e-04
      140  2.871356e-05
      141 -6.798008e-05
      142 -1.371708e-04
      143 -7.058890e-04
      144 -3.257288e-04
      145 -1.963290e-04
      146  5.825118e-04
      147  3.067914e-04
      148  4.818326e-04
      149  4.223618e-04
      150  4.549652e-04
      151  1.781485e-04
      152  8.880579e-06
      153 -1.021599e-04
      154 -2.536454e-05
      155 -1.319840e-04
      156 -7.277306e-05
      157  0.000000e+00
      158  0.000000e+00
      159  0.000000e+00