pos          info
        0 -1.153944e-05
        1  2.032186e-05
        2  1.295131e-06
        3 -3.404336e-05
        4 -2.177706e-05
        5 -2.859950e-04
        6 -2.314386e-05
        7 -1.411114e-05
        8 -1.030529e-04
        9  7.416155e-06
       10  2.778801e-05
       11  8.250163e-05
       12  1.993557e-05
       13 -1.847388e-05
       14 -7.112665e-07
       15  7.988470e-05
       16 -4.126107e-07
       17 -3.770063e-05
       18 -9.862344e-05
       19 -8.823419e-06
       20  4.496808e-05
       21  7.143117e-05
       22  1.264682e-05
       23 -7.917549e-06
       24  4.148757e-05
       25  1.379309e-04
       26 -7.404681e-06
       27 -8.706390e-05
       28  7.011970e-05
       29  1.373581e-05
       30  1.569837e-04
       31  8.819837e-07
       32  1.637330e-04
       33 -1.819512e-05
       34  2.000053e-06
       35  1.554313e-04
       36  9.355988e-05
       37  9.618606e-05
       38 -3.194485e-04
       39  8.026399e-05
       40  2.843036e-04
       41 -1.286848e-04
       42  1.646386e-04
       43 -3.242019e-07
       44  4.651180e-07
       45 -5.438224e-05
       46 -1.018453e-04
       47 -1.626133e-05
       48 -2.833897e-06
       49  3.361849e-06
       50  1.188142e-05
       51 -1.202882e-05
       52  8.048370e-05
       53  2.283129e-08
       54  6.561282e-05
       55 -1.169268e-04
       56 -6.700622e-05
       57 -4.208767e-05
       58 -2.503473e-05
       59 -1.322616e-04
       60  1.342932e-04
       61 -3.986876e-06
       62 -7.869672e-05
       63 -1.536985e-05
       64  3.620371e-04
       65  2.352407e-04
       66 -1.353484e-04
       67  1.554512e-04
       68 -2.587537e-05
       69  1.513963e-05
       70  1.410664e-05
       71  1.050533e-04
       72 -2.300296e-04
       73  3.799378e-05
       74  6.123265e-05
       75  4.634650e-05
       76 -9.293748e-07
       77 -6.274039e-04
       78 -1.032119e-04
       79  1.009618e-04
       80  4.205307e-05
       81  9.957150e-05
       82  1.948008e-06
       83 -2.662004e-05
       84  1.264558e-04
       85  3.116450e-05
       86  3.529309e-04
       87  2.606800e-04
       88 -1.743966e-07
       89  2.070324e-04
       90 -5.248838e-05
       91 -3.115327e-05
       92  5.720158e-06
       93  1.250269e-04
       94 -2.315418e-05
       95 -8.149959e-06
       96 -4.826244e-08
       97 -5.875244e-06
       98  3.617287e-04
       99 -1.630202e-04
      100 -3.465912e-05
      101 -1.161250e-04
      102 -1.182895e-04
      103 -8.300826e-05
      104  1.262421e-04
      105  3.743991e-04
      106  4.008851e-05
      107  4.697718e-05
      108 -2.084175e-05
      109 -1.380839e-04
      110 -1.346196e-07
      111  4.114389e-06
      112 -1.488662e-07
      113 -1.587776e-05
      114  1.971823e-04
      115  8.755380e-05
      116 -1.491234e-04
      117  1.992115e-05
      118  3.272218e-05
      119 -4.247975e-04
      120 -4.249749e-06
      121  8.284843e-06
      122 -4.638616e-05
      123  6.712419e-05
      124 -1.667518e-04
      125 -1.004470e-05
      126  5.293290e-05
      127 -3.667160e-07
      128  2.621687e-05
      129  7.824852e-06
      130  1.504508e-04
      131  6.461532e-05
      132  8.065244e-06
      133 -2.252237e-05
      134  4.419078e-06
      135 -1.941623e-04
      136 -1.288008e-04
      137 -1.456508e-06
      138 -6.063797e-05
      139  3.146385e-04
      140  2.306501e-05
      141 -9.530055e-05
      142  2.247875e-04
      143 -9.864952e-04
      144 -5.119682e-06
      145 -4.034496e-03
      146  2.370056e-03
      147  1.621329e-03
      148  1.238851e-03
      149  3.789051e-04
      150  2.187174e-03
      151  1.335017e-03
      152  2.718700e-04
      153 -3.356666e-04
      154  1.016445e-05
      155 -4.166979e-04
      156  1.076577e-04
      157 -6.949378e-04
      158  1.163705e-04
      159  1.879607e-03