pos          info
        0 -6.482563e-07
        1  1.071812e-04
        2  1.336020e-05
        3 -9.000649e-05
        4  1.599965e-05
        5 -9.607726e-05
        6 -7.597487e-05
        7 -1.345680e-04
        8 -2.317433e-04
        9  4.041691e-05
       10  2.457946e-05
       11  2.192700e-08
       12  2.941385e-04
       13 -2.283069e-05
       14 -1.414584e-04
       15  7.895201e-05
       16 -1.056407e-05
       17  3.400514e-11
       18 -2.981224e-04
       19  1.498177e-05
       20  1.433163e-04
       21  1.597086e-05
       22  1.708367e-04
       23  2.289133e-05
       24  8.089249e-05
       25 -3.019991e-09
       26 -3.738977e-05
       27 -1.292747e-04
       28  5.444869e-05
       29  1.656345e-05
       30  8.890464e-05
       31  4.032366e-06
       32  3.894509e-07
       33 -4.853952e-04
       34  3.702607e-05
       35  9.294339e-05
       36  6.751441e-05
       37  9.805879e-05
       38 -6.685786e-04
       39  6.570743e-05
       40  5.907279e-04
       41 -7.882600e-05
       42  1.588649e-04
       43  8.441774e-07
       44 -8.768745e-05
       45 -1.127028e-04
       46 -4.553994e-04
       47 -1.199054e-06
       48 -1.508975e-04
       49  1.205175e-05
       50  2.049795e-04
       51  7.898856e-06
       52  5.539564e-06
       53  1.605330e-04
       54  9.863098e-05
       55 -7.558061e-05
       56 -3.879054e-05
       57 -4.611362e-07
       58 -2.946325e-05
       59 -8.154468e-05
       60  4.800318e-04
       61  3.197991e-05
       62 -2.087044e-04
       63  3.501481e-05
       64  4.823602e-05
       65  4.999001e-04
       66  8.383276e-06
       67  2.786750e-04
       68 -3.341108e-05
       69  5.694081e-05
       70  2.037748e-05
       71  3.607140e-05
       72 -3.597879e-04
       73  7.902708e-07
       74  2.735854e-05
       75 -2.166390e-05
       76 -2.103060e-07
       77 -1.039648e-04
       78 -5.005876e-07
       79 -5.945135e-05
       80  3.533841e-05
       81  1.117220e-04
       82 -8.369583e-06
       83 -2.128713e-04
       84 -7.133674e-06
       85  3.940707e-05
       86  4.801212e-04
       87  3.567675e-04
       88 -3.840862e-07
       89  5.025061e-05
       90 -3.113810e-04
       91  1.348625e-05
       92 -2.516951e-06
       93  1.658344e-04
       94 -9.492881e-07
       95  2.582327e-05
       96 -4.425780e-05
       97  1.018648e-04
       98  1.736019e-05
       99 -1.101358e-07
      100 -2.587510e-07
      101 -3.059947e-04
      102 -8.876059e-05
      103 -1.172115e-04
      104  8.955643e-05
      105  1.617511e-08
      106  5.754481e-05
      107  1.437841e-04
      108 -2.583897e-04
      109 -1.511300e-06
      110 -9.037971e-07
      111  2.485649e-05
      112 -1.932365e-05
      113 -2.561044e-04
      114  3.974564e-04
      115  2.136298e-04
      116 -9.363103e-05
      117  3.360368e-08
      118  2.463512e-05
      119 -2.618545e-05
      120  3.717579e-05
      121 -7.971693e-07
      122 -3.310781e-05
      123  2.206641e-04
      124 -3.892161e-04
      125  1.061685e-04
      126  1.719857e-05
      127 -4.444383e-06
      128  7.646128e-05
      129 -3.434124e-05
      130  4.401070e-04
      131  5.730385e-05
      132  1.292288e-07
      133  6.727035e-05
      134 -1.885434e-05
      135 -2.998441e-04
      136  1.245838e-05
      137  2.634243e-04
      138 -3.529296e-07
      139  1.758789e-04
      140 -9.917033e-05
      141 -1.643534e-04
      142  4.675646e-06
      143 -4.597791e-04
      144 -2.204829e-05
      145 -4.151689e-03
      146  6.006722e-04
      147  6.678950e-04
      148  5.670018e-04
      149  1.575451e-04
      150  1.416950e-03
      151  1.066383e-03
      152  1.301514e-04
      153 -5.077547e-04
      154  6.165863e-07
      155 -1.178353e-03
      156  5.686921e-05
      157 -1.882046e-04
      158  1.112645e-04
      159  6.830647e-04