pos          info
        0  8.147545e-05
        1 -2.233536e-06
        2 -9.241651e-05
        3 -5.064401e-05
        4  1.395142e-06
        5 -1.071431e-04
        6  5.559850e-07
        7 -6.508120e-05
        8  7.967422e-05
        9  2.836961e-04
       10 -7.899011e-05
       11  1.961482e-05
       12  7.482528e-05
       13 -7.933959e-06
       14  3.374441e-10
       15  7.552108e-07
       16  1.155435e-04
       17  2.111838e-04
       18  7.027793e-05
       19  7.078845e-06
       20  1.340210e-04
       21  1.343754e-04
       22  7.740980e-05
       23  3.884335e-06
       24  7.243803e-05
       25  2.549514e-05
       26  3.769596e-06
       27 -4.199558e-04
       28 -3.638165e-04
       29  1.879567e-04
       30 -4.680879e-06
       31 -5.426161e-04
       32 -1.474277e-04
       33  1.627150e-05
       34 -7.347255e-06
       35  2.243394e-07
       36  6.561741e-05
       37  2.856097e-04
       38 -6.143448e-05
       39 -3.302401e-05
       40  8.453397e-05
       41  5.255630e-05
       42 -1.123485e-06
       43 -1.670541e-04
       44 -6.961081e-05
       45  2.279270e-04
       46 -1.932960e-06
       47  2.110247e-04
       48  9.929614e-05
       49  1.583892e-05
       50 -2.110313e-07
       51  8.578870e-06
       52  5.375181e-05
       53 -6.013824e-06
       54  9.727204e-06
       55 -8.186689e-05
       56 -3.047690e-05
       57 -2.088475e-04
       58 -2.167928e-04
       59 -1.160151e-05
       60  1.052043e-04
       61  1.368843e-06
       62  1.451876e-05
       63  1.235762e-04
       64  1.907673e-04
       65  5.720376e-06
       66  1.640291e-04
       67 -4.570661e-05
       68  3.673838e-05
       69  3.272845e-05
       70  3.701656e-05
       71 -1.950849e-05
       72 -3.220001e-04
       73 -2.074608e-04
       74  5.757089e-06
       75 -7.629435e-04
       76  2.783871e-04
       77 -7.920956e-05
       78 -7.988904e-05
       79 -3.057997e-04
       80  2.023716e-03
       81  4.580230e-07
       82 -1.449126e-03
       83  3.666048e-04
       84  1.994119e-04
       85  1.818278e-04
       86  2.506864e-04
       87  7.435543e-06
       88 -9.753901e-05
       89 -1.196902e-08
       90  2.791125e-06
       91  1.179453e-05
       92  4.126742e-04
       93  8.565462e-05
       94  1.372925e-04
       95 -9.518299e-04
       96  3.117919e-04
       97  3.020789e-04
       98  1.491260e-05
       99 -1.935275e-03
      100  7.748856e-04
      101  2.008991e-05
      102 -4.842423e-04
      103  1.427059e-03
      104  1.305689e-03
      105 -1.771999e-06
      106 -1.229067e-04
      107  1.332746e-04
      108  9.767162e-04
      109  2.016006e-04
      110  1.950975e-06
      111  1.286354e-04
      112 -2.386233e-05
      113  2.369886e-05
      114  2.561863e-07
      115 -5.538192e-06
      116 -7.289712e-05
      117  4.700077e-06
      118  2.473600e-05
      119 -3.163078e-04
      120  1.929255e-04
      121 -1.782140e-04
      122  2.090247e-05
      123  3.046925e-05
      124 -8.967397e-05
      125  9.595478e-06
      126 -6.623140e-05
      127  5.239904e-05
      128  8.782215e-06
      129 -3.086022e-04
      130 -1.945036e-05
      131 -1.436111e-04
      132  4.805966e-05
      133  1.899281e-05
      134 -1.872531e-04
      135  8.288104e-05
      136  4.284016e-05
      137 -3.627166e-05
      138  1.117919e-04
      139  4.811008e-07
      140 -2.741203e-05
      141  5.624713e-06
      142  6.531121e-07
      143  1.936850e-04
      144 -7.062930e-06
      145 -1.017045e-04
      146 -7.074364e-05
      147 -1.565648e-04
      148 -3.640615e-04
      149 -6.850543e-05
      150  6.601941e-06
      151 -1.454841e-05
      152 -2.790851e-07
      153 -1.017359e-05
      154 -9.854790e-05
      155  1.182272e-04
      156  1.067748e-04
      157  1.843590e-04
      158 -1.161755e-04
      159 -1.114602e-04