pos          info
        0 -8.334416e-08
        1  1.334689e-08
        2  3.260228e-08
        3  3.119988e-08
        4  2.266377e-08
        5 -1.273551e-08
        6  1.863944e-09
        7  4.968286e-08
        8  5.215965e-08
        9  5.990060e-08
       10 -8.455150e-09
       11 -4.698381e-10
       12 -4.107804e-09
       13  4.643260e-08
       14  4.103394e-08
       15  6.254021e-08
       16  2.487206e-08
       17  2.265690e-08
       18 -1.197388e-08
       19  5.301987e-08
       20  6.711375e-08
       21  7.777876e-08
       22  1.594694e-08
       23  1.653294e-08
       24 -1.302555e-07
       25 -1.282955e-07
       26 -1.019623e-07
       27 -9.847279e-09
       28 -1.013644e-08
       29 -3.197964e-08
       30 -2.904627e-08
       31 -3.102292e-08
       32 -2.880508e-08
       33  5.269494e-08
       34  5.521968e-08
       35  4.078220e-08
       36  7.708613e-10
       37 -1.413513e-09
       38  1.462598e-08
       39  1.665397e-08
       40  4.830122e-08
       41 -5.949324e-09
       42  7.229410e-08
       43  3.989393e-08
       44  8.432196e-08
       45 -3.437911e-08
       46 -1.244366e-08
       47 -9.351608e-09
       48  7.503982e-08
       49  3.491029e-08
       50  3.836323e-08
       51  9.307373e-10
       52 -5.554501e-09
       53 -1.656675e-09
       54 -2.159166e-08
       55 -2.265658e-08
       56 -6.670113e-08
       57 -8.251658e-08
       58 -4.679696e-08
       59 -1.583755e-08
       60  3.150226e-09
       61 -9.412095e-09
       62 -6.562907e-09
       63  2.478471e-08
       64  2.467360e-08
       65 -1.541465e-08
       66 -5.428868e-08
       67 -3.977025e-08
       68 -1.449433e-08
       69 -5.751705e-09
       70 -1.373289e-08
       71  1.404123e-08
       72  1.304601e-07
       73  1.274537e-07
       74  1.269346e-07
       75 -3.744464e-08
       76 -3.799671e-08
       77 -5.416699e-08
       78 -1.016216e-08
       79  8.346734e-08
       80  9.028339e-08
       81  1.049173e-07
       82  2.663906e-08
       83  2.292268e-08
       84  1.203114e-08
       85 -4.210300e-08
       86 -4.080863e-08
       87 -4.751170e-08
       88 -1.692349e-08
       89 -3.546119e-08
       90 -2.621655e-08
       91 -1.580343e-08
       92  3.149485e-09
       93  1.145560e-08
       94 -6.848902e-10
       95 -3.033769e-09
       96 -1.172165e-08
       97  5.855299e-08
       98  6.602879e-08
       99  7.320466e-08
      100  1.341666e-08
      101 -1.949715e-08
      102  2.331459e-08
      103  2.160187e-08
      104  7.685743e-08
      105  3.956018e-08
      106  2.720772e-08
      107 -3.062550e-08
      108 -2.717314e-08
      109 -1.637693e-08
      110  1.054648e-08
      111  4.108443e-08
      112  7.500063e-08
      113  1.000281e-07
      114  4.999671e-08
      115  1.547518e-08
      116 -3.278593e-09
      117  5.012898e-10
      118  8.157303e-10
      119 -2.539633e-09
      120  1.454617e-07
      121  1.918459e-07
      122  1.912571e-07
      123  4.418967e-08
      124  3.786200e-08
      125  1.459159e-08
      126  3.484761e-08
      127  4.290753e-08
      128  7.261077e-08
      129  2.064722e-07
      130  1.613845e-07
      131  1.495234e-07
      132 -1.991799e-08
      133 -1.417624e-08
      134 -9.602215e-08
      135 -8.482670e-08
      136  3.360243e-08
      137  1.207827e-07
      138  1.918181e-08
      139 -1.070577e-07
      140 -5.887704e-08
      141  4.219508e-08
      142  6.441206e-08
      143  1.628265e-08
      144  1.811458e-07
      145  2.045819e-07
      146  1.882267e-07
      147  3.382068e-08
      148 -2.020411e-08
      149  2.324770e-08
      150  1.120539e-07
      151  1.225712e-07
      152  9.604147e-08
      153  3.797726e-09
      154 -7.025626e-09
      155 -2.448385e-08
      156 -3.043300e-08
      157  0.000000e+00
      158  0.000000e+00
      159  0.000000e+00