pos          info
        0 -6.497991e-05
        1  4.191992e-06
        2  7.061111e-05
        3  4.767352e-05
        4 -1.442971e-06
        5  9.325040e-05
        6 -8.064893e-09
        7  6.768864e-05
        8 -6.288880e-05
        9 -2.968391e-04
       10  8.234081e-05
       11 -2.380456e-05
       12 -6.479702e-05
       13  2.333913e-06
       14 -4.256104e-08
       15 -2.074378e-06
       16 -1.103258e-04
       17 -2.008233e-04
       18 -6.359969e-05
       19 -2.068209e-06
       20 -1.187118e-04
       21 -1.335660e-04
       22 -8.620094e-05
       23 -2.697946e-06
       24 -7.041059e-05
       25 -3.974529e-05
       26 -7.409299e-06
       27  4.200842e-04
       28  3.361153e-04
       29 -1.665567e-04
       30  7.359951e-06
       31  5.107723e-04
       32  1.419119e-04
       33 -1.299864e-05
       34  9.426513e-06
       35 -1.284308e-08
       36 -7.055437e-05
       37 -2.682237e-04
       38  7.053544e-05
       39  3.301982e-05
       40 -7.330285e-05
       41 -4.245389e-05
       42  1.986735e-07
       43  1.480102e-04
       44  7.286103e-05
       45 -1.998342e-04
       46  1.539089e-06
       47 -2.398408e-04
       48 -8.422752e-05
       49 -1.665497e-05
       50  6.562775e-07
       51 -1.095222e-05
       52 -5.291482e-05
       53  9.358152e-06
       54 -9.089894e-06
       55  8.001924e-05
       56  2.084229e-05
       57  2.249072e-04
       58  2.137805e-04
       59  1.478460e-05
       60 -9.920230e-05
       61 -2.678123e-06
       62 -2.119156e-05
       63 -1.436311e-04
       64 -1.721120e-04
       65 -4.193760e-06
       66 -1.666061e-04
       67  4.330654e-05
       68 -9.864774e-06
       69 -4.959000e-05
       70 -4.302218e-05
       71  1.553409e-05
       72  3.267754e-04
       73  1.985272e-04
       74 -1.510182e-07
       75  8.079549e-04
       76 -2.858482e-04
       77  1.073097e-04
       78  7.510656e-05
       79  3.173484e-04
       80 -1.904392e-03
       81 -3.865303e-06
       82  1.501093e-03
       83 -3.370117e-04
       84 -1.718683e-04
       85 -2.063220e-04
       86 -2.106085e-04
       87 -1.124481e-05
       88  9.433335e-05
       89  5.143806e-07
       90 -8.164870e-06
       91 -8.270643e-06
       92 -3.479788e-04
       93 -9.948474e-05
       94 -1.123270e-04
       95  8.965548e-04
       96 -2.400031e-04
       97 -2.732151e-04
       98 -2.248594e-05
       99  2.006811e-03
      100 -6.927674e-04
      101 -2.659458e-05
      102  4.886257e-04
      103 -1.344485e-03
      104 -1.197233e-03
      105  1.633696e-06
      106  1.168590e-04
      107 -1.204640e-04
      108 -9.729068e-04
      109 -1.963689e-04
      110 -1.304670e-06
      111 -1.400389e-04
      112  1.788205e-05
      113 -1.975356e-05
      114  1.501436e-07
      115  6.430969e-06
      116  9.487463e-05
      117 -4.722005e-06
      118 -2.086896e-05
      119  3.101693e-04
      120 -1.999012e-04
      121  1.554340e-04
      122 -1.854197e-05
      123 -2.489057e-05
      124  1.031934e-04
      125 -1.969307e-05
      126  7.594946e-05
      127 -4.102177e-05
      128 -1.585562e-05
      129  2.784260e-04
      130  2.761025e-05
      131  1.244017e-04
      132 -5.338916e-05
      133 -2.246377e-05
      134  2.146992e-04
      135 -5.773691e-05
      136 -4.569843e-05
      137  3.980121e-05
      138 -1.247322e-04
      139 -2.301046e-06
      140  3.042734e-05
      141 -3.466760e-06
      142 -6.750130e-07
      143 -1.859124e-04
      144  6.761499e-06
      145  1.039774e-04
      146  6.489966e-05
      147  1.593761e-04
      148  3.442889e-04
      149  7.209632e-05
      150 -4.008647e-06
      151  1.701815e-05
      152  1.672928e-08
      153  1.052326e-05
      154  1.006343e-04
      155 -8.124693e-05
      156 -1.211320e-04
      157 -1.705843e-04
      158  8.636806e-05
      159  1.072039e-04