pos          info
        0  1.313141e-04
        1  9.442527e-06
        2  1.874649e-06
        3  6.323750e-07
        4 -1.567927e-04
        5 -1.570446e-04
        6 -4.504653e-05
        7  1.094130e-05
        8  1.960802e-05
        9 -1.198962e-04
       10 -7.343975e-05
       11 -1.180500e-04
       12 -8.789268e-05
       13 -5.127711e-05
       14 -1.525579e-05
       15 -1.594649e-05
       16  2.667762e-05
       17 -1.150907e-05
       18 -1.215131e-05
       19 -3.558432e-05
       20 -2.020504e-05
       21 -1.928949e-05
       22 -2.455531e-05
       23 -5.979001e-07
       24 -3.214502e-06
       25 -4.393126e-06
       26 -8.780210e-06
       27 -5.340349e-06
       28 -9.488968e-06
       29  1.106683e-05
       30  1.829052e-05
       31  2.644915e-05
       32  1.493707e-04
       33  1.404103e-04
       34  1.427896e-04
       35 -3.678704e-05
       36  2.744472e-04
       37  2.799196e-04
       38  3.007354e-04
       39 -8.260359e-06
       40  5.373008e-05
       41  1.071144e-04
       42  9.302131e-05
       43  1.954208e-05
       44 -4.387505e-05
       45  2.260241e-06
       46 -1.781837e-05
       47  1.056675e-05
       48 -2.220385e-05
       49  1.526056e-06
       50  1.955162e-06
       51  2.701293e-06
       52  3.231577e-06
       53  3.541791e-05
       54 -1.414002e-05
       55 -5.802851e-05
       56 -1.798968e-05
       57 -1.425346e-05
       58  5.678843e-06
       59 -1.585580e-04
       60 -1.958895e-04
       61 -1.736139e-04
       62 -3.135433e-05
       63  4.955436e-05
       64  4.650374e-06
       65 -4.728153e-05
       66 -4.161032e-05
       67  4.331589e-05
       68  3.454747e-05
       69 -3.055609e-05
       70 -6.945125e-05
       71 -5.579716e-05
       72  8.307446e-05
       73  9.145946e-05
       74  1.952805e-05
       75 -5.983536e-05
       76 -5.290325e-05
       77  1.579379e-05
       78  1.130625e-04
       79  1.033688e-04
       80  9.833615e-05
       81  1.601490e-04
       82  1.139717e-04
       83  1.335345e-04
       84 -2.540555e-05
       85  4.845650e-06
       86 -3.667176e-05
       87 -3.915066e-05
       88 -3.991705e-05
       89  5.762403e-05
       90  5.996844e-05
       91  7.228778e-05
       92  2.772662e-06
       93  3.154498e-06
       94 -3.661845e-06
       95 -2.884458e-05
       96  1.820973e-04
       97  2.052730e-04
       98  2.524917e-04
       99  2.390219e-05
      100 -8.673408e-05
      101 -2.123673e-04
      102 -2.642490e-04
      103 -2.331826e-04
      104 -2.325387e-04
      105 -2.168931e-04
      106 -2.176776e-04
      107 -1.100927e-04
      108 -3.344781e-05
      109  2.170656e-06
      110  7.506615e-05
      111  7.249006e-05
      112  1.625605e-04
      113  7.577286e-05
      114  4.871692e-05
      115 -5.286659e-05
      116 -4.120785e-05
      117 -1.410985e-04
      118  1.986112e-04
      119  1.923428e-04
      120  4.447730e-04
      121  1.473732e-04
      122  2.233211e-04
      123  5.493570e-05
      124  2.057776e-05
      125  3.020280e-05
      126  4.461038e-05
      127  7.500658e-05
      128  4.659614e-05
      129 -5.411374e-05
      130 -8.073536e-05
      131 -1.178269e-04
      132 -2.855983e-06
      133  2.795024e-05
      134  1.050971e-05
      135 -1.539897e-06
      136  1.134274e-05
      137  5.225486e-05
      138  5.982031e-05
      139  2.214403e-04
      140  2.154854e-04
      141  2.152525e-04
      142 -1.864229e-06
      143  1.069971e-05
      144  1.105540e-05
      145  5.356891e-05
      146  1.813067e-04
      147  2.496679e-04
      148  2.731747e-04
      149  9.754305e-05
      150  2.774552e-05
      151  5.158110e-05
      152  2.097868e-04
      153  2.624775e-04
      154  1.195398e-04
      155 -3.479124e-05
      156 -1.228481e-04
      157  0.000000e+00
      158  0.000000e+00
      159  0.000000e+00