pos          info
        0 -3.150537e-05
        1 -3.779778e-05
        2 -3.039237e-05
        3  2.325481e-05
        4 -7.553751e-05
        5 -4.998841e-05
        6 -2.250788e-06
        7  4.798818e-05
        8  1.320984e-05
        9 -8.792609e-05
       10 -7.348205e-05
       11 -5.232044e-05
       12  1.157218e-05
       13 -1.836803e-05
       14 -9.470509e-06
       15  9.353103e-06
       16  6.849592e-05
       17  5.062609e-05
       18  2.472205e-05
       19  4.121887e-06
       20  1.707729e-05
       21  4.154234e-05
       22  3.087716e-05
       23  7.449341e-05
       24  4.649331e-05
       25  1.423224e-05
       26 -4.190440e-05
       27 -2.292750e-05
       28  1.788252e-05
       29  1.211026e-05
       30 -1.047953e-05
       31  9.892715e-05
       32  1.356028e-04
       33  1.352398e-04
       34  2.343671e-05
       35 -7.418788e-06
       36  2.457738e-06
       37 -1.233661e-06
       38 -1.426753e-05
       39 -2.073166e-05
       40  4.099720e-05
       41  5.198464e-05
       42  4.776237e-05
       43 -4.306618e-05
       44 -6.269146e-05
       45 -3.340866e-05
       46 -5.398693e-05
       47 -1.115142e-04
       48 -1.358079e-04
       49 -1.412231e-04
       50 -6.256619e-05
       51 -1.162902e-04
       52 -4.474830e-05
       53 -6.312601e-05
       54 -2.347766e-07
       55  1.614207e-05
       56  1.862526e-04
       57  1.372077e-04
       58  1.092600e-04
       59 -5.116986e-05
       60 -2.175532e-05
       61  1.038306e-04
       62  1.141150e-04
       63  1.244702e-04
       64  3.645420e-06
       65 -1.629421e-05
       66 -3.261142e-05
       67  6.226230e-05
       68  4.915777e-05
       69  4.516315e-05
       70 -5.242631e-05
       71 -2.044072e-05
       72  7.590899e-06
       73 -6.323832e-06
       74 -9.751746e-05
       75 -1.043342e-04
       76 -9.314238e-05
       77  3.932374e-05
       78  3.867352e-05
       79  4.226070e-05
       80  1.003428e-04
       81  5.498944e-04
       82  5.356254e-04
       83  4.394255e-04
       84 -1.372678e-05
       85 -3.334575e-05
       86 -1.548830e-04
       87 -1.444359e-04
       88 -1.072084e-04
       89  1.815432e-05
       90  5.053213e-05
       91  5.202623e-05
       92  5.245045e-05
       93  1.494923e-05
       94 -3.131549e-05
       95 -6.264997e-05
       96  7.800802e-05
       97  9.657386e-05
       98  1.423565e-04
       99 -6.142841e-07
      100 -3.018918e-05
      101 -5.224337e-05
      102 -1.059422e-04
      103 -5.443438e-05
      104 -1.446996e-04
      105 -1.452642e-04
      106 -2.770448e-04
      107 -1.547689e-04
      108 -6.613876e-05
      109  6.581824e-05
      110  9.621463e-05
      111  3.404345e-05
      112  2.172010e-04
      113  1.615451e-04
      114  1.905397e-04
      115 -3.111662e-05
      116 -3.760429e-05
      117 -1.309100e-04
      118  3.805295e-04
      119  3.828455e-04
      120  6.725826e-04
      121  2.027488e-04
      122  2.017038e-04
      123  1.533906e-05
      124 -2.688109e-07
      125  2.030309e-04
      126  1.899048e-04
      127  2.188955e-04
      128  4.570103e-05
      129 -4.022645e-05
      130 -4.363837e-05
      131 -7.487486e-05
      132  1.835046e-05
      133 -3.739178e-06
      134  3.945199e-05
      135  6.626834e-06
      136 -6.332062e-05
      137 -1.066757e-04
      138 -7.846382e-05
      139  5.686728e-05
      140  5.996836e-05
      141  4.465875e-05
      142 -3.610572e-05
      143  8.874479e-05
      144  1.352967e-04
      145  1.533569e-04
      146  1.518781e-04
      147  1.366610e-04
      148  1.494059e-04
      149  6.439229e-05
      150  1.467018e-04
      151  1.454663e-04
      152  3.737802e-04
      153  3.005725e-04
      154  2.923906e-04
      155  1.423996e-05
      156 -4.006024e-06
      157  0.000000e+00
      158  0.000000e+00
      159  0.000000e+00