pos          info
        0  3.791159e-05
        1  1.945022e-05
        2 -1.232603e-05
        3 -6.128075e-05
        4 -2.374076e-05
        5 -3.869922e-05
        6 -6.510578e-05
        7  2.291842e-05
        8 -8.753786e-10
        9 -5.388702e-05
       10 -2.609422e-04
       11  1.483185e-04
       12  3.081512e-04
       13 -1.462597e-04
       14  2.107809e-05
       15  5.085053e-05
       16  2.203285e-05
       17 -3.127928e-05
       18  3.350284e-06
       19  2.662974e-04
       20 -2.484878e-05
       21  1.458064e-05
       22  5.499329e-05
       23 -2.188236e-05
       24 -1.741795e-06
       25  2.051094e-05
       26  2.322984e-05
       27 -8.369019e-05
       28  2.422798e-04
       29 -2.244557e-06
       30  8.757739e-05
       31  4.097594e-05
       32  4.195623e-06
       33  2.177078e-05
       34  7.633229e-05
       35 -4.198174e-06
       36 -1.477071e-05
       37  5.651860e-05
       38 -7.293350e-05
       39  2.335002e-05
       40 -8.215593e-06
       41 -2.357589e-05
       42 -8.351265e-05
       43  5.354766e-05
       44 -6.407732e-06
       45 -5.136872e-05
       46  4.503803e-07
       47 -7.968726e-05
       48 -6.036322e-07
       49 -1.793697e-06
       50 -1.406465e-05
       51 -1.135257e-07
       52 -3.293122e-06
       53  7.193679e-05
       54 -1.212147e-04
       55  1.731845e-04
       56  4.233961e-06
       57  1.316891e-04
       58  6.901050e-05
       59 -1.081084e-04
       60 -1.448010e-06
       61 -6.158248e-05
       62 -2.909344e-05
       63  1.449823e-04
       64  2.149742e-05
       65 -2.455846e-06
       66 -5.209401e-06
       67 -7.999380e-06
       68 -8.902674e-06
       69  9.929216e-06
       70 -1.100761e-05
       71  2.443333e-04
       72 -2.580105e-05
       73 -1.178728e-04
       74 -8.448583e-05
       75  5.396749e-07
       76  6.026816e-06
       77  3.704159e-06
       78 -2.734603e-04
       79 -3.706209e-04
       80 -1.885793e-04
       81 -7.652384e-04
       82  9.418080e-04
       83 -9.136345e-05
       84  6.934704e-05
       85 -8.387341e-05
       86  1.706967e-05
       87 -2.962856e-05
       88 -3.677016e-05
       89  5.956225e-05
       90 -7.896703e-05
       91 -3.311830e-05
       92 -2.182772e-04
       93  4.563206e-07
       94  3.498677e-05
       95 -1.371967e-05
       96  3.068499e-05
       97  5.800329e-05
       98 -9.069443e-05
       99 -7.611048e-04
      100  1.039909e-05
      101  4.525913e-07
      102  6.978701e-05
      103 -1.584796e-04
      104  3.592247e-03
      105 -2.049870e-04
      106 -2.320887e-04
      107 -4.990606e-04
      108 -1.580239e-04
      109  2.117729e-04
      110  9.730845e-05
      111  1.292090e-05
      112  2.315926e-07
      113 -1.530207e-06
      114  1.773468e-06
      115 -1.647665e-05
      116  9.329255e-05
      117  2.036088e-04
      118 -1.759967e-04
      119  2.104771e-05
      120 -1.585553e-05
      121 -1.108679e-07
      122  2.513616e-05
      123 -3.195667e-05
      124  7.767842e-07
      125  1.462551e-04
      126  4.876790e-05
      127 -7.397943e-07
      128 -4.906964e-06
      129 -2.736180e-04
      130 -4.458389e-05
      131  4.808496e-05
      132  1.580194e-05
      133  6.156191e-05
      134  8.928216e-05
      135  1.116850e-04
      136 -8.876562e-06
      137 -6.258812e-05
      138 -2.732583e-04
      139  2.885553e-05
      140  1.424426e-04
      141  2.231515e-05
      142 -2.538583e-05
      143  6.903513e-05
      144 -6.817593e-07
      145  1.527989e-06
      146 -3.042286e-05
      147 -1.307615e-05
      148  8.549740e-04
      149  5.693608e-04
      150  5.828962e-06
      151  5.167435e-05
      152 -2.307248e-05
      153 -6.259320e-05
      154  7.544622e-06
      155 -1.653582e-03
      156 -1.897084e-04
      157 -8.221887e-04
      158 -1.070878e-03
      159 -5.762341e-04