pos          info
        0 -3.671029e-04
        1  4.992217e-05
        2  3.033247e-07
        3  1.634132e-04
        4 -1.206744e-06
        5  1.672596e-04
        6 -6.716021e-09
        7  4.299028e-05
        8 -8.788831e-05
        9 -3.340009e-06
       10  6.305860e-05
       11 -2.648099e-06
       12 -5.866454e-05
       13  5.017375e-05
       14 -4.423576e-04
       15  2.283929e-05
       16 -1.286654e-06
       17  8.031720e-05
       18  9.889875e-07
       19  8.237955e-07
       20  8.875212e-05
       21  3.348197e-04
       22  4.644536e-05
       23  2.971422e-04
       24 -5.373763e-06
       25 -1.990661e-06
       26  6.349058e-05
       27  3.414507e-04
       28 -2.214265e-04
       29  2.099574e-04
       30 -1.050681e-06
       31 -1.963059e-05
       32 -1.954248e-06
       33 -1.446932e-05
       34 -5.374795e-06
       35  2.705033e-04
       36 -2.886300e-06
       37 -5.051480e-04
       38  2.650068e-04
       39 -2.685047e-04
       40 -8.928311e-06
       41 -4.979685e-06
       42  2.217874e-05
       43 -2.970878e-08
       44  1.331917e-04
       45  1.132053e-04
       46  2.334240e-06
       47  1.679955e-04
       48  8.214593e-05
       49  1.872285e-04
       50  6.211976e-06
       51  2.141165e-04
       52 -1.101778e-08
       53 -1.069586e-04
       54  1.156250e-04
       55 -2.137782e-05
       56  1.781660e-06
       57 -1.075279e-07
       58  1.114130e-04
       59  4.658546e-05
       60 -5.929176e-05
       61  6.720909e-06
       62  9.233018e-05
       63 -3.729167e-05
       64  4.624471e-07
       65 -1.880804e-05
       66 -1.430866e-04
       67 -5.497701e-06
       68 -4.344477e-05
       69 -5.055997e-04
       70  2.081633e-04
       71 -1.121210e-04
       72 -6.372706e-06
       73  6.584626e-04
       74  9.028826e-05
       75 -1.026104e-06
       76  2.633816e-05
       77  1.085762e-04
       78  3.241447e-04
       79  8.131728e-04
       80  5.892392e-04
       81  7.268722e-04
       82 -1.323347e-03
       83  1.480810e-04
       84 -1.731683e-04
       85 -2.296403e-05
       86 -2.076060e-05
       87  2.688215e-05
       88  1.577993e-04
       89 -3.535441e-04
       90  6.629442e-05
       91  3.770455e-05
       92  1.109605e-04
       93 -3.485629e-05
       94 -9.489487e-05
       95  1.470996e-04
       96  3.876619e-05
       97 -3.463614e-04
       98  1.180896e-04
       99  3.635923e-04
      100  7.128078e-06
      101 -1.649385e-07
      102 -7.940715e-05
      103  1.044247e-03
      104 -4.174975e-03
      105  2.429039e-05
      106  1.469621e-04
      107  6.535315e-04
      108  1.190221e-03
      109 -1.137727e-04
      110 -2.565350e-04
      111  6.035762e-07
      112  2.531782e-06
      113  1.900839e-04
      114 -1.193107e-05
      115  9.223750e-05
      116 -1.387172e-04
      117 -1.441583e-05
      118  1.342453e-04
      119  1.074830e-06
      120 -7.980652e-05
      121  1.511462e-04
      122 -6.768942e-06
      123  1.388412e-05
      124  9.455301e-06
      125 -9.539372e-04
      126 -8.019551e-06
      127 -5.811002e-05
      128  6.201930e-05
      129  5.999432e-06
      130 -5.247180e-07
      131 -8.124370e-05
      132 -8.740202e-06
      133 -2.343998e-05
      134 -1.646191e-04
      135  1.611865e-06
      136  2.649763e-05
      137  2.897364e-04
      138  4.262054e-04
      139 -7.086967e-05
      140 -2.781638e-04
      141 -3.282157e-04
      142  6.395325e-05
      143 -4.882423e-05
      144  2.973723e-05
      145  3.131097e-04
      146 -4.265510e-05
      147  2.399505e-05
      148  2.856806e-09
      149 -7.583248e-05
      150 -3.446622e-05
      151  1.250841e-05
      152  1.960080e-07
      153  1.002191e-10
      154 -8.445005e-05
      155  4.544511e-04
      156  1.817798e-05
      157  2.832093e-04
      158  3.623111e-04
      159 -4.646176e-05