pos          info
        0 -9.171706e-07
        1 -4.205334e-05
        2  7.545218e-04
        3  8.363192e-04
        4  1.298520e-04
        5  1.809370e-05
        6 -3.850060e-09
        7 -3.477784e-06
        8  5.238035e-04
        9 -7.663025e-05
       10 -8.371805e-05
       11 -1.305522e-04
       12  5.872236e-04
       13 -3.766820e-04
       14 -1.787856e-04
       15 -1.454328e-05
       16  1.373341e-05
       17  4.548159e-07
       18  8.149292e-05
       19  1.724959e-05
       20 -2.956715e-05
       21 -2.592207e-04
       22 -4.388816e-05
       23  7.569323e-05
       24  1.225261e-04
       25  1.690178e-08
       26 -2.492155e-04
       27  1.308813e-06
       28  6.383092e-05
       29  6.922509e-08
       30 -4.736354e-05
       31  7.031705e-05
       32  2.229147e-05
       33  1.772622e-04
       34 -2.123234e-04
       35 -4.938643e-05
       36  3.449796e-05
       37  3.924076e-04
       38  4.494307e-04
       39 -6.055213e-06
       40  7.885735e-05
       41 -2.405066e-04
       42 -1.832555e-05
       43  1.989654e-04
       44 -7.309779e-05
       45  1.095239e-04
       46 -1.075114e-05
       47 -2.386191e-04
       48  1.911549e-05
       49  3.069230e-04
       50  5.281261e-05
       51  3.872513e-05
       52  2.193951e-04
       53  3.384830e-05
       54  2.854605e-04
       55  5.758466e-05
       56  1.053216e-04
       57 -1.597980e-04
       58  1.762840e-04
       59  1.065174e-05
       60  5.371507e-06
       61 -1.027457e-05
       62  5.952063e-06
       63  2.539471e-07
       64  4.113082e-05
       65  4.202229e-04
       66  6.414834e-07
       67  3.029684e-05
       68  2.121391e-04
       69 -2.110222e-06
       70 -5.917025e-05
       71  4.202312e-04
       72  2.414933e-06
       73 -4.219055e-06
       74  6.381717e-05
       75 -6.523331e-05
       76 -3.396889e-05
       77 -1.067042e-03
       78  9.012919e-05
       79  1.129392e-04
       80  4.189428e-06
       81 -5.676617e-04
       82 -6.683774e-05
       83 -3.744476e-05
       84  1.390511e-04
       85  7.817317e-05
       86  2.448795e-05
       87  8.939621e-05
       88  5.952327e-05
       89 -5.446442e-06
       90 -1.274899e-04
       91  1.770291e-06
       92  1.205088e-05
       93  2.302557e-04
       94  4.032650e-04
       95  2.854653e-04
       96  1.266605e-04
       97 -2.195900e-04
       98  4.003707e-04
       99 -2.233910e-04
      100 -8.357464e-05
      101 -3.058539e-03
      102  1.568242e-03
      103  2.228995e-04
      104  4.497886e-04
      105  5.887958e-04
      106  1.162139e-04
      107  4.011218e-06
      108  1.869434e-05
      109 -4.425187e-05
      110  2.043413e-05
      111  7.546095e-04
      112  6.026620e-04
      113  1.828705e-08
      114  7.382578e-06
      115 -8.875517e-05
      116 -4.183160e-04
      117  8.974300e-06
      118 -3.727703e-05
      119 -6.310672e-05
      120  3.513357e-04
      121  1.852035e-04
      122 -2.712702e-04
      123  1.606462e-05
      124  8.213112e-05
      125 -2.115743e-05
      126  5.837048e-06
      127  4.968826e-06
      128 -5.100798e-04
      129  3.935454e-04
      130 -2.331004e-04
      131 -1.164542e-04
      132  5.497514e-05
      133  2.021679e-05
      134 -2.469171e-05
      135 -3.194328e-05
      136 -2.412703e-05
      137  2.721898e-04
      138  3.826036e-04
      139 -5.905485e-05
      140 -1.039595e-05
      141 -4.273753e-05
      142 -1.794012e-05
      143  1.343256e-04
      144 -1.248295e-05
      145 -1.049982e-04
      146  3.355991e-05
      147 -1.419201e-04
      148 -3.878041e-04
      149  1.419949e-04
      150 -9.817263e-05
      151  4.037389e-05
      152  5.210619e-07
      153  7.288080e-05
      154 -7.151161e-04
      155  1.505319e-05
      156 -1.122677e-04
      157  6.360146e-07
      158 -3.021393e-05
      159 -4.306209e-05