pos          info
        0 -1.807761e-05
        1  5.700477e-06
        2 -1.768782e-04
        3 -2.562701e-05
        4 -1.502673e-04
        5 -7.843638e-05
        6  2.997223e-05
        7  7.268387e-05
        8 -2.233836e-05
        9  2.410609e-04
       10  2.192851e-04
       11 -2.616676e-06
       12 -1.211967e-04
       13 -6.888934e-05
       14  1.043242e-05
       15 -1.268175e-04
       16 -2.670254e-04
       17 -9.253448e-05
       18  4.193702e-06
       19 -3.707095e-07
       20  2.569077e-05
       21  1.948518e-04
       22 -1.075765e-06
       23 -8.488454e-05
       24  1.103819e-05
       25  3.416153e-05
       26 -5.677980e-06
       27  4.563464e-05
       28  2.086910e-05
       29 -5.069605e-05
       30 -8.787729e-05
       31 -6.790183e-05
       32  1.009327e-07
       33 -1.018006e-05
       34  3.074834e-05
       35 -2.243096e-05
       36 -4.733966e-05
       37 -9.875109e-05
       38 -2.056352e-04
       39  1.455167e-04
       40 -8.298891e-06
       41  4.739531e-05
       42  2.243425e-05
       43 -6.505355e-05
       44  2.493157e-05
       45 -2.813517e-04
       46  1.810142e-06
       47 -9.743648e-06
       48 -5.249884e-05
       49 -1.706674e-04
       50 -8.536487e-05
       51 -3.670719e-05
       52  1.131470e-04
       53 -6.204258e-05
       54 -2.957822e-05
       55 -2.646145e-06
       56 -5.235722e-05
       57 -3.733708e-05
       58 -2.017161e-04
       59  2.546513e-06
       60  1.252312e-06
       61 -2.153256e-05
       62 -1.943614e-05
       63  8.664159e-05
       64 -2.071026e-05
       65 -1.109422e-04
       66  3.480425e-05
       67 -2.192721e-04
       68 -8.148654e-05
       69  3.155745e-04
       70 -2.414852e-04
       71 -3.391628e-04
       72 -5.266784e-05
       73 -9.631902e-06
       74  4.139248e-06
       75 -1.391159e-05
       76  5.169205e-05
       77  7.055147e-04
       78 -2.106040e-04
       79 -3.302472e-04
       80  2.029974e-04
       81  1.051112e-04
       82  7.428152e-06
       83  9.127618e-06
       84 -3.150282e-05
       85 -7.229316e-05
       86  1.219223e-05
       87 -3.388777e-04
       88  2.054688e-05
       89 -8.305244e-05
       90  1.852893e-04
       91  9.353652e-05
       92 -1.252974e-04
       93 -4.192438e-04
       94 -8.317331e-05
       95 -5.946002e-05
       96 -2.519869e-06
       97  4.950681e-05
       98 -3.544508e-04
       99  1.889538e-05
      100  2.494338e-04
      101  3.467093e-03
      102 -5.689269e-05
      103 -9.484377e-05
      104 -1.488448e-04
      105 -8.609668e-05
      106 -1.633907e-04
      107 -6.452915e-05
      108  7.473301e-05
      109  3.893060e-07
      110 -2.579031e-05
      111 -6.985785e-05
      112 -1.011872e-04
      113  6.675247e-05
      114 -2.414402e-05
      115 -1.909881e-06
      116  4.327275e-04
      117 -1.974174e-04
      118  8.113819e-06
      119 -1.516371e-05
      120 -1.215584e-04
      121 -2.011890e-04
      122  2.044391e-04
      123  5.540373e-06
      124 -2.124881e-05
      125  7.681843e-04
      126  2.405779e-06
      127 -2.392952e-05
      128  5.411593e-04
      129 -1.606343e-04
      130  1.558690e-04
      131  8.697742e-06
      132 -2.401518e-04
      133  1.252567e-05
      134  1.870807e-04
      135  7.920119e-05
      136 -1.624463e-05
      137 -3.549282e-05
      138 -1.567167e-05
      139  4.833596e-06
      140  3.989999e-05
      141  4.394205e-05
      142  9.839275e-05
      143 -1.318232e-04
      144  3.191574e-05
      145  7.737595e-06
      146 -2.334747e-05
      147  3.775574e-05
      148 -2.147740e-05
      149 -1.162117e-04
      150  9.449884e-07
      151 -2.737910e-05
      152 -5.776477e-05
      153 -1.056819e-06
      154  3.587654e-04
      155  1.690083e-05
      156  1.765542e-04
      157 -2.535347e-05
      158 -1.431531e-04
      159  3.389495e-05