pos          info
        0  4.980112e-05
        1  1.143982e-04
        2  1.017545e-04
        3  6.548184e-05
        4 -2.631840e-05
        5 -9.073918e-05
        6 -8.233336e-05
        7 -5.675907e-05
        8  1.509505e-05
        9 -3.733028e-06
       10  8.782484e-05
       11  8.378468e-05
       12  5.803429e-05
       13 -3.712653e-05
       14 -4.042316e-05
       15  7.243605e-05
       16 -2.892138e-05
       17 -4.575744e-05
       18 -1.216163e-04
       19 -1.651878e-05
       20  3.806122e-06
       21  3.862520e-05
       22 -6.638820e-05
       23 -1.030905e-04
       24 -2.222822e-04
       25 -9.206875e-05
       26 -2.511972e-05
       27  8.623294e-05
       28  5.122488e-05
       29  1.795010e-05
       30 -1.690972e-06
       31  6.101889e-05
       32  5.907820e-06
       33 -1.684707e-05
       34 -6.231579e-05
       35  1.873486e-05
       36  1.432947e-04
       37  1.353277e-04
       38  1.087235e-04
       39 -2.750209e-05
       40 -8.934691e-05
       41 -1.106644e-04
       42 -9.565672e-05
       43  1.066403e-04
       44  1.280747e-04
       45  9.290372e-05
       46 -4.321254e-05
       47  2.467277e-05
       48  8.698300e-05
       49  8.263285e-05
       50 -3.633068e-06
       51 -5.200789e-05
       52 -1.279815e-05
       53 -3.288544e-05
       54 -2.525845e-05
       55 -6.593798e-05
       56  8.408001e-05
       57  1.278041e-04
       58  1.358904e-04
       59  2.926665e-05
       60  2.306493e-05
       61  1.897740e-05
       62  2.579796e-05
       63  9.588457e-05
       64  1.118861e-04
       65  1.137493e-04
       66  1.264356e-04
       67  1.089769e-04
       68  9.720908e-05
       69  1.164771e-04
       70  1.019043e-04
       71  9.884416e-05
       72 -1.549598e-05
       73  5.544492e-06
       74 -3.604393e-06
       75 -3.837881e-04
       76 -3.909084e-04
       77 -2.813166e-04
       78  1.272276e-04
       79  1.065624e-04
       80  1.448938e-05
       81 -6.136200e-05
       82 -2.716995e-06
       83 -1.121240e-06
       84  5.181795e-05
       85  1.000836e-04
       86  9.073084e-05
       87  8.237696e-05
       88 -4.711026e-05
       89 -4.150953e-05
       90 -3.814500e-05
       91  1.365203e-05
       92  9.277016e-05
       93  8.739606e-05
       94  7.890041e-05
       95 -4.147789e-05
       96  5.615728e-05
       97  7.756635e-05
       98  9.118643e-05
       99 -7.594218e-04
      100 -7.130983e-04
      101 -5.789707e-04
      102  1.895444e-04
      103  1.644218e-04
      104  8.491172e-05
      105  1.103732e-04
      106  6.434999e-05
      107  3.848352e-05
      108  5.680054e-05
      109  6.048284e-05
      110  1.287309e-04
      111  6.280173e-05
      112  7.381158e-05
      113  3.351435e-05
      114  3.792109e-05
      115  3.565240e-05
      116  2.478719e-06
      117 -3.799657e-05
      118  1.218200e-06
      119  1.595944e-05
      120 -1.123439e-04
      121 -2.159883e-04
      122 -1.647521e-04
      123 -2.228228e-05
      124  1.155357e-04
      125 -8.954530e-06
      126 -6.475150e-05
      127 -9.210710e-05
      128 -3.939472e-05
      129  5.133108e-06
      130 -4.793793e-05
      131 -4.361267e-05
      132  2.002739e-05
      133 -7.131657e-05
      134 -6.940627e-05
      135 -8.968990e-05
      136 -8.414374e-08
      137  1.695178e-04
      138  1.725868e-04
      139  9.146286e-05
      140 -7.602094e-05
      141  8.165776e-05
      142  1.290725e-04
      143  8.603148e-05
      144  4.244923e-06
      145  4.650216e-05
      146 -1.021357e-05
      147 -9.293147e-05
      148 -1.214561e-04
      149 -2.246551e-05
      150 -6.289214e-06
      151  4.205009e-05
      152  1.082506e-05
      153  2.079796e-07
      154 -2.857239e-05
      155 -8.834065e-06
      156  1.419606e-04
      157  0.000000e+00
      158  0.000000e+00
      159  0.000000e+00