pos          info
        0 -5.689805e-06
        1  7.599165e-07
        2  5.089113e-07
        3  3.463014e-07
        4  2.046525e-05
        5 -1.533809e-05
        6  7.198995e-05
        7  1.092936e-04
        8  1.355728e-04
        9  8.781378e-05
       10  1.825548e-04
       11  2.001799e-04
       12 -1.421539e-04
       13 -2.463774e-04
       14  3.967377e-05
       15  4.145452e-06
       16 -1.064193e-04
       17 -3.957920e-06
       18 -1.129738e-04
       19 -5.222250e-05
       20 -4.759013e-06
       21  4.855359e-05
       22 -2.007849e-05
       23 -3.766035e-05
       24 -2.533949e-05
       25  1.328774e-05
       26 -8.191467e-08
       27  7.487435e-06
       28 -1.323894e-06
       29  2.053559e-05
       30 -2.095429e-05
       31  1.219294e-04
       32  1.815086e-09
       33  8.115489e-06
       34 -5.072807e-09
       35  1.993750e-05
       36 -5.386448e-06
       37  3.008726e-07
       38 -3.580017e-05
       39  1.907122e-05
       40 -5.314728e-05
       41  1.600701e-04
       42  1.792755e-05
       43  9.793505e-06
       44 -4.132242e-05
       45 -4.572656e-05
       46 -1.950669e-04
       47  3.118315e-04
       48 -5.164551e-05
       49 -1.542666e-06
       50  9.345522e-05
       51 -7.073586e-05
       52  1.571897e-08
       53 -1.548080e-04
       54 -1.893788e-05
       55 -3.258458e-05
       56 -1.493741e-05
       57  1.159335e-05
       58 -2.391233e-06
       59  5.128740e-06
       60  2.540665e-05
       61 -1.398940e-07
       62 -3.038749e-04
       63  2.069737e-06
       64 -4.062071e-06
       65 -2.699110e-05
       66  2.458788e-05
       67  4.743161e-06
       68 -6.913213e-05
       69 -3.777716e-07
       70  1.281518e-05
       71  9.326811e-06
       72  4.233202e-04
       73 -8.970441e-05
       74 -1.424070e-04
       75 -9.124178e-06
       76 -9.769176e-05
       77  1.705417e-08
       78 -5.317874e-07
       79 -8.044118e-05
       80  2.247086e-05
       81 -6.787609e-05
       82  1.185720e-04
       83  6.880816e-05
       84 -4.483046e-05
       85 -1.179018e-04
       86  4.296829e-05
       87  2.448555e-05
       88  4.328364e-05
       89 -1.183051e-05
       90 -3.032693e-05
       91 -4.456437e-05
       92 -5.673262e-07
       93 -6.906266e-05
       94  7.369349e-05
       95 -5.767662e-11
       96  2.377781e-04
       97  1.478089e-03
       98  5.992541e-04
       99 -1.381333e-04
      100  1.914961e-04
      101  1.159910e-03
      102  3.219828e-03
      103  4.094180e-03
      104 -1.767695e-03
      105  2.056705e-03
      106  7.297594e-04
      107  1.407937e-03
      108 -8.161064e-05
      109 -4.096085e-06
      110  8.168883e-05
      111  4.396922e-06
      112  4.092108e-06
      113 -2.532409e-05
      114 -1.845366e-04
      115  1.237383e-04
      116  3.686540e-05
      117 -2.671659e-05
      118 -3.574739e-05
      119  6.237176e-06
      120 -2.676803e-04
      121 -6.278580e-05
      122  9.434482e-05
      123  8.766072e-05
      124 -8.581489e-05
      125  7.635098e-05
      126 -2.546132e-05
      127  2.362572e-04
      128  5.728066e-05
      129  6.749647e-05
      130  1.372524e-04
      131  6.792546e-04
      132 -4.454968e-06
      133  9.141101e-06
      134 -8.793614e-06
      135 -9.095758e-05
      136  6.216553e-05
      137  2.829449e-06
      138  1.653319e-04
      139  2.004257e-04
      140 -1.212590e-04
      141 -6.308894e-05
      142  9.573409e-05
      143  9.585274e-04
      144  2.326189e-05
      145  1.585834e-04
      146 -2.025911e-04
      147 -4.827826e-08
      148 -7.007452e-05
      149 -4.503619e-04
      150 -1.518969e-04
      151  1.122687e-04
      152 -3.244618e-05
      153 -7.447623e-05
      154 -2.783703e-05
      155  1.542085e-06
      156 -1.022084e-04
      157 -8.016261e-04
      158  1.615467e-05
      159  4.341804e-04