pos       info
        0   0.000001
        1  -0.000029
        2  -0.000003
        3  -0.000017
        4  -0.000059
        5  -0.000049
        6   0.000012
        7   0.000075
        8   0.000143
        9   0.000071
       10   0.000091
       11  -0.000104
       12  -0.000063
       13  -0.000088
       14   0.000019
       15  -0.000025
       16  -0.000029
       17   0.000039
       18   0.000088
       19   0.000102
       20   0.000023
       21   0.000018
       22  -0.000065
       23  -0.000001
       24   0.000035
       25   0.000127
       26   0.000065
       27   0.000098
       28   0.000074
       29   0.000092
       30   0.000024
       31   0.000017
       32   0.000049
       33   0.000057
       34   0.000066
       35   0.000025
       36   0.000031
       37   0.000028
       38   0.000063
       39   0.000058
       40   0.000059
       41   0.000032
       42   0.000004
       43   0.000036
       44   0.000002
       45  -0.000013
       46  -0.000031
       47  -0.000029
       48  -0.000046
       49   0.000015
       50   0.000052
       51   0.000164
       52   0.000120
       53  -0.000029
       54  -0.000059
       55  -0.000097
       56   0.000028
       57  -0.000008
       58  -0.000008
       59  -0.000047
       60  -0.000040
       61  -0.000032
       62   0.000061
       63  -0.000057
       64   0.000015
       65  -0.000047
       66  -0.000075
       67  -0.000113
       68  -0.000074
       69   0.000144
       70   0.000194
       71   0.000219
       72   0.000162
       73   0.000119
       74   0.000046
       75   0.000065
       76   0.000023
       77   0.000230
       78   0.000249
       79  -0.000397
       80   0.000049
       81   0.001298
       82   0.002879
       83   0.002978
       84   0.001404
       85   0.000534
       86  -0.000015
       87   0.000296
       88   0.000291
       89   0.000128
       90   0.000101
       91  -0.000023
       92  -0.000068
       93  -0.000085
       94  -0.000253
       95  -0.000457
       96  -0.000445
       97   0.000082
       98   0.000305
       99  -0.000099
      100  -0.000647
      101  -0.000497
      102   0.001071
      103   0.003060
      104   0.002761
      105   0.001431
      106   0.000220
      107   0.001798
      108   0.002264
      109   0.001735
      110  -0.000024
      111  -0.000644
      112  -0.000641
      113  -0.000375
      114  -0.000072
      115  -0.000061
      116  -0.000095
      117  -0.000089
      118  -0.000164
      119  -0.000063
      120  -0.000064
      121  -0.000122
      122  -0.000121
      123  -0.000157
      124  -0.000050
      125  -0.000035
      126   0.000016
      127   0.000040
      128   0.000120
      129   0.000077
      130   0.000070
      131  -0.000035
      132   0.000048
      133   0.000045
      134   0.000044
      135  -0.000030
      136  -0.000043
      137   0.000037
      138  -0.000165
      139  -0.000082
      140  -0.000204
      141   0.000005
      142  -0.000053
      143  -0.000043
      144  -0.000095
      145  -0.000056
      146   0.000003
      147   0.000064
      148   0.000038
      149   0.000030
      150   0.000048
      151   0.000004
      152  -0.000071
      153  -0.000027
      154   0.000006
      155   0.000046
      156  -0.000017
      157   0.000000
      158   0.000000
      159   0.000000