       pos          info
         0  9.212530e-05
         1 -3.618909e-05
         2 -1.290893e-04
         3 -9.063597e-05
         4 -8.978791e-05
         5  7.748652e-06
         6 -2.966700e-04
         7  3.720263e-05
         8  3.422502e-05
         9  3.944434e-04
        10  3.815083e-05
        11 -7.425862e-05
        12 -1.339659e-04
        13 -1.104216e-04
        14 -5.228758e-05
        15 -4.586660e-05
        16 -4.892494e-05
        17 -2.287358e-06
        18 -1.899132e-04
        19 -2.169555e-04
        20 -1.118780e-04
        21  1.109708e-04
        22  1.166158e-04
        23 -7.647785e-05
        24 -1.502771e-04
        25 -1.245240e-04
        26 -1.584787e-05
        27  5.482838e-05
        28  3.273837e-05
        29  5.964985e-05
        30  1.075112e-05
        31 -2.010290e-04
        32 -1.864511e-04
        33 -2.401161e-04
        34 -1.160283e-05
        35 -5.579704e-05
        36  5.863235e-05
        37  6.479580e-05
        38  6.696408e-05
        39  3.507353e-05
        40  3.456451e-05
        41  1.459400e-05
        42  1.488550e-06
        43 -2.178695e-06
        44  4.264946e-07
        45  4.245369e-04
        46  7.041286e-04
        47  7.574719e-04
        48  3.190103e-04
        49 -2.211952e-04
        50 -2.062115e-04
        51 -1.603407e-04
        52  9.855416e-05
        53 -2.193946e-05
        54 -7.611938e-05
        55 -1.338791e-05
        56  1.357823e-04
        57  7.489163e-05
        58  3.651206e-05
        59 -3.015549e-04
        60 -2.401882e-04
        61 -3.809739e-05
        62 -3.621535e-04
        63 -2.584649e-04
        64 -6.055353e-04
        65  4.283913e-05
        66 -4.318559e-05
        67  7.843585e-05
        68  4.796326e-06
        69 -7.881176e-07
        70 -1.957635e-06
        71 -7.183286e-06
        72  3.772506e-06
        73  2.493872e-05
        74  7.995674e-06
        75  7.942421e-06
        76  5.114756e-06
        77  2.366068e-05
        78  2.889019e-04
        79  2.530764e-04
        80  3.098873e-04
        81  9.104577e-05
        82  1.325509e-04
        83  5.812709e-05
        84 -6.283258e-06
        85 -4.268462e-05
        86 -3.690786e-05
        87 -1.831199e-05
        88  6.662152e-05
        89  7.102261e-05
        90  8.452217e-05
        91 -6.034421e-05
        92 -5.204719e-04
        93 -6.092695e-04
        94 -4.921685e-04
        95 -3.280615e-05
        96  4.000069e-05
        97 -2.007457e-05
        98 -5.899741e-05
        99 -3.750544e-05
       100 -3.683308e-05
       101  1.932181e-05
       102 -6.216713e-05
       103 -1.445049e-04
       104 -1.645416e-04
       105 -6.512564e-05
       106  9.941005e-05
       107  1.236299e-04
       108  1.428607e-04
       109  1.117014e-04
       110  9.101610e-05
       111  3.737499e-04
       112  3.337383e-04
       113  2.899370e-04
       114 -2.090145e-05
       115  5.219097e-05
       116  9.714423e-05
       117  6.906237e-05
       118  1.737942e-04
       119  2.600042e-04
       120  2.666001e-04
       121  8.729393e-05
       122  9.999955e-05
       123  8.563944e-05
       124  1.989685e-05
       125 -2.638803e-05
       126  5.252350e-05
       127  1.031618e-04
       128  7.089891e-05
       129  2.663830e-05
       130  1.714038e-04
       131  1.471323e-04
       132  1.190219e-04
       133  4.591564e-05
       134  6.434865e-05
       135  7.173607e-05
       136 -9.599093e-05
       137 -2.330220e-05
       138 -2.997910e-05
       139  1.232352e-04
       140  9.769668e-05
       141  2.175776e-04
       142  1.838063e-04
       143  3.083988e-04
       144  1.871368e-04
       145  1.983866e-04
       146 -1.607515e-04
       147 -1.946731e-04
       148 -1.904241e-04
       149 -4.878909e-05
       150  2.227619e-04
       151  2.242820e-04
       152  2.558624e-04
       153 -9.779508e-06
       154 -1.134953e-05
       155 -1.273303e-05
       156 -7.962407e-06
       157  0.000000e+00
       158  0.000000e+00
       159  0.000000e+00