pos          info
        0 -2.596917e-05
        1 -1.875881e-05
        2 -2.224663e-05
        3 -3.147212e-05
        4 -3.330724e-05
        5 -1.170670e-05
        6 -1.209441e-05
        7  1.921505e-05
        8  8.062652e-05
        9  1.716498e-04
       10  1.177345e-04
       11  3.754192e-05
       12 -3.020160e-05
       13 -4.592254e-06
       14 -3.944364e-06
       15 -7.885491e-07
       16 -3.003927e-06
       17  1.145430e-05
       18 -6.171397e-05
       19 -5.837609e-05
       20 -3.161248e-05
       21  1.261032e-05
       22 -7.451292e-06
       23 -2.545746e-05
       24  1.668084e-07
       25 -3.253989e-05
       26 -7.853009e-05
       27 -1.417481e-05
       28 -1.410444e-05
       29  8.388735e-06
       30 -1.423215e-04
       31 -1.142130e-04
       32 -1.399069e-04
       33 -1.349759e-04
       34 -1.005347e-04
       35 -5.846951e-05
       36  7.083807e-05
       37  6.031637e-05
       38  3.866458e-05
       39  1.423066e-05
       40  1.202962e-06
       41  1.060333e-05
       42 -5.649532e-06
       43  3.130905e-05
       44  2.731251e-05
       45  1.023118e-04
       46  8.419374e-05
       47  8.762627e-05
       48 -6.066072e-05
       49 -3.923870e-04
       50  5.056708e-05
       51  4.686135e-04
       52  7.962722e-04
       53  2.940038e-04
       54 -2.982502e-05
       55  3.150076e-04
       56  3.829670e-04
       57  2.677384e-04
       58 -2.848487e-05
       59 -2.544681e-05
       60  6.972871e-05
       61  7.406999e-05
       62 -2.073274e-04
       63 -2.068715e-04
       64 -2.603353e-04
       65  1.058937e-05
       66  5.255490e-06
       67  3.669141e-06
       68 -7.427061e-05
       69 -8.407042e-05
       70 -1.345507e-04
       71 -6.161521e-05
       72 -8.121575e-05
       73 -5.744229e-05
       74 -5.358014e-05
       75 -4.403905e-05
       76 -1.046363e-04
       77  7.999595e-06
       78  2.030492e-04
       79  3.254195e-04
       80  3.581039e-04
       81  1.432619e-04
       82  1.249872e-04
       83  9.248765e-05
       84  1.821181e-04
       85  2.049648e-04
       86  1.351555e-04
       87  9.218926e-05
       88  2.363481e-05
       89 -3.717514e-05
       90 -4.700752e-05
       91 -1.956555e-05
       92 -4.064890e-05
       93 -7.203658e-05
       94 -8.167300e-05
       95 -2.417658e-05
       96  1.109446e-05
       97 -4.440184e-05
       98 -3.325262e-06
       99  1.205251e-04
      100  1.632807e-04
      101  2.622385e-04
      102 -1.653123e-04
      103 -1.735601e-04
      104 -3.355454e-04
      105 -1.200414e-05
      106  1.105861e-04
      107  2.116540e-04
      108  2.053942e-04
      109  1.605895e-04
      110  2.685280e-04
      111  3.633514e-04
      112  3.578946e-04
      113  1.487930e-04
      114  2.011441e-05
      115 -4.055816e-05
      116 -3.233290e-05
      117  4.498066e-05
      118  1.066816e-04
      119  1.177075e-04
      120  7.070216e-05
      121  2.885593e-05
      122  6.353970e-05
      123  3.496362e-05
      124  8.397248e-05
      125  3.187102e-05
      126  5.064623e-05
      127  1.948774e-06
      128 -8.956287e-05
      129  8.800376e-05
      130  4.738071e-04
      131  8.600152e-04
      132  7.935343e-04
      133  4.862335e-04
      134  1.863855e-04
      135  7.898089e-05
      136  6.864782e-05
      137  1.061179e-04
      138 -3.526966e-05
      139 -8.710165e-05
      140  5.306809e-05
      141  3.862951e-04
      142  5.666209e-04
      143  3.915501e-04
      144  1.944185e-04
      145  4.800575e-05
      146  9.261998e-06
      147  1.109457e-05
      148  9.789688e-06
      149 -1.111968e-05
      150  1.295197e-04
      151  1.332919e-04
      152  1.939660e-04
      153  6.275125e-05
      154  4.499174e-05
      155  5.165352e-05
      156  4.176682e-05
      157  0.000000e+00
      158  0.000000e+00
      159  0.000000e+00