pos          info
        0 -7.423130e-05
        1 -2.183198e-06
        2 -2.457973e-05
        3 -2.457287e-05
        4 -6.607870e-06
        5  3.319555e-05
        6 -1.341019e-05
        7 -1.198705e-05
        8 -3.777430e-05
        9  8.790745e-05
       10  8.154547e-05
       11  1.203545e-04
       12  3.292553e-06
       13 -3.311560e-07
       14 -1.973019e-05
       15  1.838110e-05
       16  1.478941e-05
       17 -8.461613e-06
       18 -1.837393e-05
       19 -3.299415e-05
       20 -2.246087e-05
       21 -2.033171e-04
       22 -2.032369e-04
       23 -2.469354e-04
       24 -4.748162e-05
       25  6.107829e-06
       26 -1.418532e-04
       27 -9.570526e-05
       28 -3.834375e-04
       29 -1.903628e-04
       30 -3.682348e-04
       31 -1.112721e-04
       32 -9.370957e-05
       33  2.296028e-05
       34 -1.179709e-04
       35  3.786468e-06
       36 -1.103292e-07
       37  1.526110e-04
       38  3.795169e-05
       39  4.200482e-05
       40  3.180928e-05
       41  4.672015e-06
       42  1.244267e-05
       43  8.650098e-05
       44 -4.333147e-05
       45 -4.552503e-05
       46 -1.417561e-04
       47 -1.528673e-05
       48  2.042731e-04
       49  3.454014e-04
       50  4.943035e-04
       51  2.745750e-04
       52  1.608388e-04
       53  2.451772e-04
       54  2.451079e-04
       55  3.175050e-04
       56  8.018469e-05
       57  2.674352e-05
       58 -5.150749e-05
       59 -5.188796e-05
       60 -4.977951e-05
       61 -1.111148e-04
       62 -6.100865e-05
       63  4.804427e-05
       64  1.057967e-04
       65 -7.004514e-05
       66 -1.606952e-04
       67 -1.589927e-04
       68 -3.878446e-05
       69 -5.864320e-06
       70 -2.334906e-05
       71 -1.682840e-05
       72 -1.162977e-05
       73  6.978878e-05
       74  5.733318e-05
       75  6.640496e-05
       76  3.159742e-05
       77  3.804615e-05
       78  5.053628e-05
       79  2.141889e-05
       80  1.891778e-04
       81  4.980092e-04
       82  4.903615e-04
       83 -1.465011e-04
       84 -4.718178e-04
       85 -5.286423e-04
       86 -6.656350e-05
       87 -4.347997e-05
       88  2.440159e-05
       89 -5.954165e-05
       90 -9.272536e-05
       91 -2.742043e-05
       92  2.780912e-05
       93  2.909740e-05
       94 -3.946986e-05
       95  2.078779e-06
       96  9.803680e-06
       97  3.043078e-05
       98  2.774355e-05
       99  4.573490e-05
      100 -6.035398e-04
      101 -5.149291e-04
      102 -6.289168e-04
      103  1.381371e-04
      104  4.477947e-04
      105  4.977479e-04
      106  4.237551e-04
      107  5.944737e-05
      108  3.807269e-04
      109  3.222825e-04
      110  2.911352e-04
      111 -1.198487e-04
      112 -1.270339e-04
      113 -9.650747e-05
      114  3.009753e-05
      115  3.784557e-05
      116  6.512808e-07
      117  5.041960e-07
      118  4.617446e-06
      119  5.705518e-06
      120 -1.980547e-05
      121 -2.199733e-05
      122 -1.285073e-05
      123 -3.414027e-05
      124 -2.990994e-05
      125  6.833937e-05
      126  1.291049e-04
      127  1.411670e-04
      128  3.076901e-06
      129 -8.304420e-06
      130  8.138452e-05
      131  5.332688e-04
      132  5.634688e-04
      133  4.797626e-04
      134  3.620046e-05
      135  2.618527e-05
      136  1.353673e-04
      137  1.679385e-04
      138  1.541217e-04
      139  1.434576e-05
      140  2.240836e-05
      141  1.341834e-05
      142 -8.542852e-06
      143  1.342698e-06
      144  1.908388e-05
      145 -1.822990e-05
      146 -8.728589e-05
      147 -2.742398e-04
      148 -2.159887e-04
      149 -1.703067e-04
      150  3.800072e-05
      151  4.331155e-05
      152  6.133186e-05
      153  5.070507e-05
      154 -2.235682e-04
      155 -2.432512e-04
      156 -2.457364e-04
      157  0.000000e+00
      158  0.000000e+00
      159  0.000000e+00