pos          info
        0  1.717947e-05
        1  2.772578e-06
        2 -3.156315e-05
        3 -1.002565e-04
        4 -7.494301e-05
        5  9.433152e-06
        6  2.691781e-05
        7  4.808789e-05
        8 -3.246979e-05
        9 -2.852412e-05
       10 -1.772162e-05
       11  2.398351e-05
       12  7.226861e-06
       13 -1.009774e-05
       14 -3.403117e-05
       15 -3.878274e-06
       16  1.816611e-05
       17  2.283086e-04
       18  1.167234e-04
       19  7.317813e-05
       20 -7.210960e-05
       21  6.240937e-05
       22  1.269539e-04
       23  7.847761e-05
       24  2.697754e-05
       25 -2.342948e-05
       26 -1.771144e-05
       27 -1.063087e-05
       28 -1.369228e-04
       29 -1.737030e-04
       30 -2.643597e-04
       31 -8.537951e-05
       32 -9.683727e-05
       33  9.926833e-05
       34 -1.122090e-04
       35 -5.925913e-05
       36 -1.879490e-04
       37 -5.652386e-05
       38 -8.173861e-05
       39  6.900494e-05
       40  3.273078e-04
       41  3.722402e-04
       42  3.610014e-04
       43  1.328328e-04
       44  1.100574e-04
       45 -2.593215e-07
       46  3.906878e-05
       47  2.754924e-05
       48  2.044954e-05
       49  1.445242e-05
       50  2.060976e-05
       51  1.357090e-05
       52  1.574820e-04
       53  1.829219e-04
       54  1.814171e-04
       55  1.008573e-05
       56 -2.510950e-05
       57 -1.358197e-04
       58 -9.185425e-05
       59 -1.297050e-04
       60 -3.030626e-05
       61 -1.481881e-04
       62 -1.483894e-04
       63 -1.157159e-04
       64 -1.060897e-04
       65 -5.191413e-05
       66 -5.574787e-05
       67  1.331012e-05
       68  4.725141e-05
       69  5.305333e-05
       70  8.959676e-05
       71  6.282645e-05
       72  7.316343e-05
       73  6.732107e-05
       74  7.619133e-05
       75  5.646539e-05
       76  1.462565e-04
       77  1.533589e-04
       78  1.368230e-04
       79 -1.081053e-05
       80  5.177981e-06
       81  5.573779e-06
       82  4.123819e-04
       83  8.575904e-05
       84  9.747167e-05
       85 -1.496530e-04
       86  1.079495e-04
       87  1.081893e-04
       88 -2.911502e-04
       89 -4.948505e-04
       90 -5.006742e-04
       91 -2.336230e-04
       92  3.789935e-06
       93 -5.555345e-05
       94 -1.186919e-04
       95 -2.187552e-04
       96  2.846471e-04
       97  4.850696e-04
       98  7.730476e-04
       99  1.238227e-03
      100  1.476867e-03
      101  1.350418e-03
      102  8.801349e-04
      103  5.521815e-04
      104  5.144325e-04
      105  2.031451e-05
      106  2.883625e-05
      107 -1.419769e-05
      108 -4.160676e-05
      109 -9.470102e-05
      110 -1.295270e-04
      111 -3.915773e-05
      112 -7.146717e-05
      113  1.483936e-04
      114  1.116129e-04
      115  2.697161e-04
      116  1.332153e-04
      117  3.847584e-05
      118 -3.521892e-04
      119  3.258503e-05
      120  3.933427e-05
      121  6.350789e-04
      122  2.032023e-04
      123  2.801173e-04
      124 -4.989482e-05
      125 -1.499752e-04
      126 -1.632070e-04
      127 -1.171658e-04
      128  7.472292e-05
      129  1.315348e-04
      130 -2.160191e-06
      131 -8.317201e-05
      132 -2.715254e-05
      133  1.483325e-04
      134  9.390625e-05
      135  3.920798e-05
      136  3.466326e-05
      137  2.151178e-05
      138  3.438060e-05
      139  1.232858e-05
      140 -3.692229e-06
      141  4.373230e-06
      142 -6.619471e-05
      143 -2.479642e-05
      144 -4.330485e-05
      145 -4.908373e-05
      146 -4.574788e-05
      147 -1.132841e-04
      148 -2.646826e-04
      149 -2.090753e-04
      150 -1.000378e-04
      151  5.830962e-05
      152  2.314598e-05
      153 -1.669777e-05
      154 -4.011338e-05
      155 -1.860618e-05
      156 -2.212976e-05
      157  0.000000e+00
      158  0.000000e+00
      159  0.000000e+00