pos          info
        0 -1.214446e-06
        1  1.773337e-04
        2  2.694748e-06
        3 -2.036145e-04
        4 -4.110286e-04
        5 -9.635961e-06
        6 -2.593627e-04
        7  1.584750e-04
        8  7.780937e-05
        9 -3.359160e-07
       10  3.549088e-05
       11 -3.698399e-05
       12  1.667603e-04
       13 -4.823845e-05
       14  8.438132e-05
       15 -1.774729e-05
       16 -1.676910e-04
       17  1.042165e-04
       18  1.295765e-04
       19  2.983756e-04
       20 -8.574890e-05
       21 -1.676360e-04
       22  6.154470e-08
       23  5.563451e-05
       24  2.431343e-04
       25 -1.063850e-05
       26  2.230509e-05
       27  6.657532e-05
       28  1.736320e-04
       29  1.256007e-05
       30 -1.907613e-04
       31  6.734153e-05
       32  1.235946e-04
       33 -7.412719e-05
       34 -1.655110e-04
       35  3.788088e-04
       36 -2.106187e-04
       37 -5.196229e-08
       38 -1.232662e-04
       39 -4.931512e-05
       40  4.253704e-05
       41  2.319561e-04
       42  2.404320e-04
       43 -1.754819e-07
       44  2.495317e-04
       45 -5.672942e-04
       46  4.905475e-05
       47  2.152158e-04
       48  2.031662e-07
       49 -1.967485e-05
       50 -3.299149e-06
       51 -8.926939e-06
       52  1.824312e-04
       53  8.514708e-10
       54  1.730801e-04
       55  1.418909e-04
       56 -4.060208e-05
       57  1.152379e-04
       58 -4.032251e-05
       59 -1.230554e-03
       60 -6.658708e-05
       61 -3.683530e-04
       62 -3.083344e-04
       63 -3.554004e-04
       64 -5.406620e-04
       65 -2.354555e-04
       66 -8.969711e-04
       67 -1.143135e-04
       68 -5.468364e-05
       69 -1.892280e-04
       70  1.745713e-04
       71  3.920372e-07
       72  3.644831e-05
       73 -3.950720e-04
       74 -3.452179e-05
       75 -3.729746e-07
       76 -7.876991e-05
       77  2.132944e-04
       78  6.101470e-05
       79 -1.402392e-04
       80 -2.485067e-04
       81 -7.940137e-04
       82 -2.739543e-05
       83 -2.015042e-04
       84  2.021658e-05
       85 -4.260603e-04
       86 -1.030744e-04
       87  1.884161e-04
       88 -2.237920e-04
       89 -2.551491e-04
       90 -9.928597e-06
       91 -3.473558e-04
       92 -2.252153e-05
       93  3.289341e-05
       94 -1.766067e-05
       95 -7.315915e-04
       96 -3.237305e-05
       97 -5.003963e-04
       98  1.451115e-03
       99  9.651511e-04
      100  5.863954e-04
      101  3.585367e-03
      102  1.691385e-03
      103  4.368836e-05
      104  9.014532e-04
      105  4.694824e-05
      106  2.824306e-04
      107  6.423833e-06
      108  6.230196e-05
      109 -1.586254e-04
      110 -9.792392e-05
      111  1.767236e-05
      112  4.367048e-05
      113 -3.696679e-07
      114 -4.366232e-05
      115  6.733356e-04
      116 -3.583739e-04
      117  2.970783e-04
      118 -5.183254e-05
      119 -3.358335e-04
      120 -2.436807e-03
      121  1.452493e-03
      122 -4.798934e-04
      123  2.878143e-04
      124 -2.973200e-04
      125  6.035144e-06
      126  2.989574e-05
      127 -7.100946e-05
      128 -7.103411e-06
      129  1.289156e-04
      130  1.899090e-04
      131  1.448293e-06
      132 -1.732537e-05
      133  9.336228e-05
      134  1.917520e-05
      135  1.909213e-04
      136 -1.108420e-05
      137 -2.636945e-05
      138  2.332311e-04
      139 -5.753469e-04
      140  3.781724e-04
      141  6.294101e-04
      142 -2.207926e-04
      143  1.801161e-05
      144  3.365581e-05
      145 -3.717546e-04
      146  1.661150e-04
      147  1.145836e-05
      148 -4.178133e-04
      149 -8.629911e-05
      150 -2.318144e-04
      151  1.929888e-06
      152  1.131346e-04
      153 -2.717700e-05
      154  6.945797e-07
      155 -8.540721e-05
      156  5.848992e-06
      157 -1.125320e-05
      158  1.066132e-04
      159 -4.742664e-06