pos          info
        0 -3.818492e-05
        1 -5.199982e-05
        2  8.060850e-05
        3  8.669071e-05
        4  1.092975e-04
        5 -1.672865e-05
        6 -7.678731e-05
        7 -1.127220e-04
        8 -5.444395e-05
        9 -1.218308e-05
       10 -2.247213e-05
       11  8.875456e-06
       12  1.220635e-05
       13  6.319149e-05
       14  4.644051e-05
       15  1.050499e-04
       16  5.638540e-05
       17 -4.681708e-05
       18 -9.103112e-05
       19 -2.313150e-05
       20  2.157435e-04
       21  1.925967e-04
       22  6.230924e-05
       23 -9.409070e-05
       24 -7.149616e-05
       25 -2.616240e-05
       26 -4.566502e-05
       27 -5.100918e-05
       28 -1.483832e-05
       29  4.693023e-06
       30  7.952584e-06
       31  5.329304e-05
       32  5.435720e-05
       33 -2.701675e-05
       34 -4.933886e-05
       35 -5.712066e-05
       36  5.883835e-05
       37  1.047520e-04
       38  6.537216e-05
       39  2.108244e-05
       40 -1.041186e-04
       41 -5.320180e-05
       42 -7.599053e-05
       43 -2.225437e-06
       44 -1.282036e-05
       45 -4.925532e-05
       46 -7.755201e-05
       47 -6.999138e-05
       48 -1.936451e-06
       49 -4.347790e-06
       50 -5.131922e-05
       51 -6.818285e-05
       52 -1.151195e-04
       53 -7.029910e-05
       54 -1.933515e-06
       55  4.678064e-05
       56  1.485887e-04
       57  6.594955e-04
       58  8.062648e-04
       59  7.734982e-04
       60  6.723626e-04
       61  1.011433e-03
       62  1.352595e-03
       63  1.200228e-03
       64  1.291092e-03
       65  1.070315e-03
       66  8.580038e-04
       67  2.837077e-04
       68 -3.957749e-05
       69 -1.410572e-04
       70 -7.602629e-05
       71  1.555416e-04
       72  1.719280e-04
       73  1.344277e-04
       74  1.319106e-04
       75 -7.720403e-05
       76 -6.622751e-05
       77 -3.502691e-05
       78  6.474729e-04
       79  1.100868e-03
       80  9.762068e-04
       81  6.270106e-04
       82  1.451156e-04
       83  4.898109e-04
       84  3.823726e-04
       85  1.990727e-04
       86 -4.183091e-05
       87  1.413029e-05
       88  1.560578e-04
       89  6.608087e-05
       90  6.130578e-07
       91  1.106246e-05
       92  6.026015e-06
       93  6.344502e-04
       94  7.657618e-04
       95  1.241096e-03
       96  1.119966e-04
       97 -4.401781e-04
       98 -1.220505e-03
       99 -2.116251e-03
      100 -2.405615e-03
      101 -2.248567e-03
      102 -1.155561e-03
      103 -5.541849e-04
      104 -4.568575e-04
      105 -1.817331e-04
      106 -8.013766e-05
      107  2.323073e-05
      108  1.117946e-04
      109  1.289120e-04
      110 -6.302276e-05
      111 -1.163591e-04
      112 -8.602036e-05
      113 -4.953747e-05
      114  4.892346e-05
      115 -1.452258e-04
      116  7.049101e-05
      117  2.716148e-04
      118  1.340206e-03
      119  8.838702e-04
      120  6.822897e-04
      121 -2.677046e-04
      122  6.679083e-05
      123 -1.987645e-05
      124  2.791409e-05
      125  4.035383e-05
      126  1.122107e-05
      127  1.032913e-05
      128 -8.352726e-05
      129 -8.798177e-05
      130  2.834902e-05
      131  9.633098e-05
      132  9.221966e-05
      133 -2.447967e-05
      134 -1.136656e-05
      135 -6.749065e-06
      136 -1.407400e-04
      137 -7.510929e-05
      138 -8.316284e-05
      139  3.644375e-05
      140  1.826597e-05
      141  6.337072e-05
      142  9.263717e-05
      143  1.797637e-04
      144  1.422983e-04
      145  1.319950e-04
      146  1.653431e-04
      147  1.719651e-04
      148  2.132774e-04
      149  5.639710e-05
      150  3.156822e-05
      151  7.325822e-06
      152 -1.512300e-06
      153  1.121828e-04
      154  1.077345e-04
      155  1.072168e-04
      156  9.600126e-06
      157  0.000000e+00
      158  0.000000e+00
      159  0.000000e+00