pos          info
        0 -3.918043e-06
        1 -1.381392e-05
        2 -4.739069e-06
        3 -1.373032e-05
        4 -7.874316e-06
        5 -8.582312e-05
        6 -8.735903e-05
        7 -7.459035e-05
        8  7.017124e-06
        9 -3.118898e-05
       10  4.677955e-05
       11 -6.774279e-05
       12 -9.992068e-05
       13 -1.949383e-04
       14 -3.927516e-05
       15  6.712279e-05
       16  7.734439e-05
       17  1.109591e-04
       18 -1.109904e-04
       19 -1.138496e-04
       20 -1.790597e-04
       21  8.727285e-06
       22  2.935601e-05
       23  1.959480e-05
       24  9.749878e-05
       25  8.074222e-05
       26  9.528408e-05
       27  1.637663e-05
       28 -2.709686e-06
       29 -1.730239e-05
       30 -2.700662e-05
       31 -1.122399e-05
       32 -1.026130e-04
       33 -9.186057e-05
       34 -1.074551e-04
       35 -8.786541e-06
       36  8.538923e-05
       37  1.013435e-04
       38  9.187378e-05
       39  1.396424e-05
       40  1.184548e-04
       41  1.281847e-04
       42  2.502393e-04
       43  5.464442e-05
       44  4.719344e-05
       45 -2.147620e-05
       46  2.291462e-04
       47  2.697417e-04
       48  1.606956e-04
       49 -1.389831e-05
       50 -5.640124e-05
       51 -1.636401e-05
       52 -1.869003e-05
       53  1.860681e-05
       54  3.819837e-05
       55  5.887081e-05
       56 -7.274580e-05
       57 -2.193928e-04
       58 -2.757124e-04
       59 -1.471072e-04
       60 -3.333005e-05
       61  2.265818e-05
       62 -1.419411e-05
       63  3.447269e-05
       64  1.409233e-05
       65  1.307222e-04
       66  1.433233e-04
       67  1.597059e-04
       68  4.682214e-05
       69 -1.475858e-05
       70  1.052854e-06
       71  4.597661e-07
       72  3.517563e-05
       73  3.076858e-05
       74  1.545778e-04
       75  1.350248e-04
       76  1.399648e-04
       77  2.339978e-05
       78 -2.582281e-05
       79 -5.668496e-05
       80 -1.903375e-05
       81 -1.147904e-05
       82  2.456775e-05
       83 -6.487067e-05
       84 -2.572745e-05
       85  2.168284e-05
       86  1.124013e-05
       87  3.610459e-05
       88 -3.294499e-05
       89  1.851827e-06
       90 -1.782445e-05
       91 -2.768922e-05
       92 -7.034272e-06
       93 -1.739123e-05
       94  5.403942e-06
       95 -4.694463e-05
       96 -3.345056e-05
       97 -4.863723e-05
       98  9.352457e-06
       99 -4.311228e-07
      100  2.411668e-04
      101  3.103384e-04
      102  4.533581e-04
      103  2.809576e-04
      104  1.871886e-04
      105  3.156950e-05
      106 -3.618518e-05
      107 -1.712170e-05
      108 -2.367151e-05
      109 -5.980218e-05
      110 -4.491742e-05
      111 -4.113382e-05
      112 -1.450845e-05
      113  1.805359e-04
      114  9.877536e-06
      115  2.939514e-05
      116 -1.797811e-04
      117  5.397839e-05
      118  4.595146e-05
      119  2.726911e-04
      120  2.100484e-04
      121  2.287676e-04
      122 -1.209380e-05
      123 -8.211713e-05
      124 -1.002418e-04
      125 -1.172017e-04
      126 -8.138836e-05
      127 -1.192968e-04
      128 -1.233513e-04
      129 -7.797817e-05
      130 -4.560007e-05
      131 -1.082778e-05
      132 -5.791031e-06
      133 -9.224762e-06
      134  1.952614e-04
      135  1.184988e-04
      136  1.339428e-04
      137 -6.413236e-05
      138 -3.305503e-05
      139 -2.036104e-05
      140 -5.730892e-05
      141 -1.116734e-05
      142 -4.471708e-05
      143 -1.400073e-05
      144 -3.129373e-07
      145 -9.753949e-05
      146 -1.204184e-04
      147 -5.689322e-05
      148 -2.059226e-05
      149  2.420356e-04
      150  1.648270e-04
      151  2.764624e-04
      152 -3.477283e-05
      153 -1.197338e-05
      154 -1.120997e-04
      155 -5.680319e-05
      156 -1.465043e-04
      157  0.000000e+00
      158  0.000000e+00
      159  0.000000e+00