pos          info
        0 -4.793875e-08
        1  6.565498e-09
        2 -7.176004e-09
        3  1.355260e-08
        4  1.440309e-08
        5 -1.929935e-08
        6 -5.550500e-08
        7 -1.213908e-08
        8  1.819537e-08
        9  4.261089e-08
       10  6.036892e-10
       11  4.169339e-10
       12 -5.512615e-09
       13 -4.120485e-08
       14 -4.021200e-08
       15  3.286307e-08
       16  7.806834e-08
       17  1.066126e-07
       18  4.584551e-08
       19  3.446585e-08
       20 -3.976052e-08
       21 -1.210875e-07
       22 -1.149349e-07
       23 -4.166669e-08
       24  2.775686e-08
       25  1.836866e-08
       26  8.912215e-09
       27  1.626746e-08
       28  1.806212e-08
       29 -9.761657e-09
       30 -1.092329e-08
       31 -1.430214e-08
       32  2.610607e-08
       33  5.221586e-08
       34  7.511982e-08
       35  9.661477e-08
       36  7.065785e-08
       37  1.009690e-07
       38  4.910974e-08
       39  1.896875e-08
       40 -8.666888e-09
       41  1.031797e-07
       42  1.310518e-07
       43  8.654979e-08
       44 -2.396230e-08
       45 -7.187178e-08
       46 -9.307767e-08
       47 -1.069931e-07
       48 -5.142824e-08
       49 -9.151411e-09
       50  3.239347e-08
       51  9.464457e-09
       52  9.939909e-09
       53 -1.555535e-08
       54  9.968266e-09
       55  9.573976e-08
       56  8.686443e-08
       57  7.695160e-08
       58  1.540941e-09
       59  1.053918e-08
       60  3.552119e-08
       61  4.787942e-08
       62  3.528377e-08
       63 -1.076216e-09
       64 -4.599290e-08
       65 -2.904799e-08
       66 -1.624939e-08
       67 -1.255706e-08
       68 -2.892845e-08
       69 -2.831505e-08
       70  2.249364e-08
       71  4.375031e-08
       72  5.897953e-08
       73  3.229834e-08
       74  3.814163e-09
       75 -9.752659e-09
       76 -1.355147e-08
       77 -9.843557e-08
       78 -8.154282e-08
       79 -8.170879e-08
       80  9.428638e-08
       81  7.786146e-08
       82  1.019431e-07
       83  4.255460e-10
       84  3.628976e-09
       85 -3.292086e-08
       86  2.215271e-09
       87 -3.506244e-08
       88  6.620341e-08
       89  3.101004e-08
       90  6.298173e-08
       91 -4.593644e-08
       92 -2.402014e-08
       93 -4.171214e-08
       94 -5.502298e-08
       95 -7.318371e-08
       96 -5.567126e-08
       97 -8.510212e-08
       98 -5.691603e-08
       99  2.674626e-08
      100  2.236263e-07
      101  2.216293e-07
      102  2.784107e-08
      103 -9.177037e-08
      104 -9.991177e-08
      105 -1.016073e-08
      106 -1.095660e-08
      107  1.173773e-08
      108 -3.683500e-08
      109 -5.498862e-08
      110 -7.427917e-08
      111  1.378602e-08
      112 -7.331513e-09
      113 -4.850765e-09
      114 -4.331268e-08
      115 -1.259153e-08
      116 -1.783621e-08
      117 -3.364812e-08
      118 -4.307738e-08
      119 -5.153821e-08
      120  8.614724e-08
      121  8.717879e-08
      122  9.652062e-08
      123 -5.890531e-09
      124 -1.231208e-08
      125 -8.975600e-09
      126 -1.497809e-08
      127  4.776024e-08
      128  2.279585e-08
      129  4.801186e-08
      130 -5.177634e-08
      131  1.767048e-08
      132 -5.738472e-09
      133  4.018791e-08
      134 -4.127660e-09
      135 -2.239868e-09
      136 -2.035912e-09
      137 -2.289890e-09
      138  2.401037e-08
      139  1.032940e-07
      140  1.018128e-07
      141  7.512944e-08
      142 -1.535643e-08
      143 -1.872795e-08
      144 -1.805788e-08
      145  3.470211e-08
      146  5.041100e-08
      147  8.120878e-08
      148 -8.918850e-08
      149 -1.007726e-07
      150 -1.347374e-07
      151  3.743538e-08
      152  4.189395e-08
      153  4.616656e-08
      154  2.650258e-09
      155 -6.508498e-09
      156 -5.623876e-09
      157  0.000000e+00
      158  0.000000e+00
      159  0.000000e+00