pos          info
        0 -5.201160e-08
        1 -4.223633e-07
        2 -4.824669e-04
        3 -1.609360e-04
        4  9.941234e-06
        5 -1.737897e-04
        6 -3.778197e-05
        7 -1.151477e-04
        8 -6.751811e-05
        9 -9.367458e-06
       10 -2.356489e-07
       11 -4.224849e-05
       12  3.240989e-05
       13 -3.581727e-05
       14  1.218212e-04
       15  3.523749e-04
       16 -6.983365e-05
       17  2.348602e-06
       18 -4.772407e-06
       19 -2.874517e-04
       20 -1.003227e-05
       21 -1.172673e-04
       22 -7.611745e-05
       23  2.203290e-04
       24  4.226860e-06
       25  2.706974e-07
       26 -7.604334e-06
       27  1.713824e-05
       28  1.051725e-05
       29  2.392127e-04
       30  2.410744e-04
       31  3.017977e-04
       32 -9.947844e-05
       33 -1.808327e-05
       34 -1.236541e-04
       35 -1.506757e-04
       36  2.387776e-08
       37 -1.291217e-04
       38 -1.882661e-05
       39 -6.565148e-04
       40  3.279536e-06
       41  8.676490e-05
       42  9.801154e-05
       43  2.178477e-04
       44  2.155285e-04
       45  1.050575e-06
       46  1.732992e-05
       47 -5.424555e-07
       48 -1.794828e-05
       49  1.086715e-04
       50 -5.821979e-06
       51 -1.208806e-06
       52  1.196064e-06
       53  6.618300e-04
       54 -2.537306e-05
       55  3.745275e-06
       56 -2.479859e-05
       57 -7.438285e-06
       58 -1.284487e-05
       59 -1.255920e-04
       60  3.312753e-04
       61  4.112555e-04
       62  5.186019e-05
       63  7.185666e-05
       64 -6.622976e-05
       65  2.460781e-05
       66 -1.274073e-04
       67 -8.955441e-06
       68 -9.084197e-05
       69 -2.869879e-04
       70  8.482447e-06
       71 -3.325320e-05
       72  3.791953e-04
       73  7.954197e-05
       74 -4.537294e-07
       75  1.316306e-04
       76 -3.050493e-06
       77 -1.733437e-04
       78 -2.545753e-04
       79 -1.313122e-05
       80  3.562568e-05
       81 -1.194681e-04
       82  5.520003e-03
       83 -2.499267e-04
       84  1.939340e-07
       85 -3.515612e-05
       86  6.418531e-06
       87 -2.180577e-06
       88 -3.625215e-04
       89 -8.553509e-05
       90  1.492575e-05
       91  5.814615e-07
       92  9.530326e-06
       93  1.426210e-04
       94  6.261746e-06
       95  2.995455e-05
       96  6.899180e-05
       97  6.380668e-05
       98  9.639565e-07
       99 -5.673947e-05
      100 -1.769678e-05
      101  1.366089e-03
      102 -5.570301e-04
      103 -9.314096e-04
      104 -1.262358e-05
      105 -2.025965e-04
      106 -3.587370e-05
      107 -1.810855e-06
      108  1.029804e-04
      109 -1.961214e-04
      110 -1.688941e-03
      111  9.652119e-07
      112  2.557613e-04
      113 -2.140280e-04
      114 -4.855131e-04
      115 -4.037977e-05
      116 -1.733625e-04
      117  3.707200e-04
      118  4.116952e-06
      119  3.737703e-09
      120 -1.394944e-04
      121 -5.726418e-07
      122 -1.580643e-04
      123 -3.835771e-05
      124 -1.910424e-04
      125  5.390838e-04
      126  6.678192e-06
      127  1.792647e-05
      128  1.740083e-04
      129 -1.443957e-05
      130 -7.468212e-06
      131 -3.076856e-05
      132  5.445542e-05
      133 -4.033302e-04
      134  1.182139e-04
      135  1.061447e-04
      136 -1.167909e-04
      137  2.178956e-04
      138  3.947995e-05
      139 -1.607115e-04
      140  5.706717e-07
      141 -1.580453e-09
      142 -4.794787e-06
      143  2.180377e-05
      144  9.830646e-05
      145  8.400319e-07
      146 -8.169680e-05
      147 -7.056145e-07
      148 -8.548675e-06
      149  9.656736e-05
      150 -2.452261e-05
      151 -1.175115e-04
      152  1.212691e-06
      153 -7.139211e-05
      154 -9.864544e-06
      155 -2.177511e-05
      156 -1.389961e-04
      157  1.603232e-05
      158  1.271143e-03
      159  2.278762e-04