pos          info
        0 -2.370929e-05
        1 -2.538104e-05
        2  1.505538e-04
        3  1.281766e-04
        4  1.193479e-04
        5 -5.331303e-05
        6 -7.408552e-05
        7 -2.511765e-05
        8 -5.465769e-05
        9  2.151209e-05
       10 -4.129722e-05
       11 -1.458034e-05
       12 -2.948457e-05
       13  1.088116e-05
       14  1.082400e-05
       15  1.144584e-05
       16  1.046720e-06
       17 -3.188626e-04
       18 -4.033733e-04
       19 -4.060186e-04
       20 -8.682414e-05
       21  4.848880e-06
       22  7.879819e-05
       23  6.672040e-05
       24  5.986680e-05
       25  1.131171e-04
       26  1.244574e-04
       27  9.978195e-05
       28 -2.245442e-05
       29  3.622692e-05
       30  1.673516e-04
       31  1.629716e-04
       32  3.792268e-05
       33 -7.314123e-05
       34 -7.223231e-05
       35 -5.137174e-05
       36 -7.857941e-05
       37 -4.733786e-05
       38  1.225257e-05
       39  4.421656e-05
       40  1.259994e-05
       41  1.374926e-04
       42  1.386152e-04
       43  2.302817e-04
       44  4.692409e-05
       45  7.873593e-05
       46 -3.522478e-05
       47  1.071657e-05
       48 -3.199936e-05
       49  4.876442e-05
       50  7.246357e-05
       51  8.452647e-05
       52 -5.220085e-05
       53 -1.108690e-04
       54 -1.556512e-04
       55 -1.935535e-04
       56 -1.571575e-04
       57 -2.471050e-04
       58  3.390029e-05
       59  6.797922e-05
       60  1.564311e-04
       61 -7.615694e-06
       62 -4.190639e-05
       63  1.080211e-04
       64  1.070096e-04
       65  1.392635e-04
       66 -8.242455e-06
       67 -3.723283e-05
       68 -1.174327e-04
       69  2.070124e-05
       70  2.441214e-04
       71  2.568884e-04
       72  1.746902e-04
       73 -2.300250e-05
       74  1.161585e-05
       75  1.105183e-05
       76  2.068122e-05
       77  1.353965e-04
       78  1.234606e-04
       79  3.405119e-05
       80  2.449288e-04
       81  1.892498e-04
       82  2.001563e-04
       83 -1.503603e-04
       84 -6.350659e-05
       85  1.534582e-06
       86 -8.761811e-05
       87 -6.838196e-05
       88 -7.238169e-05
       89 -2.558152e-05
       90 -7.793427e-05
       91 -5.500235e-05
       92 -2.351800e-05
       93  1.839021e-05
       94  2.243654e-05
       95  6.211919e-05
       96  4.408404e-06
       97 -1.284215e-05
       98  1.364988e-09
       99  8.458722e-05
      100  4.427819e-05
      101 -3.884963e-05
      102 -2.864481e-04
      103 -4.366965e-04
      104 -6.228960e-04
      105 -1.907164e-04
      106  7.644002e-06
      107  2.365048e-04
      108 -3.323391e-04
      109 -3.313805e-04
      110 -2.995868e-04
      111  1.504757e-05
      112  7.361141e-06
      113 -5.490368e-06
      114 -5.571838e-05
      115  5.967733e-06
      116  1.143517e-05
      117  4.195282e-05
      118 -1.999668e-05
      119 -9.000301e-05
      120 -8.159181e-05
      121 -7.348123e-05
      122 -3.080628e-06
      123  1.065721e-05
      124  8.429461e-06
      125 -1.160213e-04
      126 -9.554815e-05
      127 -9.183313e-05
      128  3.103617e-05
      129  8.754654e-06
      130 -9.959105e-07
      131 -1.353353e-06
      132  2.501590e-05
      133  4.705050e-05
      134  5.549790e-05
      135  6.388730e-05
      136  1.829806e-04
      137  1.729877e-04
      138  1.499695e-04
      139  7.311337e-05
      140  8.297780e-05
      141  7.198819e-05
      142 -4.409056e-05
      143 -5.214695e-05
      144 -3.557712e-05
      145  4.116037e-05
      146  9.875320e-05
      147  8.044896e-05
      148  7.258571e-05
      149  1.604399e-05
      150  1.785141e-05
      151  1.983334e-06
      152 -3.355812e-05
      153 -2.518613e-05
      154 -3.944931e-05
      155 -4.664399e-06
      156  3.962303e-05
      157  0.000000e+00
      158  0.000000e+00
      159  0.000000e+00