pos          info
        0 -9.196255e-05
        1 -1.604159e-04
        2 -8.098215e-05
        3 -8.733942e-05
        4  4.401297e-05
        5 -2.433824e-05
        6 -3.032095e-05
        7  3.244437e-04
        8  3.358577e-04
        9  3.384486e-04
       10  2.745890e-05
       11  6.047343e-06
       12  3.352206e-05
       13  4.355428e-05
       14  3.727846e-05
       15  7.401523e-06
       16 -2.842417e-05
       17 -2.060604e-05
       18 -8.127957e-05
       19 -7.555262e-05
       20 -1.094134e-04
       21 -5.729277e-05
       22 -1.643374e-05
       23  2.300151e-05
       24  4.727022e-06
       25  7.488277e-05
       26 -1.602913e-05
       27  5.891443e-05
       28 -5.980361e-05
       29  2.160021e-05
       30 -2.220584e-05
       31 -2.397124e-07
       32  6.525002e-05
       33 -4.939002e-06
       34  4.130940e-07
       35 -3.320783e-05
       36  3.255415e-05
       37  4.280989e-05
       38  2.023074e-05
       39  3.511226e-05
       40  2.143257e-05
       41 -2.829631e-05
       42 -4.270835e-05
       43 -1.571951e-06
       44 -3.325629e-05
       45 -3.339366e-05
       46 -1.056454e-04
       47  1.380381e-05
       48  8.509370e-05
       49  9.217483e-05
       50  4.481428e-05
       51  1.337676e-04
       52  1.621839e-04
       53  1.298144e-04
       54 -1.421240e-04
       55 -1.496237e-04
       56 -2.291873e-04
       57 -1.159955e-04
       58 -1.244114e-04
       59 -1.279577e-06
       60  7.179998e-05
       61  1.159021e-04
       62  1.197320e-04
       63  2.183689e-04
       64  1.902595e-04
       65  1.866359e-04
       66  3.055044e-04
       67  3.148036e-04
       68  2.834677e-04
       69  1.442821e-06
       70 -5.035777e-05
       71 -3.435298e-05
       72 -3.084932e-05
       73  1.673263e-04
       74  6.884070e-05
       75 -1.932315e-05
       76 -1.516213e-04
       77 -7.382744e-05
       78 -2.644061e-05
       79 -1.606428e-04
       80  3.614839e-04
       81  4.514785e-05
       82  8.977900e-05
       83 -4.273901e-04
       84  3.900742e-05
       85  8.554979e-05
       86  2.038472e-04
       87  3.876804e-05
       88  5.442896e-05
       89 -1.405299e-05
       90  7.189516e-05
       91  1.235197e-04
       92  3.009427e-04
       93  3.110048e-04
       94  3.446174e-04
       95 -2.947399e-04
       96 -3.262742e-04
       97  8.634299e-04
       98  1.829703e-03
       99  1.815885e-03
      100  3.725509e-04
      101 -3.599044e-04
      102 -4.533549e-04
      103 -3.441368e-04
      104 -1.491449e-04
      105 -2.070740e-04
      106 -1.381748e-04
      107 -1.505889e-04
      108  1.519242e-05
      109  8.721317e-06
      110  2.152176e-05
      111  1.235084e-04
      112  1.241703e-04
      113  1.973907e-04
      114  7.793965e-05
      115  5.433123e-05
      116 -1.914062e-04
      117 -1.866928e-04
      118  7.594846e-05
      119  2.462695e-04
      120  6.527206e-04
      121  4.434889e-04
      122  4.456893e-04
      123 -8.687500e-06
      124 -4.290497e-05
      125 -3.799617e-05
      126  1.316584e-05
      127 -8.251639e-05
      128 -4.460622e-05
      129 -5.720548e-05
      130  4.252260e-05
      131  2.204088e-06
      132  6.973398e-06
      133 -8.241951e-05
      134 -1.625935e-04
      135 -1.687305e-04
      136 -8.678095e-05
      137 -1.223411e-05
      138 -1.159875e-04
      139 -9.461096e-05
      140 -1.835139e-05
      141  9.244895e-05
      142  1.613210e-04
      143  5.315851e-05
      144  4.612202e-05
      145  2.887125e-05
      146  6.668079e-05
      147  4.802872e-05
      148  1.102809e-05
      149  1.278217e-05
      150 -6.256794e-06
      151  2.475654e-04
      152  2.464606e-04
      153  3.631152e-04
      154  1.343252e-04
      155  1.584633e-04
      156  1.441128e-04
      157  0.000000e+00
      158  0.000000e+00
      159  0.000000e+00