pos          info
        0  7.128939e-05
        1 -8.305798e-05
        2 -1.211959e-05
        3 -1.235361e-04
        4  3.234380e-05
        5 -1.526796e-05
        6 -6.070854e-05
        7  2.604600e-04
        8  3.454766e-04
        9  4.063345e-04
       10  6.211207e-05
       11  8.401741e-06
       12  2.137709e-05
       13  4.650348e-05
       14  8.482273e-06
       15 -4.051433e-05
       16 -5.110786e-05
       17 -4.471668e-05
       18 -4.997957e-06
       19  1.835807e-06
       20 -2.662665e-06
       21 -4.633205e-05
       22 -8.260759e-06
       23  1.084700e-06
       24  5.255592e-05
       25  9.168377e-05
       26 -2.907231e-04
       27 -2.794868e-04
       28 -3.628237e-04
       29  3.268888e-05
       30  1.995047e-05
       31  3.168045e-05
       32  4.220151e-05
       33 -1.621398e-05
       34  3.378735e-07
       35  7.120672e-06
       36  6.496142e-05
       37  7.082237e-05
       38  6.207157e-05
       39  5.926954e-05
       40  1.683877e-06
       41 -3.010601e-05
       42 -3.325865e-05
       43  7.004956e-05
       44  4.549129e-05
       45 -1.548838e-05
       46 -9.343601e-05
       47 -2.780183e-05
       48  6.557972e-05
       49  6.667169e-05
       50 -3.448020e-05
       51 -4.046290e-05
       52 -2.269894e-05
       53 -9.566834e-06
       54 -2.599958e-04
       55 -2.587649e-04
       56 -3.429873e-04
       57 -1.223149e-04
       58 -2.601690e-04
       59 -1.235652e-04
       60 -1.231825e-04
       61  1.235161e-06
       62  2.220027e-05
       63  1.950986e-04
       64  1.943357e-04
       65  1.767069e-04
       66  3.296005e-04
       67  3.348409e-04
       68  3.312680e-04
       69  3.553851e-05
       70 -4.124536e-05
       71  1.290871e-05
       72 -4.887741e-06
       73  4.178875e-04
       74  3.384093e-04
       75  2.879631e-04
       76 -6.300388e-05
       77 -6.478633e-05
       78 -2.694480e-05
       79 -2.952149e-05
       80  4.906332e-04
       81  2.582404e-04
       82  1.853747e-04
       83 -3.086107e-04
       84  1.332037e-05
       85  8.320782e-05
       86  9.253900e-05
       87 -2.398517e-04
       88 -2.337576e-04
       89 -2.139685e-04
       90  7.677939e-05
       91  1.557185e-04
       92  3.287050e-04
       93  3.088893e-04
       94  4.908997e-04
       95 -1.789494e-04
       96 -1.837434e-04
       97  9.175938e-04
       98  2.015573e-03
       99  1.975637e-03
      100  3.869623e-04
      101 -5.769873e-04
      102 -6.111560e-04
      103 -4.502924e-04
      104 -5.457190e-05
      105 -2.329163e-04
      106 -1.707849e-04
      107 -2.328246e-04
      108 -9.913943e-06
      109  3.194534e-05
      110  4.900774e-05
      111  1.301570e-04
      112  7.129273e-05
      113  7.064565e-05
      114  4.297747e-05
      115  5.035925e-05
      116 -1.675152e-05
      117 -6.388191e-05
      118  1.824621e-04
      119  1.054460e-04
      120  4.411951e-04
      121  2.255863e-04
      122  3.125983e-04
      123 -1.530541e-04
      124 -1.761369e-04
      125 -1.373374e-04
      126  1.818758e-05
      127 -1.045691e-04
      128 -5.340069e-05
      129 -5.047720e-05
      130  7.732513e-05
      131 -4.196992e-05
      132 -5.888128e-05
      133 -2.123297e-04
      134 -3.842046e-04
      135 -4.000896e-04
      136 -2.458713e-04
      137  2.747214e-05
      138  2.946312e-05
      139  3.531734e-05
      140  1.139496e-04
      141  1.231750e-04
      142  1.665521e-04
      143  7.013953e-05
      144 -1.254873e-05
      145 -5.620737e-06
      146 -9.544579e-05
      147 -4.380432e-05
      148 -8.456994e-05
      149 -5.551635e-06
      150  1.785002e-05
      151  2.672044e-04
      152  2.787904e-04
      153  4.347181e-04
      154  1.910308e-04
      155  2.037197e-04
      156  5.536388e-05
      157  0.000000e+00
      158  0.000000e+00
      159  0.000000e+00