pos          info
        0  4.540112e-06
        1  6.901912e-05
        2 -2.874274e-04
        3  4.675822e-04
        4 -1.437961e-04
        5  4.682222e-05
        6 -5.756359e-08
        7 -9.607659e-07
        8  1.831439e-04
        9 -9.635631e-04
       10 -2.560107e-04
       11  5.702871e-07
       12  6.910421e-05
       13 -9.487973e-05
       14 -3.835576e-05
       15 -6.274950e-06
       16  1.918389e-05
       17  1.086340e-04
       18  2.550565e-05
       19  1.035437e-08
       20 -1.052213e-05
       21  5.004359e-06
       22  1.350577e-05
       23  1.204860e-04
       24 -1.092095e-04
       25 -1.453061e-05
       26 -3.392763e-05
       27 -2.265931e-04
       28  1.132690e-03
       29 -6.763655e-05
       30  2.341781e-05
       31 -5.384791e-05
       32 -2.942131e-05
       33 -1.177214e-05
       34 -8.541109e-05
       35  1.458252e-04
       36 -6.142770e-05
       37 -1.057595e-04
       38 -2.769707e-05
       39 -7.901056e-05
       40 -7.950708e-05
       41 -1.929097e-05
       42  9.374642e-05
       43  1.586258e-05
       44 -9.833066e-06
       45 -2.161782e-04
       46  8.953738e-05
       47  1.731060e-04
       48  1.766469e-05
       49 -1.073652e-04
       50 -1.070387e-04
       51  1.438878e-05
       52  1.960905e-04
       53 -8.909056e-05
       54 -3.890312e-05
       55  1.566942e-04
       56  6.621962e-04
       57 -4.259568e-05
       58  4.093614e-04
       59  1.789331e-07
       60  3.709666e-04
       61 -4.499824e-07
       62 -9.690833e-07
       63 -2.286418e-06
       64 -6.334532e-05
       65 -5.196642e-04
       66  2.396279e-09
       67 -1.045892e-05
       68 -9.783451e-04
       69 -1.571861e-05
       70  2.596731e-07
       71 -9.115660e-05
       72  2.146330e-04
       73 -1.622026e-04
       74 -3.776724e-05
       75 -1.053693e-03
       76  7.623179e-05
       77  1.135715e-04
       78 -7.916516e-07
       79  8.157913e-05
       80  4.690758e-08
       81  6.938433e-06
       82 -1.478885e-03
       83  6.972251e-04
       84  2.255356e-04
       85  3.071381e-06
       86 -2.685681e-04
       87  1.587324e-05
       88 -2.492218e-05
       89  7.286039e-04
       90 -2.408921e-06
       91 -8.428954e-05
       92 -1.436397e-04
       93 -2.392261e-04
       94 -6.032490e-04
       95 -8.419263e-05
       96 -7.852573e-04
       97  1.406298e-03
       98 -6.981059e-05
       99 -4.089269e-03
      100 -1.887641e-03
      101  4.999894e-05
      102  6.767550e-04
      103  1.004208e-03
      104  1.525051e-04
      105  1.941643e-04
      106 -1.829537e-04
      107  6.875383e-04
      108  7.770212e-06
      109  3.165172e-06
      110  1.880644e-05
      111 -1.178077e-04
      112 -4.802201e-05
      113 -2.246414e-04
      114  5.878521e-05
      115 -4.608077e-05
      116 -1.416369e-04
      117  3.663988e-05
      118  1.552516e-04
      119 -2.457029e-07
      120 -7.023921e-04
      121  3.863000e-04
      122 -1.007493e-03
      123 -5.556572e-05
      124  1.252638e-04
      125  3.894643e-04
      126  1.368263e-05
      127  8.865307e-06
      128 -7.711069e-05
      129  3.819527e-04
      130 -1.446400e-04
      131 -8.588116e-05
      132 -1.454267e-06
      133  2.132452e-04
      134 -3.514705e-05
      135  4.588910e-04
      136  7.288699e-04
      137  1.250774e-05
      138 -3.763824e-06
      139 -9.116034e-05
      140  6.534791e-06
      141 -2.132646e-05
      142 -3.270571e-04
      143 -2.114159e-05
      144 -1.514577e-04
      145 -3.781934e-05
      146  2.269232e-04
      147 -1.722416e-04
      148  2.316558e-04
      149  7.199878e-05
      150 -4.994480e-05
      151 -5.399075e-06
      152  1.793821e-06
      153 -7.980081e-04
      154 -4.015698e-05
      155 -4.659894e-04
      156 -6.694615e-05
      157 -7.822354e-05
      158 -2.092196e-05
      159 -4.325504e-05