pos          info
        0  5.260717e-06
        1 -1.957163e-05
        2  4.552655e-05
        3 -1.522474e-05
        4 -2.567777e-05
        5  4.314899e-05
        6  1.524931e-04
        7  1.921410e-04
        8  6.612157e-05
        9  2.703254e-05
       10 -6.057227e-04
       11  1.367967e-04
       12  5.138889e-07
       13 -6.163239e-07
       14 -1.143840e-04
       15  6.577095e-06
       16 -2.939039e-05
       17  3.934429e-07
       18  5.976607e-04
       19  1.481197e-05
       20  1.853799e-04
       21  3.863844e-08
       22  3.076141e-04
       23 -3.584170e-05
       24 -1.560858e-04
       25 -3.215356e-05
       26 -1.935331e-05
       27 -2.489711e-05
       28 -5.840163e-05
       29  9.352052e-05
       30  2.257254e-04
       31  7.783509e-05
       32  2.338144e-04
       33 -2.775617e-06
       34 -2.503685e-05
       35  2.193812e-04
       36  1.303979e-03
       37  1.546786e-03
       38  6.216201e-04
       39  1.318253e-03
       40  4.965970e-04
       41  1.970328e-04
       42  1.063374e-03
       43  3.771213e-04
       44  6.887199e-06
       45  3.740738e-05
       46 -3.171645e-07
       47  3.326905e-05
       48 -3.633475e-04
       49 -1.812105e-04
       50 -2.653694e-06
       51 -1.063821e-06
       52  1.278198e-03
       53  1.641408e-03
       54  3.492943e-05
       55 -1.402644e-04
       56 -1.293781e-03
       57  2.677141e-04
       58  1.420912e-05
       59 -5.087243e-03
       60  3.948728e-04
       61  7.384832e-04
       62  3.773499e-04
       63  4.068892e-04
       64  3.033103e-04
       65  6.248180e-04
       66 -4.435601e-04
       67  4.311826e-04
       68  2.147725e-05
       69 -4.183667e-04
       70  1.946383e-04
       71 -6.437624e-04
       72 -5.847974e-04
       73  1.345829e-04
       74 -5.422503e-04
       75 -1.401071e-05
       76  2.074944e-04
       77 -2.349267e-04
       78  1.000008e-04
       79  2.306397e-04
       80 -8.057893e-04
       81  1.144973e-05
       82  1.954023e-04
       83 -3.298479e-05
       84  8.749701e-06
       85 -9.099070e-04
       86  7.702975e-05
       87 -6.192913e-04
       88  1.270452e-05
       89 -7.252171e-04
       90  7.132432e-04
       91  5.018498e-04
       92  2.079800e-05
       93 -1.512957e-05
       94  8.506032e-05
       95  1.285079e-04
       96  2.610493e-04
       97 -1.286791e-05
       98 -2.355989e-04
       99 -6.147205e-04
      100  7.476743e-05
      101  6.846417e-04
      102 -9.789466e-04
      103 -3.946369e-05
      104 -8.677659e-05
      105 -5.266410e-04
      106  5.105101e-06
      107  7.660872e-05
      108 -6.213343e-04
      109  1.910004e-04
      110  5.476995e-04
      111 -1.829855e-04
      112 -7.740821e-07
      113  2.256754e-05
      114 -4.851248e-05
      115 -1.978174e-05
      116 -1.605540e-05
      117  1.114284e-04
      118 -1.986750e-04
      119  1.256805e-04
      120 -2.561351e-05
      121  3.080709e-06
      122 -5.268430e-05
      123 -2.971848e-04
      124  7.118208e-06
      125 -8.983098e-05
      126 -1.021687e-07
      127  9.520503e-07
      128  1.034975e-05
      129  2.375406e-04
      130  3.542238e-05
      131 -5.152380e-05
      132  5.959890e-04
      133 -2.383169e-05
      134 -2.778894e-12
      135  1.156599e-04
      136  5.486880e-05
      137 -2.822213e-05
      138 -5.542199e-07
      139  2.695905e-04
      140 -1.726492e-05
      141 -2.596519e-05
      142  9.971862e-05
      143 -2.638968e-06
      144  4.165870e-05
      145  1.348078e-05
      146 -5.285064e-05
      147  1.159225e-03
      148  1.572106e-04
      149 -2.688877e-04
      150 -1.337069e-04
      151  1.886182e-05
      152  2.126699e-04
      153 -9.331840e-05
      154 -3.569225e-05
      155 -2.657330e-05
      156 -7.805588e-05
      157  6.200411e-06
      158  7.798878e-06
      159  4.754636e-04