pos          info
        0  1.588729e-04
        1 -7.786392e-05
        2  7.681588e-05
        3 -2.492786e-06
        4 -7.366598e-08
        5 -1.070767e-04
        6  5.682051e-05
        7 -1.062731e-05
        8 -1.091210e-06
        9  4.670686e-04
       10  4.145937e-04
       11 -2.508102e-04
       12  4.722786e-05
       13 -7.595896e-06
       14  1.406108e-06
       15  3.818048e-08
       16 -3.268466e-08
       17  6.048883e-06
       18  1.954971e-07
       19 -8.978086e-06
       20 -2.120272e-04
       21  4.844047e-06
       22  3.298489e-04
       23 -2.479239e-05
       24  1.004258e-04
       25  7.714362e-05
       26 -6.577942e-05
       27  7.302755e-06
       28  3.594379e-04
       29 -1.849691e-06
       30 -2.536850e-04
       31 -9.629057e-08
       32  7.005411e-05
       33 -9.481065e-05
       34 -2.223085e-05
       35  9.815518e-11
       36  6.001179e-05
       37 -6.509711e-05
       38  8.225035e-06
       39 -2.550874e-04
       40 -9.762068e-08
       41 -6.327396e-07
       42  4.321266e-05
       43  1.407180e-06
       44  2.447613e-05
       45  1.850373e-05
       46  4.130652e-05
       47 -3.803269e-05
       48  2.937460e-05
       49  2.612566e-05
       50 -6.408125e-05
       51 -2.508438e-04
       52 -2.230991e-05
       53  1.570629e-04
       54 -1.656857e-05
       55 -1.804440e-05
       56 -1.878370e-05
       57 -1.980999e-04
       58  5.294304e-06
       59  1.813324e-04
       60 -6.459778e-09
       61  9.895491e-06
       62  1.589198e-05
       63 -3.792387e-04
       64 -3.700125e-05
       65  5.028966e-05
       66  3.207159e-04
       67 -6.898333e-05
       68  2.374866e-04
       69  6.589611e-05
       70 -5.373127e-05
       71  8.274412e-05
       72 -2.116259e-06
       73 -4.376242e-04
       74 -3.057101e-07
       75  1.134077e-04
       76 -6.771219e-05
       77 -4.872034e-05
       78  3.796091e-05
       79  1.167570e-05
       80 -1.026039e-04
       81 -2.478584e-04
       82  1.553856e-06
       83 -2.457168e-08
       84  3.021351e-04
       85  3.659803e-04
       86 -7.622924e-06
       87 -1.922634e-04
       88  3.410800e-07
       89  1.191797e-04
       90  1.507303e-04
       91 -1.199050e-05
       92  1.342950e-04
       93  5.386160e-04
       94 -2.143041e-04
       95  4.553813e-05
       96 -3.757950e-04
       97  6.132086e-05
       98 -4.034749e-05
       99  1.549098e-04
      100 -2.692998e-05
      101  1.149382e-04
      102 -4.391806e-04
      103  4.185667e-04
      104 -7.060125e-06
      105  2.196227e-05
      106 -1.570200e-05
      107  1.762205e-04
      108  2.099241e-04
      109  1.174401e-06
      110 -5.346278e-05
      111 -2.837900e-04
      112  5.244871e-05
      113 -1.092738e-04
      114 -2.151730e-04
      115 -1.214768e-03
      116 -1.799418e-04
      117  2.138572e-05
      118  3.690749e-07
      119  1.762292e-04
      120 -4.930022e-06
      121  2.341044e-07
      122  8.707864e-05
      123 -1.178717e-05
      124 -1.197564e-04
      125 -1.108844e-04
      126 -2.147561e-07
      127  2.471500e-06
      128  3.277713e-05
      129  1.087530e-04
      130  4.159036e-04
      131  1.865266e-04
      132  3.042864e-05
      133  6.805965e-05
      134  7.763142e-06
      135  2.985841e-04
      136 -1.030076e-05
      137 -5.703964e-04
      138  1.028179e-04
      139 -1.922586e-05
      140  4.222704e-04
      141  3.003028e-05
      142  2.299689e-08
      143  1.035170e-05
      144  8.897372e-05
      145  1.524468e-04
      146 -5.046845e-03
      147  1.976742e-08
      148  1.572416e-05
      149 -2.462652e-04
      150 -1.357222e-04
      151 -2.961544e-05
      152  1.349291e-05
      153  6.028408e-05
      154 -2.664681e-04
      155  1.870684e-05
      156 -8.121998e-06
      157 -5.400712e-05
      158 -5.373002e-07
      159 -6.021187e-04