pos          info
        0  4.142282e-05
        1 -3.026724e-05
        2 -4.697022e-05
        3 -2.108445e-08
        4 -8.965692e-05
        5 -3.836079e-05
        6  9.373908e-05
        7  9.666062e-05
        8  2.803445e-05
        9 -2.505755e-05
       10  2.530120e-04
       11  2.384010e-05
       12 -6.067556e-06
       13  1.271437e-04
       14 -1.205131e-05
       15 -2.639269e-05
       16  8.995042e-06
       17 -2.265615e-04
       18  2.320258e-04
       19 -1.380025e-04
       20 -6.189348e-09
       21  9.175085e-05
       22  2.495373e-04
       23  8.774694e-06
       24 -7.394757e-06
       25  5.241749e-04
       26 -4.744972e-04
       27 -1.979997e-05
       28 -3.387976e-04
       29  9.076894e-05
       30  6.942077e-04
       31  1.434740e-03
       32  4.196538e-04
       33  1.408202e-04
       34  7.088412e-05
       35  7.916032e-04
       36  3.883514e-08
       37  2.906957e-08
       38  1.066331e-05
       39 -1.288382e-04
       40 -4.607643e-05
       41 -3.841194e-06
       42 -1.140335e-07
       43 -8.884702e-05
       44 -6.894493e-05
       45 -5.261195e-09
       46 -1.073468e-05
       47 -2.600201e-04
       48  3.723905e-08
       49 -3.654590e-06
       50 -1.277430e-04
       51 -1.572746e-05
       52 -1.036275e-05
       53 -5.718273e-06
       54  9.684168e-07
       55  2.516977e-05
       56 -1.192050e-05
       57 -1.741032e-05
       58  3.540163e-05
       59  4.300553e-04
       60  1.421346e-04
       61 -2.346372e-05
       62  7.813181e-07
       63  5.828637e-05
       64 -1.335157e-04
       65  2.055494e-05
       66  8.875558e-06
       67 -7.959315e-05
       68 -5.467822e-05
       69 -1.263541e-04
       70 -1.240040e-06
       71  6.215146e-04
       72 -1.958160e-04
       73  2.578694e-04
       74  5.463605e-04
       75 -9.345810e-05
       76  6.215617e-05
       77  3.465553e-04
       78 -1.585876e-07
       79  4.071871e-03
       80 -1.441868e-05
       81 -1.204069e-05
       82 -1.575238e-05
       83 -8.787217e-05
       84  1.263666e-04
       85  9.387793e-06
       86 -1.831528e-04
       87 -7.322749e-05
       88  1.384846e-05
       89  8.622763e-05
       90  7.178963e-05
       91 -5.614108e-07
       92  1.545821e-07
       93 -1.200664e-05
       94 -6.793638e-05
       95  5.908588e-05
       96  2.107627e-05
       97  6.726061e-04
       98  1.204829e-03
       99  3.190087e-03
      100  3.185463e-03
      101  1.958806e-04
      102  3.923982e-03
      103  6.662493e-03
      104  1.792432e-03
      105  3.945591e-03
      106  1.758835e-03
      107 -4.594016e-04
      108 -5.148498e-05
      109 -1.886546e-03
      110 -3.214416e-04
      111 -1.213811e-03
      112  1.110086e-06
      113 -4.777215e-04
      114 -9.174794e-04
      115  1.746632e-04
      116  9.208054e-05
      117 -5.255545e-07
      118 -1.199875e-05
      119 -1.005908e-06
      120  4.782910e-05
      121 -3.076685e-04
      122 -3.471276e-04
      123  6.804021e-05
      124  1.471380e-04
      125  7.376511e-05
      126 -1.374085e-04
      127 -3.312307e-04
      128  1.197833e-04
      129 -7.910364e-05
      130  8.023703e-06
      131  4.072162e-05
      132 -3.419790e-05
      133  2.525079e-06
      134  2.318413e-04
      135  3.903450e-06
      136 -5.442182e-07
      137  3.415005e-05
      138  7.023719e-05
      139 -1.127232e-05
      140  1.378881e-06
      141 -5.699895e-06
      142  1.166829e-04
      143  2.428385e-04
      144  1.060905e-05
      145  3.646231e-05
      146 -3.863332e-05
      147  8.314204e-06
      148 -9.028148e-07
      149 -4.415433e-04
      150  9.203775e-05
      151  2.608770e-05
      152  4.062272e-05
      153 -3.240853e-04
      154 -1.884471e-05
      155 -1.787916e-05
      156 -1.180722e-04
      157  1.987332e-04
      158 -8.486452e-05
      159  1.453569e-05