pos          info
        0  1.187052e-04
        1 -1.951919e-06
        2  9.005625e-08
        3 -1.298991e-07
        4 -6.313961e-07
        5 -3.968321e-05
        6 -6.419296e-06
        7  2.265465e-05
        8 -2.636205e-05
        9 -2.496824e-07
       10 -8.847665e-05
       11 -1.952033e-07
       12  1.282709e-05
       13  6.908105e-05
       14 -1.033513e-05
       15 -2.252083e-05
       16  1.503655e-04
       17 -4.720698e-05
       18  2.857370e-05
       19  3.791388e-05
       20 -2.205076e-04
       21  5.846000e-05
       22  2.545926e-07
       23  7.913253e-05
       24  2.020405e-04
       25 -4.161803e-06
       26 -5.674901e-06
       27  3.204149e-05
       28 -2.803100e-05
       29 -1.575654e-04
       30  8.228905e-06
       31 -1.050208e-04
       32 -1.328577e-05
       33  1.319199e-05
       34 -4.290804e-05
       35  1.997389e-05
       36 -5.581926e-06
       37 -4.844004e-04
       38  5.548494e-05
       39 -8.586234e-05
       40 -2.137498e-04
       41 -9.337758e-07
       42  9.200694e-06
       43  1.800613e-04
       44  1.747538e-04
       45 -1.641697e-06
       46 -1.224994e-05
       47 -5.046763e-07
       48  1.343643e-05
       49  1.777513e-04
       50  3.207865e-06
       51  1.743729e-06
       52 -3.178225e-06
       53 -1.168346e-04
       54  1.406803e-04
       55  5.309685e-05
       56  2.218620e-04
       57 -2.265508e-04
       58  1.850877e-04
       59  4.194465e-04
       60 -1.233353e-07
       61  4.102352e-05
       62  2.665478e-05
       63 -8.518190e-05
       64 -7.241637e-05
       65  2.908940e-04
       66 -2.814656e-06
       67 -1.519370e-04
       68  1.153008e-06
       69  4.347506e-04
       70 -2.008538e-04
       71 -3.542189e-04
       72  8.579047e-05
       73  9.833443e-04
       74  3.178847e-04
       75 -1.687385e-04
       76 -8.184055e-05
       77 -8.578960e-05
       78 -5.055237e-04
       79 -5.596670e-05
       80  4.498034e-03
       81  3.481570e-03
       82 -1.737373e-04
       83  5.907668e-03
       84  6.307454e-03
       85  2.255195e-03
       86  1.042808e-03
       87 -1.568137e-06
       88 -3.174075e-05
       89 -2.779833e-06
       90 -5.301155e-06
       91 -2.200528e-05
       92  3.482187e-05
       93  4.562688e-05
       94  5.162007e-05
       95  1.670819e-04
       96  1.016649e-04
       97 -4.744361e-04
       98 -8.105725e-05
       99 -6.556829e-05
      100 -1.021787e-05
      101  2.837704e-06
      102  2.706598e-04
      103  5.287352e-03
      104  4.132085e-03
      105  3.919643e-06
      106 -6.773858e-04
      107  1.716912e-03
      108  3.350278e-03
      109 -3.901692e-04
      110 -6.434449e-05
      111  9.118374e-04
      112 -1.493444e-04
      113 -3.040348e-05
      114  4.023455e-05
      115 -3.408434e-04
      116  4.156300e-04
      117  4.169952e-04
      118 -1.780748e-05
      119 -7.905303e-04
      120  2.248705e-06
      121 -3.782708e-05
      122 -3.088298e-05
      123  1.821040e-05
      124 -5.603034e-05
      125  1.952683e-04
      126 -1.746974e-04
      127  1.491480e-04
      128  1.708795e-04
      129  4.221766e-10
      130  1.468279e-04
      131  7.961907e-06
      132  1.752335e-04
      133 -3.545576e-05
      134  8.827059e-06
      135 -1.046658e-04
      136  2.149566e-05
      137  8.188825e-06
      138  2.066270e-04
      139  9.016616e-06
      140  6.364908e-05
      141  1.093855e-04
      142 -1.846311e-05
      143 -2.271775e-07
      144 -7.967895e-06
      145  1.906863e-05
      146  8.109214e-05
      147 -4.853714e-06
      148  2.312203e-04
      149 -5.422662e-04
      150  2.210191e-05
      151 -7.072341e-04
      152 -6.980778e-05
      153 -1.864853e-06
      154 -2.309817e-08
      155 -2.809486e-05
      156 -1.437935e-06
      157  8.681652e-06
      158 -1.754622e-05
      159 -1.007144e-04