pos          info
        0  5.029578e-05
        1  2.010199e-05
        2  1.379534e-05
        3 -1.788676e-05
        4 -3.678129e-05
        5 -5.831168e-05
        6 -3.027813e-05
        7 -8.750467e-06
        8 -1.205862e-04
        9 -1.044293e-04
       10 -1.061368e-04
       11  1.649358e-05
       12  2.694378e-06
       13 -2.788367e-06
       14  2.256038e-05
       15  9.765177e-06
       16  1.581786e-05
       17  6.021681e-05
       18 -3.855094e-05
       19 -1.949845e-05
       20 -9.257238e-05
       21  2.011261e-05
       22  8.673265e-05
       23  8.625923e-05
       24  6.498156e-05
       25 -7.194993e-06
       26 -2.171283e-05
       27 -4.323531e-05
       28 -5.588475e-05
       29 -8.557197e-05
       30 -5.711246e-05
       31 -7.234219e-05
       32 -7.786965e-05
       33 -6.462492e-05
       34 -4.989215e-05
       35 -3.664762e-05
       36 -3.544289e-05
       37 -9.669488e-05
       38 -9.745992e-05
       39 -1.048833e-04
       40 -5.192857e-05
       41 -1.119083e-05
       42  1.888402e-05
       43  3.955555e-05
       44  3.827813e-05
       45  2.877426e-05
       46  1.125218e-05
       47  9.592263e-05
       48  7.775462e-05
       49  8.224903e-05
       50 -5.192314e-06
       51 -2.026442e-06
       52  4.043194e-05
       53  6.229455e-05
       54  9.767331e-05
       55 -3.706293e-05
       56 -1.665183e-05
       57 -4.382900e-05
       58  2.011408e-05
       59 -6.657381e-06
       60 -2.870312e-05
       61 -4.431383e-05
       62 -7.741692e-05
       63 -2.601773e-05
       64  1.675253e-05
       65  3.126819e-05
       66 -4.227773e-06
       67  9.447970e-05
       68  4.666592e-05
       69  3.067217e-06
       70 -8.010341e-05
       71  2.954593e-04
       72  4.986581e-04
       73  3.925206e-04
       74  5.747559e-05
       75 -1.203747e-04
       76 -1.843025e-04
       77 -2.170661e-04
       78  1.565232e-03
       79  3.000917e-03
       80  3.033677e-03
       81  3.148018e-03
       82  3.891149e-03
       83  4.533156e-03
       84  2.977707e-03
       85  9.550612e-04
       86  3.238292e-04
       87 -2.721546e-06
       88 -3.556675e-06
       89 -4.673635e-05
       90  1.263509e-05
       91  4.500137e-05
       92  9.903055e-05
       93  9.233945e-05
       94  5.887495e-05
       95 -1.043925e-04
       96 -1.548705e-04
       97 -1.729964e-04
       98 -2.760566e-05
       99 -2.629916e-05
      100  1.794598e-04
      101  2.074611e-03
      102  3.587565e-03
      103  3.403703e-03
      104  1.367431e-03
      105  3.853799e-04
      106  1.587977e-03
      107  1.632974e-03
      108  1.094350e-03
      109  3.301357e-05
      110  1.289028e-04
      111  7.748153e-05
      112 -4.914730e-05
      113 -9.577592e-05
      114  5.249000e-05
      115  6.900574e-05
      116  1.216670e-04
      117 -8.970128e-05
      118 -8.328333e-05
      119 -9.160361e-05
      120 -2.721203e-05
      121 -4.740934e-05
      122 -3.699581e-05
      123  3.597496e-05
      124 -4.631360e-06
      125 -4.603331e-06
      126  2.165018e-06
      127  2.273705e-05
      128  2.750667e-05
      129  2.542978e-05
      130  3.467648e-05
      131  2.375390e-05
      132  1.130516e-05
      133 -5.803803e-05
      134 -2.571402e-05
      135 -3.557183e-05
      136  1.400161e-04
      137  1.174314e-04
      138  1.458653e-04
      139  3.303840e-05
      140  1.509633e-05
      141 -1.020792e-05
      142 -1.486790e-05
      143  1.807006e-05
      144  2.899427e-05
      145  3.084753e-05
      146  5.627098e-05
      147 -1.477131e-04
      148 -1.212884e-04
      149 -4.303770e-04
      150 -2.588058e-04
      151 -2.819921e-04
      152 -5.599263e-05
      153 -4.315941e-05
      154 -4.617041e-05
      155 -7.199185e-07
      156  1.834370e-05
      157  0.000000e+00
      158  0.000000e+00
      159  0.000000e+00