pos          info
        0  1.308607e-04
        1 -1.057296e-05
        2 -8.104461e-08
        3  1.072633e-06
        4 -1.868849e-06
        5 -1.626115e-05
        6 -1.603488e-05
        7  1.949445e-05
        8 -2.793270e-05
        9 -5.207895e-06
       10 -6.153106e-05
       11  1.669522e-08
       12  9.978169e-06
       13  4.876109e-05
       14 -1.546019e-05
       15 -2.673443e-05
       16  1.165079e-04
       17 -5.886205e-05
       18  3.198962e-05
       19  3.777602e-05
       20 -2.484672e-04
       21  5.451930e-05
       22 -2.509250e-07
       23  9.492238e-05
       24  1.913615e-04
       25 -6.143220e-06
       26 -1.048097e-05
       27  4.102853e-05
       28 -3.044819e-05
       29 -1.224989e-04
       30  5.724048e-06
       31 -1.013889e-04
       32 -1.861990e-05
       33  5.762115e-06
       34 -5.459465e-05
       35  4.354765e-05
       36 -6.990630e-06
       37 -5.082205e-04
       38  7.584455e-05
       39 -5.639521e-05
       40 -2.007194e-04
       41 -2.598888e-08
       42  1.894973e-05
       43  1.848333e-04
       44  2.077297e-04
       45 -3.544124e-06
       46 -1.403081e-05
       47 -3.910797e-07
       48  2.012176e-05
       49  1.724402e-04
       50  4.552340e-06
       51  1.021898e-05
       52 -4.922428e-06
       53 -1.087227e-04
       54  1.411192e-04
       55  3.874050e-05
       56  1.692241e-04
       57 -2.096375e-04
       58  2.291459e-04
       59  3.969576e-04
       60 -7.604164e-07
       61  4.279892e-05
       62  1.515518e-05
       63 -9.630499e-05
       64 -7.091366e-05
       65  2.367338e-04
       66 -8.649499e-07
       67 -1.449804e-04
       68  3.849945e-07
       69  3.626020e-04
       70 -2.244055e-04
       71 -3.578931e-04
       72  1.064007e-04
       73  8.607446e-04
       74  3.135663e-04
       75 -1.831027e-04
       76 -9.416120e-05
       77 -6.062486e-05
       78 -4.653215e-04
       79 -5.633542e-05
       80  4.586257e-03
       81  3.456436e-03
       82 -1.821468e-04
       83  5.361982e-03
       84  6.445079e-03
       85  2.254648e-03
       86  1.012824e-03
       87 -1.480082e-06
       88 -5.417221e-05
       89 -2.960388e-06
       90 -7.175620e-06
       91 -1.536793e-05
       92  3.508533e-05
       93  3.208404e-05
       94  4.341049e-05
       95  1.561287e-04
       96  9.416663e-05
       97 -4.849917e-04
       98 -8.857087e-05
       99 -5.257856e-05
      100 -1.053424e-05
      101  3.745789e-06
      102  2.636395e-04
      103  5.262952e-03
      104  4.100067e-03
      105  2.876983e-06
      106 -7.151638e-04
      107  1.869047e-03
      108  3.421428e-03
      109 -3.662215e-04
      110 -7.984446e-05
      111  1.062278e-03
      112 -1.370901e-04
      113 -3.613493e-05
      114  4.728104e-05
      115 -3.277884e-04
      116  5.096436e-04
      117  4.721911e-04
      118 -2.379909e-05
      119 -7.907093e-04
      120  2.397408e-07
      121 -4.245634e-05
      122 -4.502784e-05
      123  2.771797e-05
      124 -3.354987e-05
      125  2.038079e-04
      126 -1.882534e-04
      127  1.141627e-04
      128  2.008563e-04
      129 -2.032454e-08
      130  1.435378e-04
      131  4.866391e-06
      132  1.345103e-04
      133 -2.485416e-05
      134  4.094493e-06
      135 -1.092290e-04
      136  3.001671e-05
      137  9.236356e-06
      138  2.511998e-04
      139  1.050556e-05
      140  8.226083e-05
      141  1.210249e-04
      142 -1.381261e-05
      143 -1.294916e-06
      144 -1.352743e-05
      145  2.910409e-05
      146  8.867337e-05
      147 -6.456917e-06
      148  2.220057e-04
      149 -5.140211e-04
      150  3.410197e-05
      151 -7.114636e-04
      152 -6.897421e-05
      153 -2.031236e-06
      154  2.246556e-09
      155 -3.124549e-05
      156 -2.761635e-06
      157  5.987969e-06
      158 -2.133938e-05
      159 -8.205263e-05