pos          info
        0  2.651148e-05
        1 -2.659432e-04
        2 -3.924966e-08
        3  6.627673e-06
        4 -7.891130e-06
        5  4.328276e-04
        6  1.806396e-05
        7 -7.424431e-06
        8 -7.420458e-05
        9 -2.874338e-04
       10  1.506254e-04
       11  4.065167e-05
       12  4.743310e-07
       13 -3.039883e-04
       14  1.346926e-06
       15  1.152546e-04
       16  5.085818e-06
       17 -2.551199e-06
       18  5.186575e-06
       19 -2.347946e-05
       20 -3.597491e-05
       21  6.189245e-05
       22  1.724698e-04
       23  1.246163e-04
       24 -2.560339e-04
       25 -3.242823e-05
       26 -1.442887e-04
       27 -6.825582e-05
       28 -2.629524e-07
       29  4.391627e-06
       30  2.148416e-04
       31 -2.173833e-04
       32  5.082018e-06
       33 -3.855665e-06
       34 -3.676229e-05
       35 -2.372959e-04
       36  8.378863e-07
       37 -2.119763e-04
       38  3.027585e-04
       39 -7.825535e-06
       40 -1.102570e-07
       41 -2.019732e-05
       42 -3.720434e-04
       43 -2.854244e-06
       44 -1.560142e-04
       45  3.218672e-05
       46  1.520756e-05
       47 -3.119642e-04
       48  2.396476e-05
       49 -1.223819e-05
       50 -1.456623e-05
       51  1.667935e-04
       52 -2.681566e-07
       53  1.142451e-05
       54 -2.153293e-05
       55 -2.960628e-05
       56 -8.142255e-06
       57  1.932141e-06
       58  6.658472e-04
       59  1.243769e-07
       60  5.358429e-04
       61 -2.847590e-05
       62  5.696266e-06
       63  9.817920e-05
       64  4.960525e-06
       65  9.245774e-05
       66 -2.672262e-06
       67  8.640265e-05
       68  1.022928e-04
       69  5.851917e-04
       70  6.382126e-04
       71  5.388018e-04
       72 -4.445483e-05
       73  9.470509e-05
       74  6.216759e-05
       75  3.958772e-05
       76 -6.867468e-05
       77  5.955749e-03
       78  3.669496e-03
       79  4.431326e-03
       80  3.111144e-03
       81  3.247673e-03
       82  3.867415e-04
       83  2.375928e-05
       84  2.619723e-05
       85 -4.781789e-05
       86 -1.934277e-04
       87  7.909942e-05
       88 -5.701936e-05
       89 -2.718889e-09
       90  1.539084e-05
       91 -5.103443e-05
       92  3.025023e-04
       93  4.906212e-04
       94  1.655719e-04
       95  8.867294e-04
       96  2.447458e-04
       97 -1.601907e-04
       98  3.750135e-06
       99 -2.989965e-04
      100  2.607014e-03
      101  2.726440e-03
      102  1.182376e-04
      103 -1.422732e-03
      104 -6.006283e-04
      105 -6.849995e-04
      106 -2.254951e-04
      107  9.367724e-04
      108  2.523386e-05
      109  6.655152e-05
      110  4.388693e-04
      111  1.907303e-05
      112 -1.055091e-04
      113  8.836541e-06
      114  1.852269e-06
      115  1.847810e-04
      116 -5.327420e-05
      117 -2.136158e-05
      118 -3.522612e-05
      119 -5.026366e-07
      120  1.555409e-06
      121 -1.179515e-05
      122 -3.989779e-07
      123  1.793338e-05
      124 -1.955508e-05
      125 -7.563322e-05
      126  7.022441e-05
      127 -2.582115e-05
      128  1.104167e-07
      129 -3.261164e-05
      130 -1.513531e-04
      131 -2.198055e-06
      132  2.974946e-05
      133 -3.141456e-07
      134 -7.465807e-06
      135  3.835921e-07
      136  2.663072e-06
      137 -5.164840e-06
      138  2.703942e-04
      139 -3.729280e-05
      140  9.483090e-07
      141  9.211329e-06
      142  1.008191e-04
      143  1.491207e-04
      144 -3.451690e-05
      145  4.130605e-07
      146  1.461455e-05
      147  2.697830e-05
      148 -1.703813e-05
      149 -6.097616e-05
      150  1.750198e-04
      151 -7.642123e-06
      152 -7.593194e-07
      153 -5.644476e-06
      154 -7.288093e-05
      155 -5.793018e-06
      156 -3.410045e-07
      157  4.983221e-07
      158 -6.448024e-05
      159 -9.439365e-05