pos          info
        0 -3.697595e-05
        1 -4.334024e-05
        2  2.326863e-05
        3  2.797955e-04
        4  2.911141e-04
        5  2.342373e-04
        6 -4.353178e-05
        7 -2.772414e-04
        8 -1.708643e-04
        9 -1.358133e-04
       10  1.225363e-04
       11 -2.579249e-05
       12 -2.051977e-05
       13 -5.950546e-05
       14  4.237280e-05
       15  7.601643e-05
       16  9.892566e-05
       17  2.231415e-05
       18  1.162191e-05
       19 -7.741201e-06
       20  6.340604e-05
       21  8.553623e-05
       22  3.110583e-05
       23 -1.067386e-04
       24 -1.502494e-04
       25 -9.583089e-05
       26 -2.221175e-05
       27 -2.362827e-05
       28 -4.871259e-06
       29  4.301290e-06
       30  1.833005e-05
       31  1.985341e-06
       32 -1.762888e-05
       33 -3.013248e-05
       34 -3.054482e-05
       35 -8.479294e-06
       36  1.346825e-04
       37  9.903299e-06
       38  1.201924e-05
       39 -1.194805e-04
       40 -2.660612e-06
       41  6.966873e-08
       42 -1.216318e-06
       43  1.578983e-05
       44  7.212988e-05
       45 -3.627907e-05
       46 -3.858020e-05
       47 -1.074893e-04
       48  2.984783e-06
       49  4.282467e-05
       50  4.753546e-05
       51  4.714978e-05
       52  3.779616e-05
       53  5.222556e-05
       54  7.636730e-06
       55 -2.712341e-05
       56 -3.775545e-05
       57  4.861031e-05
       58  4.415513e-05
       59  4.161506e-05
       60 -3.080690e-05
       61  4.620316e-05
       62  4.583063e-05
       63  5.414593e-05
       64 -2.545488e-05
       65 -2.860749e-05
       66  4.223925e-05
       67  4.477232e-04
       68  7.427038e-04
       69  7.527704e-04
       70  3.495814e-04
       71  1.525621e-04
       72  1.311856e-04
       73  1.470794e-04
       74  4.103396e-05
       75  2.649254e-03
       76  4.603328e-03
       77  6.798861e-03
       78  5.392532e-03
       79  4.650142e-03
       80  2.546342e-03
       81  1.435199e-03
       82  2.526841e-04
       83  1.268209e-04
       84 -4.629711e-05
       85 -7.926019e-05
       86 -3.883386e-05
       87 -7.715939e-06
       88 -3.008865e-06
       89 -6.980382e-05
       90  2.415281e-04
       91  4.613440e-04
       92  6.283138e-04
       93  9.239011e-04
       94  7.831950e-04
       95  6.808463e-04
       96  7.830439e-05
       97 -1.120806e-04
       98  1.409883e-03
       99  2.577301e-03
      100  2.699875e-03
      101  1.037478e-03
      102 -2.014938e-04
      103 -3.055100e-04
      104 -1.784540e-04
      105  2.474734e-04
      106  4.277429e-04
      107  4.396366e-04
      108  1.607849e-04
      109  7.151979e-05
      110  8.329178e-05
      111  2.886721e-05
      112  1.390752e-05
      113  3.054398e-05
      114 -1.606863e-05
      115  2.532244e-06
      116 -1.991890e-04
      117 -1.751519e-04
      118 -2.098532e-04
      119 -5.916468e-05
      120 -5.950750e-05
      121 -1.049094e-04
      122 -6.821472e-05
      123 -6.218020e-05
      124 -3.661426e-06
      125 -9.137924e-06
      126 -2.026645e-06
      127 -2.333877e-05
      128 -2.581129e-05
      129 -3.034045e-05
      130  2.868374e-05
      131  1.184892e-05
      132  5.324156e-05
      133  1.115446e-04
      134  1.316869e-04
      135  6.649757e-05
      136 -7.185349e-06
      137 -3.361782e-05
      138 -7.428027e-06
      139  3.545730e-05
      140  6.123584e-05
      141  1.165439e-04
      142 -5.153963e-05
      143 -5.138863e-05
      144 -1.057382e-04
      145  2.656374e-07
      146 -4.655074e-05
      147 -4.835741e-05
      148 -2.244557e-05
      149  4.197601e-05
      150  4.221907e-05
      151  1.756629e-05
      152 -1.023545e-04
      153 -8.883157e-05
      154 -8.953903e-05
      155 -6.236515e-05
      156 -7.821337e-05
      157  0.000000e+00
      158  0.000000e+00
      159  0.000000e+00