pos          info
        0 -2.103419e-05
        1  2.206476e-06
        2  4.661184e-05
        3  4.884454e-05
        4  3.532796e-05
        5  1.151896e-05
        6 -9.693769e-06
        7  5.421846e-05
        8  4.571055e-05
        9  7.961384e-05
       10  1.249579e-05
       11  1.017363e-05
       12  2.814447e-06
       13  6.025157e-06
       14  1.042117e-05
       15  2.712061e-05
       16  1.633126e-05
       17  1.129777e-05
       18  2.546177e-05
       19 -2.950083e-06
       20 -1.097782e-07
       21 -3.397817e-05
       22 -1.335193e-05
       23 -2.260621e-05
       24 -2.382782e-05
       25 -2.912385e-05
       26 -2.608982e-05
       27 -1.452322e-05
       28  8.484832e-06
       29  3.309653e-05
       30  3.584803e-05
       31  2.624288e-05
       32  9.446904e-06
       33 -2.576475e-06
       34 -3.432226e-06
       35 -4.865108e-06
       36 -4.958036e-06
       37 -6.232123e-06
       38 -2.453281e-07
       39  1.969401e-08
       40  3.714522e-06
       41 -4.044575e-08
       42 -2.352435e-06
       43 -1.891836e-06
       44  1.259759e-06
       45  1.237027e-05
       46  4.954953e-06
       47 -4.681224e-08
       48 -1.861643e-05
       49 -9.385887e-06
       50  1.833186e-07
       51  2.924382e-06
       52  1.736183e-05
       53 -1.404292e-05
       54  1.428976e-05
       55 -4.654128e-06
       56  1.590941e-05
       57 -7.163690e-06
       58 -3.365699e-06
       59  3.537053e-05
       60  3.527455e-05
       61  2.923986e-05
       62 -1.978035e-05
       63 -1.278037e-06
       64  1.570210e-05
       65  5.605788e-05
       66  3.760821e-05
       67  2.276160e-05
       68 -7.695992e-06
       69 -9.440478e-06
       70  4.201051e-07
       71  1.060327e-05
       72 -2.797139e-05
       73 -2.524178e-04
       74 -2.563377e-04
       75 -2.265877e-04
       76 -1.475608e-05
       77  5.138303e-04
       78  3.557994e-03
       79  1.894955e-03
       80  3.276911e-03
       81  2.634362e-03
       82  5.871931e-03
       83  3.966500e-03
       84  1.458194e-03
       85 -1.300586e-04
       86 -1.328737e-04
       87 -3.281005e-05
       88 -1.252022e-05
       89 -1.159266e-05
       90  5.305067e-06
       91  1.713184e-05
       92  2.978741e-06
       93 -4.516852e-05
       94 -5.550005e-05
       95  6.241561e-05
       96  8.898266e-06
       97  3.620163e-06
       98 -2.309718e-04
       99  5.799574e-05
      100  6.204707e-05
      101  2.475941e-03
      102  5.046518e-03
      103  5.628427e-03
      104  4.246229e-03
      105  2.544749e-03
      106  4.716772e-03
      107  3.815448e-03
      108  2.740208e-03
      109 -2.156498e-05
      110 -9.055355e-06
      111  2.230204e-05
      112 -1.365489e-06
      113 -8.161181e-05
      114 -9.944248e-05
      115 -7.943398e-05
      116 -3.979000e-05
      117 -3.822561e-05
      118 -1.045057e-04
      119 -8.012642e-05
      120 -6.923474e-05
      121  5.321138e-05
      122  6.747387e-05
      123  6.037718e-05
      124  1.692499e-05
      125  2.792529e-05
      126  4.186888e-05
      127  5.931771e-05
      128  3.039871e-05
      129  1.768109e-05
      130 -4.417499e-06
      131 -1.301062e-05
      132 -1.702127e-05
      133  4.426792e-06
      134  1.249632e-05
      135  1.553418e-05
      136 -2.828098e-05
      137 -2.596497e-05
      138 -2.545767e-05
      139 -5.667610e-05
      140 -5.648682e-05
      141 -2.332907e-05
      142  3.410071e-05
      143  3.527494e-05
      144  3.508053e-05
      145  3.531953e-05
      146  3.967327e-05
      147 -1.042908e-04
      148 -1.965288e-04
      149 -2.301834e-04
      150 -1.140192e-04
      151 -2.403297e-05
      152 -9.646400e-06
      153 -2.886917e-05
      154 -2.704117e-05
      155 -1.555391e-05
      156  3.542980e-05
      157  0.000000e+00
      158  0.000000e+00
      159  0.000000e+00