pos          info
        0 -2.762036e-05
        1 -1.713015e-05
        2 -6.958805e-05
        3 -2.213618e-05
        4 -5.591366e-05
        5  2.276425e-06
        6  2.832178e-05
        7  6.749879e-05
        8  5.358157e-05
        9  2.007609e-05
       10  1.159043e-05
       11 -1.363614e-05
       12 -1.238164e-05
       13 -3.794863e-05
       14 -2.715506e-05
       15 -2.832998e-05
       16 -1.456053e-05
       17  2.414659e-05
       18 -3.199893e-06
       19  7.963638e-05
       20  7.124258e-05
       21  1.029709e-04
       22  2.679355e-05
       23  6.406882e-05
       24  5.161344e-05
       25  1.425010e-05
       26 -4.733831e-05
       27 -3.835215e-05
       28  2.999029e-06
       29  4.072027e-06
       30 -2.184953e-05
       31 -2.573963e-05
       32 -2.444761e-05
       33  2.186149e-06
       34  1.616019e-06
       35  1.058953e-07
       36 -7.505730e-06
       37  5.836974e-06
       38 -4.808836e-06
       39  1.781401e-05
       40  5.869954e-06
       41  1.118330e-05
       42 -4.960061e-06
       43  6.184863e-06
       44 -8.883935e-07
       45  4.159704e-05
       46  4.653793e-05
       47  1.016268e-04
       48  5.821949e-05
       49  4.134298e-05
       50 -2.683441e-07
       51 -7.319272e-07
       52  1.473700e-06
       53  2.448323e-06
       54  6.726574e-06
       55  4.384180e-06
       56 -4.528449e-07
       57 -2.223419e-05
       58 -2.243754e-05
       59 -2.657947e-05
       60 -1.824156e-05
       61 -1.138833e-05
       62  1.575137e-05
       63  2.979318e-05
       64  5.773858e-05
       65  3.776120e-05
       66  1.705607e-05
       67 -8.564643e-06
       68  5.566291e-05
       69  1.156170e-04
       70  1.095337e-04
       71  5.557902e-05
       72  6.401991e-05
       73  5.582985e-05
       74 -3.405095e-05
       75 -8.417198e-05
       76 -7.494081e-05
       77  3.178826e-06
       78  9.810077e-05
       79  1.108396e-04
       80  1.475735e-04
       81 -9.810065e-04
       82 -9.660565e-04
       83 -9.529226e-04
       84  2.021969e-04
       85  1.504471e-04
       86  1.247063e-04
       87  3.370503e-06
       88  2.329262e-05
       89 -5.196050e-06
       90 -1.860426e-05
       91  1.642452e-06
       92 -2.032160e-06
       93 -7.547244e-06
       94 -5.066530e-05
       95 -5.371587e-05
       96 -5.278274e-05
       97  2.180437e-05
       98  1.282861e-04
       99  1.385274e-04
      100  1.405636e-04
      101  2.038080e-04
      102  2.886048e-04
      103  2.564264e-04
      104  9.989144e-05
      105  2.099249e-04
      106  2.071814e-04
      107  2.278508e-04
      108  4.511538e-05
      109  1.876494e-05
      110 -2.490943e-06
      111  1.652766e-05
      112  2.383504e-05
      113  3.029211e-05
      114 -5.892161e-07
      115 -1.104663e-05
      116 -4.262705e-05
      117 -1.723369e-04
      118 -1.955865e-04
      119 -2.478093e-04
      120 -1.202365e-04
      121 -1.222808e-04
      122 -1.869636e-04
      123 -1.832858e-04
      124 -1.755659e-04
      125 -3.352616e-05
      126 -2.817287e-05
      127 -1.314478e-05
      128  2.013092e-05
      129 -4.457283e-06
      130 -1.376607e-04
      131 -1.203319e-04
      132 -5.014430e-05
      133  1.068647e-04
      134  6.078225e-05
      135  3.928996e-05
      136  5.574279e-05
      137  5.119908e-05
      138  5.622629e-05
      139 -3.368284e-05
      140 -3.994445e-05
      141 -8.729918e-06
      142  4.181771e-05
      143  9.149285e-05
      144  3.230629e-05
      145 -8.673387e-04
      146 -9.109343e-04
      147 -2.414477e-04
      148  1.323474e-03
      149  1.918308e-03
      150  1.480029e-03
      151  8.260179e-04
      152  2.147276e-04
      153  2.557763e-04
      154  3.659657e-04
      155  3.827941e-04
      156  1.218980e-04
      157  0.000000e+00
      158  0.000000e+00
      159  0.000000e+00