pos          info
        0 -5.536504e-05
        1 -3.666733e-05
        2 -1.109180e-04
        3 -7.028587e-05
        4 -9.515153e-05
        5  7.292861e-06
        6  1.286194e-05
        7  4.950848e-05
        8  2.733770e-05
        9  1.549025e-05
       10  1.062855e-05
       11 -3.665744e-05
       12 -6.862789e-06
       13 -6.141132e-05
       14 -2.359272e-05
       15 -4.892655e-05
       16 -9.636636e-06
       17  5.621293e-06
       18 -1.101249e-05
       19  9.239940e-07
       20 -1.341301e-05
       21  1.777073e-06
       22 -4.109029e-07
       23  1.332848e-05
       24  1.060316e-05
       25 -4.006951e-06
       26 -2.016474e-05
       27 -2.600258e-05
       28 -6.845186e-06
       29 -1.018649e-05
       30 -5.619432e-05
       31 -6.007604e-05
       32 -4.463323e-05
       33  1.440993e-05
       34  1.191355e-05
       35  1.012575e-06
       36  1.658051e-05
       37  1.953467e-05
       38 -3.998514e-05
       39 -4.147676e-05
       40 -4.103096e-05
       41  1.038959e-05
       42 -5.312711e-06
       43 -9.096573e-06
       44 -1.452267e-05
       45 -1.034119e-05
       46 -7.938715e-06
       47  4.196714e-05
       48  4.019731e-05
       49  4.243980e-05
       50  2.723833e-05
       51  3.728235e-05
       52  5.498136e-05
       53  3.455086e-05
       54  7.213448e-05
       55  5.202276e-05
       56  4.372408e-05
       57 -2.832676e-05
       58 -2.952226e-05
       59 -4.300505e-05
       60 -2.064893e-05
       61 -1.884015e-05
       62  4.563344e-06
       63 -2.573050e-06
       64  1.643399e-05
       65  1.714342e-05
       66  2.448691e-05
       67  1.820433e-05
       68  5.644890e-05
       69  5.864971e-05
       70  4.474460e-05
       71  4.774572e-05
       72  5.528460e-05
       73  5.661241e-05
       74 -4.642291e-05
       75 -5.554495e-05
       76 -5.775291e-05
       77  9.023442e-06
       78  1.774419e-05
       79  5.921230e-06
       80 -4.004850e-06
       81 -6.451602e-04
       82 -6.302724e-04
       83 -5.847638e-04
       84  1.238691e-04
       85  8.771661e-05
       86  5.361196e-05
       87 -1.067902e-05
       88  2.302553e-05
       89 -4.111988e-07
       90 -1.391773e-05
       91  1.006180e-05
       92  9.449629e-06
       93  7.102079e-06
       94 -2.132269e-05
       95 -1.633221e-05
       96 -1.892731e-05
       97  5.354578e-06
       98  4.667875e-05
       99  2.993259e-05
      100  2.050352e-05
      101  1.045987e-04
      102  1.615278e-04
      103  1.496443e-04
      104  3.399445e-05
      105  5.900949e-05
      106  7.276073e-05
      107  9.014612e-05
      108  3.257608e-05
      109  1.929520e-05
      110  1.719085e-06
      111  7.242888e-06
      112 -2.315752e-05
      113 -2.185585e-05
      114 -3.255836e-05
      115 -2.802780e-05
      116 -4.409554e-05
      117 -2.795514e-04
      118 -3.137784e-04
      119 -3.116062e-04
      120 -1.130409e-04
      121 -8.172508e-05
      122 -1.387930e-04
      123 -1.073258e-04
      124 -8.587154e-05
      125 -2.903054e-06
      126  4.149102e-05
      127  4.262701e-05
      128  5.872037e-05
      129  1.515639e-05
      130 -1.003022e-04
      131 -6.593124e-05
      132  2.135898e-05
      133  1.427928e-04
      134  7.936174e-05
      135  5.527145e-06
      136  1.605486e-05
      137  1.518236e-05
      138  7.074281e-05
      139  3.478736e-05
      140  3.558469e-05
      141  1.735717e-04
      142  1.700603e-04
      143  2.325215e-04
      144  5.427546e-05
      145 -1.141399e-03
      146 -1.204544e-03
      147  2.343811e-04
      148  3.034426e-03
      149  4.553390e-03
      150  3.479815e-03
      151  1.912285e-03
      152  3.940139e-04
      153  3.851631e-04
      154  5.045543e-04
      155  5.045111e-04
      156  1.316991e-04
      157  0.000000e+00
      158  0.000000e+00
      159  0.000000e+00