pos          info
        0  3.965089e-05
        1 -1.809674e-04
        2  5.608396e-05
        3  5.816391e-06
        4 -4.889635e-05
        5  1.141098e-05
        6 -2.708813e-05
        7 -2.078811e-05
        8  1.322889e-05
        9  7.583668e-06
       10  1.611546e-04
       11 -1.293900e-04
       12 -1.324614e-05
       13 -8.238936e-07
       14  4.582954e-04
       15 -1.756065e-05
       16 -1.626300e-04
       17 -7.136089e-06
       18 -2.230806e-04
       19 -5.060953e-04
       20  3.079698e-05
       21 -1.003258e-04
       22  8.885658e-05
       23  2.727860e-05
       24  5.981045e-05
       25 -3.541967e-04
       26 -3.337401e-05
       27 -6.868125e-05
       28 -1.220526e-04
       29 -5.008570e-04
       30  3.707494e-04
       31 -2.798595e-05
       32  3.456618e-09
       33 -2.132147e-05
       34  1.103127e-05
       35 -3.795467e-07
       36  6.179440e-04
       37  2.987199e-05
       38  1.231741e-05
       39 -3.612829e-05
       40 -1.019205e-04
       41 -1.206489e-05
       42 -1.377471e-04
       43 -1.298948e-06
       44  2.382843e-07
       45  2.062320e-04
       46  3.479249e-05
       47 -4.939959e-06
       48 -1.478358e-04
       49 -1.833098e-04
       50 -9.297110e-05
       51  7.565425e-05
       52  4.656838e-05
       53 -2.296532e-04
       54 -6.301979e-04
       55 -2.238169e-05
       56  2.778362e-06
       57 -1.731432e-04
       58  2.183321e-06
       59  7.394611e-05
       60 -1.317857e-04
       61  1.393699e-04
       62 -5.376712e-04
       63 -2.575512e-05
       64 -1.920272e-04
       65 -6.415051e-04
       66 -1.945412e-04
       67  4.276016e-04
       68  1.149525e-06
       69  2.429463e-04
       70 -1.001701e-05
       71 -6.170888e-04
       72 -1.753878e-03
       73 -1.619040e-04
       74 -1.229810e-05
       75 -5.435293e-04
       76 -2.802068e-07
       77  1.945579e-03
       78 -1.466711e-03
       79 -9.634818e-06
       80 -1.653791e-03
       81  1.118247e-04
       82 -1.550120e-04
       83 -4.489512e-04
       84 -1.009758e-04
       85 -1.063952e-05
       86  4.289555e-04
       87  1.400240e-04
       88  8.710833e-05
       89  1.716750e-06
       90  3.726987e-05
       91 -2.814201e-04
       92  2.839305e-07
       93  1.067874e-04
       94 -4.093664e-05
       95 -3.611125e-04
       96  8.328477e-05
       97  2.918712e-05
       98 -9.196606e-05
       99  4.570459e-04
      100  3.633087e-06
      101 -2.055208e-03
      102 -3.679134e-03
      103  3.747171e-04
      104 -3.163658e-03
      105 -2.669086e-03
      106 -7.945017e-04
      107  2.564781e-04
      108  2.004290e-10
      109  1.194999e-04
      110  1.711695e-04
      111 -2.363910e-06
      112 -7.569574e-05
      113  5.536873e-06
      114 -3.653505e-04
      115  2.608883e-06
      116 -1.126267e-05
      117 -1.187683e-04
      118 -1.648202e-05
      119  4.015152e-04
      120 -2.430199e-04
      121  4.880191e-05
      122  5.916518e-05
      123 -1.440572e-04
      124  4.657215e-05
      125  4.174915e-05
      126 -4.390618e-05
      127 -1.026019e-05
      128  6.033976e-05
      129  5.193334e-04
      130  4.982183e-05
      131  1.837565e-07
      132  5.890723e-05
      133  4.315461e-06
      134 -9.866217e-05
      135 -8.785025e-05
      136 -6.312283e-06
      137 -9.114954e-05
      138 -1.084401e-04
      139  3.495995e-05
      140  4.641319e-06
      141  2.562469e-04
      142  1.366594e-05
      143  1.009386e-04
      144 -2.692878e-04
      145  4.029909e-05
      146 -2.812699e-04
      147 -2.461226e-04
      148  7.267278e-05
      149 -4.636277e-05
      150 -3.092586e-06
      151 -1.762335e-05
      152  2.470274e-04
      153  2.168084e-05
      154 -5.189989e-04
      155 -8.148694e-05
      156  3.822369e-06
      157  4.757784e-06
      158  8.199052e-04
      159  8.955838e-05