pos          info
        0 -1.011635e-05
        1  1.184890e-04
        2 -8.208343e-05
        3 -1.842697e-05
        4 -7.468011e-06
        5 -2.571585e-06
        6  3.243427e-04
        7 -2.457774e-05
        8 -4.083367e-06
        9 -8.718250e-12
       10 -1.197544e-04
       11  1.693227e-04
       12  1.979954e-04
       13  2.582181e-04
       14 -1.558638e-04
       15  1.167940e-04
       16 -6.804711e-06
       17  3.248629e-05
       18 -2.857644e-05
       19  1.748823e-04
       20 -2.653171e-04
       21 -6.610782e-05
       22 -1.380413e-07
       23  1.019101e-04
       24 -8.127931e-06
       25  1.421919e-04
       26  3.685963e-06
       27 -2.127394e-08
       28  1.858257e-04
       29  4.302965e-04
       30 -5.287112e-04
       31 -1.387921e-06
       32  7.952577e-06
       33  2.051153e-05
       34 -1.072371e-06
       35 -3.530364e-07
       36  5.896099e-05
       37  2.754610e-04
       38 -1.132371e-04
       39  4.443022e-06
       40 -1.781497e-04
       41  2.421324e-04
       42  1.795430e-04
       43 -9.459818e-05
       44  2.491902e-05
       45 -2.020686e-04
       46 -9.090730e-05
       47 -2.162163e-05
       48  1.124328e-04
       49  3.876332e-05
       50  1.568149e-05
       51 -9.234292e-06
       52 -1.644900e-05
       53  2.890708e-05
       54  5.333178e-04
       55 -3.744657e-06
       56 -5.037572e-06
       57  1.305370e-04
       58 -2.333044e-04
       59 -7.784814e-05
       60  3.432091e-05
       61  1.635406e-04
       62  5.319351e-04
       63  3.579427e-04
       64 -1.470309e-06
       65  2.863936e-04
       66  3.148087e-05
       67 -4.647967e-05
       68 -1.411353e-04
       69 -1.726998e-05
       70 -7.048858e-07
       71  4.483466e-04
       72  9.574992e-04
       73 -2.495596e-06
       74 -2.399041e-06
       75  6.164303e-04
       76  6.170344e-05
       77 -1.643876e-03
       78  1.817128e-03
       79  6.842550e-05
       80  1.191040e-03
       81  2.417536e-05
       82  1.188340e-04
       83  1.144780e-03
       84  1.118282e-04
       85  2.393036e-05
       86 -5.707667e-05
       87 -1.392084e-04
       88 -2.229054e-05
       89  3.586976e-05
       90 -1.888252e-05
       91 -2.633126e-05
       92 -1.799451e-04
       93  2.075173e-05
       94  8.966309e-05
       95  1.751469e-04
       96 -1.739329e-04
       97  9.704572e-06
       98  3.021677e-05
       99 -1.169522e-03
      100  5.896765e-05
      101  1.457513e-04
      102  1.913878e-03
      103 -1.063153e-03
      104  2.738657e-03
      105  5.258676e-04
      106  7.048715e-04
      107 -1.639683e-04
      108  1.277800e-05
      109 -6.160554e-05
      110 -2.075310e-04
      111  4.639052e-05
      112  1.733765e-04
      113 -1.514164e-07
      114  9.622277e-04
      115 -5.280959e-05
      116 -6.502129e-05
      117  1.543793e-05
      118  5.458469e-05
      119 -2.166499e-04
      120  2.398510e-04
      121  6.156239e-06
      122 -7.977143e-06
      123 -1.581754e-08
      124 -8.847383e-07
      125 -2.959303e-05
      126  1.693854e-04
      127 -7.976139e-06
      128 -1.425171e-04
      129 -4.279390e-04
      130 -6.997103e-05
      131  3.680931e-05
      132  6.208382e-06
      133  1.329215e-06
      134  1.470590e-04
      135  1.324468e-05
      136 -6.498208e-08
      137  4.996279e-05
      138  6.574036e-04
      139  1.174574e-06
      140  6.112065e-05
      141  1.228492e-06
      142  1.280227e-04
      143 -1.103617e-04
      144  7.340390e-05
      145 -1.423243e-04
      146  1.840451e-04
      147  1.967062e-04
      148 -9.666887e-05
      149  1.883996e-04
      150  1.813453e-06
      151 -7.003476e-05
      152 -5.973479e-04
      153  1.197833e-06
      154  5.639752e-05
      155 -1.691441e-05
      156  4.364085e-04
      157 -2.014495e-05
      158 -5.563312e-04
      159  9.669027e-05