pos          info
        0 -1.992513e-04
        1 -1.336799e-05
        2 -5.637344e-05
        3 -1.477037e-04
        4 -1.055603e-04
        5 -6.594887e-05
        6 -3.099582e-06
        7  7.156001e-05
        8  9.970948e-05
        9  1.149017e-04
       10  2.785894e-05
       11 -1.709377e-05
       12 -1.581917e-05
       13 -3.269596e-06
       14  1.527593e-05
       15 -8.060430e-06
       16 -1.796496e-05
       17 -1.501818e-05
       18 -1.029114e-05
       19 -3.962914e-06
       20 -3.816000e-06
       21 -6.950059e-06
       22  7.649145e-05
       23  2.529789e-05
       24  2.357109e-04
       25  1.422768e-04
       26  1.411231e-04
       27 -7.083940e-05
       28  9.306505e-05
       29  1.439038e-04
       30  1.732464e-04
       31  9.106281e-06
       32 -5.978475e-06
       33 -3.057382e-05
       34 -1.987171e-04
       35 -1.803905e-04
       36 -1.984534e-04
       37 -1.304835e-05
       38 -6.130322e-05
       39 -4.160384e-05
       40 -1.991923e-04
       41 -1.433368e-04
       42 -1.456598e-04
       43  2.751060e-05
       44  1.772991e-04
       45  1.847732e-05
       46  1.460767e-04
       47 -4.369582e-05
       48  4.364405e-05
       49 -1.342903e-04
       50 -1.187449e-04
       51 -2.558033e-05
       52  1.831826e-05
       53  5.874406e-05
       54  3.993731e-05
       55  1.917415e-05
       56 -1.091207e-04
       57 -1.501429e-04
       58 -1.733873e-04
       59 -5.094920e-05
       60 -1.210897e-05
       61  1.798940e-05
       62 -1.927915e-06
       63  5.441558e-05
       64  5.454501e-05
       65  5.566556e-05
       66 -2.424329e-06
       67 -7.117934e-05
       68 -1.065947e-07
       69  5.956653e-06
       70  2.566518e-04
       71  3.316331e-05
       72 -4.538630e-05
       73 -2.261358e-04
       74  3.736732e-05
       75  1.049453e-04
       76 -1.113799e-04
       77 -2.183356e-04
       78 -2.117532e-04
       79 -4.258800e-05
       80 -1.450344e-04
       81 -1.323597e-04
       82 -8.626150e-05
       83  5.141194e-05
       84  4.460799e-05
       85  4.233978e-05
       86 -1.128054e-04
       87  1.470684e-05
       88  1.879540e-07
       89  9.073319e-05
       90 -1.241894e-04
       91 -4.511375e-05
       92  6.473044e-06
       93  1.980421e-04
       94  1.326808e-04
       95 -1.906740e-05
       96 -1.705796e-04
       97  5.399719e-05
       98  2.187567e-04
       99  1.930349e-04
      100  1.323375e-04
      101  1.708284e-04
      102  2.665360e-04
      103  1.329415e-04
      104  5.319194e-05
      105  7.945664e-05
      106 -2.029119e-05
      107 -8.897731e-05
      108 -1.472197e-04
      109 -8.900534e-05
      110 -2.188647e-05
      111  1.622096e-05
      112  3.512841e-05
      113  3.773653e-05
      114  9.109498e-05
      115  8.268171e-05
      116  8.840297e-05
      117 -1.112534e-06
      118 -4.515266e-05
      119 -5.268121e-05
      120 -1.131199e-05
      121  1.024560e-04
      122  1.003320e-04
      123  6.198067e-05
      124  1.312421e-05
      125  1.652123e-06
      126  2.019543e-05
      127  6.604261e-06
      128  5.186331e-05
      129  5.480235e-06
      130  3.955690e-06
      131 -1.646762e-04
      132 -1.256955e-04
      133 -1.080777e-04
      134  3.194641e-05
      135  1.383200e-05
      136 -1.116787e-05
      137 -1.867343e-05
      138  1.502110e-05
      139  2.356206e-05
      140  2.927353e-05
      141  1.754028e-05
      142  2.215775e-05
      143  4.652887e-05
      144  6.264110e-05
      145  5.101555e-05
      146  1.204700e-04
      147  4.355109e-05
      148  1.764235e-04
      149  2.103658e-04
      150  2.562024e-04
      151  1.321939e-04
      152  5.433327e-05
      153  1.253929e-04
      154  1.797507e-04
      155  2.402819e-04
      156  2.132768e-04
      157  0.000000e+00
      158  0.000000e+00
      159  0.000000e+00