pos          info
        0 -8.582305e-07
        1  2.935546e-04
        2  2.538278e-05
        3 -4.771197e-04
        4  4.513758e-05
        5 -8.994005e-05
        6 -7.164612e-05
        7  1.629715e-04
        8  1.227484e-04
        9  3.298818e-06
       10 -1.475126e-04
       11  1.239501e-05
       12 -1.739428e-05
       13  2.801641e-04
       14  4.291441e-06
       15  7.179261e-05
       16  2.737143e-05
       17 -4.345776e-05
       18 -9.040562e-05
       19  6.173413e-05
       20 -1.312485e-04
       21 -2.073657e-04
       22  6.848458e-06
       23 -7.295292e-06
       24  5.864488e-04
       25  1.327125e-05
       26 -7.051534e-06
       27 -1.719297e-05
       28  5.882925e-09
       29 -6.807532e-08
       30  3.068595e-05
       31 -6.161903e-06
       32  6.611665e-06
       33  7.611908e-05
       34  5.905891e-05
       35 -1.787057e-06
       36 -1.054713e-04
       37 -8.796879e-06
       38  3.575630e-05
       39 -1.365396e-05
       40 -3.039482e-05
       41 -3.539152e-06
       42  2.420625e-05
       43 -1.094458e-04
       44 -3.719856e-05
       45 -7.761852e-05
       46 -4.062994e-04
       47  4.583869e-05
       48  3.561337e-03
       49  2.112326e-05
       50  3.047593e-04
       51  5.936578e-04
       52 -4.088704e-05
       53 -2.884121e-04
       54  1.731868e-05
       55  1.591765e-05
       56 -4.028547e-06
       57  2.765160e-05
       58 -4.451154e-05
       59  9.152856e-05
       60 -3.085765e-06
       61  1.158494e-05
       62  2.073475e-05
       63 -1.274499e-04
       64 -6.421735e-05
       65 -2.760733e-05
       66  4.302599e-05
       67 -1.595919e-04
       68  2.429862e-03
       69  1.228568e-04
       70  9.369824e-06
       71 -1.106833e-04
       72 -2.698077e-05
       73 -2.452177e-06
       74 -1.378461e-04
       75  1.125289e-04
       76  7.160383e-08
       77 -1.523462e-04
       78 -3.916757e-05
       79  3.361883e-05
       80 -4.226514e-05
       81 -6.533034e-05
       82  1.581717e-05
       83 -2.070203e-04
       84  4.273537e-05
       85  3.394679e-04
       86  7.207690e-04
       87  7.444329e-05
       88  2.258966e-06
       89 -7.141074e-11
       90 -6.815614e-05
       91 -7.473586e-05
       92  7.800363e-05
       93 -4.322942e-05
       94  3.701667e-06
       95  1.338008e-04
       96 -5.283434e-05
       97 -2.716403e-04
       98 -1.485757e-06
       99 -3.087295e-05
      100  2.514183e-05
      101  1.265913e-04
      102  7.880518e-05
      103  4.055056e-05
      104  1.545536e-04
      105  2.898041e-06
      106  9.151901e-06
      107 -2.126151e-05
      108  1.894869e-05
      109 -1.840260e-05
      110 -1.893167e-04
      111 -1.062232e-05
      112 -5.535434e-05
      113 -7.688444e-05
      114 -4.855499e-05
      115 -2.951536e-09
      116  5.243688e-05
      117 -1.717877e-04
      118  5.359283e-05
      119  7.816452e-05
      120  3.557755e-07
      121 -2.143800e-05
      122 -4.265983e-05
      123  1.641810e-04
      124 -4.471023e-07
      125 -4.199979e-05
      126 -4.044536e-05
      127  1.622341e-05
      128 -1.647863e-04
      129  1.085437e-07
      130  5.146098e-04
      131  6.364183e-06
      132  4.770138e-07
      133  2.644841e-04
      134  5.231235e-05
      135  3.522553e-05
      136  1.186966e-06
      137  2.236477e-06
      138 -2.121109e-05
      139 -1.923609e-07
      140 -5.008353e-05
      141 -5.255371e-06
      142 -1.473464e-04
      143  3.280351e-04
      144 -3.892572e-06
      145  3.843775e-07
      146  3.321273e-06
      147 -2.126159e-04
      148  1.558783e-09
      149  6.737352e-05
      150 -1.999062e-05
      151 -5.707904e-07
      152 -3.122891e-05
      153  1.702128e-07
      154  1.103614e-04
      155 -1.705631e-05
      156 -9.826060e-06
      157  2.280636e-04
      158 -7.787674e-05
      159  3.706788e-05