pos          info
        0 -1.574592e-05
        1  1.667092e-04
        2  1.697431e-04
        3  1.874654e-04
        4  2.597571e-05
        5 -4.386899e-05
        6 -2.956804e-05
        7 -4.369795e-05
        8  3.550765e-05
        9  6.123428e-05
       10  5.893837e-05
       11  5.701619e-05
       12  4.211004e-05
       13  4.101717e-05
       14 -2.198141e-05
       15 -9.391240e-05
       16 -1.562352e-05
       17  7.231742e-05
       18  1.134510e-04
       19  7.957034e-05
       20  3.956731e-05
       21  3.864777e-05
       22 -1.087087e-04
       23 -9.076513e-05
       24 -7.268362e-05
       25  3.574294e-05
       26  3.096411e-05
       27  1.416941e-05
       28 -6.821535e-06
       29 -2.188194e-05
       30  7.887893e-05
       31  1.438958e-05
       32  3.321144e-05
       33 -7.223414e-05
       34  1.882851e-05
       35  1.850147e-06
       36  2.486869e-05
       37 -1.748433e-05
       38  4.485913e-06
       39  1.379469e-05
       40  4.346802e-05
       41  2.178558e-05
       42  6.048019e-05
       43  8.462941e-05
       44  1.585407e-04
       45 -2.541568e-06
       46 -5.674095e-04
       47 -7.118343e-04
       48 -6.438008e-04
       49 -1.864171e-04
       50 -1.157765e-04
       51 -9.740212e-05
       52 -5.502521e-06
       53  1.264421e-04
       54  1.422613e-04
       55  1.253815e-04
       56 -4.144825e-05
       57 -6.312713e-05
       58 -5.631177e-05
       59 -2.285511e-05
       60 -6.062951e-05
       61 -2.677198e-05
       62  1.827204e-05
       63  9.387182e-05
       64  7.253566e-05
       65  1.177396e-04
       66 -2.893945e-04
       67 -3.325819e-04
       68 -4.219396e-04
       69 -3.435119e-06
       70  3.497481e-05
       71 -3.074420e-05
       72 -4.393884e-05
       73 -8.146887e-05
       74 -5.148036e-05
       75 -7.472431e-05
       76 -1.916899e-05
       77  1.657776e-05
       78  1.915838e-05
       79  9.039701e-06
       80  7.038823e-05
       81  3.019644e-04
       82  2.883259e-04
       83  6.501971e-05
       84 -2.640999e-04
       85 -2.623958e-04
       86 -7.502456e-05
       87  1.968421e-05
       88  4.991840e-05
       89  1.281915e-04
       90  1.607163e-04
       91  1.349868e-04
       92  2.732625e-05
       93 -1.895129e-05
       94 -4.059372e-05
       95 -4.282975e-05
       96  1.684947e-06
       97  3.943412e-05
       98  1.517328e-04
       99 -5.482537e-05
      100 -6.406301e-05
      101 -2.407548e-04
      102 -6.775926e-05
      103 -1.534883e-05
      104  5.593668e-05
      105  5.128644e-05
      106 -1.945735e-06
      107 -9.803751e-07
      108  1.769648e-05
      109  2.496939e-05
      110  5.653943e-05
      111  7.845204e-05
      112  6.297521e-05
      113 -5.993709e-05
      114 -4.400488e-05
      115  2.716085e-05
      116  1.101584e-04
      117 -7.277851e-05
      118 -1.367580e-04
      119 -6.586054e-05
      120  6.868366e-05
      121 -1.089222e-05
      122 -7.557359e-05
      123 -5.445851e-05
      124  5.936673e-05
      125  6.042083e-05
      126  3.860744e-05
      127  1.510535e-05
      128 -1.365597e-04
      129 -5.387349e-05
      130 -7.186574e-05
      131  8.015195e-05
      132  2.862382e-05
      133  3.164316e-05
      134  2.965841e-05
      135 -1.013086e-05
      136  7.565220e-06
      137 -1.832844e-05
      138 -4.852694e-06
      139  1.950918e-05
      140  4.853491e-05
      141 -4.402576e-05
      142 -8.119504e-05
      143 -1.186199e-04
      144 -2.546387e-05
      145 -5.240973e-05
      146  8.899141e-05
      147  4.851059e-05
      148  8.428949e-05
      149  1.972973e-05
      150  1.035692e-04
      151  8.985456e-05
      152 -1.748340e-04
      153 -2.181756e-04
      154 -1.993671e-04
      155  2.399964e-05
      156  4.039406e-05
      157  0.000000e+00
      158  0.000000e+00
      159  0.000000e+00