pos          info
        0 -4.734850e-05
        1  4.515512e-05
        2  5.004839e-05
        3 -5.956644e-05
        4 -4.395842e-05
        5 -3.792555e-05
        6  6.237537e-05
        7  4.754846e-05
        8  5.081192e-05
        9  3.422387e-05
       10  3.386141e-05
       11  2.036948e-05
       12 -1.792663e-04
       13 -1.662038e-04
       14 -1.824327e-04
       15 -4.949336e-05
       16 -3.439274e-05
       17 -1.000143e-05
       18  3.649795e-05
       19  2.561716e-05
       20  6.438152e-05
       21  5.443588e-05
       22  3.810815e-05
       23 -1.019788e-05
       24 -4.789139e-05
       25 -9.692156e-05
       26 -9.896459e-05
       27 -5.748682e-05
       28  3.240455e-05
       29  4.144225e-05
       30  1.517030e-04
       31  2.278068e-04
       32  2.657793e-04
       33  2.009612e-04
       34  8.210560e-05
       35  3.728934e-05
       36  7.365849e-06
       37 -1.170194e-05
       38 -4.724301e-06
       39 -1.870932e-05
       40  1.278778e-06
       41  9.473096e-07
       42  1.309139e-04
       43  5.151605e-05
       44  2.655402e-05
       45 -1.400411e-04
       46 -6.727243e-05
       47 -4.210412e-05
       48 -1.944929e-05
       49 -3.966584e-05
       50 -4.006892e-05
       51 -4.176651e-05
       52 -1.580864e-05
       53 -2.348269e-05
       54  5.959463e-05
       55  2.347751e-04
       56  2.452896e-04
       57  1.745028e-04
       58  8.103345e-05
       59  7.778365e-05
       60  7.362894e-05
       61 -1.369826e-04
       62 -7.439230e-05
       63 -7.321090e-05
       64  5.312487e-05
       65 -1.686004e-05
       66 -1.192459e-05
       67 -6.205873e-05
       68 -6.129787e-05
       69 -6.827325e-05
       70  1.528443e-05
       71  3.518520e-05
       72  1.369977e-05
       73 -1.381587e-05
       74 -2.818247e-05
       75  4.628413e-06
       76  1.805119e-04
       77  1.833344e-04
       78  1.529520e-04
       79 -9.718137e-06
       80 -7.944035e-05
       81 -1.699253e-05
       82 -3.237466e-05
       83  3.348635e-05
       84 -3.150129e-06
       85  4.066326e-05
       86 -7.038044e-06
       87 -1.606663e-05
       88  3.441570e-04
       89  4.607456e-04
       90  4.406267e-04
       91  3.864422e-05
       92  5.133734e-05
       93  1.514646e-04
       94  1.561247e-04
       95  1.495348e-04
       96  8.079988e-05
       97  1.252833e-04
       98  4.034246e-05
       99 -8.907375e-05
      100 -2.347854e-04
      101 -1.989190e-04
      102 -7.100615e-05
      103 -4.257424e-05
      104 -2.968642e-05
      105  1.490113e-04
      106  2.244204e-04
      107  1.888284e-04
      108  5.661275e-06
      109  1.050884e-04
      110  1.191177e-04
      111  1.229469e-04
      112  4.177208e-05
      113 -3.286520e-05
      114 -3.447321e-05
      115 -7.995805e-05
      116 -2.201490e-05
      117 -3.420798e-05
      118  4.273910e-05
      119  4.404435e-05
      120  5.872726e-05
      121 -2.886271e-07
      122  2.954343e-06
      123 -2.822875e-05
      124 -1.185382e-04
      125 -1.633339e-04
      126 -1.351815e-04
      127 -4.906076e-05
      128  1.771250e-05
      129 -1.945106e-05
      130 -2.941319e-05
      131  1.861001e-04
      132  2.287206e-04
      133  2.430140e-04
      134 -3.128132e-05
      135 -1.106123e-05
      136 -1.111713e-05
      137  2.369489e-05
      138  2.891546e-06
      139  2.818270e-05
      140  2.156971e-05
      141  2.841378e-05
      142  5.834289e-06
      143  1.317302e-04
      144  1.221789e-04
      145  1.185295e-04
      146 -2.007263e-05
      147 -2.009250e-05
      148 -2.169122e-05
      149 -5.348148e-06
      150 -1.637753e-04
      151 -1.047120e-04
      152 -1.101248e-04
      153  2.652854e-05
      154 -2.977188e-05
      155 -1.740226e-04
      156 -2.396553e-04
      157  0.000000e+00
      158  0.000000e+00
      159  0.000000e+00