pos          info
        0 -5.332416e-04
        1  8.334854e-07
        2  2.564756e-05
        3  6.105222e-05
        4  1.871230e-04
        5  2.119295e-04
        6  1.535795e-04
        7  7.593152e-05
        8 -3.025368e-06
        9 -1.533324e-05
       10 -4.044309e-04
       11 -3.612943e-04
       12 -7.339723e-06
       13  5.064996e-04
       14  4.539371e-04
       15  3.835030e-04
       16  1.360009e-04
       17  1.758173e-05
       18 -2.151488e-04
       19 -1.122313e-04
       20  7.700319e-05
       21  2.669768e-04
       22  2.058901e-04
       23  2.166984e-04
       24 -4.599474e-05
       25  9.322724e-05
       26  5.086404e-04
       27  7.882863e-04
       28  7.119877e-04
       29  3.025371e-04
       30  3.372728e-05
       31  2.226023e-05
       32  7.306591e-05
       33  7.132621e-05
       34 -1.819735e-05
       35 -2.155214e-04
       36 -1.270548e-04
       37 -4.940113e-05
       38  9.068342e-05
       39 -1.140385e-04
       40 -1.085727e-04
       41 -2.287375e-04
       42 -1.164094e-04
       43 -1.122747e-04
       44 -3.489273e-05
       45  3.014760e-05
       46  5.119520e-05
       47  3.398229e-04
       48  2.945193e-04
       49  3.995346e-04
       50  1.365408e-04
       51  3.172065e-04
       52 -1.044255e-04
       53 -1.875719e-04
       54 -3.511958e-04
       55  4.806100e-04
       56  3.532915e-04
       57  1.669059e-04
       58 -3.978065e-04
       59 -2.253844e-04
       60 -1.874478e-04
       61 -1.488458e-04
       62 -1.491045e-04
       63  1.998180e-04
       64  1.786848e-04
       65  2.779809e-04
       66 -1.155858e-04
       67 -2.292064e-04
       68 -2.906230e-04
       69 -9.716675e-06
       70  2.334640e-04
       71  4.185151e-04
       72  2.797181e-04
       73  1.671434e-04
       74  1.102961e-05
       75  9.516588e-05
       76  2.876982e-04
       77  2.569464e-04
       78  3.048566e-04
       79 -5.362172e-06
       80 -3.535469e-04
       81 -6.597424e-04
       82 -6.745142e-04
       83 -3.262208e-04
       84 -1.730090e-04
       85 -9.433482e-05
       86 -1.020336e-04
       87 -1.310831e-05
       88  8.202278e-05
       89  8.932351e-05
       90  3.686505e-05
       91  9.849764e-05
       92  1.112211e-04
       93 -1.315630e-04
       94 -2.317681e-04
       95 -4.380116e-04
       96 -3.221206e-04
       97 -2.210330e-04
       98 -6.418069e-05
       99  2.767044e-05
      100 -1.376470e-04
      101 -1.209024e-04
      102 -2.243776e-04
      103 -1.639935e-04
      104  3.955051e-05
      105  4.743164e-04
      106  5.819931e-04
      107  3.686447e-04
      108 -5.579702e-05
      109 -1.777068e-04
      110  1.278488e-04
      111  4.133049e-04
      112  7.290966e-04
      113  4.497762e-04
      114  5.506992e-04
      115  3.940677e-04
      116  5.293193e-04
      117  2.568137e-04
      118  1.652724e-04
      119  5.747905e-05
      120  2.058960e-07
      121 -1.622644e-04
      122 -2.211946e-04
      123 -1.633881e-04
      124 -5.309192e-05
      125  1.039556e-04
      126  9.915476e-05
      127  2.517478e-04
      128 -6.077660e-05
      129 -3.819732e-05
      130 -8.778744e-05
      131  1.050029e-04
      132  1.025243e-04
      133  3.663434e-04
      134  3.681371e-04
      135  3.808992e-04
      136  2.287604e-05
      137  3.170085e-05
      138  1.713632e-05
      139  4.003401e-05
      140  6.525120e-05
      141 -3.321710e-05
      142 -8.334810e-05
      143 -5.086978e-04
      144 -3.448731e-04
      145 -3.311479e-04
      146  2.387201e-04
      147  1.768378e-04
      148  2.341486e-04
      149  5.537629e-05
      150  4.456860e-05
      151  1.849943e-04
      152  4.757538e-04
      153  2.807352e-04
      154 -5.686531e-05
      155 -3.445853e-04
      156 -1.217110e-04
      157  0.000000e+00
      158  0.000000e+00
      159  0.000000e+00