pos       info
        0  -0.000058
        1   0.000389
        2   0.000359
        3   0.000252
        4  -0.000136
        5  -0.000090
        6   0.000032
        7   0.000068
        8   0.000051
        9   0.000027
       10  -0.000110
       11  -0.000107
       12  -0.000081
       13   0.000143
       14   0.000142
       15   0.000127
       16  -0.000131
       17   0.000200
       18   0.000241
       19   0.000125
       20  -0.000285
       21  -0.000533
       22  -0.000282
       23  -0.000097
       24   0.000119
       25  -0.000199
       26  -0.000328
       27  -0.000340
       28   0.000055
       29   0.000049
       30   0.000058
       31  -0.000015
       32  -0.000022
       33  -0.000078
       34  -0.000103
       35  -0.000082
       36  -0.000027
       37   0.000032
       38  -0.000032
       39  -0.000047
       40  -0.000086
       41  -0.000028
       42  -0.000119
       43  -0.000132
       44  -0.000119
       45  -0.000023
       46   0.000075
       47  -0.001222
       48  -0.001239
       49  -0.001296
       50   0.000094
       51   0.000082
       52   0.000058
       53  -0.000149
       54  -0.000165
       55  -0.000179
       56   0.000037
       57   0.000036
       58  -0.000015
       59  -0.000109
       60  -0.000164
       61   0.000028
       62   0.000087
       63   0.000172
       64   0.000135
       65   0.000085
       66   0.000105
       67   0.000059
       68   0.000052
       69  -0.000044
       70   0.000057
       71   0.000218
       72   0.000320
       73   0.000173
       74  -0.000034
       75  -0.000039
       76   0.000068
       77   0.000118
       78   0.000001
       79  -0.000329
       80  -0.000360
       81   0.000248
       82   0.000695
       83   0.000777
       84   0.000230
       85   0.000098
       86  -0.000226
       87  -0.000163
       88  -0.000206
       89   0.000037
       90   0.000002
       91  -0.000189
       92  -0.000072
       93  -0.000124
       94   0.000012
       95  -0.000070
       96  -0.000249
       97   0.000004
       98   0.000093
       99   0.000530
      100   0.000274
      101   0.000171
      102   0.000052
      103   0.000019
      104   0.000023
      105   0.000047
      106   0.000087
      107   0.000076
      108  -0.000006
      109  -0.000083
      110  -0.000070
      111  -0.000071
      112   0.000190
      113   0.000186
      114   0.000173
      115   0.000252
      116   0.000419
      117   0.000436
      118   0.000326
      119   0.000109
      120   0.000056
      121  -0.000022
      122   0.000046
      123   0.000325
      124   0.000193
      125   0.000330
      126   0.000050
      127   0.000806
      128   0.000628
      129   0.000694
      130   0.000151
      131   0.000182
      132   0.000035
      133  -0.000136
      134  -0.000132
      135   0.000335
      136   0.000398
      137   0.000387
      138  -0.000183
      139  -0.000249
      140  -0.000278
      141  -0.000267
      142  -0.000253
      143   0.000043
      144   0.000229
      145   0.000200
      146  -0.000281
      147  -0.000736
      148  -0.000711
      149  -0.000480
      150   0.000062
      151   0.000133
      152   0.000304
      153   0.000270
      154   0.000189
      155   0.000119
      156   0.000086
      157   0.000000
      158   0.000000
      159   0.000000