pos          info
        0 -4.514130e-05
        1  6.037841e-05
        2  2.354025e-04
        3  2.583182e-04
        4  1.643653e-04
        5 -5.884635e-06
        6 -4.260902e-05
        7  3.033511e-06
        8  9.178358e-05
        9  8.690161e-05
       10  9.135532e-05
       11  8.294210e-06
       12  5.641135e-05
       13  8.719794e-05
       14  1.667655e-04
       15  2.234954e-04
       16  1.864678e-04
       17 -6.493852e-05
       18 -1.591397e-04
       19 -2.167593e-04
       20 -4.884822e-05
       21 -2.184777e-04
       22 -1.465161e-04
       23 -1.476140e-04
       24  7.646244e-05
       25  1.172417e-04
       26  1.725684e-04
       27  1.129345e-04
       28  8.040535e-05
       29  3.223853e-05
       30  3.268945e-05
       31  8.967497e-06
       32  7.922921e-06
       33  1.533135e-05
       34  8.980618e-05
       35  7.537406e-05
       36  1.797088e-04
       37  5.190616e-05
       38  5.895094e-05
       39  2.354397e-06
       40  1.783240e-04
       41 -7.108790e-06
       42 -8.207519e-05
       43 -2.601418e-04
       44 -1.036542e-04
       45 -8.712827e-05
       46 -3.258368e-05
       47 -2.569142e-06
       48 -9.629734e-05
       49 -2.054375e-04
       50 -2.677300e-04
       51 -3.126420e-04
       52 -2.189672e-04
       53 -1.073489e-04
       54  6.629937e-05
       55  8.465680e-05
       56 -7.773200e-06
       57 -4.175994e-05
       58 -3.185271e-05
       59 -9.890219e-06
       60  3.834327e-05
       61 -1.359903e-04
       62 -1.122902e-04
       63 -7.391928e-05
       64  1.805420e-04
       65  1.814004e-04
       66  1.603233e-04
       67  6.732065e-05
       68  1.577004e-04
       69  8.518372e-05
       70  1.177385e-04
       71  4.436657e-05
       72  2.729774e-04
       73  2.437645e-04
       74  2.296570e-04
       75  6.832526e-05
       76  6.626309e-05
       77  6.025283e-05
       78  1.311943e-06
       79  1.757824e-04
       80  3.876675e-04
       81  4.247685e-04
       82  4.380142e-04
       83  2.301955e-04
       84  1.205173e-05
       85 -6.035835e-05
       86 -6.614713e-05
       87  6.070715e-05
       88 -5.240988e-05
       89  8.231183e-07
       90  1.015535e-04
       91  7.528043e-05
       92 -1.007714e-04
       93 -1.671018e-04
       94 -1.289616e-04
       95  3.712872e-05
       96  5.718214e-05
       97  4.539144e-05
       98 -3.065721e-05
       99 -5.653621e-05
      100 -5.570875e-05
      101  9.505730e-05
      102  6.510133e-05
      103  1.235837e-04
      104  3.167316e-06
      105 -4.576374e-04
      106 -5.131377e-04
      107 -4.563371e-04
      108  2.001143e-04
      109  1.966889e-04
      110  1.440340e-04
      111  7.859681e-06
      112  2.711292e-05
      113  9.385056e-05
      114  1.882590e-05
      115 -4.436152e-06
      116 -1.166874e-04
      117 -9.387090e-05
      118 -8.965367e-05
      119  4.861790e-05
      120  9.400976e-05
      121  9.160820e-05
      122  1.144564e-04
      123  1.982268e-04
      124  1.959478e-04
      125  6.371240e-05
      126 -5.316151e-05
      127 -4.203408e-05
      128 -2.704602e-05
      129 -5.989556e-05
      130  2.184889e-05
      131  6.784501e-05
      132  1.349225e-04
      133  4.028238e-05
      134 -1.633222e-04
      135 -1.664366e-04
      136 -1.596363e-04
      137 -1.405086e-04
      138 -1.591538e-04
      139 -1.216004e-04
      140  1.271271e-05
      141  5.433945e-05
      142  1.352233e-05
      143 -1.646056e-05
      144 -1.977517e-04
      145 -8.250653e-05
      146 -5.164751e-05
      147  1.200679e-04
      148  7.663351e-05
      149 -1.212274e-04
      150 -2.117383e-04
      151 -2.926151e-04
      152 -1.080258e-04
      153 -1.869217e-04
      154 -1.878687e-04
      155 -1.708342e-04
      156 -3.180851e-05
      157  0.000000e+00
      158  0.000000e+00
      159  0.000000e+00