pos       info
        0  -0.000144
        1   0.000005
        2   0.000111
        3   0.000190
        4   0.000143
        5   0.000039
        6  -0.000039
        7   0.000134
        8   0.000164
        9   0.000168
       10   0.000031
       11   0.000004
       12   0.000065
       13   0.000067
       14   0.000068
       15   0.000053
       16   0.000053
       17  -0.000024
       18  -0.000012
       19  -0.000025
       20   0.000025
       21  -0.000149
       22  -0.000132
       23  -0.000098
       24   0.000071
       25   0.000165
       26   0.000219
       27   0.000192
       28   0.000092
       29   0.000025
       30   0.000005
       31  -0.000041
       32  -0.000056
       33  -0.000060
       34   0.000060
       35   0.000079
       36   0.000075
       37  -0.000012
       38   0.000163
       39   0.000293
       40   0.000331
       41   0.000103
       42   0.000017
       43  -0.000042
       44   0.000009
       45  -0.000074
       46  -0.000099
       47  -0.000106
       48  -0.000330
       49  -0.000318
       50  -0.000380
       51  -0.000130
       52  -0.000083
       53  -0.000002
       54   0.000150
       55   0.000149
       56   0.000156
       57   0.000020
       58   0.000043
       59   0.000026
       60   0.000131
       61   0.000039
       62   0.000032
       63  -0.000001
       64   0.000138
       65   0.000176
       66   0.000199
       67   0.000086
       68   0.000059
       69  -0.000034
       70   0.000027
       71   0.000028
       72   0.000262
       73   0.000239
       74   0.000254
       75   0.000014
       76   0.000018
       77  -0.000009
       78   0.000042
       79   0.000188
       80   0.000472
       81   0.000449
       82   0.000337
       83   0.000046
       84   0.000017
       85   0.000039
       86   0.000053
       87  -0.000097
       88  -0.000138
       89  -0.000113
       90   0.000121
       91  -0.000038
       92  -0.000065
       93  -0.000099
       94   0.000062
       95   0.000067
       96   0.000005
       97  -0.000011
       98  -0.000038
       99  -0.000032
      100  -0.000037
      101   0.000290
      102   0.000269
      103   0.000271
      104  -0.000036
      105  -0.000640
      106  -0.000641
      107  -0.000628
      108   0.000089
      109   0.000080
      110   0.000160
      111   0.000078
      112   0.000088
      113   0.000095
      114   0.000008
      115   0.000066
      116  -0.000030
      117   0.000025
      118  -0.000018
      119   0.000023
      120   0.000040
      121   0.000025
      122   0.000101
      123   0.000172
      124   0.000188
      125  -0.000051
      126  -0.000169
      127  -0.000046
      128   0.000075
      129   0.000136
      130   0.000026
      131   0.000066
      132   0.000077
      133   0.000036
      134  -0.000224
      135  -0.000228
      136  -0.000163
      137  -0.000348
      138  -0.000340
      139  -0.000358
      140   0.000046
      141   0.000035
      142  -0.000065
      143  -0.000083
      144  -0.000069
      145  -0.000004
      146   0.000015
      147  -0.000004
      148  -0.000002
      149  -0.000007
      150  -0.000018
      151  -0.000079
      152  -0.000115
      153  -0.000257
      154  -0.000215
      155  -0.000139
      156  -0.000027
      157   0.000000
      158   0.000000
      159   0.000000