pos          info
        0 -5.272452e-05
        1 -4.003528e-04
        2  1.864739e-05
        3 -2.760865e-04
        4 -3.396039e-04
        5 -2.587415e-04
        6 -8.024525e-05
        7  3.428971e-04
        8  4.326086e-06
        9 -1.535681e-04
       10  4.672489e-09
       11 -3.699999e-04
       12  6.847017e-05
       13  2.630566e-08
       14 -2.209501e-05
       15  1.421684e-05
       16 -5.435574e-05
       17 -2.521203e-04
       18  3.288552e-04
       19 -5.922495e-05
       20  1.429253e-05
       21  3.153714e-06
       22 -1.278707e-05
       23 -2.811476e-04
       24  1.568613e-04
       25  1.925158e-04
       26  1.074058e-04
       27  3.598375e-04
       28 -1.439823e-04
       29 -1.206611e-05
       30 -2.863592e-06
       31  3.110969e-04
       32  1.073150e-04
       33 -3.857259e-05
       34  7.845036e-05
       35  2.184383e-05
       36  1.541086e-04
       37  1.646367e-05
       38  9.990864e-05
       39 -3.782781e-06
       40 -6.234805e-07
       41 -9.852909e-05
       42 -1.767921e-05
       43 -6.440215e-05
       44  2.632945e-05
       45 -2.757477e-04
       46 -9.738377e-08
       47  5.339548e-05
       48  5.224377e-05
       49 -8.531829e-06
       50  1.654751e-06
       51 -7.684868e-05
       52  1.847571e-04
       53  1.359583e-05
       54 -3.572976e-05
       55 -8.453078e-05
       56 -2.136966e-04
       57 -1.810784e-04
       58 -1.085377e-04
       59  7.693008e-05
       60  9.468203e-05
       61 -1.711933e-04
       62  9.207060e-05
       63  3.054584e-05
       64 -1.325238e-04
       65 -6.670991e-06
       66 -6.022924e-06
       67 -3.719151e-06
       68  5.119150e-04
       69  1.423071e-05
       70 -2.878801e-04
       71 -2.090852e-06
       72 -3.770951e-06
       73  1.835040e-04
       74 -1.120123e-04
       75  5.697350e-05
       76  3.480435e-06
       77  6.155278e-04
       78  1.008594e-04
       79 -1.515331e-04
       80  2.124940e-04
       81  4.166665e-04
       82  4.768231e-05
       83  7.225940e-04
       84  1.786855e-04
       85 -1.016716e-05
       86  3.123168e-05
       87  7.167568e-06
       88 -3.100657e-05
       89 -8.302744e-05
       90 -1.198376e-07
       91 -1.865865e-04
       92  4.501930e-04
       93  3.946515e-05
       94  8.419655e-05
       95 -7.782135e-05
       96 -5.288723e-04
       97  2.394314e-04
       98  1.341893e-04
       99 -2.233229e-04
      100 -9.935854e-04
      101 -5.575563e-09
      102  8.979474e-06
      103 -3.430397e-04
      104  4.974347e-04
      105  7.163306e-04
      106 -4.149204e-04
      107  2.702690e-04
      108  8.012959e-04
      109  3.925990e-04
      110  1.554007e-05
      111  3.422987e-05
      112 -2.194205e-05
      113 -5.705277e-05
      114 -2.194148e-06
      115  3.783591e-04
      116  4.714518e-07
      117 -5.049624e-04
      118  6.198064e-04
      119  2.404423e-04
      120 -3.610711e-05
      121 -1.522852e-04
      122 -6.176837e-05
      123 -5.791226e-05
      124  1.266737e-04
      125 -6.845681e-05
      126  1.303080e-05
      127 -2.099925e-04
      128  1.212579e-04
      129  9.312923e-05
      130  1.006468e-04
      131  5.804386e-06
      132  1.637847e-05
      133 -4.751195e-06
      134  1.802685e-04
      135 -9.516474e-05
      136 -1.204241e-05
      137  5.337771e-05
      138  3.125481e-04
      139 -3.174924e-06
      140 -1.367083e-06
      141 -1.957711e-04
      142  4.276640e-05
      143 -5.443547e-04
      144  3.031152e-04
      145 -2.538107e-04
      146 -8.257321e-05
      147  8.262965e-06
      148  4.521658e-05
      149 -3.279398e-05
      150 -2.550130e-05
      151  1.289986e-05
      152 -2.573290e-04
      153  3.455808e-04
      154  3.928916e-05
      155  2.995972e-05
      156 -5.377800e-05
      157  4.704486e-06
      158  3.757317e-04
      159  8.045528e-05