pos          info
        0  7.220546e-05
        1  4.813269e-04
        2 -1.588317e-05
        3  2.247561e-04
        4  3.997676e-04
        5  2.712316e-04
        6  6.194980e-05
        7 -2.351161e-04
        8 -1.120280e-05
        9  1.753882e-04
       10 -4.739445e-06
       11  4.175056e-04
       12 -3.759094e-05
       13  1.087454e-06
       14  2.129172e-05
       15 -1.824278e-05
       16  4.572600e-05
       17  1.959878e-04
       18 -3.210861e-04
       19  1.116304e-04
       20 -7.850549e-07
       21 -1.303497e-06
       22  9.934967e-06
       23  2.487704e-04
       24 -1.988048e-04
       25 -1.363744e-04
       26 -5.780221e-05
       27 -3.085731e-04
       28  1.277518e-04
       29  1.124867e-05
       30  5.708723e-06
       31 -2.579047e-04
       32 -6.302114e-05
       33  4.968438e-05
       34 -7.620658e-05
       35 -1.871168e-05
       36 -1.198091e-04
       37 -2.962916e-05
       38 -1.102249e-04
       39  9.719682e-06
       40  2.244201e-07
       41  6.902828e-05
       42  1.515670e-05
       43  4.566607e-05
       44 -2.707110e-05
       45  2.904423e-04
       46  1.550654e-07
       47 -4.925471e-05
       48 -5.411373e-05
       49  4.445852e-06
       50  4.134086e-10
       51  9.053055e-05
       52 -2.264084e-04
       53 -2.311138e-05
       54  5.366693e-05
       55  8.591605e-05
       56  1.899030e-04
       57  1.255244e-04
       58  1.511464e-04
       59 -4.136603e-05
       60 -9.047693e-05
       61  1.290200e-04
       62 -6.159643e-05
       63 -4.186205e-05
       64  1.170745e-04
       65  1.311165e-05
       66  1.090617e-05
       67  4.913644e-06
       68 -4.632978e-04
       69 -1.262044e-05
       70  3.046491e-04
       71  1.942084e-06
       72  1.039272e-05
       73 -2.538053e-04
       74  1.101163e-04
       75 -4.036467e-05
       76  7.846629e-08
       77 -5.394307e-04
       78 -1.041453e-04
       79  1.505572e-04
       80 -2.328859e-04
       81 -3.401532e-04
       82 -4.304203e-05
       83 -7.008434e-04
       84 -1.668377e-04
       85  1.432222e-05
       86 -2.711184e-06
       87 -1.129258e-05
       88  1.994663e-05
       89  6.135432e-05
       90  6.934796e-06
       91  2.153524e-04
       92 -3.540470e-04
       93 -3.786435e-05
       94 -8.825577e-05
       95  1.118111e-04
       96  5.551995e-04
       97 -2.790878e-04
       98 -1.298500e-04
       99  2.532838e-04
      100  1.122322e-03
      101  2.135442e-08
      102 -8.314561e-06
      103  2.211637e-04
      104 -5.250316e-04
      105 -7.394689e-04
      106  4.765971e-04
      107 -2.372884e-04
      108 -8.242063e-04
      109 -3.920518e-04
      110 -2.121146e-05
      111 -4.227711e-05
      112  1.309389e-05
      113  1.928302e-05
      114 -1.537994e-09
      115 -3.921484e-04
      116  3.706703e-06
      117  5.763224e-04
      118 -5.542095e-04
      119 -2.834355e-04
      120  2.554297e-05
      121  1.847684e-04
      122  7.400072e-05
      123  3.938050e-05
      124 -9.832358e-05
      125  5.639477e-05
      126 -1.479167e-05
      127  2.273190e-04
      128 -1.544708e-04
      129 -1.064336e-04
      130 -7.557966e-05
      131 -4.831974e-06
      132 -1.547989e-05
      133  8.696432e-06
      134 -1.583787e-04
      135  9.688123e-05
      136  3.461690e-06
      137 -7.831034e-05
      138 -3.790482e-04
      139  5.422679e-06
      140  1.207107e-06
      141  1.829374e-04
      142 -3.059481e-05
      143  5.720449e-04
      144 -3.489499e-04
      145  3.166647e-04
      146  8.488497e-05
      147 -2.270435e-06
      148 -1.016917e-04
      149  4.150990e-05
      150  1.660855e-05
      151 -1.336722e-05
      152  2.636102e-04
      153 -4.317500e-04
      154 -1.439097e-05
      155 -2.441077e-05
      156  8.176919e-05
      157 -3.129223e-06
      158 -3.992671e-04
      159 -9.558712e-05