pos          info
        0 -5.097194e-05
        1 -5.975135e-06
        2  1.007302e-05
        3  4.145416e-05
        4  3.747169e-05
        5  3.067140e-05
        6 -1.099211e-05
        7 -7.581531e-06
        8 -1.210058e-06
        9 -3.192028e-06
       10 -1.144771e-05
       11 -1.102300e-05
       12 -2.522646e-05
       13 -1.743122e-05
       14 -4.160581e-05
       15 -2.112846e-05
       16 -2.033887e-05
       17  1.952213e-06
       18 -5.375457e-06
       19 -1.818113e-05
       20 -1.879524e-05
       21 -1.320961e-05
       22 -6.765036e-05
       23 -7.269970e-05
       24 -6.751603e-05
       25  5.550623e-05
       26 -2.283103e-06
       27 -1.469551e-05
       28 -5.183496e-05
       29  1.017579e-05
       30  1.970040e-05
       31 -1.885893e-05
       32 -6.140470e-05
       33 -2.561887e-05
       34 -9.387942e-06
       35 -2.541644e-05
       36 -3.977747e-05
       37 -3.550043e-05
       38  4.281761e-05
       39  3.848604e-05
       40  2.145271e-05
       41  5.453189e-06
       42 -1.331582e-05
       43  1.283990e-05
       44  1.058240e-05
       45  8.513941e-05
       46  7.413243e-05
       47  7.294926e-05
       48 -2.372746e-08
       49 -3.726596e-05
       50 -2.803595e-05
       51 -3.019040e-05
       52 -4.729024e-06
       53 -6.682314e-06
       54  2.165122e-05
       55 -8.844322e-05
       56 -9.388677e-05
       57 -1.647496e-04
       58 -2.595535e-05
       59  2.525778e-06
       60  3.805130e-05
       61  4.223969e-05
       62  2.034668e-05
       63  7.395229e-05
       64  9.033123e-05
       65  1.051033e-04
       66  5.961969e-05
       67  3.928811e-05
       68  3.135894e-05
       69  3.228346e-05
       70  2.034560e-05
       71  3.868396e-06
       72  4.145984e-07
       73  3.399837e-06
       74  6.812956e-07
       75  2.884230e-04
       76  3.275692e-04
       77  3.680766e-04
       78  3.465296e-04
       79  1.014372e-03
       80  1.375720e-03
       81  1.518526e-03
       82  8.033542e-04
       83  5.239198e-04
       84  4.343500e-04
       85  6.445772e-04
       86  6.727746e-04
       87  4.750677e-04
       88  2.613404e-04
       89  7.111144e-05
       90 -5.069505e-05
       91 -4.306736e-05
       92 -6.791589e-05
       93 -4.430280e-05
       94 -3.317139e-05
       95  2.435849e-05
       96  1.184557e-04
       97  9.511445e-05
       98  2.376985e-04
       99  2.906439e-04
      100  4.692383e-04
      101  5.330869e-04
      102  7.366354e-04
      103  5.788369e-04
      104  3.848887e-04
      105  1.406074e-05
      106  5.386437e-06
      107  2.312414e-05
      108  4.972446e-05
      109  5.728743e-05
      110  4.565549e-05
      111  1.934731e-05
      112 -3.530890e-05
      113 -4.286580e-05
      114 -4.391155e-05
      115 -5.732895e-05
      116  7.006237e-05
      117  9.002318e-05
      118  3.084560e-04
      119  1.842203e-04
      120  4.739523e-04
      121  3.138305e-04
      122  3.209482e-04
      123 -5.044046e-05
      124 -1.713148e-04
      125 -1.866794e-04
      126 -1.160665e-04
      127 -5.828558e-06
      128 -2.149325e-07
      129 -6.581306e-05
      130 -2.687329e-05
      131 -1.543734e-05
      132 -3.305205e-05
      133 -6.316167e-05
      134 -1.521115e-05
      135  3.042842e-05
      136  3.053301e-05
      137 -2.340560e-05
      138  9.526949e-05
      139  1.013105e-04
      140  2.311399e-05
      141 -6.306783e-04
      142 -6.352000e-04
      143 -5.328764e-04
      144  1.725962e-04
      145  2.624036e-04
      146  3.571329e-04
      147  2.040616e-04
      148  2.745772e-06
      149 -1.391195e-04
      150 -2.316416e-04
      151 -2.744735e-04
      152 -2.724753e-04
      153 -1.547260e-04
      154 -6.564627e-07
      155 -5.434915e-05
      156 -2.247107e-04
      157  0.000000e+00
      158  0.000000e+00
      159  0.000000e+00