pos          info
        0 -1.085519e-04
        1 -4.984829e-05
        2  1.140396e-05
        3  1.996744e-06
        4  5.865569e-06
        5  1.414399e-04
        6 -2.350964e-06
        7 -1.074105e-05
        8 -1.499255e-05
        9  6.880432e-06
       10  4.393403e-06
       11 -1.535157e-05
       12 -2.494843e-05
       13  6.524243e-06
       14 -6.926257e-05
       15  9.527448e-07
       16 -5.298036e-05
       17  2.383057e-07
       18  2.790184e-06
       19  1.727974e-07
       20 -2.209893e-05
       21 -4.520394e-05
       22 -2.978610e-06
       23 -1.116797e-06
       24 -1.816259e-04
       25 -1.748093e-05
       26  1.135029e-05
       27  1.574271e-04
       28 -1.926332e-04
       29 -3.404960e-05
       30  5.330812e-05
       31 -5.917348e-06
       32  5.782088e-06
       33 -5.765526e-05
       34 -1.228192e-04
       35  1.052587e-04
       36 -9.256240e-06
       37 -1.852022e-04
       38  7.422335e-05
       39  6.665419e-06
       40  5.910862e-05
       41  6.185544e-05
       42 -4.527773e-05
       43  7.579496e-06
       44 -2.566227e-06
       45  2.973273e-05
       46 -1.617836e-06
       47  2.330527e-04
       48 -2.388474e-07
       49 -9.141070e-07
       50  4.865171e-06
       51 -1.128787e-04
       52  3.327335e-05
       53 -4.927304e-06
       54 -3.555793e-05
       55  1.425617e-05
       56  9.557923e-05
       57 -3.635439e-04
       58  5.761311e-07
       59 -1.361365e-04
       60  4.357830e-05
       61  8.365839e-05
       62 -1.722505e-05
       63  6.902884e-05
       64  1.337087e-05
       65  1.417159e-04
       66  1.149646e-04
       67  6.231357e-05
       68 -4.848629e-08
       69  3.895982e-05
       70  3.858918e-05
       71  3.571792e-06
       72  1.531514e-05
       73 -1.326234e-06
       74 -1.771990e-05
       75  1.557046e-05
       76 -1.301689e-05
       77  8.271014e-04
       78  1.694728e-04
       79  8.745790e-05
       80  8.476581e-04
       81  2.456191e-03
       82  1.309778e-03
       83  1.283358e-03
       84 -3.610176e-07
       85  4.047043e-04
       86  1.041356e-03
       87  6.069266e-04
       88  3.983639e-04
       89  3.652150e-04
       90 -1.300636e-05
       91 -1.231166e-04
       92 -7.785553e-06
       93  9.272711e-06
       94 -2.155491e-04
       95  6.843300e-05
       96  5.929027e-05
       97 -3.007261e-05
       98  3.405951e-04
       99 -2.537458e-05
      100  3.808744e-04
      101  5.050226e-04
      102  5.107960e-04
      103  5.640940e-04
      104  1.262921e-03
      105  2.792987e-05
      106  1.469183e-06
      107  5.486332e-06
      108  1.398979e-05
      109  4.997479e-05
      110  8.515322e-05
      111  3.022837e-05
      112  1.774987e-05
      113  2.288738e-06
      114 -1.250940e-04
      115 -2.415751e-06
      116  1.117708e-06
      117 -1.883704e-04
      118  3.817948e-04
      119  4.148657e-05
      120  5.283943e-04
      121  1.559437e-05
      122  9.509906e-04
      123  1.954746e-05
      124  3.059209e-05
      125 -2.108253e-04
      126 -3.622202e-04
      127 -1.608251e-05
      128  2.178648e-05
      129 -2.284354e-05
      130 -3.988333e-06
      131 -1.587391e-04
      132  8.852915e-05
      133  3.030986e-05
      134 -1.947939e-04
      135 -1.323075e-06
      136  1.708358e-04
      137 -7.421535e-05
      138 -1.969718e-07
      139  1.724796e-05
      140  2.559199e-04
      141  1.134903e-05
      142 -2.021133e-04
      143 -1.597961e-03
      144  4.968534e-06
      145  7.143068e-05
      146  4.133092e-04
      147  2.690023e-04
      148  3.665363e-04
      149 -3.683651e-05
      150 -3.231202e-04
      151 -6.174124e-05
      152 -2.940240e-04
      153 -4.329496e-04
      154 -4.655010e-05
      155  3.340918e-05
      156  1.993356e-06
      157 -1.909135e-04
      158 -4.578588e-04
      159 -4.105918e-04