pos          info
        0  2.096057e-04
        1  2.077875e-04
        2  4.330869e-05
        3 -1.295053e-05
        4 -1.580505e-05
        5 -3.352811e-04
        6 -3.860944e-04
        7 -3.834052e-04
        8 -4.724659e-05
        9 -3.372809e-06
       10  2.455580e-05
       11 -9.067668e-05
       12 -7.504698e-05
       13 -1.060233e-04
       14  9.604003e-06
       15  4.626530e-07
       16 -3.894973e-05
       17  1.021629e-05
       18  9.110626e-06
       19 -1.514980e-05
       20 -7.079611e-05
       21 -5.730346e-05
       22  3.837650e-05
       23  4.440204e-05
       24  2.403616e-05
       25 -7.947712e-06
       26 -1.128717e-05
       27  1.443483e-06
       28  3.093524e-06
       29  3.212580e-05
       30  4.074037e-05
       31  2.735184e-05
       32 -1.204592e-06
       33 -2.331933e-05
       34  1.751651e-05
       35 -1.858167e-05
       36 -7.727838e-06
       37 -1.774143e-05
       38  1.725832e-05
       39  5.569893e-05
       40  4.093871e-05
       41  3.967923e-05
       42 -6.185398e-05
       43 -3.599641e-05
       44 -3.582031e-05
       45  4.159431e-05
       46  1.219727e-04
       47  1.693772e-04
       48  1.978355e-04
       49  9.993739e-05
       50  6.122321e-05
       51 -7.275441e-05
       52 -8.506357e-05
       53 -8.557016e-05
       54  2.350181e-05
       55  7.321848e-05
       56  6.738911e-05
       57  2.728508e-05
       58 -2.749691e-05
       59  4.997777e-05
       60  1.375433e-04
       61  1.420899e-04
       62  6.205773e-05
       63 -3.815591e-06
       64 -6.437855e-05
       65 -5.683330e-05
       66 -5.063611e-05
       67  2.418289e-05
       68 -5.501308e-06
       69 -1.052666e-05
       70 -1.131933e-04
       71  3.901350e-05
       72  2.098701e-04
       73  3.471487e-04
       74  2.239796e-04
       75  5.805630e-05
       76 -1.098520e-05
       77 -3.164701e-05
       78 -1.056985e-04
       79 -8.500302e-05
       80 -1.915791e-04
       81 -1.226291e-04
       82 -1.226673e-04
       83  5.989724e-09
       84  3.108403e-05
       85  1.953294e-05
       86  3.096512e-04
       87  2.753962e-04
       88  2.869358e-04
       89 -6.553611e-05
       90 -4.369237e-04
       91  4.506308e-05
       92  3.300180e-04
       93  7.727992e-04
       94  3.269745e-04
       95  1.293320e-04
       96  4.050585e-05
       97  4.863381e-06
       98 -6.343282e-05
       99 -1.328569e-05
      100 -2.901804e-05
      101  1.336815e-04
      102 -3.280643e-05
      103 -2.758289e-05
      104 -2.532849e-04
      105 -1.279071e-04
      106  1.295623e-04
      107  2.137067e-04
      108  1.723354e-04
      109 -5.824480e-05
      110 -3.649140e-05
      111 -1.516876e-04
      112 -1.972995e-04
      113 -2.019358e-04
      114 -1.107176e-03
      115 -7.743399e-04
      116 -7.540004e-04
      117  4.407452e-04
      118 -2.233541e-04
      119 -5.779283e-05
      120 -1.472812e-04
      121  1.965126e-04
      122 -1.438355e-04
      123 -9.461761e-05
      124 -7.782619e-05
      125  4.503798e-05
      126  1.943068e-04
      127  3.545037e-04
      128 -1.566425e-04
      129 -3.043249e-04
      130 -4.219617e-04
      131  3.790471e-04
      132  5.152147e-04
      133  4.675440e-04
      134  1.761630e-04
      135 -3.032785e-05
      136  2.217285e-04
      137  2.836386e-04
      138  2.898047e-04
      139  1.630727e-04
      140  1.189169e-04
      141  1.567271e-04
      142  7.463725e-05
      143  2.409393e-04
      144  1.836634e-04
      145  1.858893e-04
      146 -4.882056e-05
      147  5.770276e-05
      148  1.570278e-05
      149  8.189297e-05
      150 -4.186797e-05
      151  7.886062e-05
      152  1.303639e-04
      153  1.372848e-04
      154  1.902555e-05
      155  3.944113e-05
      156  5.143595e-05
      157  0.000000e+00
      158  0.000000e+00
      159  0.000000e+00