pos          info
        0 -2.180910e-04
        1 -2.746320e-04
        2 -6.566489e-05
        3  2.102090e-07
        4  3.434002e-05
        5 -9.325913e-05
        6 -1.932908e-04
        7 -1.382675e-04
        8  1.107884e-04
        9  2.543056e-05
       10  1.649236e-04
       11  7.807878e-06
       12 -2.367261e-04
       13 -2.644645e-05
       14 -4.813703e-06
       15 -1.783939e-05
       16  8.026928e-06
       17  2.639304e-05
       18  8.528772e-06
       19 -6.571853e-05
       20 -3.729504e-05
       21  4.907856e-05
       22 -2.273372e-04
       23 -1.319907e-04
       24 -4.811999e-04
       25 -7.671039e-05
       26  1.453326e-04
       27  1.491591e-04
       28  1.622240e-05
       29 -1.981946e-04
       30  3.176273e-04
       31 -1.236804e-04
       32 -3.106910e-05
       33 -4.474421e-06
       34 -3.073091e-05
       35 -3.957760e-07
       36 -1.059262e-04
       37  3.330590e-06
       38  1.161443e-08
       39  6.516673e-06
       40 -1.698087e-06
       41 -7.170582e-05
       42 -1.683056e-04
       43 -1.413141e-04
       44 -1.593058e-04
       45 -4.053053e-05
       46 -3.353093e-05
       47  3.592652e-05
       48  8.280563e-05
       49  4.868028e-07
       50 -5.437479e-09
       51  1.662094e-04
       52 -1.276038e-04
       53  1.658306e-05
       54  9.476973e-05
       55 -2.357427e-04
       56  2.703805e-04
       57  3.180484e-05
       58 -2.231226e-04
       59 -6.132937e-05
       60 -5.877142e-05
       61  4.218224e-04
       62 -5.539685e-05
       63 -5.311432e-05
       64 -3.240690e-05
       65  1.074348e-05
       66  2.796955e-04
       67 -9.386802e-07
       68  2.221457e-05
       69  2.142391e-04
       70  8.684111e-05
       71 -5.287470e-05
       72 -1.853219e-08
       73 -8.587861e-06
       74  2.746805e-04
       75 -9.988869e-05
       76  1.935219e-04
       77 -4.121368e-05
       78  1.058990e-04
       79  3.898332e-05
       80 -2.429252e-04
       81 -4.916336e-06
       82 -2.899137e-08
       83 -8.209958e-05
       84 -2.378300e-04
       85  2.190059e-04
       86  6.573531e-06
       87  2.358451e-06
       88 -9.808976e-05
       89  5.236744e-04
       90  2.374840e-07
       91 -2.489394e-05
       92  1.129512e-04
       93 -1.677302e-05
       94 -1.760359e-04
       95 -2.311580e-05
       96 -7.443603e-05
       97  1.698917e-04
       98 -1.107163e-05
       99  1.722738e-04
      100 -3.470243e-04
      101 -2.382120e-04
      102  4.904569e-05
      103  5.476256e-06
      104  2.581489e-05
      105 -3.598094e-05
      106 -1.223128e-04
      107  1.935262e-03
      108 -9.455402e-05
      109 -3.553659e-05
      110  1.140753e-03
      111 -9.993901e-05
      112 -4.099647e-06
      113 -1.767050e-05
      114  6.845442e-05
      115  3.691588e-06
      116  4.593855e-04
      117 -1.927189e-04
      118 -1.729461e-05
      119 -2.372692e-04
      120 -7.606502e-05
      121  1.927020e-04
      122 -8.406553e-05
      123  6.058067e-05
      124  4.447193e-04
      125 -1.510223e-04
      126  5.953337e-05
      127 -3.569507e-04
      128  1.291415e-06
      129 -4.465226e-04
      130 -3.226256e-04
      131 -1.235412e-04
      132  1.843186e-04
      133  2.291578e-04
      134 -4.497207e-06
      135 -4.873611e-05
      136 -1.144178e-04
      137  1.141906e-04
      138 -1.242376e-04
      139 -2.996454e-06
      140  8.553473e-06
      141 -1.748802e-06
      142  4.714859e-05
      143 -1.602065e-04
      144 -1.979836e-04
      145 -6.721380e-05
      146  2.665860e-05
      147 -5.696602e-06
      148  1.081739e-03
      149 -3.243142e-04
      150  2.193544e-04
      151 -1.924315e-04
      152  9.938853e-05
      153  1.678660e-05
      154  7.839462e-05
      155  5.873712e-04
      156  7.855992e-04
      157  2.408982e-08
      158 -3.736920e-04
      159 -1.489159e-05