pos          info
        0 -4.992060e-05
        1 -1.340163e-04
        2 -2.886933e-05
        3  7.567170e-05
        4  4.895252e-05
        5 -7.643437e-05
        6 -2.907534e-05
        7 -8.975641e-05
        8  8.092489e-05
        9  2.448717e-05
       10  9.593562e-05
       11  2.021275e-05
       12 -6.834541e-05
       13 -2.796708e-05
       14 -3.994124e-05
       15  7.816275e-07
       16 -1.672019e-07
       17 -5.288469e-06
       18  3.603432e-06
       19 -5.881909e-05
       20 -2.171240e-04
       21  5.665798e-05
       22 -4.373731e-05
       23 -1.520242e-06
       24 -3.072223e-04
       25 -9.698504e-05
       26  2.025940e-04
       27  1.658183e-04
       28  9.742187e-08
       29 -7.439057e-05
       30  2.284399e-04
       31 -2.178779e-04
       32 -2.510729e-05
       33  8.904446e-06
       34 -1.524566e-05
       35  8.802898e-08
       36 -3.931441e-05
       37  3.936951e-05
       38  4.677758e-05
       39  8.664390e-06
       40  3.647343e-06
       41 -3.209581e-05
       42 -6.638761e-05
       43 -1.010834e-04
       44 -2.119139e-04
       45 -1.027874e-05
       46  4.840740e-06
       47  1.043553e-04
       48  1.020961e-05
       49  2.003325e-06
       50 -3.408125e-06
       51  1.763028e-04
       52 -1.954192e-05
       53 -8.564185e-06
       54  8.902863e-05
       55 -1.284063e-04
       56  4.277970e-04
       57  1.858315e-05
       58 -1.104686e-04
       59 -9.732131e-05
       60 -7.342357e-05
       61  1.426331e-04
       62 -9.709528e-05
       63 -2.079361e-05
       64 -3.333423e-05
       65 -8.534578e-07
       66  5.545391e-05
       67 -1.084679e-06
       68  1.438117e-05
       69  3.284749e-04
       70  3.614289e-05
       71 -6.530062e-05
       72  2.385158e-05
       73  7.941725e-06
       74  1.777551e-04
       75 -1.487516e-05
       76  1.721808e-04
       77 -2.868007e-05
       78  6.911198e-05
       79  6.623853e-05
       80 -3.070766e-04
       81  1.886735e-05
       82 -1.399068e-04
       83 -1.184223e-04
       84 -4.144498e-04
       85  3.819292e-05
       86 -2.768282e-05
       87 -8.842519e-06
       88 -6.551088e-05
       89  4.627557e-04
       90 -5.817445e-06
       91 -1.973216e-05
       92  1.359674e-04
       93 -5.290512e-06
       94 -1.067219e-04
       95 -1.519811e-08
       96 -1.161211e-04
       97  5.006251e-06
       98 -1.719533e-05
       99  3.626443e-04
      100 -3.001506e-04
      101 -3.590318e-05
      102  2.302419e-05
      103  8.165750e-06
      104 -1.026701e-06
      105  9.998046e-06
      106 -1.400323e-04
      107  1.723202e-03
      108 -2.990218e-04
      109 -3.385229e-05
      110  8.432848e-04
      111 -6.987741e-05
      112 -2.209956e-05
      113 -3.390665e-06
      114  9.685527e-05
      115 -1.091721e-10
      116  3.631183e-04
      117 -1.765769e-05
      118 -1.901266e-05
      119 -2.405380e-04
      120 -1.440192e-04
      121  2.077100e-06
      122 -2.289870e-04
      123  1.500700e-04
      124  6.063367e-04
      125 -3.176879e-04
      126  5.012366e-04
      127 -3.729040e-04
      128 -7.346793e-07
      129 -2.771474e-04
      130 -4.358598e-04
      131 -1.208118e-04
      132  5.768157e-04
      133  5.632077e-04
      134 -3.208226e-05
      135 -8.107611e-05
      136 -2.013325e-07
      137  6.239766e-05
      138 -4.050284e-05
      139  8.327035e-06
      140 -2.400711e-06
      141  6.402942e-05
      142  1.982518e-04
      143 -2.238949e-04
      144 -9.412720e-05
      145 -1.053067e-04
      146  1.411299e-04
      147 -2.404126e-05
      148  1.193236e-03
      149 -2.899605e-04
      150  1.980792e-04
      151 -3.411404e-04
      152  2.042529e-04
      153 -8.229217e-05
      154  8.956673e-05
      155  8.655804e-04
      156  7.745044e-04
      157 -6.679751e-05
      158 -2.425205e-04
      159 -1.374098e-04