pos          info
        0 -6.376657e-05
        1 -6.982090e-05
        2 -5.556593e-05
        3  1.910100e-05
        4  1.054492e-05
        5 -6.512644e-06
        6 -1.578697e-05
        7 -7.299387e-05
        8  1.141078e-04
        9  9.467424e-06
       10  3.622740e-04
       11  6.015034e-05
       12 -2.156470e-04
       13  7.884200e-06
       14 -3.794668e-07
       15  5.042660e-08
       16  9.439144e-06
       17 -5.244573e-07
       18  4.811579e-05
       19  3.207070e-06
       20 -2.040073e-04
       21  1.336548e-04
       22 -2.129758e-05
       23 -2.249993e-05
       24 -4.149692e-04
       25 -2.312801e-04
       26  1.680839e-04
       27  1.966317e-04
       28  1.228719e-04
       29 -9.867874e-05
       30  6.436977e-04
       31 -2.231646e-04
       32 -5.355889e-05
       33  1.887794e-08
       34 -1.829064e-05
       35 -2.507860e-06
       36 -1.437944e-05
       37  7.290152e-06
       38  9.030483e-05
       39 -1.226668e-06
       40  1.853190e-05
       41 -2.578200e-05
       42 -8.286941e-05
       43 -1.792138e-04
       44 -2.167622e-04
       45 -1.733650e-04
       46 -1.931831e-05
       47  5.936201e-05
       48  2.144171e-05
       49  1.330631e-04
       50 -5.088306e-06
       51  1.542062e-04
       52 -9.029811e-06
       53  1.102402e-04
       54  1.137133e-04
       55 -1.832355e-04
       56  2.885171e-04
       57  1.372490e-05
       58 -1.064142e-04
       59 -4.140642e-05
       60 -6.493271e-05
       61  2.797495e-04
       62 -2.528732e-05
       63 -4.187253e-05
       64 -1.441837e-04
       65  1.795568e-05
       66  1.838372e-04
       67 -2.211480e-05
       68 -1.043366e-06
       69  2.557867e-05
       70  1.289740e-04
       71  6.090869e-07
       72 -6.080159e-07
       73 -7.641603e-06
       74  3.447998e-04
       75 -5.242197e-05
       76  4.090914e-05
       77 -1.346825e-05
       78  2.244847e-05
       79  1.312761e-04
       80 -4.573568e-04
       81  6.459269e-05
       82 -4.027075e-05
       83 -1.712842e-05
       84 -7.058722e-04
       85  2.063224e-04
       86 -3.091117e-05
       87 -1.549403e-05
       88 -1.827277e-06
       89  7.525141e-04
       90  1.335659e-05
       91 -9.463527e-05
       92  1.410017e-04
       93 -9.802969e-06
       94 -6.335276e-05
       95 -1.196313e-05
       96 -1.854048e-05
       97  2.314574e-04
       98 -4.094688e-06
       99  3.975493e-04
      100 -3.557190e-04
      101 -2.341458e-04
      102  8.956429e-05
      103  1.573134e-05
      104  8.503802e-05
      105  2.559595e-06
      106 -1.284525e-04
      107  1.779680e-03
      108 -1.621168e-04
      109 -2.985953e-05
      110  7.665183e-04
      111 -1.331817e-04
      112 -7.804192e-05
      113 -8.675364e-05
      114  5.957172e-05
      115 -5.689757e-05
      116  6.598847e-04
      117 -8.704707e-05
      118 -4.043291e-05
      119 -2.399694e-04
      120 -7.149974e-05
      121  3.179893e-04
      122 -2.079375e-04
      123  7.603811e-05
      124  1.194369e-03
      125 -9.365578e-05
      126  2.881593e-04
      127 -3.513861e-04
      128 -3.155149e-05
      129 -8.368089e-04
      130 -5.328702e-04
      131 -1.319153e-04
      132  2.430574e-04
      133  3.696804e-04
      134  6.525981e-08
      135 -5.388337e-05
      136 -1.318350e-05
      137  3.451323e-04
      138 -1.100629e-04
      139  4.092934e-05
      140  5.812541e-08
      141  9.692296e-07
      142  7.896391e-05
      143 -2.269774e-04
      144 -3.700679e-04
      145 -7.483108e-05
      146  2.465711e-04
      147 -9.283077e-05
      148  1.000300e-03
      149 -4.686062e-04
      150  2.271776e-04
      151 -3.867530e-04
      152  1.532288e-06
      153  3.448885e-05
      154  1.480091e-04
      155  4.198268e-04
      156  8.318144e-04
      157 -1.772787e-05
      158 -2.727931e-04
      159 -7.481860e-05