pos          info
        0  1.684093e-04
        1  1.795909e-04
        2  4.917671e-05
        3  6.666043e-05
        4  1.607783e-05
        5  2.729330e-05
        6 -6.823360e-07
        7 -9.769226e-06
        8 -1.122257e-04
        9 -1.220978e-04
       10 -5.173800e-06
       11  1.181230e-04
       12  1.364083e-04
       13  3.824459e-05
       14  3.988741e-05
       15  3.548336e-05
       16  3.534750e-05
       17  7.679118e-06
       18  5.036262e-05
       19  4.452223e-05
       20  4.883550e-05
       21  7.636616e-05
       22  2.137110e-04
       23  2.835955e-04
       24  1.819335e-04
       25  3.962483e-05
       26 -3.577511e-05
       27  3.278625e-05
       28 -9.349624e-05
       29 -8.401868e-05
       30 -1.135635e-04
       31  6.120777e-05
       32  8.203996e-05
       33  6.801944e-05
       34  3.148339e-05
       35 -1.167150e-05
       36 -4.541838e-06
       37 -9.280378e-06
       38  1.064041e-05
       39  3.803238e-06
       40  1.302124e-04
       41  1.247697e-04
       42  2.043259e-04
       43  1.201480e-04
       44  9.812859e-05
       45 -1.780250e-05
       46 -8.393545e-05
       47 -7.327429e-05
       48 -3.715808e-05
       49 -2.472606e-05
       50  3.752227e-05
       51  3.387014e-05
       52  3.710984e-05
       53 -3.328838e-06
       54 -4.828628e-05
       55 -2.757966e-05
       56 -4.024915e-05
       57  9.736433e-06
       58  8.579498e-05
       59  9.000720e-05
       60  1.463361e-04
       61  1.698813e-04
       62  2.047049e-04
       63  1.246302e-04
       64 -4.427924e-06
       65 -3.492252e-05
       66 -5.951006e-05
       67 -1.734478e-04
       68 -1.885919e-04
       69 -1.324851e-04
       70  1.702534e-05
       71  2.588847e-05
       72 -2.330591e-04
       73 -2.216279e-04
       74 -2.367364e-04
       75  1.303404e-05
       76 -5.894098e-05
       77 -7.774370e-05
       78 -6.013548e-05
       79 -1.459387e-05
       80  1.009135e-04
       81  1.910329e-04
       82  2.536853e-04
       83  1.317426e-04
       84  3.262681e-05
       85  6.271440e-05
       86  1.313515e-04
       87  2.621152e-05
       88 -6.673802e-05
       89  3.337429e-06
       90  9.875818e-05
       91  1.042806e-04
       92  1.626218e-05
       93  4.582686e-05
       94  4.825979e-05
       95  8.479451e-06
       96 -1.942298e-05
       97 -1.240042e-04
       98 -5.062785e-05
       99 -4.946800e-05
      100  1.850843e-05
      101 -2.436935e-05
      102 -2.542241e-05
      103 -6.121709e-06
      104  6.146045e-06
      105 -7.767991e-04
      106 -7.006667e-04
      107 -6.697191e-04
      108 -1.043591e-04
      109 -1.294455e-04
      110 -1.605473e-04
      111  5.619241e-05
      112 -4.921819e-05
      113 -6.470653e-05
      114 -2.641345e-04
      115 -1.197972e-04
      116 -1.182052e-04
      117  1.502306e-04
      118  7.323996e-05
      119  5.431171e-05
      120 -1.320804e-07
      121 -3.052398e-05
      122 -2.848447e-04
      123 -2.933278e-04
      124 -3.286429e-04
      125  2.849049e-05
      126  7.134775e-05
      127  2.426083e-04
      128  3.287903e-04
      129  2.799330e-04
      130  1.123860e-04
      131 -6.176616e-05
      132 -4.732435e-05
      133  1.293698e-05
      134  9.047487e-06
      135 -4.114734e-05
      136 -5.340830e-06
      137  4.694950e-06
      138  2.779036e-05
      139 -1.486235e-04
      140 -2.449631e-04
      141 -5.973388e-05
      142  9.398433e-05
      143  3.173866e-04
      144  1.325436e-04
      145  1.329547e-04
      146 -2.805858e-04
      147 -1.333397e-04
      148 -2.404803e-04
      149  1.222669e-04
      150 -1.298983e-05
      151  8.086414e-05
      152 -5.454143e-05
      153 -2.848535e-04
      154 -4.083109e-04
      155 -3.594746e-04
      156  2.905179e-05
      157  0.000000e+00
      158  0.000000e+00
      159  0.000000e+00