pos          info
        0  1.746524e-04
        1  1.657534e-04
        2  2.883421e-04
        3 -6.110468e-06
        4  4.616213e-07
        5 -5.486067e-06
        6  3.983858e-06
        7  2.635463e-04
        8 -3.152676e-05
        9 -1.198112e-04
       10 -4.034714e-04
       11 -1.104969e-04
       12  5.294798e-04
       13 -7.292514e-06
       14 -6.056737e-06
       15 -7.083486e-06
       16 -4.651481e-05
       17  1.605848e-05
       18  1.944430e-05
       19  1.103326e-04
       20  1.218964e-04
       21 -1.110954e-04
       22  7.121970e-05
       23  1.332901e-04
       24  7.296883e-04
       25  9.467295e-05
       26 -2.282175e-04
       27 -5.329885e-06
       28 -1.449245e-08
       29  7.381614e-05
       30 -4.762772e-04
       31  4.177608e-04
       32  1.455952e-05
       33  4.758740e-05
       34  3.542634e-05
       35 -2.080298e-04
       36  2.414281e-04
       37 -3.925817e-05
       38  4.148191e-06
       39 -2.907328e-06
       40  2.183123e-06
       41  6.053746e-07
       42  4.282614e-04
       43  6.773328e-05
       44  1.010088e-04
       45  8.551348e-05
       46  5.383803e-05
       47 -6.955833e-05
       48 -8.240220e-06
       49  8.982435e-06
       50  1.188458e-04
       51 -1.406926e-04
       52  1.230513e-04
       53 -1.820157e-04
       54 -1.462143e-04
       55  8.776977e-05
       56 -1.620549e-04
       57  1.984704e-05
       58  5.355043e-06
       59 -1.029410e-05
       60  1.908167e-04
       61 -2.924527e-04
       62 -3.292794e-05
       63  6.995062e-05
       64  1.119641e-04
       65 -2.769891e-06
       66 -1.013848e-04
       67 -1.311377e-06
       68 -1.804786e-05
       69 -8.809274e-05
       70 -2.272313e-08
       71  5.734670e-06
       72  1.547053e-05
       73  2.758347e-05
       74 -6.373390e-04
       75  1.897113e-04
       76 -1.511695e-07
       77  7.071022e-05
       78 -3.533283e-05
       79 -1.638202e-06
       80  2.052167e-04
       81 -7.080270e-05
       82  5.954987e-05
       83  7.850120e-05
       84  2.482749e-04
       85 -2.889011e-05
       86  5.132511e-05
       87  1.864340e-05
       88  4.309680e-05
       89 -3.631764e-04
       90  2.477634e-05
       91  2.664576e-04
       92 -2.131512e-05
       93 -1.983729e-08
       94  3.333638e-04
       95  6.844046e-05
       96 -1.703733e-06
       97 -3.047718e-04
       98 -9.183943e-08
       99 -1.738373e-04
      100  2.580154e-04
      101 -2.404493e-05
      102 -1.522388e-04
      103  2.402607e-05
      104 -9.739992e-05
      105 -8.275010e-07
      106  3.874201e-04
      107 -1.247860e-03
      108  1.209400e-05
      109  6.705982e-06
      110 -7.015095e-04
      111  7.023828e-05
      112  4.634786e-05
      113  4.150075e-09
      114 -1.124212e-04
      115  9.741696e-05
      116 -7.837890e-04
      117  3.164835e-05
      118  7.457111e-06
      119  3.515026e-04
      120  8.133685e-05
      121 -3.959803e-04
      122  4.321896e-05
      123 -3.772660e-04
      124 -3.583941e-04
      125  1.658740e-04
      126 -6.328278e-04
      127  3.641769e-04
      128  5.060489e-05
      129  3.867626e-04
      130  2.950365e-04
      131  1.377835e-04
      132 -3.633370e-04
      133 -1.400248e-04
      134  1.557709e-05
      135  2.855165e-05
      136  2.020377e-05
      137 -4.428255e-04
      138  2.714154e-04
      139  1.702409e-05
      140  2.505850e-05
      141 -4.291888e-05
      142  1.365726e-05
      143  1.176430e-04
      144  1.729539e-04
      145  1.369884e-04
      146 -8.010017e-05
      147  5.166521e-05
      148 -1.573940e-03
      149  1.800632e-04
      150 -1.392957e-04
      151  1.345390e-04
      152 -2.180664e-04
      153 -9.825483e-05
      154 -3.135578e-05
      155 -6.303911e-04
      156 -5.903249e-04
      157 -3.804853e-06
      158  1.014458e-03
      159  3.551933e-04