pos          info
        0 -3.323677e-05
        1 -4.513290e-05
        2 -2.575263e-05
        3 -2.895771e-05
        4  1.953491e-06
        5  2.118163e-05
        6 -1.660067e-05
        7 -3.948984e-05
        8 -4.507120e-05
        9 -7.277340e-06
       10 -2.921753e-05
       11  3.904711e-06
       12  1.669115e-05
       13 -4.195583e-05
       14 -6.823805e-05
       15 -2.914708e-04
       16 -2.065126e-04
       17 -2.030019e-04
       18  4.835510e-06
       19  1.818842e-06
       20 -7.945304e-07
       21  3.026345e-04
       22  3.027849e-04
       23  2.730882e-04
       24 -2.629648e-05
       25 -1.066725e-04
       26 -1.483099e-04
       27 -7.277888e-05
       28  8.518752e-05
       29  1.903925e-04
       30  1.052891e-04
       31  2.881383e-04
       32  2.151008e-04
       33 -2.092790e-04
       34 -7.300353e-04
       35 -7.212807e-04
       36 -2.881549e-04
       37 -2.387895e-05
       38  5.301556e-06
       39 -1.167131e-05
       40 -1.191014e-05
       41 -5.207362e-05
       42 -4.897711e-05
       43 -3.330303e-06
       44  2.520664e-05
       45  5.676191e-05
       46  1.011246e-05
       47  6.541980e-05
       48  2.307029e-04
       49  2.846179e-04
       50  3.280236e-04
       51  5.611646e-04
       52  7.411866e-04
       53  7.228511e-04
       54  1.210895e-03
       55  1.742688e-03
       56  1.672340e-03
       57  7.799337e-04
       58  1.511611e-04
       59  3.240696e-04
       60  6.823018e-04
       61  5.447862e-04
       62  3.726626e-04
       63 -9.834348e-05
       64 -2.480145e-04
       65 -2.474849e-04
       66 -1.244262e-04
       67  1.250772e-05
       68  1.898132e-05
       69 -1.244998e-05
       70 -2.385356e-05
       71  1.564682e-04
       72  1.638829e-04
       73  2.682733e-04
       74  8.839963e-05
       75  8.930981e-05
       76  6.412160e-06
       77 -1.870957e-05
       78  1.356128e-04
       79  3.550051e-05
       80  9.659190e-05
       81 -1.461228e-04
       82 -5.412816e-05
       83 -1.050926e-04
       84 -1.429657e-05
       85 -7.098944e-06
       86  3.736743e-05
       87 -1.089441e-04
       88 -1.338459e-04
       89 -1.727812e-04
       90 -2.765699e-05
       91 -8.799773e-05
       92 -2.263278e-04
       93 -1.427013e-04
       94 -4.967568e-05
       95  6.757551e-05
       96 -1.618314e-06
       97 -1.012672e-05
       98  3.774621e-05
       99 -6.919364e-04
      100 -6.985350e-04
      101 -5.576292e-04
      102  6.270502e-04
      103  5.092687e-04
      104  5.605697e-04
      105  2.100100e-04
      106  3.607061e-04
      107  1.568674e-04
      108  4.653678e-05
      109  2.272308e-05
      110  7.478126e-06
      111 -4.151558e-04
      112 -4.218433e-04
      113 -4.781909e-04
      114 -6.297898e-05
      115 -6.435858e-05
      116 -1.907093e-04
      117 -2.393822e-04
      118 -5.014715e-04
      119 -1.369596e-04
      120  1.847678e-04
      121  4.446643e-04
      122  2.572772e-04
      123 -1.998534e-05
      124 -1.494996e-06
      125 -2.691587e-05
      126 -6.573535e-04
      127 -7.019205e-04
      128 -7.725933e-04
      129 -1.531590e-04
      130 -1.675168e-05
      131  9.418061e-05
      132  1.506347e-04
      133 -7.749719e-05
      134 -9.897095e-05
      135 -6.071625e-05
      136  2.622526e-05
      137 -8.014900e-05
      138 -1.290422e-04
      139 -8.841263e-05
      140  4.480271e-05
      141  1.135427e-05
      142 -4.015178e-06
      143 -1.598388e-04
      144 -1.890814e-04
      145 -1.936210e-04
      146 -3.865519e-05
      147  7.135498e-06
      148  3.820430e-05
      149  2.547171e-05
      150 -6.760453e-06
      151  6.653421e-05
      152  2.754022e-05
      153  4.050828e-05
      154 -3.633307e-05
      155  1.907800e-05
      156 -1.586816e-05
      157  0.000000e+00
      158  0.000000e+00
      159  0.000000e+00