pos          info
        0  3.826496e-05
        1  2.082612e-05
        2 -9.564765e-05
        3 -3.841938e-05
        4 -2.135536e-04
        5 -5.822787e-06
        6  7.134724e-05
        7  8.607487e-07
        8 -3.940619e-04
        9 -2.474494e-04
       10 -1.113294e-04
       11  8.260097e-06
       12 -1.046457e-04
       13  9.074631e-05
       14  5.974627e-05
       15 -9.545262e-05
       16  3.660129e-06
       17 -4.276106e-04
       18  1.001848e-06
       19  2.266417e-05
       20  1.597786e-04
       21  2.517314e-07
       22  4.756365e-05
       23  6.864521e-04
       24 -2.147463e-06
       25 -7.446695e-06
       26 -8.708052e-07
       27  4.358563e-12
       28 -1.955926e-04
       29  1.593301e-04
       30  4.602377e-05
       31  1.911912e-04
       32  3.910022e-07
       33  5.984887e-04
       34 -1.162431e-04
       35 -1.376157e-03
       36 -9.121745e-04
       37 -2.003430e-04
       38  4.598996e-05
       39 -2.064742e-06
       40  1.083724e-05
       41 -7.941925e-06
       42  1.731008e-05
       43 -4.005953e-05
       44 -3.171391e-05
       45  9.753463e-05
       46  1.863468e-05
       47 -2.330400e-05
       48 -5.011811e-06
       49 -5.038185e-08
       50  5.100487e-04
       51 -8.864334e-07
       52  2.803761e-04
       53  2.012783e-04
       54  1.791498e-04
       55  1.599747e-04
       56  9.491874e-04
       57  8.981158e-04
       58 -3.786061e-06
       59 -5.528279e-05
       60  1.535303e-04
       61  4.589770e-05
       62  5.724878e-04
       63  6.589378e-05
       64  1.881200e-05
       65 -1.364048e-04
       66 -2.271233e-04
       67  9.921748e-05
       68  2.221162e-04
       69 -5.088986e-05
       70 -2.096455e-06
       71 -3.754197e-05
       72 -1.835951e-05
       73  1.107820e-04
       74 -1.695611e-06
       75  1.487315e-04
       76  3.652270e-06
       77  1.112899e-05
       78 -9.314078e-10
       79 -1.294837e-04
       80  3.795149e-04
       81 -9.498021e-04
       82  1.459334e-04
       83 -2.346777e-04
       84  1.264354e-05
       85 -6.033844e-06
       86  2.150055e-05
       87 -1.886825e-06
       88  1.078350e-04
       89 -2.756427e-04
       90 -5.996531e-05
       91 -3.452862e-05
       92 -4.631673e-06
       93 -2.786122e-04
       94 -2.498334e-04
       95  7.760116e-05
       96  4.037233e-05
       97 -1.282064e-04
       98  4.271353e-05
       99  2.029116e-05
      100  3.508859e-04
      101 -2.449119e-03
      102  3.169853e-05
      103  2.215706e-04
      104  9.489960e-04
      105 -9.814702e-05
      106  1.129177e-03
      107  5.806981e-04
      108  6.297786e-04
      109  2.651440e-06
      110  1.182126e-04
      111  3.499751e-06
      112 -2.497592e-06
      113 -9.898570e-04
      114  1.334604e-07
      115 -1.085480e-04
      116 -9.633256e-05
      117  2.814425e-05
      118 -3.328786e-04
      119 -7.158195e-05
      120 -8.849511e-04
      121  5.640114e-04
      122  1.263279e-03
      123 -1.140961e-05
      124  4.486174e-05
      125  7.343578e-05
      126 -6.332312e-06
      127 -2.634944e-04
      128 -9.933608e-04
      129 -1.022286e-05
      130 -5.882203e-05
      131 -5.889213e-06
      132  1.995869e-05
      133  2.904652e-06
      134  5.147798e-05
      135 -4.050813e-04
      136 -1.638776e-06
      137  2.090531e-04
      138 -2.096774e-06
      139 -1.582744e-04
      140  2.352818e-04
      141  1.568340e-05
      142  2.327108e-04
      143 -8.369336e-05
      144 -4.743299e-05
      145 -2.668773e-04
      146 -1.169269e-04
      147 -5.687874e-05
      148  3.114471e-05
      149  1.087735e-04
      150 -1.258057e-06
      151  1.985281e-06
      152 -1.694871e-04
      153  6.222462e-04
      154 -2.466179e-04
      155 -1.128079e-08
      156  1.935725e-06
      157  8.828100e-05
      158 -1.372188e-04
      159  6.083965e-08