pos          info
        0  4.997547e-06
        1  1.154873e-05
        2  4.784628e-05
        3  5.178577e-05
        4  4.551630e-05
        5  2.269047e-05
        6  1.182151e-04
        7  1.505418e-04
        8  1.452622e-04
        9  3.768601e-05
       10  3.585733e-05
       11  3.126897e-05
       12  3.379851e-05
       13  1.057078e-05
       14  1.121014e-05
       15  1.820400e-04
       16  1.820945e-04
       17  1.801225e-04
       18 -4.661072e-07
       19 -7.959391e-06
       20 -7.390531e-06
       21 -1.682041e-04
       22 -1.504874e-04
       23 -1.353923e-04
       24  2.581464e-05
       25  1.160443e-05
       26  5.986008e-05
       27  5.318232e-05
       28  1.376671e-06
       29 -8.175230e-05
       30 -7.022350e-05
       31 -3.102081e-04
       32 -2.879764e-04
       33 -7.603937e-05
       34  4.378425e-04
       35  4.515823e-04
       36  2.371855e-04
       37 -2.323727e-05
       38 -4.188486e-05
       39 -3.495113e-05
       40 -9.306403e-06
       41  3.547502e-05
       42  4.771683e-05
       43 -4.478856e-05
       44 -8.635350e-05
       45 -1.001658e-04
       46  1.068668e-05
       47  3.592098e-05
       48 -1.338828e-04
       49 -1.413982e-04
       50 -2.146539e-04
       51 -1.725490e-04
       52 -2.556742e-04
       53 -2.619297e-04
       54 -4.102246e-04
       55 -6.309719e-04
       56 -5.759832e-04
       57 -3.024622e-04
       58 -9.574239e-05
       59 -1.343369e-04
       60 -2.071153e-04
       61 -1.051545e-04
       62 -6.506379e-05
       63  4.548961e-05
       64  1.005663e-04
       65  6.534115e-05
       66  2.839562e-05
       67 -2.845136e-05
       68  4.875995e-06
       69  1.202097e-05
       70  1.377807e-05
       71 -8.539989e-05
       72 -8.230623e-05
       73 -1.133091e-04
       74 -5.625102e-05
       75 -7.210445e-05
       76 -5.095707e-05
       77  1.997950e-05
       78 -2.221087e-04
       79  3.281554e-05
       80 -6.603658e-05
       81  2.244594e-04
       82 -2.601364e-05
       83  3.437717e-05
       84 -2.750177e-05
       85 -2.828213e-05
       86 -2.288282e-05
       87  1.672536e-05
       88  1.251412e-04
       89  1.398916e-04
       90  1.161460e-04
       91  1.055284e-04
       92  1.383801e-04
       93  3.826453e-05
       94 -8.844220e-05
       95 -1.141260e-04
       96 -2.669433e-05
       97 -2.392394e-05
       98 -1.146433e-04
       99  5.601764e-04
      100  5.609769e-04
      101  5.187965e-04
      102 -4.667501e-04
      103 -3.920174e-04
      104 -5.855426e-04
      105 -5.019439e-04
      106 -8.525041e-04
      107 -5.416212e-04
      108 -3.062850e-04
      109 -5.932353e-06
      110 -7.456844e-06
      111  3.810250e-04
      112  3.793907e-04
      113  5.019055e-04
      114  1.163882e-04
      115  1.185323e-04
      116  3.962055e-05
      117  4.890925e-05
      118  2.987517e-04
      119  1.198538e-04
      120  1.911085e-06
      121 -2.140716e-04
      122 -7.892265e-05
      123  5.021514e-06
      124 -2.548240e-05
      125 -8.672003e-06
      126  6.195585e-04
      127  6.273143e-04
      128  6.144079e-04
      129  1.827623e-05
      130 -2.372226e-04
      131 -2.623955e-04
      132 -3.326792e-04
      133  2.514940e-04
      134  3.604017e-04
      135  3.745676e-04
      136  3.902430e-05
      137  9.606134e-05
      138  9.564729e-05
      139  9.153099e-05
      140 -5.343574e-05
      141  5.546164e-05
      142  9.456027e-05
      143  3.231629e-04
      144  3.311485e-04
      145  3.124673e-04
      146  9.120032e-05
      147  7.447455e-06
      148  6.659471e-07
      149  1.911900e-05
      150  5.585599e-05
      151 -6.920210e-05
      152 -7.044043e-05
      153 -6.445886e-05
      154  5.201520e-05
      155  2.683668e-05
      156  2.937442e-05
      157  0.000000e+00
      158  0.000000e+00
      159  0.000000e+00