pos          info
        0 -4.857163e-05
        1 -5.265547e-05
        2 -2.867669e-05
        3 -4.164421e-06
        4 -6.873033e-06
        5  1.570065e-06
        6  6.264228e-06
        7  7.289713e-06
        8 -2.424122e-05
        9 -2.209902e-05
       10 -2.362735e-05
       11  6.418722e-05
       12  6.421042e-05
       13  9.852169e-05
       14 -3.226874e-05
       15 -3.230974e-05
       16 -1.190002e-04
       17 -4.296248e-05
       18 -2.858778e-05
       19  2.444329e-05
       20  1.438993e-05
       21  5.500095e-06
       22  5.763726e-06
       23  5.874775e-06
       24 -3.421354e-05
       25 -3.111936e-05
       26 -4.146132e-05
       27 -5.362348e-05
       28 -3.429259e-05
       29 -5.589529e-05
       30 -4.653292e-05
       31 -5.818486e-05
       32 -2.960712e-05
       33 -1.017695e-04
       34 -1.307053e-04
       35 -6.443148e-05
       36  5.397695e-05
       37  7.318430e-05
       38  1.019142e-05
       39  1.072066e-05
       40 -7.802962e-06
       41 -7.818775e-06
       42 -6.943528e-05
       43 -5.358018e-05
       44 -5.862640e-05
       45 -1.106053e-05
       46 -1.082840e-05
       47  2.956701e-05
       48  4.579308e-05
       49  3.138063e-05
       50 -3.501725e-05
       51 -2.642422e-04
       52 -2.449829e-04
       53 -2.425619e-04
       54 -2.461515e-05
       55 -2.857924e-05
       56 -6.256391e-06
       57  6.727667e-06
       58  6.410713e-06
       59  1.815373e-05
       60  1.854446e-05
       61  1.531915e-05
       62  2.086707e-05
       63  7.260967e-06
       64  1.961907e-06
       65 -1.253045e-05
       66 -1.027633e-05
       67 -7.183193e-05
       68 -3.021637e-05
       69 -3.192372e-05
       70  7.178575e-05
       71  3.471051e-05
       72  1.148155e-05
       73 -5.319880e-05
       74 -4.987129e-05
       75 -3.048744e-05
       76  7.657084e-06
       77  3.933986e-04
       78  2.095209e-04
       79  2.028204e-04
       80 -1.020184e-04
       81  8.086893e-05
       82  6.759289e-05
       83 -1.138948e-05
       84 -9.003684e-07
       85  2.813812e-05
       86  1.507431e-05
       87  3.186911e-05
       88  8.869599e-05
       89  1.032501e-04
       90  1.162051e-04
       91  4.426687e-05
       92  3.651795e-05
       93 -1.100585e-05
       94 -1.133276e-05
       95  1.265644e-04
       96  1.736446e-04
       97  8.660261e-05
       98  1.422355e-05
       99 -3.403063e-05
      100  2.268211e-04
      101  1.784455e-04
      102 -7.932695e-05
      103 -1.647318e-04
      104 -1.298243e-04
      105 -1.685119e-04
      106 -2.788128e-04
      107 -2.683573e-04
      108  6.158737e-05
      109  9.024822e-05
      110  2.485270e-05
      111  1.991243e-05
      112 -2.984781e-05
      113 -9.557155e-08
      114 -7.434870e-06
      115  3.148418e-05
      116  1.749140e-06
      117 -2.145335e-05
      118 -1.772042e-05
      119 -8.353230e-06
      120  5.298730e-06
      121  2.802874e-05
      122 -6.933101e-05
      123  1.448586e-04
      124  1.300474e-04
      125  3.296247e-04
      126  1.208307e-04
      127  2.092699e-04
      128  9.411894e-05
      129  9.406214e-05
      130  2.881348e-06
      131 -9.919123e-06
      132  6.212322e-06
      133  3.379230e-06
      134  2.263629e-05
      135  4.597172e-05
      136  2.280293e-04
      137  2.492697e-04
      138 -1.777207e-04
      139 -3.439437e-04
      140 -3.618271e-04
      141  5.441606e-05
      142  6.503389e-05
      143  6.571235e-05
      144  1.178072e-06
      145 -7.549069e-05
      146 -1.415960e-04
      147 -1.152981e-04
      148 -6.745609e-05
      149 -5.519330e-06
      150  8.142008e-06
      151  8.247427e-06
      152  4.845147e-06
      153 -6.412670e-06
      154 -7.705992e-05
      155 -2.320963e-05
      156 -2.475037e-05
      157  0.000000e+00
      158  0.000000e+00
      159  0.000000e+00