pos          info
        0  3.612935e-05
        1 -4.220907e-04
        2 -6.724004e-05
        3  1.896303e-04
        4 -2.590868e-06
        5  5.061918e-06
        6  1.130639e-06
        7  3.862212e-06
        8  9.882304e-06
        9 -2.935878e-05
       10 -1.086739e-04
       11  2.001141e-05
       12  2.992314e-05
       13  7.925664e-05
       14  1.022411e-04
       15  2.110225e-04
       16 -1.012696e-04
       17  2.085357e-05
       18 -1.473113e-04
       19  2.996609e-05
       20  1.641342e-04
       21  1.712626e-05
       22 -6.920644e-05
       23  4.686098e-05
       24 -9.008271e-05
       25 -9.539042e-05
       26 -2.081344e-05
       27  4.003715e-07
       28  2.648701e-06
       29 -2.146853e-04
       30  7.461556e-05
       31 -1.700242e-04
       32 -2.642613e-05
       33  4.303491e-04
       34 -1.630280e-05
       35 -2.752063e-04
       36 -2.357424e-05
       37  1.553306e-04
       38  1.887378e-05
       39  1.711884e-06
       40 -6.446217e-05
       41  6.082838e-05
       42 -3.846493e-05
       43  3.124350e-05
       44 -3.534836e-04
       45 -1.132275e-04
       46 -1.059034e-05
       47  5.818495e-05
       48  2.197170e-07
       49  9.398570e-05
       50  2.337520e-05
       51 -1.281006e-05
       52 -1.410081e-04
       53 -3.905602e-04
       54  1.578960e-04
       55 -1.261109e-04
       56  3.244157e-05
       57  1.801227e-05
       58 -4.738809e-05
       59 -1.941858e-06
       60  6.006925e-06
       61 -7.459301e-06
       62  4.077787e-05
       63 -8.896098e-06
       64  7.381231e-05
       65 -1.358136e-05
       66 -8.403461e-05
       67  7.017557e-08
       68  5.331937e-05
       69 -1.500974e-04
       70  1.271826e-05
       71  1.016806e-04
       72  1.875353e-04
       73  1.342502e-07
       74 -2.659915e-04
       75 -9.073900e-06
       76 -2.439802e-05
       77 -4.471324e-08
       78  1.154670e-05
       79  2.158748e-03
       80 -1.352706e-03
       81  1.531804e-04
       82  5.276616e-04
       83 -1.130478e-05
       84  3.600743e-05
       85  4.205552e-04
       86  1.586375e-04
       87  2.376751e-04
       88  9.869463e-06
       89  2.814378e-04
       90  1.290722e-04
       91  2.564648e-05
       92  1.648066e-04
       93  3.882887e-08
       94  1.549071e-05
       95 -1.232182e-04
       96 -1.756733e-06
       97  4.203466e-04
       98  2.778586e-04
       99 -8.063982e-04
      100  4.007286e-04
      101  2.070094e-05
      102  1.198040e-03
      103  3.570085e-04
      104 -1.197696e-03
      105  8.487439e-04
      106  1.977773e-04
      107 -1.134895e-03
      108 -1.264286e-05
      109  3.773300e-04
      110  5.469905e-07
      111  2.679180e-04
      112 -6.220966e-05
      113  1.459979e-05
      114 -2.335768e-05
      115  1.510593e-04
      116  5.569913e-06
      117 -5.201663e-06
      118 -1.060306e-04
      119 -4.164377e-05
      120 -1.165231e-05
      121  2.047165e-04
      122  1.229069e-05
      123  3.416500e-04
      124 -3.976807e-04
      125  1.736847e-04
      126  1.577583e-05
      127  1.633136e-04
      128  1.165123e-04
      129  5.428603e-04
      130  2.546674e-05
      131 -3.924214e-05
      132  1.335200e-04
      133 -4.696066e-04
      134  1.815496e-04
      135  1.224126e-06
      136 -1.647054e-05
      137  2.864664e-05
      138  9.840922e-04
      139  2.980286e-05
      140 -1.927097e-03
      141  1.782292e-04
      142  7.593875e-07
      143  2.733496e-04
      144  2.336765e-04
      145  5.685374e-05
      146 -1.118708e-04
      147 -1.544403e-05
      148 -5.600474e-05
      149 -3.914279e-05
      150 -9.446945e-10
      151  6.784785e-06
      152  1.086820e-04
      153 -8.762499e-07
      154  5.239696e-06
      155 -2.029763e-06
      156 -1.670970e-04
      157  2.284747e-04
      158  7.408371e-06
      159  5.236627e-07