pos          info
        0 -5.181389e-05
        1  3.703035e-05
        2  1.668399e-04
        3  3.431088e-05
        4  4.245543e-06
        5  7.952048e-05
        6 -1.727630e-04
        7 -1.351812e-04
        8  2.456494e-05
        9  1.238948e-04
       10 -4.832757e-05
       11 -3.721268e-06
       12  1.273154e-04
       13 -3.488636e-06
       14 -1.076486e-04
       15  1.960514e-04
       16  1.815475e-04
       17  5.716468e-06
       18  2.181161e-04
       19  2.485266e-04
       20  4.238869e-04
       21 -6.453043e-06
       22  9.060714e-07
       23 -3.399500e-05
       24 -3.180001e-05
       25  8.407757e-05
       26  1.227482e-04
       27  1.756970e-04
       28 -4.034857e-06
       29  9.044040e-05
       30 -2.001475e-05
       31 -1.670438e-04
       32 -9.063133e-05
       33  1.333611e-04
       34 -9.649717e-06
       35 -1.323002e-07
       36  4.212063e-07
       37  3.701531e-05
       38 -2.579016e-06
       39 -1.616275e-04
       40  2.450731e-05
       41 -2.618033e-07
       42 -1.121264e-06
       43 -6.280641e-06
       44 -2.305257e-04
       45 -8.433197e-07
       46 -7.351991e-06
       47 -8.110547e-06
       48 -3.209113e-04
       49  3.318602e-06
       50 -3.403459e-06
       51  1.184493e-06
       52  1.820704e-04
       53 -1.133006e-07
       54  4.817777e-06
       55 -1.084035e-05
       56 -9.353712e-05
       57 -5.792872e-05
       58  8.262339e-04
       59 -1.181139e-04
       60  4.623167e-06
       61  3.389127e-06
       62  1.381742e-04
       63 -2.215333e-06
       64  5.319194e-05
       65 -8.590827e-05
       66  4.733396e-04
       67  2.892253e-04
       68  1.333178e-04
       69 -1.257535e-04
       70  2.462964e-05
       71  1.263229e-07
       72 -1.721725e-04
       73  1.409333e-05
       74  1.041569e-04
       75 -2.188191e-05
       76  5.398467e-05
       77  1.716722e-04
       78  5.655401e-04
       79 -6.025985e-05
       80 -2.929226e-08
       81 -9.978154e-06
       82 -4.936800e-05
       83 -1.807976e-03
       84  1.202047e-03
       85  2.921837e-04
       86  1.909508e-05
       87  5.172258e-04
       88 -6.617864e-05
       89  3.320983e-04
       90 -3.217332e-03
       91  2.255575e-04
       92  6.126505e-04
       93 -5.579152e-04
       94  1.486053e-04
       95 -9.466918e-06
       96 -1.061226e-04
       97 -5.161227e-05
       98  7.224210e-05
       99 -2.743626e-05
      100 -1.849294e-06
      101  7.415444e-04
      102  9.224248e-05
      103 -1.946230e-04
      104  4.004630e-04
      105 -2.586269e-04
      106  4.497249e-04
      107  9.337550e-04
      108  8.966321e-04
      109  2.400109e-04
      110  4.260769e-04
      111  1.130676e-03
      112 -3.900808e-06
      113 -2.236743e-05
      114 -2.374253e-05
      115 -4.688015e-05
      116  2.309398e-06
      117  1.511556e-05
      118 -9.388313e-04
      119  4.631091e-04
      120  1.332322e-04
      121  4.706535e-05
      122  6.641257e-04
      123  3.429898e-04
      124  3.928315e-04
      125 -2.836935e-06
      126 -1.361107e-04
      127  7.053936e-05
      128 -2.220535e-06
      129  3.196736e-07
      130 -2.639088e-09
      131 -4.436259e-06
      132  2.209371e-04
      133  1.793697e-04
      134  1.526075e-04
      135 -2.597619e-10
      136  1.956845e-07
      137  5.204941e-06
      138  2.330874e-04
      139 -2.803467e-05
      140  1.557109e-04
      141 -4.275022e-04
      142 -1.891687e-03
      143  1.436365e-03
      144 -6.370679e-05
      145  1.517356e-05
      146 -1.316989e-03
      147  5.437913e-04
      148 -1.131930e-06
      149  2.204881e-04
      150 -3.815663e-04
      151 -5.076276e-05
      152  2.288788e-06
      153  3.252765e-04
      154  5.283343e-06
      155  1.619391e-04
      156 -3.098173e-04
      157 -7.288075e-08
      158 -2.369413e-04
      159 -3.556760e-04