pos          info
        0  5.068544e-05
        1  7.939370e-05
        2  6.846543e-05
        3  3.935897e-05
        4 -2.966566e-05
        5 -7.614124e-05
        6 -9.445976e-05
        7  4.426162e-06
        8  3.337738e-05
        9  2.394864e-05
       10  2.508884e-05
       11  4.003515e-05
       12  5.392708e-06
       13  2.830471e-05
       14  8.998342e-05
       15  1.277718e-04
       16  1.351267e-04
       17  1.574530e-04
       18  2.968432e-04
       19  2.219868e-04
       20  1.394466e-04
       21 -1.318066e-05
       22 -2.162965e-05
       23  6.094187e-06
       24  5.834192e-05
       25  1.275076e-04
       26  9.813677e-05
       27  8.736750e-05
       28  2.213026e-05
       29 -3.220606e-05
       30 -9.256330e-05
       31 -4.143803e-05
       32  1.102668e-05
       33  4.119302e-05
       34 -3.120270e-06
       35  1.243474e-05
       36  1.161917e-05
       37 -4.239707e-05
       38 -4.656640e-05
       39 -4.579400e-05
       40  7.708080e-06
       41 -2.554569e-06
       42 -7.930921e-05
       43 -7.921656e-05
       44 -7.957368e-05
       45 -5.435286e-06
       46 -1.121246e-04
       47 -1.085678e-04
       48 -1.069987e-04
       49  3.665450e-07
       50  5.995048e-05
       51  6.104720e-05
       52  6.225830e-05
       53 -2.045290e-06
       54 -3.318656e-05
       55 -5.410206e-05
       56  2.249227e-04
       57  2.167304e-04
       58  2.375811e-04
       59 -3.670052e-05
       60  4.872882e-05
       61  4.644932e-05
       62  6.305026e-05
       63 -1.164388e-05
       64  1.468744e-04
       65  2.255522e-04
       66  2.986276e-04
       67  9.892986e-05
       68  1.073130e-05
       69 -3.366584e-05
       70 -4.913883e-05
       71 -5.265094e-05
       72 -1.797408e-05
       73  3.212277e-05
       74  4.541988e-05
       75  6.792500e-05
       76  2.637323e-04
       77  2.256508e-04
       78  1.684170e-04
       79 -2.342243e-05
       80 -1.979181e-05
       81 -6.224407e-04
       82 -2.184323e-04
       83 -1.045818e-04
       84  5.044419e-04
       85  2.761682e-04
       86  1.567141e-04
       87  2.610485e-04
       88 -9.838039e-04
       89 -8.865585e-04
       90 -7.930412e-04
       91  9.343095e-05
       92  6.778020e-05
       93 -1.395923e-04
       94  1.100527e-05
       95 -5.573392e-05
       96 -2.849758e-05
       97 -2.268811e-06
       98  1.431885e-05
       99  2.374196e-04
      100  2.773125e-04
      101  2.130546e-04
      102  9.936082e-05
      103 -1.759562e-05
      104  1.971870e-04
      105  3.749510e-04
      106  7.600373e-04
      107  6.901327e-04
      108  5.209067e-04
      109  5.989214e-04
      110  5.176175e-04
      111  3.681360e-04
      112 -1.667026e-05
      113 -3.099670e-05
      114 -2.277109e-05
      115 -9.818397e-06
      116 -3.071354e-04
      117 -1.535355e-04
      118 -1.141633e-04
      119  2.144689e-04
      120  2.814744e-04
      121  3.513936e-04
      122  4.666490e-04
      123  2.443281e-04
      124  8.462795e-05
      125 -2.280277e-05
      126 -2.259731e-05
      127  2.287950e-05
      128 -6.345001e-07
      129 -1.373075e-06
      130  7.216606e-05
      131  1.319568e-04
      132  1.843048e-04
      133  1.106590e-04
      134  5.093430e-05
      135  1.800122e-06
      136  7.949600e-05
      137  7.008588e-05
      138  1.202545e-04
      139 -9.994197e-05
      140 -7.211594e-04
      141 -2.942747e-04
      142 -1.730096e-04
      143  4.626106e-04
      144 -4.551742e-04
      145 -2.526748e-04
      146 -2.581100e-04
      147  2.543825e-04
      148 -5.407002e-05
      149 -7.061363e-05
      150 -1.433467e-04
      151  9.226751e-05
      152  1.109495e-04
      153  1.641663e-04
      154 -4.753161e-05
      155 -4.931702e-05
      156 -1.822772e-04
      157  0.000000e+00
      158  0.000000e+00
      159  0.000000e+00