pos          info
        0  1.122346e-04
        1 -1.377546e-05
        2 -1.545377e-07
        3 -6.669009e-06
        4 -2.548452e-05
        5 -1.944159e-04
        6  3.506367e-04
        7  6.003839e-05
        8 -1.027503e-04
        9  4.186304e-06
       10  6.006422e-05
       11  2.046620e-05
       12 -1.030685e-04
       13 -4.193069e-05
       14  1.118777e-04
       15 -1.336892e-05
       16 -4.102519e-05
       17  4.456837e-05
       18 -2.215195e-05
       19 -6.216841e-05
       20 -1.440921e-04
       21 -5.642986e-07
       22 -2.213066e-06
       23  1.627304e-05
       24  4.087901e-05
       25  8.273415e-06
       26 -1.057530e-04
       27 -5.676235e-05
       28  7.665695e-06
       29 -5.746507e-07
       30  5.711174e-07
       31  4.896146e-05
       32  4.991594e-05
       33 -3.404753e-05
       34  7.869763e-05
       35 -1.058602e-05
       36 -1.744824e-05
       37  3.287043e-05
       38 -2.965980e-06
       39  1.450000e-04
       40 -1.448762e-04
       41  2.673191e-05
       42  1.337430e-05
       43  6.943024e-06
       44  6.673662e-05
       45 -6.724279e-05
       46  1.706743e-08
       47  8.185914e-06
       48  2.931042e-04
       49 -6.520087e-05
       50  2.742300e-05
       51 -7.777701e-06
       52 -1.812405e-05
       53 -1.141253e-05
       54  9.956612e-08
       55 -2.374081e-05
       56  1.589575e-04
       57  3.915991e-05
       58 -5.728624e-04
       59  8.840241e-05
       60  2.097175e-05
       61 -6.280946e-05
       62 -7.016665e-05
       63 -1.484463e-06
       64 -2.957904e-08
       65  4.558887e-05
       66 -4.022399e-04
       67 -5.455199e-04
       68 -2.823002e-05
       69  8.038445e-05
       70 -1.403247e-04
       71 -7.767858e-06
       72  2.348827e-04
       73 -2.731327e-05
       74  9.948632e-07
       75  4.568877e-05
       76 -8.617602e-06
       77 -2.583665e-04
       78 -3.144042e-04
       79  6.185329e-05
       80 -1.638192e-04
       81  4.592595e-05
       82  3.841417e-07
       83  2.060947e-03
       84 -1.553461e-03
       85 -4.997771e-04
       86 -8.804434e-05
       87 -7.542300e-04
       88  1.965571e-04
       89 -3.698431e-04
       90  4.038248e-03
       91 -6.458253e-05
       92 -9.795419e-04
       93  5.182898e-04
       94 -1.392204e-04
       95  2.684354e-05
       96  1.849221e-05
       97  7.353993e-05
       98  6.810269e-06
       99  3.429748e-05
      100  1.642179e-05
      101 -9.690206e-04
      102 -7.839120e-05
      103  3.672789e-04
      104 -2.787125e-04
      105  1.379798e-04
      106 -3.758198e-04
      107 -8.016470e-04
      108 -3.614643e-04
      109 -3.653881e-04
      110 -1.374731e-04
      111 -1.465933e-03
      112  3.272360e-06
      113  2.046102e-05
      114  5.529758e-05
      115  1.825422e-05
      116 -2.130315e-04
      117 -4.861298e-05
      118  5.647119e-04
      119 -2.014785e-04
      120 -1.294032e-04
      121 -1.640697e-05
      122 -5.689977e-04
      123 -6.690475e-04
      124 -1.569773e-05
      125  1.041771e-04
      126  2.109068e-04
      127 -1.523173e-04
      128 -7.535959e-05
      129 -9.310385e-05
      130  3.902805e-05
      131  1.079647e-04
      132 -2.364653e-04
      133  8.866340e-07
      134  1.350529e-06
      135  1.500393e-04
      136 -2.369326e-05
      137  5.243241e-06
      138 -2.283971e-05
      139  9.059657e-05
      140 -2.544203e-05
      141  6.799613e-05
      142  2.217164e-03
      143 -8.477939e-04
      144  7.512140e-05
      145  7.877913e-05
      146  1.628356e-03
      147 -2.772677e-04
      148 -1.098905e-04
      149 -9.035721e-06
      150  1.502444e-04
      151 -1.655116e-05
      152  3.788375e-04
      153 -2.746271e-04
      154  2.717830e-06
      155  1.348856e-07
      156  8.506658e-05
      157 -3.062261e-07
      158  2.736352e-04
      159  5.717002e-05