pos          info
        0  5.941280e-05
        1 -1.846666e-07
        2  3.484863e-04
        3 -1.239813e-04
        4 -4.612304e-04
        5 -2.944177e-05
        6 -2.452847e-04
        7  7.865691e-06
        8 -1.479344e-06
        9 -2.368784e-04
       10  3.484114e-05
       11  9.176164e-06
       12  3.092766e-06
       13  1.748287e-05
       14 -5.799104e-05
       15  3.571283e-05
       16 -1.486351e-04
       17  2.745752e-08
       18 -9.530582e-04
       19  1.167387e-04
       20 -3.800720e-05
       21 -2.044403e-04
       22 -3.506268e-05
       23 -6.931349e-06
       24 -1.576742e-04
       25  2.437448e-05
       26 -7.555405e-05
       27 -8.239170e-06
       28  1.048301e-04
       29 -2.426774e-04
       30 -1.095851e-04
       31 -1.322960e-04
       32  2.421109e-05
       33 -5.143295e-06
       34  6.972827e-07
       35  5.442683e-05
       36 -3.389236e-05
       37  2.142550e-05
       38 -4.072357e-05
       39  2.965470e-04
       40 -8.987910e-05
       41 -1.419055e-04
       42  4.450779e-05
       43 -5.791164e-05
       44 -1.368740e-04
       45 -7.092391e-06
       46 -5.293605e-05
       47 -1.391289e-06
       48  6.924716e-09
       49  1.687679e-06
       50  2.941066e-04
       51  2.194280e-04
       52  6.046565e-05
       53  2.399834e-04
       54 -2.890214e-05
       55  8.819563e-06
       56 -1.177569e-09
       57 -2.292552e-05
       58  9.069744e-09
       59  6.271830e-06
       60 -5.548101e-05
       61  5.902981e-05
       62  1.038884e-07
       63 -1.089315e-04
       64  3.405093e-04
       65  1.886712e-04
       66  1.326910e-04
       67  4.021464e-05
       68  1.494669e-04
       69 -1.706005e-04
       70  1.601781e-04
       71  5.786604e-05
       72 -1.859184e-05
       73  1.405683e-05
       74  1.523315e-05
       75 -2.314079e-04
       76  4.701190e-06
       77  8.795865e-05
       78 -2.097453e-04
       79 -8.878164e-06
       80 -1.872305e-03
       81  7.904229e-05
       82 -6.379064e-05
       83 -7.628963e-05
       84  3.930121e-04
       85  1.837464e-04
       86 -1.601090e-04
       87 -4.777187e-05
       88  1.024917e-03
       89  6.037118e-05
       90  7.906404e-07
       91  4.922683e-08
       92  1.353826e-04
       93  1.232102e-04
       94 -3.435737e-04
       95  3.878833e-04
       96  1.643451e-04
       97 -5.330695e-05
       98  1.475934e-03
       99  1.278991e-04
      100  7.790382e-06
      101 -1.125734e-03
      102  2.221713e-03
      103  8.538191e-04
      104  2.235160e-03
      105  1.479349e-03
      106 -5.547323e-04
      107  5.664533e-04
      108  3.311973e-03
      109  5.566880e-04
      110 -4.190305e-04
      111 -8.085517e-06
      112 -1.851298e-05
      113 -7.319484e-05
      114 -1.594690e-06
      115 -1.502474e-05
      116 -2.229744e-06
      117 -2.083329e-06
      118  2.067170e-05
      119  6.080795e-04
      120  1.287186e-04
      121  3.354406e-04
      122 -2.858018e-05
      123  8.037815e-05
      124 -1.928703e-04
      125 -1.537800e-05
      126  8.226119e-07
      127 -2.872592e-05
      128 -7.149037e-05
      129  1.309874e-06
      130 -8.261742e-04
      131 -3.681249e-05
      132  3.440188e-04
      133  1.234969e-04
      134  3.110860e-04
      135  2.633760e-04
      136  5.756605e-05
      137  3.772699e-07
      138  9.467292e-06
      139  3.148822e-04
      140  1.594388e-04
      141  1.852493e-05
      142  6.281120e-05
      143  1.632922e-04
      144  8.246660e-05
      145 -3.092867e-06
      146  5.308894e-04
      147 -3.856080e-05
      148  1.595888e-03
      149 -2.296821e-05
      150  1.017239e-04
      151  1.386431e-04
      152 -2.362013e-05
      153 -2.806444e-05
      154 -3.227666e-04
      155 -1.518861e-06
      156  1.299269e-04
      157 -4.593019e-06
      158 -5.601648e-05
      159 -8.949047e-06