pos          info
        0  3.921598e-06
        1  2.850177e-06
        2  1.260692e-05
        3 -4.727265e-04
        4  7.489470e-04
        5  1.971450e-05
        6  4.056042e-05
        7  9.505088e-05
        8  8.290276e-05
        9  1.641513e-04
       10 -2.284330e-04
       11  3.226660e-05
       12 -9.436170e-05
       13 -2.064825e-05
       14  7.786554e-05
       15 -9.020267e-06
       16 -2.838259e-06
       17  1.343800e-04
       18  1.353308e-04
       19 -1.724339e-04
       20  1.827970e-04
       21  8.816357e-05
       22 -2.581319e-06
       23  2.243656e-05
       24 -4.593334e-04
       25 -2.860196e-05
       26 -1.023510e-04
       27 -1.175451e-06
       28 -1.267828e-05
       29 -4.515831e-04
       30 -1.374582e-04
       31  1.728884e-04
       32 -4.689091e-06
       33 -4.878957e-05
       34  3.637952e-05
       35  2.404447e-04
       36  8.302333e-04
       37  3.867115e-06
       38 -5.569601e-06
       39  5.801641e-05
       40  1.379047e-04
       41 -2.463833e-04
       42  5.439705e-05
       43 -2.831343e-04
       44  6.707179e-04
       45 -8.187971e-05
       46  2.069039e-04
       47 -8.730003e-06
       48 -7.265821e-05
       49 -1.485779e-05
       50  8.234489e-07
       51  9.874476e-05
       52 -8.915451e-07
       53 -4.909763e-05
       54  6.358869e-04
       55  3.175796e-04
       56 -1.738560e-07
       57 -9.593078e-05
       58 -4.595756e-04
       59  2.259571e-05
       60  2.778324e-05
       61 -3.916883e-05
       62  3.492013e-05
       63 -5.533168e-05
       64  2.797399e-04
       65 -1.946312e-04
       66 -2.413803e-05
       67 -6.774119e-06
       68  3.784282e-04
       69 -6.145161e-08
       70 -2.719487e-05
       71  2.867073e-05
       72  7.349196e-06
       73 -8.530138e-05
       74 -1.946679e-04
       75 -1.279367e-03
       76 -6.564131e-07
       77 -1.348540e-04
       78  1.648811e-04
       79  1.010087e-04
       80 -3.591903e-05
       81 -4.077657e-06
       82  2.036049e-06
       83  1.887458e-04
       84  1.488293e-04
       85 -4.362887e-04
       86 -3.488957e-06
       87 -3.349574e-04
       88 -1.802470e-05
       89 -5.123078e-05
       90  5.499338e-04
       91  3.008825e-06
       92  3.192924e-04
       93  3.727197e-06
       94 -1.055653e-05
       95  2.040045e-04
       96 -1.713903e-05
       97  2.018093e-04
       98 -2.161919e-05
       99  2.990024e-06
      100  5.862571e-05
      101 -2.113011e-05
      102  2.930693e-05
      103  4.302807e-04
      104 -4.737480e-03
      105  6.305612e-07
      106  1.402552e-04
      107 -5.799669e-06
      108  2.567821e-04
      109  2.193083e-05
      110 -9.532947e-05
      111 -2.136093e-04
      112  4.140007e-04
      113 -3.084338e-04
      114  3.468375e-04
      115 -4.136938e-05
      116  1.128397e-05
      117  7.481878e-05
      118  2.412364e-04
      119  1.447644e-05
      120  1.626089e-04
      121 -2.920922e-06
      122  2.880007e-04
      123  6.620155e-06
      124 -2.165205e-04
      125 -4.955873e-04
      126  2.620789e-04
      127  6.365730e-04
      128 -8.836275e-05
      129 -3.185812e-04
      130 -2.983644e-06
      131  4.800672e-04
      132  5.790952e-05
      133  1.860931e-06
      134 -1.290184e-04
      135  1.947980e-05
      136 -2.947249e-05
      137 -1.180038e-03
      138  4.365415e-04
      139  2.592931e-04
      140  6.246051e-05
      141 -5.229896e-06
      142  8.326298e-07
      143  4.152989e-04
      144 -1.729289e-05
      145 -4.556579e-05
      146  3.892964e-04
      147  3.123830e-05
      148 -9.276590e-07
      149  1.138062e-03
      150  2.748610e-05
      151 -4.685747e-06
      152  2.698699e-04
      153 -9.197463e-06
      154 -5.845711e-07
      155  2.254815e-05
      156 -3.693995e-04
      157  4.691452e-04
      158 -9.013764e-05
      159 -2.494674e-04