pos          info
        0  1.138863e-04
        1  1.895461e-04
        2  1.470402e-04
        3  3.761757e-05
        4 -6.458253e-05
        5  6.504007e-06
        6 -5.110936e-05
        7 -8.208252e-05
        8 -9.597231e-05
        9  5.226878e-05
       10  1.299602e-04
       11  7.178916e-05
       12 -1.989972e-04
       13 -2.418153e-04
       14 -1.469046e-04
       15  4.045709e-05
       16  2.496660e-05
       17 -2.276925e-05
       18  2.064741e-05
       19  3.543173e-05
       20  4.855462e-05
       21  2.811406e-05
       22 -3.328622e-05
       23 -2.623911e-05
       24 -7.632415e-05
       25 -1.246519e-05
       26 -4.098055e-05
       27 -1.165167e-04
       28 -8.989781e-05
       29 -1.330376e-04
       30  3.192984e-05
       31  1.500687e-05
       32  3.122543e-04
       33  2.801057e-04
       34  2.711222e-04
       35  3.558573e-05
       36 -1.323114e-06
       37 -4.272138e-06
       38 -1.222546e-06
       39  1.252790e-04
       40  1.237197e-04
       41  1.281518e-04
       42  2.321764e-05
       43  2.627928e-05
       44  2.416570e-05
       45  1.056452e-04
       46  1.033604e-04
       47  1.607953e-04
       48  5.793892e-05
       49  6.657690e-05
       50  2.096158e-04
       51  1.958368e-04
       52  1.786254e-04
       53 -4.017061e-05
       54 -2.705570e-05
       55  2.143522e-05
       56  3.432526e-05
       57  3.384847e-05
       58  3.729766e-05
       59 -2.943923e-06
       60 -1.216305e-06
       61 -1.001847e-04
       62 -5.566652e-05
       63 -5.680365e-05
       64  5.026827e-05
       65  4.988055e-05
       66  6.353638e-05
       67  1.457670e-05
       68 -5.953710e-07
       69  7.327671e-06
       70 -6.209823e-05
       71 -7.298967e-05
       72 -8.780353e-05
       73 -1.856905e-05
       74  3.341072e-05
       75  1.635974e-05
       76  1.708381e-03
       77  1.679129e-03
       78  1.762107e-03
       79  2.070985e-04
       80  2.229383e-04
       81 -1.398543e-04
       82 -2.508645e-04
       83 -2.506228e-04
       84  1.214122e-04
       85  9.376684e-05
       86  8.724718e-05
       87 -1.755624e-04
       88 -2.731290e-04
       89 -2.165989e-04
       90 -2.934476e-05
       91  1.007409e-04
       92 -7.062592e-05
       93  1.067697e-04
       94  1.047561e-04
       95  5.299784e-04
       96  7.487139e-04
       97  1.930125e-03
       98  1.614957e-03
       99  2.065899e-03
      100  2.199830e-03
      101  2.174210e-03
      102  1.151491e-03
      103 -1.729350e-03
      104 -1.263107e-03
      105 -1.211532e-03
      106  3.987278e-04
      107 -5.476850e-05
      108  6.533406e-05
      109 -9.458946e-05
      110 -1.597564e-04
      111 -1.799511e-04
      112 -1.508066e-04
      113 -7.404535e-05
      114 -1.427776e-04
      115 -8.679465e-05
      116 -8.409406e-05
      117 -1.458143e-05
      118 -2.230535e-05
      119 -7.515206e-06
      120  1.008411e-05
      121 -1.454434e-04
      122 -1.164767e-04
      123 -1.149781e-04
      124  8.312324e-05
      125  4.458557e-05
      126  2.026822e-04
      127  1.692138e-04
      128  2.759287e-04
      129  1.188976e-04
      130  2.867756e-04
      131  1.654968e-06
      132 -1.734145e-05
      133 -1.863677e-04
      134 -1.355579e-05
      135  8.080261e-06
      136  1.854200e-04
      137  3.148964e-04
      138  3.164844e-04
      139  1.928984e-04
      140  9.093088e-05
      141  6.884053e-05
      142  1.626335e-05
      143 -1.797695e-04
      144 -1.685553e-04
      145 -1.747455e-04
      146 -1.679188e-05
      147  1.040118e-04
      148  7.091183e-05
      149  9.561221e-05
      150 -1.718175e-04
      151 -1.230665e-04
      152 -1.076083e-04
      153  5.033923e-05
      154  3.257773e-05
      155  6.306160e-07
      156 -6.646572e-06
      157  0.000000e+00
      158  0.000000e+00
      159  0.000000e+00