pos          info
        0  8.432541e-05
        1  9.806591e-05
        2  7.114176e-05
        3  3.673454e-05
        4  8.520739e-07
        5 -2.209706e-05
        6 -5.539344e-05
        7 -6.830404e-05
        8 -1.682225e-05
        9  4.658745e-05
       10  6.341426e-05
       11  5.021372e-05
       12 -2.755736e-05
       13 -1.579883e-05
       14  2.048322e-05
       15  4.048966e-05
       16  2.799442e-05
       17  4.804352e-06
       18  1.975425e-06
       19 -2.470719e-06
       20 -4.439467e-06
       21 -3.305069e-05
       22  4.356504e-07
       23  6.210457e-06
       24 -4.038095e-05
       25 -4.784898e-05
       26 -5.479699e-05
       27 -1.254558e-05
       28 -9.404935e-06
       29 -7.096887e-06
       30  2.034050e-05
       31  6.656264e-07
       32  1.611368e-05
       33  1.585910e-04
       34  1.322013e-04
       35  7.968878e-05
       36 -6.043214e-05
       37 -4.793837e-05
       38 -2.433423e-05
       39  6.327106e-05
       40  3.470569e-05
       41  2.824247e-05
       42 -7.283382e-05
       43 -3.669046e-05
       44 -1.827608e-05
       45 -7.346567e-06
       46 -5.831794e-06
       47  1.929363e-08
       48  5.801953e-06
       49  1.014822e-05
       50  8.510221e-05
       51  5.797986e-05
       52  5.294171e-05
       53 -2.870827e-05
       54 -5.979062e-06
       55 -2.746467e-05
       56 -8.454898e-05
       57 -7.523404e-05
       58  3.449683e-05
       59  8.740921e-05
       60  1.419749e-04
       61  2.792465e-05
       62  6.191127e-05
       63  6.737068e-05
       64  4.014913e-05
       65 -4.008566e-05
       66 -1.042732e-04
       67 -5.058947e-05
       68  4.929619e-06
       69  1.379213e-05
       70 -5.890333e-05
       71 -6.737190e-05
       72 -7.102167e-05
       73 -2.816171e-06
       74  2.311412e-05
       75 -1.062870e-05
       76  3.102994e-04
       77  2.730845e-04
       78  3.003252e-04
       79  4.319430e-06
       80  2.231175e-05
       81 -3.268082e-04
       82 -2.550359e-04
       83 -2.174508e-04
       84  1.580353e-04
       85  1.118494e-04
       86  7.476350e-05
       87  8.680484e-06
       88 -6.255830e-05
       89 -3.299771e-05
       90  3.587478e-06
       91  1.005760e-04
       92  3.924703e-05
       93  9.492914e-05
       94  2.961542e-05
       95  1.617383e-04
       96  1.619680e-04
       97  2.679530e-04
       98  1.649279e-04
       99  1.866578e-04
      100  3.609401e-04
      101  3.626774e-04
      102  2.481638e-04
      103 -3.470940e-04
      104 -2.700811e-04
      105 -2.557496e-04
      106  5.306224e-05
      107 -7.248926e-05
      108 -5.814273e-05
      109 -1.288039e-04
      110 -9.849012e-05
      111 -8.823074e-05
      112 -2.194361e-05
      113 -1.050602e-06
      114 -3.103946e-05
      115 -5.014032e-05
      116 -5.222436e-05
      117 -6.356233e-05
      118 -9.298222e-05
      119 -1.120866e-04
      120 -7.278555e-05
      121 -3.012975e-05
      122  2.002696e-05
      123  1.980773e-05
      124  2.764113e-05
      125 -3.637902e-06
      126  6.356088e-05
      127  6.383476e-05
      128  1.057088e-04
      129  3.881176e-05
      130  6.393517e-05
      131 -1.906539e-04
      132 -1.898789e-04
      133 -2.051147e-04
      134  1.117966e-05
      135  1.133028e-05
      136  5.522861e-05
      137  2.196676e-04
      138  2.277462e-04
      139  1.908466e-04
      140  3.784880e-05
      141  8.074993e-06
      142 -4.142680e-07
      143 -3.840346e-05
      144 -1.684109e-05
      145 -2.734961e-05
      146 -1.856762e-05
      147  6.770715e-05
      148  5.651748e-05
      149  7.042538e-05
      150 -3.218865e-05
      151 -1.674084e-05
      152  1.431016e-05
      153  8.529933e-05
      154  8.576490e-05
      155  5.332844e-05
      156 -6.954957e-06
      157  0.000000e+00
      158  0.000000e+00
      159  0.000000e+00