pos          info
        0  6.088263e-06
        1 -2.674847e-05
        2 -2.963064e-05
        3  1.425061e-05
        4  1.463063e-05
        5  5.713713e-05
        6  3.090092e-05
        7 -2.428918e-05
        8 -1.651547e-04
        9 -9.174353e-05
       10 -6.562034e-05
       11  3.871800e-05
       12 -2.523351e-05
       13 -1.417950e-05
       14  2.026954e-06
       15 -1.426896e-05
       16 -1.248951e-05
       17 -3.552141e-06
       18  6.971976e-06
       19  2.314134e-05
       20 -5.567102e-06
       21 -5.716221e-08
       22  9.068778e-06
       23  2.256114e-05
       24  9.797811e-06
       25  6.008621e-06
       26  2.901578e-05
       27  4.425718e-05
       28  3.229602e-05
       29 -2.911519e-05
       30 -1.040589e-04
       31 -9.747212e-05
       32 -7.256433e-05
       33 -1.817454e-05
       34  3.768051e-05
       35  3.726710e-05
       36  7.614403e-05
       37  1.001389e-04
       38  8.515828e-05
       39  7.599310e-05
       40 -1.341857e-05
       41  2.879428e-06
       42 -9.867923e-06
       43  1.243575e-05
       44 -8.223136e-06
       45 -2.646079e-05
       46 -5.449155e-05
       47 -4.144954e-05
       48 -2.279336e-05
       49 -1.761998e-05
       50 -3.531882e-06
       51  8.669574e-05
       52  9.968863e-05
       53  1.966636e-04
       54 -1.037682e-04
       55 -1.115860e-04
       56 -2.696127e-04
       57  6.132179e-06
       58 -1.886820e-05
       59  3.138549e-05
       60 -1.340402e-04
       61 -1.320211e-04
       62 -1.295592e-04
       63  2.714950e-05
       64  8.147035e-05
       65  1.293906e-05
       66 -1.027422e-04
       67 -1.360951e-04
       68 -9.025558e-05
       69 -3.781616e-05
       70 -1.259257e-04
       71 -1.026747e-04
       72 -1.427011e-04
       73 -4.558375e-05
       74 -4.787026e-05
       75  4.216757e-05
       76  3.998655e-05
       77  4.471465e-05
       78  1.899487e-05
       79  5.410352e-05
       80  4.453642e-05
       81  4.980500e-05
       82  3.448585e-04
       83  9.329884e-04
       84  9.622181e-04
       85  6.317698e-04
       86  1.141242e-04
       87  6.464589e-05
       88  1.366675e-03
       89  1.756825e-03
       90  2.800803e-03
       91  1.462998e-03
       92  7.305764e-04
       93 -3.368014e-04
       94 -3.004309e-04
       95  1.230083e-04
       96  2.803266e-04
       97  2.189062e-04
       98  1.580133e-04
       99  2.107786e-05
      100  6.924096e-05
      101  6.999694e-06
      102  9.279471e-05
      103  5.819686e-04
      104  6.839541e-04
      105  1.174405e-03
      106  7.202581e-04
      107  2.715806e-04
      108 -3.037959e-04
      109 -7.954994e-04
      110 -7.857846e-04
      111 -1.824544e-03
      112 -1.038245e-03
      113 -7.667952e-04
      114  6.879851e-04
      115  7.312954e-04
      116  2.234135e-03
      117  1.697206e-03
      118  1.297644e-03
      119 -1.615540e-04
      120 -7.472113e-05
      121 -4.105674e-05
      122 -1.484259e-04
      123 -1.626867e-04
      124 -1.617344e-04
      125 -7.524717e-05
      126 -2.590204e-05
      127 -1.028631e-05
      128 -2.252157e-07
      129 -2.985881e-05
      130  5.490773e-05
      131  4.457233e-05
      132 -6.776245e-05
      133 -1.597398e-04
      134 -4.799176e-05
      135  9.299546e-05
      136  8.463554e-05
      137 -5.160583e-06
      138 -9.073324e-05
      139 -8.793234e-05
      140 -1.847472e-04
      141 -9.885508e-05
      142 -1.857552e-04
      143 -8.905471e-05
      144 -8.800197e-05
      145  3.059474e-06
      146 -3.636321e-05
      147 -1.764127e-05
      148 -1.756519e-05
      149 -9.350221e-05
      150  3.150152e-05
      151  4.583508e-06
      152  4.654736e-05
      153 -4.336535e-05
      154  2.084319e-05
      155  1.537901e-04
      156  1.392486e-04
      157  0.000000e+00
      158  0.000000e+00
      159  0.000000e+00