pos          info
        0 -4.158564e-06
        1 -5.289111e-06
        2 -1.335645e-05
        3  2.233219e-05
        4  2.101999e-05
        5  9.622990e-05
        6  6.681605e-05
        7  8.288510e-06
        8 -8.387579e-05
        9 -6.839761e-05
       10 -2.838060e-05
       11 -3.576081e-06
       12 -1.491742e-05
       13 -4.931372e-05
       14 -2.774847e-05
       15 -7.571541e-05
       16 -2.456441e-05
       17 -3.813856e-05
       18 -6.204910e-06
       19 -1.180019e-05
       20 -1.019731e-05
       21  8.952664e-06
       22  4.374532e-05
       23  3.003100e-05
       24  2.235368e-05
       25 -7.362657e-06
       26  7.437258e-06
       27  2.301450e-05
       28  2.099426e-05
       29 -4.196434e-05
       30 -6.697448e-05
       31 -4.760554e-05
       32  4.728252e-06
       33 -1.181382e-05
       34  7.126418e-06
       35  4.178542e-06
       36  3.098912e-05
       37 -7.545935e-07
       38 -4.169293e-06
       39  3.526773e-05
       40  3.815599e-05
       41  3.980733e-05
       42  8.253582e-07
       43 -3.024811e-06
       44 -2.827734e-05
       45 -3.085054e-05
       46 -5.470245e-05
       47 -6.963788e-06
       48 -5.026651e-05
       49 -2.869332e-05
       50 -3.879848e-05
       51  2.374924e-04
       52  2.386756e-04
       53  2.973897e-04
       54 -1.691306e-04
       55 -1.727696e-04
       56 -2.362978e-04
       57  2.766771e-06
       58 -8.413470e-05
       59 -1.218889e-04
       60 -2.620144e-04
       61 -1.648460e-04
       62 -1.488621e-04
       63  2.214866e-05
       64  2.568759e-05
       65 -8.223090e-05
       66 -1.622765e-04
       67 -1.816779e-04
       68 -5.540382e-05
       69 -3.425068e-05
       70 -1.076840e-04
       71 -1.036077e-04
       72 -1.902012e-04
       73 -5.398025e-05
       74 -8.072214e-05
       75  5.064813e-05
       76 -3.093983e-06
       77  2.297380e-05
       78  1.142024e-05
       79  5.626347e-05
       80 -5.167981e-05
       81  1.952540e-05
       82  5.106814e-04
       83  9.076494e-04
       84  8.433840e-04
       85  2.422578e-04
       86 -3.927223e-05
       87 -5.829536e-05
       88  1.263633e-03
       89  2.017276e-03
       90  3.183460e-03
       91  1.874001e-03
       92  8.558531e-04
       93 -3.074745e-04
       94 -2.543821e-04
       95  1.769814e-04
       96  3.739031e-04
       97  3.694112e-04
       98  2.074611e-04
       99  9.146285e-06
      100 -2.051207e-05
      101 -3.650488e-05
      102  1.304501e-04
      103  4.481848e-04
      104  5.524352e-04
      105  1.018379e-03
      106  7.465636e-04
      107  5.689737e-04
      108 -7.246377e-05
      109 -4.440622e-04
      110 -6.545227e-04
      111 -1.442362e-03
      112 -1.035593e-03
      113 -8.151956e-04
      114  1.204718e-04
      115  4.757511e-04
      116  1.539097e-03
      117  1.174332e-03
      118  6.314529e-04
      119 -3.701959e-04
      120 -1.501222e-04
      121 -1.474048e-05
      122 -1.278514e-04
      123 -1.425344e-04
      124 -1.304688e-04
      125 -2.341470e-05
      126 -2.942102e-05
      127  4.512777e-05
      128  4.443320e-05
      129  5.109779e-05
      130  1.342104e-04
      131  7.639186e-05
      132  7.605491e-05
      133 -8.338212e-05
      134  1.286806e-04
      135  1.574212e-04
      136  1.477978e-04
      137  2.834643e-06
      138 -1.441897e-04
      139 -1.042754e-04
      140 -1.260232e-04
      141 -1.901412e-05
      142 -8.642476e-05
      143 -1.337840e-04
      144 -9.779185e-05
      145 -6.165907e-05
      146 -4.270371e-05
      147 -4.349326e-05
      148 -4.822734e-05
      149 -5.831368e-05
      150 -3.531858e-06
      151 -1.437371e-05
      152 -3.558091e-08
      153 -1.468159e-05
      154  1.696345e-05
      155  9.456757e-05
      156  7.915539e-05
      157  0.000000e+00
      158  0.000000e+00
      159  0.000000e+00