       pos          info
         0 -3.125614e-06
         1 -8.451248e-06
         2 -2.924357e-05
         3  2.597097e-05
         4  4.685027e-05
         5  8.419393e-05
         6  2.470798e-05
         7 -4.221550e-06
         8 -1.309865e-04
         9 -1.204611e-04
        10 -1.059845e-04
        11 -1.289007e-05
        12  1.295232e-05
        13  1.206344e-04
        14  1.648604e-04
        15  1.344802e-04
        16  2.089855e-05
        17  6.893173e-05
        18  1.314646e-05
        19  2.589021e-05
        20 -5.387765e-05
        21 -1.205123e-06
        22 -8.102082e-06
        23 -3.631327e-05
        24  1.664885e-06
        25  5.568678e-06
        26  5.819407e-05
        27  1.266706e-04
        28  1.225220e-04
        29  8.852050e-05
        30 -1.017731e-05
        31  1.015265e-05
        32  4.564611e-05
        33  5.496656e-05
        34  6.130812e-05
        35  5.505052e-05
        36  1.392607e-04
        37  1.074216e-04
        38  7.861356e-05
        39 -1.487404e-05
        40 -6.915106e-06
        41  5.222711e-05
        42  7.458137e-05
        43  5.749058e-05
        44  5.461747e-06
        45 -5.273731e-05
        46 -3.483792e-05
        47  6.642082e-06
        48 -2.946592e-05
        49 -2.105240e-05
        50 -3.665564e-05
        51  3.378763e-04
        52  3.260929e-04
        53  3.161840e-04
        54 -7.920793e-05
        55 -8.755757e-05
        56 -6.986507e-05
        57  5.930970e-05
        58 -1.224572e-05
        59 -3.479160e-05
        60 -3.146689e-04
        61 -2.413589e-04
        62 -2.374280e-04
        63  1.476231e-04
        64  1.593568e-04
        65 -2.389494e-04
        66 -4.223310e-04
        67 -4.423539e-04
        68 -7.346974e-05
        69  3.154198e-06
        70 -7.221018e-05
        71 -5.571854e-05
        72 -2.781050e-04
        73 -1.475777e-05
        74 -1.260970e-05
        75  2.509058e-04
        76  6.755135e-05
        77  8.551866e-05
        78  4.264390e-05
        79  1.425322e-04
        80 -5.547482e-07
        81  8.370423e-05
        82  2.346249e-04
        83  4.031217e-04
        84  3.067190e-04
        85  5.110746e-05
        86  6.992196e-06
        87  1.976964e-05
        88  9.499154e-04
        89  1.322549e-03
        90  1.610500e-03
        91  6.340249e-04
        92  1.726325e-04
        93 -1.666250e-04
        94 -1.053319e-04
        95  8.652610e-05
        96  2.259371e-04
        97  2.284949e-04
        98  1.409589e-04
        99  1.617579e-05
       100  3.633399e-05
       101 -6.819234e-05
       102  1.070772e-04
       103  4.685826e-04
       104  5.734095e-04
       105  5.749565e-04
       106  2.630588e-04
       107 -7.514921e-05
       108 -2.619294e-04
       109 -4.101752e-04
       110 -4.425548e-04
       111 -1.350162e-03
       112 -1.273634e-03
       113 -9.861837e-04
       114 -5.697873e-05
       115  2.027202e-04
       116  5.103870e-04
       117  4.460755e-04
       118  1.785342e-04
       119 -8.935536e-05
       120 -7.042478e-05
       121 -6.406730e-05
       122 -2.017948e-04
       123 -1.680596e-04
       124 -1.659211e-04
       125 -2.638274e-05
       126 -5.445765e-05
       127 -5.242756e-05
       128 -1.537854e-05
       129  2.320581e-06
       130  1.576103e-04
       131  9.207813e-05
       132  1.863553e-05
       133 -1.724432e-04
       134 -8.796356e-05
       135 -1.827877e-06
       136 -1.486930e-07
       137 -3.159398e-05
       138 -8.745949e-05
       139 -5.036708e-05
       140 -8.954254e-05
       141 -1.342809e-04
       142 -3.826265e-04
       143 -4.012574e-04
       144 -2.967161e-04
       145 -3.231614e-05
       146 -1.782896e-05
       147 -2.243763e-05
       148 -4.846425e-05
       149 -7.374148e-05
       150  4.722506e-05
       151 -7.336334e-05
       152 -4.730961e-06
       153 -1.478626e-04
       154  2.491979e-05
       155  1.612068e-04
       156  2.875702e-04
       157  0.000000e+00
       158  0.000000e+00
       159  0.000000e+00