pos          info
        0 -1.050632e-04
        1 -3.470073e-04
        2 -3.088747e-04
        3 -3.844981e-04
        4 -1.481151e-04
        5  9.263893e-07
        6  1.307485e-04
        7  1.312963e-04
        8  2.264542e-05
        9 -1.753179e-05
       10  3.312665e-05
       11  4.296864e-05
       12  4.538923e-05
       13 -3.992899e-07
       14  1.590002e-05
       15  1.188917e-05
       16  3.393415e-06
       17 -3.186519e-05
       18 -9.577157e-06
       19 -1.489846e-06
       20  9.603060e-06
       21 -1.795460e-05
       22 -1.689196e-05
       23 -7.542993e-06
       24  2.016658e-06
       25  3.071966e-05
       26  1.441458e-04
       27  1.638144e-04
       28  1.009054e-04
       29 -5.674562e-05
       30 -7.830085e-05
       31  1.431350e-04
       32  5.822493e-05
       33  6.843577e-05
       34 -1.192323e-04
       35  6.609888e-05
       36  1.014084e-04
       37  1.008870e-04
       38  4.245215e-05
       39  7.977423e-07
       40  1.264737e-05
       41  1.755826e-05
       42  1.527466e-05
       43 -7.590105e-05
       44 -9.759569e-05
       45 -5.925392e-05
       46  2.223700e-05
       47 -2.773498e-05
       48 -1.037407e-04
       49 -7.625109e-05
       50  2.478093e-05
       51  6.039270e-05
       52  3.269677e-05
       53  2.417439e-06
       54  3.454470e-06
       55 -2.652489e-05
       56  2.188407e-05
       57  2.088884e-06
       58  3.093579e-05
       59  9.163949e-05
       60  4.224696e-04
       61  4.674895e-04
       62  6.062513e-04
       63  8.400847e-04
       64  9.269293e-04
       65  6.525619e-04
       66  9.593630e-05
       67 -3.039353e-05
       68  1.412315e-04
       69  1.580505e-04
       70  1.963314e-04
       71  3.629160e-05
       72  3.181930e-05
       73 -2.776173e-05
       74  1.846461e-05
       75  8.257551e-05
       76  1.065261e-04
       77  1.326994e-04
       78  8.402953e-05
       79  7.516962e-04
       80  6.920505e-04
       81  6.815414e-04
       82 -8.678774e-04
       83 -8.591188e-04
       84 -9.839262e-04
       85  4.145942e-04
       86  5.553668e-04
       87  1.068611e-03
       88  4.840702e-04
       89  9.432033e-05
       90 -5.063294e-04
       91 -4.484126e-04
       92 -2.547427e-04
       93  2.056599e-04
       94  2.053256e-04
       95  2.568238e-04
       96  4.654935e-05
       97  3.582406e-06
       98 -1.287453e-04
       99 -4.192264e-04
      100 -6.673858e-04
      101 -9.809357e-04
      102 -6.222934e-04
      103 -1.105882e-04
      104  3.552647e-04
      105  3.509927e-04
      106  3.454433e-04
      107  3.605677e-04
      108  2.570817e-04
      109  6.152427e-05
      110  6.136837e-05
      111  5.886238e-05
      112  5.319000e-05
      113  1.658121e-05
      114  1.272877e-05
      115  2.891870e-06
      116  1.561717e-05
      117 -1.318777e-04
      118 -1.582301e-04
      119 -1.740742e-04
      120 -1.552382e-05
      121  8.139440e-06
      122  4.510859e-06
      123 -1.972522e-06
      124 -1.675561e-06
      125 -1.898291e-06
      126 -4.950970e-05
      127 -4.956909e-05
      128 -4.402149e-05
      129  5.393697e-07
      130 -3.008652e-05
      131 -3.743987e-05
      132 -3.585563e-05
      133 -4.284755e-06
      134  3.334381e-06
      135 -1.236923e-04
      136 -1.119287e-04
      137 -3.932030e-04
      138 -1.985992e-04
      139 -2.124172e-04
      140 -5.541165e-05
      141 -3.560585e-05
      142  1.797258e-04
      143  1.326407e-04
      144  1.764022e-05
      145 -2.653872e-04
      146 -9.661238e-05
      147 -6.999745e-05
      148  1.084503e-05
      149 -8.626630e-05
      150 -5.211983e-05
      151 -1.009208e-04
      152 -9.774703e-06
      153  8.666358e-05
      154 -1.435403e-04
      155 -1.229202e-04
      156 -1.126213e-04
      157  0.000000e+00
      158  0.000000e+00
      159  0.000000e+00