pos       info
        0  -0.000050
        1  -0.000490
        2  -0.000532
        3  -0.000537
        4  -0.000098
        5  -0.000017
        6   0.000111
        7   0.000099
        8   0.000091
        9  -0.000042
       10   0.000028
       11   0.000098
       12   0.000124
       13   0.000070
       14   0.000054
       15   0.000053
       16   0.000059
       17  -0.000047
       18  -0.000043
       19  -0.000057
       20   0.000005
       21   0.000003
       22   0.000082
       23   0.000071
       24   0.000081
       25   0.000008
       26   0.000080
       27   0.000101
       28   0.000028
       29  -0.000053
       30  -0.000084
       31   0.000084
       32  -0.000048
       33   0.000007
       34  -0.000081
       35   0.000200
       36   0.000197
       37   0.000217
       38   0.000032
       39  -0.000025
       40  -0.000023
       41   0.000038
       42   0.000037
       43  -0.000093
       44  -0.000119
       45   0.000093
       46   0.000208
       47   0.000182
       48  -0.000043
       49  -0.000047
       50   0.000092
       51   0.000108
       52   0.000117
       53   0.000020
       54  -0.000010
       55  -0.000031
       56  -0.000031
       57  -0.000003
       58  -0.000004
       59   0.000170
       60   0.000560
       61   0.000789
       62   0.001124
       63   0.001073
       64   0.001323
       65   0.000801
       66   0.000346
       67  -0.000092
       68   0.000053
       69   0.000168
       70   0.000317
       71   0.000143
       72   0.000148
       73  -0.000141
       74  -0.000093
       75  -0.000019
       76   0.000089
       77   0.000125
       78   0.000033
       79   0.000393
       80   0.000426
       81   0.000472
       82  -0.002847
       83  -0.002858
       84  -0.003351
       85   0.000411
       86   0.000687
       87   0.001653
       88   0.000894
       89   0.000411
       90  -0.000211
       91  -0.000271
       92  -0.000127
       93   0.000181
       94   0.000205
       95   0.000248
       96   0.000116
       97   0.000036
       98  -0.000013
       99  -0.000538
      100  -0.000501
      101  -0.000842
      102  -0.000346
      103  -0.000160
      104   0.000200
      105   0.000224
      106   0.000115
      107   0.000149
      108   0.000106
      109   0.000070
      110   0.000029
      111   0.000020
      112  -0.000009
      113  -0.000014
      114   0.000018
      115   0.000080
      116   0.000129
      117   0.000095
      118   0.000038
      119   0.000022
      120   0.000052
      121   0.000059
      122  -0.000044
      123  -0.000070
      124  -0.000049
      125   0.000037
      126   0.000008
      127  -0.000013
      128  -0.000029
      129   0.000012
      130   0.000011
      131   0.000009
      132  -0.000003
      133  -0.000033
      134  -0.000032
      135  -0.000129
      136  -0.000060
      137  -0.000358
      138  -0.000223
      139  -0.000277
      140  -0.000063
      141  -0.000064
      142  -0.000006
      143  -0.000106
      144  -0.000160
      145  -0.000269
      146  -0.000039
      147  -0.000021
      148  -0.000003
      149  -0.000068
      150  -0.000070
      151  -0.000021
      152  -0.000001
      153   0.000004
      154  -0.000018
      155  -0.000019
      156  -0.000018
      157   0.000000
      158   0.000000
      159   0.000000