pos          info
        0 -3.379975e-05
        1 -5.512266e-05
        2 -2.740183e-05
        3  7.971055e-06
        4  1.943092e-05
        5  9.073307e-05
        6  3.628593e-06
        7  2.608953e-06
        8 -8.401890e-05
        9 -3.532112e-05
       10 -4.603069e-05
       11 -1.515872e-05
       12  1.436124e-04
       13  1.458669e-04
       14  1.154135e-04
       15 -2.279089e-05
       16  1.077782e-04
       17  1.059311e-04
       18  7.131574e-05
       19 -5.339967e-05
       20 -5.202317e-05
       21 -1.651726e-05
       22  3.029636e-05
       23 -4.149431e-05
       24 -3.455915e-05
       25 -6.431845e-05
       26  4.544287e-06
       27 -7.214272e-07
       28 -4.674780e-06
       29 -2.865923e-05
       30 -2.024530e-05
       31  4.698632e-06
       32  3.188207e-05
       33  8.833389e-05
       34  1.342116e-04
       35  1.371000e-04
       36  9.863259e-05
       37  6.780970e-05
       38  6.106785e-05
       39  3.201270e-05
       40 -1.931462e-05
       41 -5.337755e-06
       42  7.209645e-06
       43  3.020097e-05
       44  2.697098e-05
       45  9.348086e-05
       46  8.338580e-05
       47  7.403939e-05
       48 -2.022999e-05
       49  1.262963e-04
       50  1.154542e-04
       51  1.022707e-04
       52 -1.939264e-05
       53 -6.751608e-05
       54 -1.741317e-04
       55 -1.562255e-04
       56  3.216544e-05
       57  1.349704e-04
       58  1.463899e-04
       59  5.144868e-05
       60  9.150925e-05
       61  3.240887e-05
       62 -2.604432e-07
       63 -4.396564e-06
       64  1.041758e-04
       65  6.957199e-05
       66  3.468162e-05
       67 -6.658941e-05
       68 -3.216891e-05
       69  8.636534e-06
       70  5.834332e-06
       71  7.831420e-05
       72  2.493200e-05
       73  9.753892e-05
       74 -2.180559e-05
       75  3.535146e-05
       76 -3.634595e-05
       77  2.842701e-05
       78 -1.336352e-04
       79 -6.067008e-05
       80 -1.275967e-04
       81  6.684468e-05
       82 -7.419005e-06
       83  4.473777e-05
       84  4.634424e-06
       85  9.471504e-05
       86 -1.053581e-04
       87 -8.562792e-05
       88 -2.284438e-04
       89 -1.890163e-05
       90 -9.784039e-05
       91  5.131532e-06
       92 -3.965884e-05
       93  4.506522e-05
       94 -4.980003e-06
       95  1.348397e-04
       96  1.050202e-05
       97 -2.162623e-05
       98 -4.021599e-05
       99 -2.290526e-04
      100  1.031864e-04
      101  1.552438e-05
      102  2.016639e-04
      103  1.428242e-04
      104  1.014900e-04
      105  2.944504e-05
      106 -2.177001e-04
      107 -2.161729e-04
      108  1.023564e-05
      109 -5.071047e-05
      110  1.351476e-04
      111  3.509983e-05
      112  6.126251e-05
      113 -1.127279e-04
      114 -8.886385e-05
      115 -1.041716e-04
      116 -3.866980e-05
      117  6.234490e-05
      118  1.721486e-04
      119  1.310970e-04
      120  1.555047e-04
      121  1.030727e-04
      122  1.040457e-04
      123  6.461509e-04
      124  6.555100e-04
      125  5.518650e-04
      126 -1.078160e-04
      127 -1.475772e-04
      128  1.928178e-04
      129  2.879745e-04
      130  3.522652e-05
      131 -2.003199e-04
      132 -1.915087e-04
      133  1.067883e-03
      134  1.087752e-03
      135  1.038142e-03
      136  5.527842e-05
      137 -1.323620e-04
      138 -2.643257e-04
      139 -2.624804e-04
      140  1.290176e-04
      141  1.912147e-04
      142  2.153153e-04
      143  5.380921e-06
      144 -4.926166e-05
      145 -4.609367e-05
      146 -5.884477e-05
      147 -1.234619e-05
      148 -3.564515e-05
      149 -2.575288e-05
      150 -3.809927e-05
      151 -6.192903e-05
      152 -4.060817e-05
      153  3.267210e-06
      154  6.199961e-04
      155  6.405298e-04
      156  6.460519e-04
      157  0.000000e+00
      158  0.000000e+00
      159  0.000000e+00