pos          info
        0  6.627136e-05
        1  3.618857e-05
        2 -9.554762e-06
        3 -7.132510e-05
        4 -9.138600e-05
        5 -1.036779e-04
        6 -3.508030e-05
        7  1.201083e-07
        8  7.458919e-05
        9  5.109312e-05
       10  6.762762e-05
       11  1.139731e-05
       12 -1.905519e-05
       13 -6.513752e-05
       14 -8.326128e-05
       15 -5.406296e-05
       16 -1.339107e-04
       17 -9.852688e-05
       18 -5.792238e-05
       19  4.208703e-05
       20  4.717215e-05
       21  1.599281e-05
       22 -1.203556e-04
       23 -1.218281e-04
       24 -1.463224e-04
       25  8.006250e-06
       26  5.502959e-06
       27  3.025349e-05
       28 -7.366983e-06
       29  9.391210e-06
       30  1.820427e-05
       31  9.241168e-06
       32 -1.891621e-05
       33 -9.763627e-05
       34 -9.222735e-05
       35 -1.257144e-04
       36 -4.406723e-05
       37 -3.179707e-05
       38  2.518417e-05
       39  1.703999e-05
       40  2.877912e-05
       41  4.130949e-06
       42  2.833468e-07
       43 -8.411727e-06
       44  7.727859e-10
       45 -3.991653e-05
       46 -4.274195e-05
       47 -3.233166e-05
       48  3.668461e-05
       49 -8.872759e-05
       50 -1.014285e-04
       51 -1.365572e-04
       52 -1.313226e-05
       53  1.974001e-05
       54  8.554919e-05
       55 -3.922450e-05
       56 -7.410113e-05
       57 -1.364229e-04
       58 -6.422674e-05
       59 -5.385675e-05
       60 -6.461174e-05
       61  1.248178e-05
       62  9.988460e-06
       63  1.111135e-05
       64 -2.079315e-04
       65 -5.126451e-05
       66 -4.636958e-05
       67  1.378351e-04
       68 -3.156726e-05
       69 -4.634543e-06
       70  8.704610e-06
       71  1.413629e-05
       72 -5.225577e-06
       73 -1.030906e-05
       74  4.163623e-05
       75  4.111630e-05
       76  4.518196e-05
       77 -1.011397e-06
       78 -6.708902e-07
       79 -2.456756e-05
       80 -2.350081e-05
       81 -1.614726e-05
       82  3.261175e-05
       83  1.619171e-05
       84  8.817952e-06
       85 -5.335031e-05
       86 -1.972509e-05
       87  1.877161e-05
       88  7.924512e-05
       89  4.693044e-05
       90  7.127276e-06
       91 -4.611799e-05
       92 -5.633147e-06
       93 -4.590639e-05
       94 -1.480653e-05
       95 -4.987915e-05
       96  1.544247e-05
       97  1.444387e-05
       98  2.565310e-05
       99  1.215085e-04
      100 -1.273012e-04
      101 -1.818410e-04
      102  3.972736e-04
      103  7.005028e-05
      104  6.408983e-04
      105  2.911557e-04
      106  8.675727e-04
      107  5.195857e-04
      108  2.411156e-04
      109  4.728091e-04
      110  2.060670e-04
      111  1.278413e-04
      112 -4.376930e-05
      113  1.487577e-04
      114  3.474831e-04
      115  2.878144e-04
      116  1.497839e-04
      117 -3.383388e-04
      118 -3.642293e-04
      119 -2.964417e-04
      120 -3.064397e-04
      121 -2.860497e-04
      122 -3.076943e-04
      123 -1.515591e-03
      124 -1.408239e-03
      125 -5.915432e-04
      126  2.363021e-03
      127  2.760171e-03
      128  1.651568e-03
      129  1.959389e-04
      130  1.374260e-03
      131  1.662055e-03
      132  1.654390e-03
      133 -4.814000e-04
      134 -6.251777e-04
      135 -6.016143e-04
      136 -1.519195e-04
      137  1.514278e-04
      138  4.090051e-04
      139  4.418926e-04
      140  1.077345e-05
      141 -1.938359e-04
      142 -2.595299e-04
      143  1.204263e-05
      144 -1.805871e-05
      145 -1.031850e-05
      146 -9.656859e-06
      147 -6.993833e-07
      148  4.973287e-05
      149  9.970396e-05
      150  1.142290e-04
      151  1.068248e-04
      152  4.932118e-05
      153  3.141749e-06
      154 -1.867171e-04
      155 -1.885468e-04
      156 -2.078134e-04
      157  0.000000e+00
      158  0.000000e+00
      159  0.000000e+00