pos          info
        0 -2.968897e-05
        1 -3.757283e-05
        2 -1.703005e-05
        3  1.278392e-05
        4  5.762287e-05
        5  1.270873e-04
        6  9.720029e-05
        7  2.401730e-05
        8 -8.280535e-05
        9 -6.147346e-05
       10 -1.110110e-05
       11  1.948523e-05
       12  3.682167e-05
       13  6.352119e-05
       14  6.546657e-05
       15  2.650806e-05
       16  7.490411e-05
       17  7.897747e-05
       18  4.792951e-05
       19 -6.411332e-05
       20 -6.700172e-05
       21 -3.454767e-05
       22  3.762258e-05
       23  3.666434e-05
       24  2.550541e-04
       25  1.424503e-04
       26  1.902144e-04
       27 -3.820156e-05
       28  5.845033e-05
       29 -3.709468e-05
       30 -3.574327e-05
       31 -7.061832e-05
       32  7.463360e-06
       33  3.488174e-05
       34  6.183428e-05
       35  1.111429e-04
       36  7.069794e-05
       37  5.823537e-05
       38 -3.296562e-05
       39 -2.761516e-05
       40 -5.341030e-05
       41 -3.479163e-05
       42  3.220217e-06
       43  4.463944e-05
       44  2.803513e-05
       45  6.138461e-05
       46  5.104889e-05
       47  3.913812e-05
       48 -1.134106e-04
       49 -7.137173e-05
       50 -4.888757e-05
       51  2.052458e-06
       52 -3.912179e-05
       53 -3.897801e-05
       54 -7.821389e-05
       55 -7.123088e-05
       56 -4.233747e-05
       57 -3.819465e-06
       58 -1.695586e-05
       59 -5.376109e-05
       60 -5.121643e-06
       61 -2.576288e-05
       62 -2.364503e-05
       63 -2.526820e-05
       64  7.008207e-05
       65  6.307772e-07
       66  5.379388e-06
       67 -2.982394e-05
       68  6.225173e-05
       69 -1.991733e-05
       70 -6.106489e-05
       71 -7.812763e-05
       72  9.766988e-07
       73  1.296684e-06
       74 -5.330739e-05
       75 -8.908650e-05
       76 -8.442713e-05
       77 -2.978929e-05
       78  1.421469e-05
       79  2.560415e-05
       80  2.340634e-05
       81  1.267099e-05
       82 -2.988255e-06
       83 -1.150105e-06
       84 -4.493719e-06
       85  2.710748e-05
       86 -2.019689e-05
       87 -2.436800e-05
       88 -8.949609e-05
       89 -4.797996e-05
       90 -6.104437e-05
       91 -2.751295e-05
       92 -3.620851e-05
       93  1.359825e-04
       94  1.571569e-04
       95  1.720106e-04
       96  1.943241e-05
       97  2.353463e-06
       98  3.699922e-05
       99 -8.970671e-05
      100  2.566125e-04
      101  2.445576e-04
      102  5.295675e-05
      103  3.134053e-04
      104  1.823967e-04
      105  4.237917e-04
      106 -1.906221e-04
      107 -1.579873e-04
      108 -9.935495e-05
      109 -3.172533e-04
      110 -1.108508e-04
      111 -9.277405e-05
      112 -1.497689e-05
      113 -1.738151e-04
      114 -4.054927e-04
      115 -2.793548e-04
      116 -1.729118e-04
      117  3.345352e-04
      118  4.231725e-04
      119  3.391794e-04
      120  3.960509e-04
      121  3.261974e-04
      122  3.322550e-04
      123  1.045606e-03
      124  1.026330e-03
      125  8.211175e-04
      126 -4.997463e-04
      127 -5.800568e-04
      128 -8.502212e-05
      129  2.315381e-04
      130 -2.463032e-04
      131 -5.319243e-04
      132 -5.707351e-04
      133  7.052089e-04
      134  7.019711e-04
      135  7.086504e-04
      136  3.388560e-05
      137  8.620297e-06
      138 -5.406990e-05
      139 -1.004373e-04
      140  2.109340e-04
      141  2.373919e-04
      142  2.971657e-04
      143  1.058446e-05
      144  3.815893e-05
      145  1.031158e-04
      146  1.058536e-04
      147  9.940201e-05
      148 -5.147188e-05
      149 -1.422595e-04
      150 -1.577301e-04
      151 -1.538868e-04
      152  6.504269e-05
      153  4.320393e-05
      154  2.888667e-04
      155  1.894798e-04
      156  2.343458e-04
      157  0.000000e+00
      158  0.000000e+00
      159  0.000000e+00