pos          info
        0 -3.115856e-05
        1 -3.913476e-05
        2 -1.473077e-05
        3  1.826432e-05
        4  6.199362e-05
        5  1.525098e-04
        6  1.190255e-04
        7  4.710313e-05
        8 -8.445442e-05
        9 -5.971197e-05
       10 -1.238985e-05
       11  2.350476e-05
       12  4.258171e-05
       13  7.254046e-05
       14  7.317617e-05
       15  2.892743e-05
       16  7.024238e-05
       17  7.664341e-05
       18  5.069136e-05
       19 -6.569038e-05
       20 -7.056497e-05
       21 -4.264657e-05
       22  3.444135e-05
       23  3.320024e-05
       24  2.220402e-04
       25  9.735440e-05
       26  1.509537e-04
       27 -5.030023e-05
       28  6.310194e-05
       29 -4.163845e-05
       30 -3.670061e-05
       31 -7.070250e-05
       32  8.688183e-06
       33  2.897656e-05
       34  5.183700e-05
       35  1.031614e-04
       36  7.619992e-05
       37  6.583371e-05
       38 -2.798170e-05
       39 -3.100525e-05
       40 -5.145093e-05
       41 -3.396324e-05
       42  6.235643e-06
       43  3.679589e-05
       44  2.604877e-05
       45  7.807057e-05
       46  7.076605e-05
       47  5.721885e-05
       48 -1.054026e-04
       49 -5.828831e-05
       50 -3.515765e-05
       51  7.080343e-06
       52 -3.860202e-05
       53 -3.942787e-05
       54 -9.066132e-05
       55 -7.920289e-05
       56 -5.659838e-05
       57 -1.579851e-05
       58 -3.148348e-05
       59 -5.846530e-05
       60 -3.641615e-06
       61 -2.638443e-05
       62 -2.743255e-05
       63 -2.561325e-05
       64  5.854734e-05
       65 -1.174414e-05
       66 -9.274638e-06
       67 -4.135820e-05
       68  5.214841e-05
       69 -3.452187e-05
       70 -7.012127e-05
       71 -8.783846e-05
       72 -2.957654e-06
       73  1.086438e-06
       74 -4.632912e-05
       75 -8.965883e-05
       76 -8.347845e-05
       77 -3.714067e-05
       78  1.337055e-05
       79  2.637136e-05
       80  2.718392e-05
       81  1.682757e-05
       82 -8.972571e-09
       83 -1.379346e-07
       84 -4.588765e-06
       85  1.738716e-05
       86 -4.024147e-05
       87 -4.253237e-05
       88 -1.017585e-04
       89 -4.841915e-05
       90 -6.820708e-05
       91 -3.103511e-05
       92 -4.180798e-05
       93  1.323207e-04
       94  1.559592e-04
       95  1.717292e-04
       96  2.357596e-05
       97  5.647734e-06
       98  4.749564e-05
       99 -7.837078e-05
      100  2.611279e-04
      101  2.451574e-04
      102  1.515759e-05
      103  2.815520e-04
      104  1.437731e-04
      105  4.159905e-04
      106 -2.007712e-04
      107 -1.717895e-04
      108 -1.024517e-04
      109 -3.021053e-04
      110 -7.555316e-05
      111 -6.101430e-05
      112 -1.210806e-05
      113 -1.847454e-04
      114 -4.012215e-04
      115 -2.529672e-04
      116 -1.549453e-04
      117  3.174012e-04
      118  4.039964e-04
      119  3.271033e-04
      120  4.062404e-04
      121  3.275092e-04
      122  3.365649e-04
      123  1.039451e-03
      124  1.012792e-03
      125  8.168671e-04
      126 -5.052611e-04
      127 -5.717880e-04
      128 -1.128566e-04
      129  2.136438e-04
      130 -2.914278e-04
      131 -5.512698e-04
      132 -5.909920e-04
      133  6.957726e-04
      134  6.933455e-04
      135  7.059453e-04
      136  5.152125e-05
      137  2.417381e-05
      138 -3.872050e-05
      139 -1.017658e-04
      140  1.927829e-04
      141  2.193335e-04
      142  2.813517e-04
      143  1.259773e-05
      144  3.399292e-05
      145  1.063793e-04
      146  1.071723e-04
      147  9.698628e-05
      148 -5.368229e-05
      149 -1.370227e-04
      150 -1.569493e-04
      151 -1.542619e-04
      152  5.679467e-05
      153  4.054930e-05
      154  2.576477e-04
      155  1.632749e-04
      156  2.115794e-04
      157  0.000000e+00
      158  0.000000e+00
      159  0.000000e+00