pos          info
        0 -3.857656e-04
        1  8.175678e-06
        2  8.035596e-05
        3 -9.310374e-05
        4 -5.554358e-06
        5  2.643034e-04
        6 -9.336736e-05
        7 -3.687468e-06
        8 -2.446796e-05
        9  2.905754e-05
       10  3.613338e-04
       11  1.577253e-05
       12  5.192324e-05
       13 -1.060342e-05
       14 -3.275193e-05
       15 -4.436393e-05
       16 -3.860352e-05
       17  2.455677e-04
       18  3.395740e-05
       19  7.231524e-05
       20 -4.746808e-06
       21  6.387662e-06
       22  7.269205e-06
       23  4.076232e-07
       24  9.019139e-05
       25  5.715450e-05
       26 -3.976305e-04
       27 -1.122620e-05
       28 -4.077772e-05
       29 -6.899302e-06
       30  4.473724e-04
       31 -1.466715e-04
       32 -7.975273e-06
       33 -1.114868e-05
       34  8.411097e-06
       35 -1.383180e-05
       36  3.319918e-05
       37 -1.767289e-06
       38  3.540690e-07
       39  2.916237e-05
       40 -8.891540e-06
       41 -3.498819e-05
       42  2.128410e-05
       43  2.207443e-05
       44  3.624741e-04
       45 -1.738705e-04
       46 -7.418173e-05
       47 -5.153933e-05
       48 -6.884094e-05
       49  3.321361e-06
       50  5.447525e-04
       51 -3.334505e-05
       52  5.878558e-05
       53  4.619007e-04
       54 -7.433753e-05
       55 -1.742861e-04
       56 -6.882068e-05
       57  1.365438e-05
       58 -1.054794e-05
       59 -1.429316e-05
       60  1.103298e-06
       61  1.590874e-05
       62 -4.843279e-05
       63 -2.276384e-04
       64  2.479084e-05
       65  1.288096e-04
       66 -9.529417e-06
       67 -2.193545e-06
       68 -2.606402e-07
       69  7.130835e-07
       70 -5.309622e-05
       71  1.505801e-05
       72  1.525457e-04
       73  5.230304e-05
       74 -1.371753e-06
       75  1.093018e-04
       76 -9.292523e-05
       77 -5.437806e-06
       78  2.522892e-05
       79 -4.030837e-05
       80 -4.369834e-06
       81 -7.218467e-05
       82  3.560220e-05
       83  1.017660e-04
       84 -3.810533e-05
       85  4.745785e-05
       86  1.144933e-04
       87  7.527490e-06
       88 -2.434309e-04
       89 -2.401842e-05
       90 -4.436607e-04
       91  3.288152e-05
       92 -1.037300e-04
       93 -1.027150e-04
       94 -1.183906e-03
       95 -3.160152e-04
       96  4.364924e-05
       97 -2.311289e-04
       98 -3.711697e-05
       99  3.299604e-04
      100  1.381419e-03
      101 -1.745303e-03
      102 -2.232849e-04
      103  1.158788e-03
      104 -4.626348e-06
      105  1.043027e-03
      106 -1.548805e-05
      107 -1.699417e-04
      108  3.462864e-04
      109  1.239914e-04
      110  3.267474e-05
      111  6.230820e-05
      112 -2.232615e-04
      113 -5.578081e-04
      114 -1.140339e-03
      115 -9.733368e-04
      116  3.397602e-04
      117  1.837940e-04
      118  1.244854e-03
      119 -1.037892e-03
      120 -2.591032e-03
      121 -8.262793e-05
      122 -2.607563e-03
      123 -3.573499e-03
      124  1.054523e-03
      125 -1.499146e-04
      126 -1.095551e-03
      127 -3.136750e-03
      128 -8.502352e-05
      129  1.544137e-04
      130  4.920289e-04
      131 -9.856319e-05
      132 -1.899023e-04
      133 -2.658015e-05
      134  6.183022e-04
      135  2.812214e-06
      136  1.682512e-05
      137  6.759593e-08
      138  2.298589e-04
      139 -2.223731e-06
      140  1.265550e-06
      141 -1.778095e-05
      142 -1.473626e-04
      143 -2.130371e-05
      144 -1.937889e-05
      145 -7.919750e-05
      146  1.339501e-04
      147 -2.609107e-04
      148  1.811437e-04
      149  8.715754e-06
      150 -4.429105e-07
      151  4.185624e-04
      152 -2.663145e-04
      153 -1.368680e-06
      154 -3.918323e-05
      155  1.259208e-05
      156  4.989793e-05
      157  4.299775e-04
      158 -2.152277e-05
      159 -2.963981e-06