pos          info
        0 -2.874454e-04
        1 -5.451450e-04
        2 -5.539166e-04
        3 -2.379989e-04
        4 -5.731436e-05
        5 -3.565547e-05
        6 -3.069445e-06
        7  2.887809e-05
        8  4.935006e-06
        9 -2.571683e-05
       10 -8.517804e-05
       11 -7.165568e-05
       12 -5.840447e-05
       13 -4.448649e-05
       14 -4.700128e-05
       15  1.187758e-04
       16  1.836208e-04
       17  1.974034e-04
       18  1.819093e-05
       19  1.343222e-05
       20 -3.942116e-05
       21 -3.533297e-05
       22 -4.381673e-05
       23 -1.244821e-04
       24 -1.269621e-04
       25 -9.764569e-05
       26  4.005239e-05
       27  7.820872e-05
       28  5.671931e-05
       29  1.617989e-05
       30 -2.305590e-05
       31 -5.443634e-05
       32 -5.289634e-05
       33 -1.390231e-04
       34 -1.341399e-04
       35 -1.297774e-04
       36 -1.493639e-04
       37 -1.506286e-04
       38 -1.354353e-04
       39 -2.109489e-05
       40  5.240851e-05
       41  1.727888e-05
       42  1.012420e-07
       43 -5.600532e-05
       44  6.244100e-05
       45  8.583010e-05
       46  1.054583e-04
       47 -3.306746e-05
       48 -1.506529e-04
       49 -2.054304e-04
       50 -6.970607e-05
       51 -1.372344e-05
       52  2.904940e-05
       53  5.201073e-06
       54  1.121188e-05
       55  4.971264e-05
       56  1.849707e-05
       57  5.412633e-05
       58  1.213120e-04
       59  2.348794e-06
       60 -3.279569e-05
       61 -7.054134e-05
       62 -1.090111e-04
       63 -6.077316e-05
       64 -8.694470e-05
       65  7.784419e-05
       66  7.444263e-05
       67  5.196713e-05
       68  1.780387e-05
       69 -1.482728e-04
       70 -1.849405e-04
       71 -9.201737e-05
       72  2.108919e-04
       73  2.372581e-04
       74  1.806099e-04
       75  3.919670e-05
       76  3.538363e-05
       77  9.376153e-06
       78  1.023225e-06
       79  4.043494e-05
       80 -3.251814e-05
       81 -3.121074e-05
       82 -6.726427e-05
       83 -5.404417e-07
       84 -1.676025e-05
       85  1.016132e-05
       86 -1.426000e-05
       87 -6.252384e-05
       88 -9.445972e-05
       89 -8.736439e-05
       90 -1.577794e-05
       91 -1.528294e-05
       92  2.424856e-04
       93  3.946260e-04
       94  3.851747e-04
       95  1.368897e-04
       96  1.516327e-05
       97 -4.395857e-05
       98 -1.935023e-04
       99 -1.571624e-04
      100 -9.115039e-05
      101  5.545033e-06
      102 -7.335956e-05
      103 -8.193182e-05
      104 -3.356926e-05
      105 -2.297928e-05
      106 -1.201148e-05
      107  2.571670e-05
      108 -1.263824e-04
      109 -3.910763e-05
      110  6.898491e-05
      111  6.316093e-04
      112  5.460591e-04
      113  8.126825e-04
      114  3.991557e-04
      115  2.216480e-04
      116 -3.601393e-04
      117  6.727106e-04
      118  1.679847e-03
      119  2.418574e-03
      120  3.114565e-03
      121  4.327323e-03
      122  3.593080e-03
      123  2.191427e-03
      124  4.409235e-04
      125  1.542866e-03
      126  1.071688e-03
      127  7.128747e-04
      128 -3.897468e-04
      129 -1.662176e-04
      130  1.613420e-04
      131  3.134585e-04
      132 -1.709899e-04
      133 -5.591958e-04
      134 -5.025527e-04
      135 -1.007383e-04
      136 -7.181648e-05
      137 -1.640221e-04
      138 -2.629783e-04
      139 -1.419239e-04
      140  1.872009e-05
      141  1.250697e-04
      142  8.246436e-05
      143  6.026370e-05
      144  5.984174e-05
      145  1.902643e-04
      146  1.119046e-04
      147 -3.961744e-05
      148 -1.830050e-04
      149 -3.171602e-04
      150 -1.892046e-04
      151 -1.588057e-04
      152 -2.378410e-05
      153  4.003316e-05
      154 -1.907098e-04
      155 -1.632633e-04
      156 -2.028595e-04
      157  0.000000e+00
      158  0.000000e+00
      159  0.000000e+00