pos          info
        0 -1.153133e-04
        1 -2.644815e-04
        2  1.412187e-06
        3  1.581938e-05
        4  1.472335e-04
        5  4.271999e-04
        6 -2.044264e-06
        7  1.558248e-04
        8 -3.028866e-04
        9 -3.711171e-05
       10 -2.329422e-04
       11 -2.140312e-04
       12  1.440115e-04
       13  2.786595e-06
       14  8.291952e-05
       15 -1.108699e-05
       16  2.023936e-05
       17 -3.631160e-04
       18 -2.960582e-05
       19 -3.640747e-05
       20  5.450050e-08
       21  4.704654e-05
       22 -2.807145e-04
       23  8.409469e-04
       24  6.273172e-04
       25 -6.801479e-05
       26  7.919956e-05
       27  5.824937e-06
       28  6.549481e-05
       29  3.797962e-05
       30  1.509680e-04
       31 -2.336826e-04
       32  1.432932e-05
       33 -4.060802e-04
       34  1.534269e-05
       35  2.434643e-05
       36  4.335518e-05
       37  3.486689e-06
       38 -2.978926e-08
       39  2.160078e-04
       40  4.884120e-04
       41  1.458368e-09
       42 -9.774528e-05
       43 -2.101651e-04
       44  6.509973e-05
       45 -2.002187e-05
       46  4.030096e-05
       47 -1.658067e-05
       48 -4.908873e-05
       49  3.317615e-05
       50  1.789958e-04
       51  3.718474e-06
       52  1.204289e-08
       53 -1.064286e-03
       54  1.394723e-05
       55  3.557574e-05
       56  6.481426e-05
       57  2.254831e-05
       58 -2.136386e-04
       59  8.296004e-05
       60  1.076206e-04
       61  3.556287e-04
       62  1.068824e-04
       63 -5.562076e-05
       64  7.238038e-05
       65  1.300703e-04
       66  9.137794e-05
       67 -5.161042e-04
       68 -2.052070e-05
       69 -1.947306e-05
       70  5.280603e-06
       71 -2.087638e-06
       72 -9.633806e-05
       73 -8.931193e-04
       74  1.050946e-05
       75  1.192160e-04
       76  1.870488e-04
       77 -2.369396e-05
       78  1.338637e-04
       79 -9.300095e-04
       80  3.885668e-04
       81  1.939040e-04
       82 -2.504778e-03
       83  4.107724e-05
       84  9.550913e-05
       85 -2.624405e-05
       86  1.491047e-05
       87  9.450553e-05
       88  8.367658e-04
       89 -3.302747e-07
       90  3.900787e-05
       91  7.642987e-05
       92 -1.444208e-04
       93  8.781277e-05
       94 -1.131883e-05
       95 -3.894807e-04
       96  1.190333e-04
       97  5.844019e-04
       98 -5.247441e-04
       99 -5.962415e-04
      100  1.212048e-04
      101  3.992221e-05
      102 -2.709686e-04
      103  8.067274e-04
      104  1.397176e-03
      105 -1.496593e-05
      106  9.579007e-05
      107  1.160741e-03
      108  1.364594e-03
      109 -9.957038e-05
      110  8.353225e-06
      111  7.267173e-05
      112  2.998497e-05
      113 -2.038179e-04
      114  5.109688e-05
      115 -5.111496e-06
      116  7.335171e-05
      117  8.345360e-05
      118  4.760091e-05
      119  1.339931e-04
      120  5.029498e-04
      121 -9.928098e-04
      122  4.312214e-05
      123  2.429519e-04
      124  6.243325e-04
      125 -9.064158e-05
      126  7.706675e-04
      127 -4.087293e-04
      128 -8.136199e-05
      129  1.885643e-04
      130  2.616616e-04
      131 -1.397204e-03
      132  1.063889e-04
      133 -1.914997e-06
      134 -2.927572e-04
      135 -1.490354e-04
      136  1.688112e-05
      137  2.111483e-06
      138  4.522104e-06
      139 -3.433807e-06
      140  5.532176e-06
      141  3.026506e-04
      142 -1.451961e-05
      143  1.726365e-04
      144 -7.396200e-05
      145  5.223296e-06
      146  3.728037e-05
      147 -2.586489e-04
      148  6.446191e-04
      149 -3.540619e-05
      150  1.277096e-04
      151 -3.759853e-05
      152 -2.341131e-05
      153 -7.844443e-05
      154 -4.779848e-06
      155 -6.245524e-07
      156 -1.488973e-04
      157  7.107790e-05
      158 -2.662967e-05
      159 -4.428827e-06