pos          info
        0 -1.481103e-06
        1 -3.201640e-04
        2 -1.460252e-04
        3  9.149670e-05
        4  1.626296e-04
        5  6.291646e-05
        6 -1.832092e-04
        7  8.699062e-05
        8 -3.539663e-04
        9  1.897919e-06
       10 -1.315424e-05
       11 -3.211614e-04
       12  1.052844e-04
       13 -1.438434e-05
       14  9.555994e-05
       15 -1.391264e-05
       16  1.574496e-07
       17 -2.120154e-04
       18 -3.797258e-05
       19 -5.327361e-05
       20  5.805956e-07
       21  4.380710e-05
       22 -6.502254e-05
       23  5.474395e-04
       24  4.314749e-04
       25 -1.033831e-04
       26  3.080124e-05
       27 -2.153756e-05
       28  7.443291e-05
       29  1.851841e-06
       30  2.136684e-04
       31 -6.739599e-05
       32 -2.487858e-05
       33 -3.181164e-04
       34  2.339833e-04
       35  1.618586e-04
       36  1.152648e-05
       37  1.664514e-04
       38 -2.911401e-04
       39  9.463339e-05
       40  4.428429e-04
       41 -8.198451e-05
       42  1.339259e-06
       43 -2.369052e-05
       44  4.645116e-05
       45 -3.332500e-05
       46  1.023522e-04
       47 -5.801860e-06
       48 -9.330568e-05
       49  1.879948e-06
       50  1.083974e-04
       51  1.426716e-05
       52  1.761243e-04
       53 -8.367226e-04
       54  4.125374e-05
       55  6.592943e-06
       56  1.574259e-04
       57  1.136669e-05
       58 -5.914981e-05
       59  1.005244e-05
       60  4.918906e-06
       61  3.841002e-05
       62  1.951944e-04
       63 -1.288030e-04
       64  5.124110e-05
       65  1.202524e-04
       66  2.225240e-04
       67 -1.235433e-04
       68 -6.468294e-06
       69 -1.198203e-04
       70  2.543066e-05
       71 -2.475555e-05
       72 -4.262728e-05
       73 -7.287768e-04
       74  1.002818e-04
       75  4.785593e-05
       76  1.376650e-04
       77  7.617163e-05
       78  5.815091e-05
       79 -7.575022e-04
       80  3.587208e-04
       81  3.049261e-04
       82 -2.576217e-03
       83  5.671230e-05
       84  8.424058e-05
       85 -9.127004e-05
       86 -8.532373e-06
       87  2.911314e-05
       88  8.607270e-04
       89  1.199833e-04
       90  2.291848e-05
       91  8.724279e-05
       92 -2.883198e-04
       93 -1.008417e-05
       94  2.135488e-07
       95 -2.688990e-04
       96  2.795443e-04
       97  4.913804e-04
       98 -2.064139e-04
       99 -5.342285e-04
      100  3.542211e-06
      101  1.399165e-04
      102 -1.912021e-04
      103  5.412992e-04
      104  5.503937e-04
      105 -4.114933e-08
      106  1.644732e-05
      107  5.715896e-04
      108  9.432101e-04
      109 -1.241816e-04
      110  3.212167e-05
      111  5.817606e-05
      112 -4.505405e-08
      113 -2.849531e-04
      114 -1.062962e-07
      115 -6.448367e-07
      116  4.902509e-04
      117  1.891396e-04
      118 -1.827708e-05
      119  1.840532e-04
      120  5.126956e-04
      121 -6.518259e-04
      122  2.199452e-05
      123  1.282273e-04
      124  1.012322e-03
      125  6.086357e-06
      126  6.503318e-04
      127 -2.417874e-04
      128 -4.639053e-05
      129  6.105744e-05
      130  1.927764e-04
      131 -4.733923e-04
      132  2.584530e-04
      133  1.315289e-04
      134 -2.663720e-05
      135 -1.160123e-04
      136  1.308309e-05
      137  2.533112e-04
      138  2.096724e-04
      139  3.925000e-07
      140  5.693096e-05
      141  1.825020e-04
      142 -1.893900e-04
      143 -1.778333e-06
      144 -7.924206e-05
      145  3.430776e-05
      146 -2.639419e-06
      147 -2.774269e-04
      148  4.951388e-04
      149 -5.862985e-05
      150  2.645318e-04
      151 -6.751417e-06
      152 -4.489525e-04
      153  2.897771e-07
      154 -1.916700e-05
      155  3.540250e-07
      156 -4.856945e-05
      157  3.443976e-05
      158 -2.068501e-06
      159 -1.679359e-05