pos       info
        0  -0.000126
        1  -0.000082
        2   0.000055
        3   0.000197
        4   0.000191
        5   0.000194
        6  -0.000050
        7  -0.000061
        8  -0.000191
        9  -0.000161
       10  -0.000101
       11  -0.000022
       12   0.000077
       13   0.000025
       14   0.000031
       15  -0.000118
       16  -0.000124
       17  -0.000143
       18  -0.000022
       19   0.000004
       20  -0.000078
       21   0.000202
       22   0.000396
       23   0.000467
       24   0.000213
       25   0.000006
       26   0.000050
       27   0.000036
       28   0.000085
       29  -0.000015
       30  -0.000023
       31  -0.000208
       32  -0.000125
       33  -0.000122
       34   0.000028
       35   0.000024
       36   0.000016
       37   0.000073
       38   0.000235
       39   0.000235
       40   0.000130
       41  -0.000103
       42  -0.000081
       43  -0.000055
       44   0.000028
       45   0.000001
       46  -0.000008
       47  -0.000011
       48   0.000054
       49   0.000072
       50   0.000061
       51  -0.000354
       52  -0.000350
       53  -0.000338
       54   0.000038
       55   0.000041
       56  -0.000042
       57  -0.000036
       58  -0.000008
       59   0.000182
       60   0.000190
       61   0.000136
       62   0.000041
       63   0.000049
       64   0.000098
       65  -0.000098
       66  -0.000148
       67  -0.000185
       68  -0.000012
       69  -0.000005
       70  -0.000031
       71  -0.000331
       72  -0.000326
       73  -0.000254
       74   0.000106
       75   0.000094
       76   0.000099
       77  -0.000273
       78  -0.000136
       79  -0.000116
       80  -0.000641
       81  -0.000757
       82  -0.000789
       83   0.000037
       84   0.000028
       85   0.000028
       86   0.000315
       87   0.000310
       88   0.000292
       89   0.000038
       90  -0.000010
       91   0.000007
       92  -0.000023
       93  -0.000104
       94  -0.000094
       95   0.000105
       96   0.000060
       97  -0.000179
       98  -0.000333
       99  -0.000145
      100  -0.000037
      101   0.000192
      102   0.000644
      103   0.000730
      104   0.000493
      105   0.000414
      106   0.000874
      107   0.000809
      108   0.000424
      109  -0.000006
      110   0.000037
      111  -0.000034
      112  -0.000041
      113  -0.000053
      114   0.000040
      115   0.000051
      116   0.000068
      117   0.000088
      118   0.000228
      119  -0.000119
      120  -0.000149
      121  -0.000236
      122   0.000303
      123   0.000259
      124   0.000435
      125   0.000090
      126   0.000094
      127  -0.000101
      128   0.000123
      129  -0.000316
      130  -0.000343
      131  -0.000431
      132  -0.000063
      133  -0.000148
      134  -0.000142
      135  -0.000043
      136   0.000008
      137   0.000001
      138   0.000002
      139   0.000102
      140   0.000098
      141   0.000154
      142   0.000028
      143   0.000035
      144  -0.000010
      145  -0.000072
      146   0.000141
      147   0.000117
      148   0.000246
      149   0.000018
      150   0.000022
      151  -0.000046
      152  -0.000036
      153  -0.000028
      154  -0.000051
      155  -0.000026
      156  -0.000035
      157   0.000000
      158   0.000000
      159   0.000000