pos          info
        0  5.549806e-05
        1  1.313783e-05
        2  9.026310e-05
        3 -3.528274e-04
        4 -4.035769e-05
        5  2.416793e-06
        6  1.259354e-06
        7 -1.418945e-04
        8  2.412998e-05
        9  1.157452e-04
       10 -3.463347e-05
       11 -5.314699e-05
       12  4.456367e-06
       13  4.465523e-05
       14  3.779178e-04
       15  4.847192e-05
       16 -5.858742e-05
       17 -8.558091e-05
       18 -6.347265e-08
       19  2.507543e-06
       20 -1.418763e-05
       21  1.007683e-05
       22  3.023768e-04
       23 -6.142044e-05
       24  1.773371e-05
       25 -1.807246e-07
       26 -3.088822e-06
       27 -1.217634e-05
       28  6.203084e-05
       29 -5.692192e-06
       30 -2.428387e-04
       31  8.620119e-05
       32  1.201458e-04
       33 -2.766007e-04
       34  3.165742e-05
       35  3.545152e-04
       36  8.459549e-07
       37  2.196990e-05
       38 -1.112219e-04
       39  3.437966e-04
       40  5.952871e-05
       41 -2.476465e-04
       42  4.020039e-04
       43  5.687448e-05
       44  1.291600e-04
       45  1.199812e-04
       46  5.082550e-04
       47  7.337872e-05
       48 -8.003583e-04
       49 -1.254429e-04
       50 -5.321090e-08
       51  2.548362e-04
       52  2.961556e-04
       53  6.322322e-05
       54 -2.862217e-05
       55  9.301495e-06
       56 -4.696408e-04
       57  1.572841e-04
       58  5.316726e-05
       59  5.844034e-04
       60 -1.212101e-03
       61 -1.579702e-04
       62 -1.868659e-04
       63 -5.619813e-05
       64 -9.696729e-07
       65  3.735660e-05
       66  1.155911e-03
       67  5.734980e-04
       68  2.834570e-05
       69  4.793561e-04
       70 -1.726992e-05
       71  7.261172e-04
       72 -4.414637e-08
       73  6.769461e-04
       74 -4.223861e-03
       75 -4.011644e-04
       76 -2.002000e-05
       77  7.521623e-06
       78 -1.287588e-04
       79  1.358143e-04
       80  2.304479e-04
       81 -6.738618e-05
       82  1.372658e-04
       83 -4.586583e-04
       84  1.075135e-05
       85  1.511019e-04
       86  3.124553e-04
       87  3.022021e-04
       88  4.204659e-07
       89  1.476526e-09
       90 -2.770106e-05
       91  4.751260e-04
       92 -4.939502e-07
       93 -7.146263e-04
       94 -3.822335e-05
       95  9.839112e-05
       96  8.003353e-06
       97  5.775845e-05
       98 -2.433413e-05
       99 -1.345049e-04
      100  4.244940e-05
      101  2.509248e-05
      102  2.888977e-05
      103 -5.341999e-05
      104 -3.215221e-05
      105  6.377951e-05
      106  9.168756e-04
      107  5.118558e-04
      108  3.800583e-04
      109  3.494809e-05
      110 -9.319929e-04
      111  3.116395e-04
      112  6.769703e-04
      113 -1.701236e-04
      114 -8.498387e-05
      115 -1.981810e-05
      116  2.146939e-05
      117 -1.622927e-05
      118 -1.620284e-05
      119 -1.869377e-04
      120 -3.452777e-04
      121  1.018897e-07
      122  4.316279e-05
      123 -3.304267e-06
      124  8.176615e-05
      125  1.394098e-05
      126 -5.947245e-08
      127 -2.795294e-04
      128  2.834627e-05
      129  2.678338e-05
      130  3.593367e-05
      131 -2.137415e-04
      132  1.943139e-04
      133 -1.043070e-04
      134 -3.282498e-06
      135  4.356048e-05
      136  8.040581e-05
      137  6.046934e-05
      138  8.393006e-06
      139  4.012063e-06
      140  2.775201e-06
      141 -4.420108e-06
      142  4.754832e-05
      143  7.480430e-04
      144 -4.630328e-07
      145 -4.459606e-05
      146  3.360209e-06
      147 -5.676489e-05
      148  5.820048e-05
      149  7.918832e-06
      150 -1.924580e-04
      151  2.826649e-06
      152 -8.184246e-06
      153 -1.144500e-03
      154 -3.583329e-04
      155  3.631141e-04
      156  5.301628e-05
      157 -5.982014e-06
      158  1.131245e-05
      159  1.741431e-04