pos          info
        0  7.451348e-05
        1 -1.053591e-04
        2 -1.522410e-04
        3 -1.138772e-04
        4  2.448424e-05
        5  3.067894e-05
        6  8.524451e-07
        7  3.465267e-05
        8 -2.134177e-05
        9 -5.934782e-05
       10 -7.576413e-05
       11 -3.277844e-05
       12  2.369548e-04
       13  2.246061e-04
       14  2.335687e-04
       15 -1.802615e-05
       16 -1.953132e-04
       17 -1.956332e-04
       18 -2.148834e-04
       19 -3.795357e-05
       20  5.726494e-05
       21  8.726171e-05
       22  8.348877e-05
       23 -5.602533e-05
       24 -6.850964e-05
       25 -5.426710e-05
       26 -1.010257e-05
       27 -1.194045e-05
       28 -2.514633e-04
       29 -1.738107e-04
       30 -4.113033e-05
       31  1.966980e-04
       32  1.676236e-04
       33  1.887078e-04
       34  1.841921e-04
       35  1.447205e-04
       36 -2.361034e-06
       37  1.834105e-05
       38  3.899718e-07
       39 -2.268729e-04
       40 -7.852656e-05
       41 -2.613177e-05
       42  3.688920e-04
       43  2.518485e-04
       44  3.633609e-04
       45  2.012759e-04
       46 -5.952416e-05
       47 -2.721501e-04
       48 -3.088503e-04
       49 -4.678029e-05
       50  1.066452e-04
       51  1.517456e-04
       52  1.712079e-04
       53  6.936636e-05
       54  3.802943e-05
       55  1.040699e-05
       56  1.093306e-04
       57  3.065252e-04
       58 -4.966596e-05
       59 -1.483740e-04
       60 -4.078187e-04
       61 -9.366690e-05
       62 -6.112703e-05
       63  2.772198e-05
       64  3.618152e-04
       65  7.405795e-04
       66  7.481264e-04
       67  4.354270e-04
       68  1.215029e-05
       69  7.796981e-05
       70  4.091902e-05
       71  1.061618e-04
       72 -2.608306e-04
       73 -3.527227e-04
       74 -4.035073e-04
       75 -3.675054e-05
       76 -4.801071e-06
       77  7.371928e-05
       78  5.201124e-06
       79  8.312152e-05
       80  9.056172e-05
       81 -5.608429e-05
       82 -6.455043e-05
       83  1.047285e-04
       84  3.730996e-04
       85  4.384354e-04
       86  2.055502e-04
       87  7.623623e-05
       88  1.258026e-04
       89  3.241622e-04
       90  3.213194e-04
       91  1.506421e-04
       92 -1.577719e-04
       93 -1.130443e-04
       94 -4.987700e-05
       95  1.543609e-04
       96  8.944976e-05
       97  3.298862e-05
       98 -1.025663e-04
       99 -8.506699e-05
      100  2.838781e-05
      101 -5.123998e-05
      102  4.101170e-05
      103 -1.933008e-05
      104  5.740600e-04
      105  9.333762e-04
      106  1.024517e-03
      107  4.797205e-04
      108 -3.158052e-04
      109 -1.470533e-04
      110  4.466042e-04
      111  8.096924e-04
      112  5.416890e-04
      113 -4.357177e-05
      114  1.543662e-05
      115  2.713280e-05
      116  6.723970e-05
      117 -1.565658e-04
      118 -1.918896e-04
      119 -1.880616e-04
      120  3.120129e-05
      121  1.419126e-04
      122  1.859142e-04
      123  1.830813e-04
      124  1.091492e-04
      125  6.563906e-05
      126 -1.056622e-06
      127 -1.282554e-06
      128  1.283933e-06
      129 -5.635571e-06
      130 -6.109285e-06
      131 -4.212708e-06
      132  5.507130e-05
      133  5.808757e-05
      134  5.349408e-05
      135  4.871045e-06
      136  9.780005e-07
      137  1.879563e-05
      138 -4.510483e-05
      139 -4.192167e-05
      140  4.687508e-05
      141  1.587754e-04
      142  1.671205e-04
      143  5.156310e-05
      144  9.381391e-06
      145 -4.607439e-05
      146 -3.519206e-05
      147 -1.436113e-04
      148 -1.758799e-04
      149 -1.827548e-04
      150 -5.638480e-05
      151 -1.510985e-04
      152 -2.549713e-04
      153 -2.732847e-04
      154 -1.103475e-06
      155  9.215370e-05
      156  8.225080e-05
      157  0.000000e+00
      158  0.000000e+00
      159  0.000000e+00