pos          info
        0  2.374094e-08
        1 -8.617004e-05
        2 -8.621624e-06
        3 -3.056264e-05
        4  5.856138e-05
        5  1.949748e-04
        6  1.405252e-05
        7  1.958486e-04
        8  2.156897e-04
        9  1.273410e-04
       10 -1.179184e-04
       11  3.144934e-04
       12 -1.149641e-04
       13  2.674300e-04
       14 -1.699615e-03
       15 -3.964850e-08
       16 -5.913300e-07
       17  4.151481e-04
       18  5.003638e-04
       19 -5.123498e-05
       20 -8.140159e-05
       21 -5.072635e-05
       22  1.108186e-06
       23 -1.274323e-04
       24 -5.374851e-04
       25 -2.010452e-06
       26  1.644260e-04
       27  1.828858e-05
       28 -2.590147e-04
       29  7.244809e-05
       30 -1.429812e-08
       31 -5.791511e-04
       32 -6.349559e-05
       33  7.552661e-05
       34  7.094282e-05
       35 -3.343451e-04
       36 -2.787450e-05
       37  2.535341e-05
       38 -1.561813e-04
       39  1.739784e-05
       40  8.810539e-06
       41 -1.537979e-07
       42  4.367581e-04
       43 -2.116873e-05
       44 -2.224293e-05
       45 -6.280504e-05
       46  4.720241e-05
       47  2.884004e-04
       48 -7.733696e-04
       49  3.804668e-05
       50  5.305205e-05
       51  3.348770e-06
       52  2.958629e-06
       53 -1.438985e-04
       54 -8.057298e-05
       55  7.943864e-06
       56  1.918300e-04
       57  5.125849e-05
       58 -2.552889e-05
       59  3.304994e-05
       60 -2.206113e-05
       61 -3.860812e-05
       62 -2.804752e-04
       63  1.324365e-04
       64 -1.442488e-04
       65  7.019492e-06
       66  1.946786e-09
       67  3.804637e-04
       68 -2.829079e-05
       69 -7.907648e-05
       70  2.251289e-05
       71  1.445087e-04
       72  7.412847e-05
       73  2.327200e-05
       74 -1.314593e-04
       75  1.596735e-04
       76 -3.751906e-06
       77  1.830347e-05
       78 -2.688272e-04
       79 -1.263630e-05
       80  2.790383e-04
       81  1.807752e-03
       82  4.358350e-04
       83  8.515595e-04
       84 -5.580430e-03
       85 -7.257380e-04
       86  1.804151e-04
       87 -2.929112e-07
       88  4.071170e-04
       89  4.378088e-04
       90 -7.963957e-05
       91 -6.203151e-06
       92  5.962067e-05
       93  2.531136e-05
       94 -3.233114e-06
       95  2.495389e-05
       96 -9.282429e-07
       97 -7.922522e-05
       98 -1.015873e-03
       99 -5.578423e-04
      100 -1.287210e-05
      101  1.103112e-03
      102  1.517053e-03
      103  3.029897e-04
      104  2.882645e-03
      105  9.680444e-04
      106  2.991099e-04
      107 -1.495135e-05
      108  2.472149e-04
      109  1.671069e-03
      110  1.781104e-04
      111  5.578054e-04
      112  8.620870e-06
      113  9.597231e-05
      114 -6.976265e-04
      115 -1.672115e-04
      116 -3.885124e-05
      117 -2.131264e-05
      118 -7.749822e-07
      119 -4.924731e-05
      120  2.541645e-04
      121  2.784418e-04
      122 -1.198000e-04
      123 -5.359990e-04
      124 -1.168327e-05
      125  2.452248e-07
      126 -5.691348e-05
      127  7.718486e-06
      128  7.957636e-05
      129  1.738785e-10
      130  4.836456e-04
      131  1.700416e-04
      132  1.080272e-05
      133  9.048287e-05
      134  1.929387e-04
      135  1.198184e-04
      136 -4.571396e-06
      137 -8.926505e-05
      138 -5.475044e-07
      139 -5.848066e-05
      140 -3.649426e-06
      141  8.067664e-05
      142 -8.613884e-05
      143 -2.109483e-04
      144 -2.192862e-07
      145  1.102657e-04
      146 -6.366065e-05
      147 -1.229373e-07
      148  1.163491e-04
      149  8.621807e-05
      150  1.349452e-05
      151  2.152367e-04
      152 -6.383631e-06
      153  2.894092e-04
      154  2.351969e-04
      155  2.622192e-05
      156  4.968246e-04
      157  8.150379e-05
      158 -1.977226e-04
      159  1.246135e-06