pos          info
        0  8.470924e-06
        1  5.682782e-05
        2  4.467558e-05
        3  6.521782e-05
        4  6.394327e-05
        5  1.428744e-04
        6  1.047477e-04
        7  1.101682e-04
        8  3.145839e-05
        9  8.431606e-06
       10 -6.243950e-05
       11 -1.934797e-05
       12 -3.591953e-04
       13 -3.250150e-04
       14 -3.620385e-04
       15 -3.233258e-05
       16  4.755554e-05
       17  8.239672e-06
       18  5.572796e-06
       19 -3.127771e-05
       20 -8.313711e-06
       21 -8.951024e-06
       22 -2.001863e-05
       23 -3.262341e-05
       24 -2.741146e-05
       25 -1.541689e-05
       26 -8.516013e-05
       27 -3.072579e-05
       28 -4.072490e-05
       29 -3.181913e-04
       30 -4.144874e-04
       31 -4.237778e-04
       32 -5.343682e-05
       33 -6.311390e-05
       34 -7.408944e-05
       35 -3.249136e-05
       36 -1.504842e-05
       37  3.875977e-06
       38 -2.994683e-05
       39  4.625264e-05
       40  8.487544e-05
       41  1.644684e-05
       42 -5.269584e-05
       43 -6.093573e-05
       44  5.354382e-05
       45  7.941243e-05
       46  7.127107e-06
       47 -4.080772e-05
       48 -5.416313e-05
       49 -1.700830e-05
       50  5.705913e-05
       51  6.781334e-05
       52  1.232013e-04
       53  5.001448e-05
       54  5.014598e-05
       55  2.982935e-05
       56  3.608083e-05
       57  4.384014e-05
       58 -1.071183e-04
       59 -7.803732e-05
       60 -2.817151e-04
       61 -1.571234e-04
       62 -3.619679e-04
       63 -1.351502e-04
       64 -8.350468e-05
       65  1.217206e-04
       66  9.063422e-05
       67  3.166564e-05
       68  3.699889e-05
       69  1.054087e-04
       70  1.394125e-04
       71  9.916714e-05
       72  3.064613e-05
       73  8.752745e-07
       74 -2.577025e-05
       75 -7.156551e-05
       76 -1.165999e-04
       77 -9.236947e-05
       78 -3.868980e-05
       79  5.611075e-04
       80  7.020888e-04
       81  9.559043e-04
       82 -9.285786e-04
       83 -1.495359e-03
       84 -1.711959e-03
       85 -3.957312e-04
       86  1.651103e-04
       87  2.064558e-04
       88  1.987023e-04
       89  1.319100e-05
       90 -4.367037e-07
       91  2.143607e-05
       92  1.685601e-05
       93 -8.034225e-05
       94 -8.035081e-05
       95 -4.549375e-05
       96 -4.651149e-05
       97 -1.355321e-04
       98 -1.119146e-04
       99  2.414565e-04
      100  7.967437e-04
      101  8.489692e-04
      102  9.267196e-04
      103  7.896997e-04
      104  8.804636e-04
      105  4.393101e-04
      106  1.558557e-04
      107  4.192807e-04
      108  4.830135e-04
      109  4.734234e-04
      110  1.470686e-04
      111  1.182910e-04
      112 -1.164366e-04
      113 -2.162862e-04
      114 -2.191165e-04
      115 -5.362183e-05
      116 -6.978510e-05
      117 -7.129338e-05
      118 -3.237183e-05
      119  2.069016e-06
      120 -6.122700e-06
      121 -2.170877e-04
      122 -2.153995e-04
      123 -1.776052e-04
      124 -2.288658e-05
      125 -3.413571e-05
      126  1.808002e-05
      127  5.521846e-05
      128  6.123852e-05
      129  4.846872e-07
      130  2.717947e-05
      131  7.228857e-06
      132 -8.564987e-06
      133  3.349239e-05
      134  5.535477e-05
      135  3.658310e-05
      136  2.090455e-06
      137  4.665848e-06
      138 -4.910173e-05
      139 -6.837309e-05
      140 -1.507897e-04
      141 -7.800334e-05
      142 -4.176699e-05
      143  1.063067e-04
      144  1.011375e-04
      145  8.971595e-05
      146  2.258543e-05
      147  2.695842e-05
      148 -1.031778e-05
      149 -4.366417e-05
      150 -1.916555e-04
      151 -1.813654e-04
      152 -1.493726e-04
      153  8.148890e-06
      154  8.915197e-05
      155  1.869846e-04
      156  1.699477e-04
      157  0.000000e+00
      158  0.000000e+00
      159  0.000000e+00