pos          info
        0  6.225738e-05
        1  4.606111e-05
        2 -1.147821e-04
        3 -1.859437e-04
        4 -2.059664e-04
        5 -1.875549e-05
        6  1.472434e-05
        7  1.410606e-05
        8 -1.559800e-05
        9  8.468231e-05
       10  1.585075e-04
       11  1.326483e-04
       12  1.489499e-05
       13 -4.965555e-05
       14 -6.793809e-06
       15  9.857666e-06
       16  9.173779e-06
       17 -3.230887e-05
       18 -5.780653e-05
       19 -5.020520e-05
       20  8.861975e-05
       21  1.298634e-04
       22  1.285109e-04
       23  1.116495e-05
       24 -8.546585e-06
       25 -1.039956e-04
       26 -8.914668e-05
       27 -1.170276e-04
       28  2.316376e-06
       29  2.972412e-06
       30  7.298894e-05
       31  7.079170e-05
       32  5.958025e-05
       33  2.217438e-05
       34  1.746338e-04
       35  1.551290e-04
       36  2.001968e-04
       37  2.175649e-04
       38  2.084796e-04
       39  1.634257e-04
       40 -3.887742e-05
       41 -9.243045e-06
       42 -1.074164e-05
       43  4.597106e-05
       44  1.073735e-04
       45  1.252156e-04
       46  8.232206e-05
       47  4.540086e-05
       48  2.614275e-05
       49 -3.576062e-05
       50 -3.242975e-05
       51 -4.372667e-05
       52 -1.096932e-04
       53 -1.609709e-04
       54 -1.341734e-04
       55 -2.467758e-06
       56  9.480067e-05
       57  8.650529e-05
       58  1.375645e-04
       59  6.051345e-05
       60 -4.170345e-05
       61 -3.730023e-05
       62  6.961590e-05
       63  2.047201e-04
       64  1.401859e-04
       65  1.214764e-04
       66  9.539275e-05
       67  9.613016e-05
       68  5.334083e-06
       69 -1.878367e-04
       70 -1.994250e-04
       71 -2.881071e-04
       72 -7.858253e-05
       73 -8.983614e-05
       74 -2.199063e-05
       75 -2.730554e-05
       76  7.545031e-05
       77  1.086417e-04
       78  9.494568e-05
       79 -6.101314e-05
       80 -5.467459e-05
       81  5.882262e-05
       82  1.436080e-04
       83  2.428921e-04
       84  1.061030e-04
       85  9.878303e-05
       86 -1.313875e-05
       87 -6.249160e-05
       88 -3.829406e-04
       89 -4.349974e-04
       90 -4.470083e-04
       91 -1.261019e-04
       92 -1.715470e-04
       93 -9.587966e-05
       94 -2.091492e-04
       95 -2.024119e-04
       96 -2.038895e-04
       97 -6.748999e-05
       98  2.559485e-05
       99  4.614153e-05
      100  3.227980e-07
      101 -3.564113e-05
      102 -1.646183e-04
      103 -1.612006e-04
      104 -1.239985e-04
      105 -1.511022e-04
      106 -1.043029e-04
      107 -9.802357e-05
      108 -2.452410e-05
      109 -1.679217e-04
      110 -2.519603e-04
      111 -5.166672e-05
      112  6.877106e-05
      113 -2.005414e-04
      114 -2.953068e-04
      115 -2.610511e-04
      116  3.242733e-04
      117  2.991143e-04
      118  2.614934e-04
      119  2.462487e-05
      120  2.633950e-05
      121  1.895274e-05
      122  1.449223e-05
      123  1.587772e-05
      124  8.748091e-05
      125  9.692753e-05
      126  1.813197e-04
      127  9.788151e-05
      128 -3.398112e-05
      129 -1.395651e-04
      130 -1.203514e-04
      131  2.903003e-05
      132  1.844996e-05
      133  1.553795e-05
      134  5.184241e-05
      135  7.127121e-05
      136  7.245535e-05
      137 -1.125708e-04
      138 -5.817830e-05
      139 -5.799771e-05
      140  4.776026e-05
      141 -1.375548e-05
      142 -1.904327e-05
      143  4.054127e-05
      144 -7.561458e-06
      145  3.906300e-05
      146 -1.706660e-06
      147 -5.149657e-05
      148 -8.429412e-05
      149 -1.370769e-04
      150 -3.473352e-05
      151  3.203791e-05
      152  7.926266e-05
      153  5.191896e-05
      154 -2.410098e-05
      155 -1.659928e-05
      156 -7.050913e-06
      157  0.000000e+00
      158  0.000000e+00
      159  0.000000e+00