pos          info
        0 -1.760554e-04
        1  6.096408e-05
        2 -3.821984e-06
        3 -2.467523e-04
        4  1.992569e-04
        5  4.735992e-05
        6  2.263278e-05
        7 -7.511342e-05
        8 -1.577315e-05
        9  1.582630e-04
       10 -2.546815e-06
       11 -1.658182e-04
       12 -4.969553e-06
       13  2.896213e-06
       14 -1.204234e-08
       15  3.177551e-05
       16 -2.806022e-06
       17  9.689686e-05
       18  1.184210e-05
       19  1.085823e-04
       20  3.428520e-05
       21  8.399117e-06
       22 -2.721914e-04
       23 -1.026854e-04
       24 -3.933363e-05
       25  6.867946e-05
       26 -6.555666e-06
       27  1.802357e-04
       28 -2.682352e-05
       29  1.328821e-04
       30 -3.071695e-04
       31 -2.399466e-05
       32 -2.313039e-04
       33 -2.805631e-04
       34 -1.453632e-05
       35 -6.592012e-05
       36 -1.340329e-04
       37  1.020105e-05
       38 -5.182884e-05
       39 -2.358386e-04
       40  1.013485e-04
       41 -1.049512e-06
       42  3.459979e-04
       43  1.748158e-06
       44 -7.162745e-08
       45 -2.191512e-04
       46 -1.884840e-07
       47 -1.036904e-06
       48 -2.417721e-06
       49 -6.540433e-05
       50  8.361523e-05
       51  4.826631e-04
       52 -2.993931e-04
       53  7.740356e-05
       54  3.379035e-04
       55  3.326220e-07
       56 -3.918103e-05
       57 -1.785841e-04
       58 -1.708915e-04
       59 -3.825482e-05
       60 -8.772229e-05
       61  1.798146e-05
       62  3.991883e-04
       63 -7.601714e-05
       64 -1.884010e-04
       65 -1.114425e-04
       66  2.069679e-05
       67 -5.040423e-06
       68 -7.042747e-06
       69  8.923534e-06
       70  1.700208e-06
       71  6.155405e-04
       72  2.450651e-04
       73  9.487493e-06
       74 -7.345336e-05
       75  1.905414e-05
       76 -4.323270e-05
       77 -8.964901e-06
       78 -4.318459e-04
       79 -2.016844e-05
       80  4.327118e-05
       81  4.051068e-04
       82 -1.859823e-05
       83 -4.142040e-04
       84  2.322252e-07
       85 -3.791942e-04
       86  9.821281e-05
       87  8.576803e-06
       88 -5.407390e-05
       89  5.514186e-04
       90  9.115970e-04
       91  3.373262e-04
       92  4.463036e-04
       93 -1.355782e-06
       94  1.805404e-04
       95 -3.177449e-05
       96  2.568721e-04
       97  4.456221e-04
       98  1.404120e-06
       99 -7.078391e-05
      100 -2.712839e-06
      101 -1.332656e-04
      102  8.163071e-05
      103  2.848200e-05
      104  2.116704e-04
      105  1.345781e-05
      106 -9.964024e-05
      107  7.152659e-05
      108 -9.613295e-05
      109 -2.972448e-05
      110  2.058556e-04
      111  9.041903e-04
      112  2.720067e-04
      113 -5.468376e-04
      114 -3.609803e-05
      115  1.355887e-03
      116 -1.712485e-04
      117 -2.458151e-04
      118 -7.306370e-04
      119  6.155796e-05
      120 -2.172610e-06
      121  9.953467e-06
      122 -1.345719e-04
      123 -6.156632e-06
      124 -6.403854e-05
      125 -1.656316e-04
      126 -6.105749e-05
      127 -1.227758e-06
      128 -3.014525e-04
      129 -8.292680e-07
      130  3.425660e-04
      131 -2.956140e-05
      132  2.082609e-05
      133 -8.989760e-05
      134 -1.164632e-04
      135 -1.047731e-05
      136 -8.649684e-05
      137 -2.156113e-05
      138 -6.989870e-06
      139  6.611102e-04
      140 -1.867571e-04
      141 -1.460930e-05
      142  6.685579e-05
      143  2.499696e-05
      144  2.070655e-06
      145 -1.816927e-04
      146  2.078987e-04
      147 -3.286243e-04
      148 -3.642716e-11
      149  5.053106e-04
      150 -2.424406e-04
      151  2.082412e-04
      152 -4.714041e-05
      153 -1.763379e-04
      154 -1.254600e-04
      155 -1.423894e-05
      156  5.595855e-05
      157 -2.131677e-06
      158  2.582842e-06
      159 -3.173154e-06