pos          info
        0  5.967875e-05
        1  1.348212e-05
        2  3.060961e-05
        3 -2.725384e-05
        4  3.354905e-04
        5  1.182072e-05
        6  5.750798e-05
        7 -1.085887e-04
        8  2.210390e-05
        9  2.440458e-04
       10  1.854222e-04
       11 -3.619908e-05
       12 -1.380439e-04
       13 -1.744724e-05
       14  1.541997e-04
       15  2.295495e-04
       16 -2.516689e-05
       17 -2.648763e-06
       18 -4.621996e-05
       19  1.234958e-04
       20  5.763125e-05
       21  8.747888e-06
       22 -2.840304e-04
       23  2.581810e-04
       24 -2.208965e-05
       25  2.717061e-06
       26  1.125243e-05
       27 -9.654811e-05
       28 -8.903540e-06
       29  1.073522e-05
       30  1.063083e-04
       31 -4.113493e-05
       32  3.366412e-05
       33  1.006662e-04
       34  5.576526e-05
       35  2.898358e-07
       36 -1.731952e-04
       37 -4.001566e-05
       38 -2.754115e-05
       39  4.228012e-05
       40  9.026717e-06
       41 -3.866672e-06
       42  2.828578e-07
       43 -1.130171e-04
       44 -3.811508e-05
       45  2.275948e-06
       46 -9.054499e-06
       47  9.445126e-05
       48  1.186096e-04
       49 -2.780831e-05
       50 -2.379188e-04
       51 -4.112337e-06
       52  1.074386e-07
       53  2.384923e-05
       54  5.845967e-04
       55 -8.860466e-05
       56  6.386535e-06
       57  4.635879e-05
       58  3.942705e-05
       59  1.562815e-04
       60 -1.247318e-04
       61  2.178213e-04
       62 -2.097345e-04
       63  4.873667e-06
       64 -2.625858e-05
       65  2.095515e-04
       66 -6.011103e-06
       67  3.357644e-03
       68 -2.251800e-03
       69  1.284744e-03
       70  5.504300e-06
       71 -6.300919e-04
       72  3.935809e-06
       73 -6.051062e-05
       74  1.474833e-05
       75  8.309037e-07
       76 -8.389485e-05
       77  4.632546e-05
       78  1.002381e-05
       79  3.760461e-04
       80 -3.280510e-06
       81 -3.783734e-06
       82 -1.762012e-06
       83 -7.767066e-05
       84 -3.574995e-05
       85 -9.230450e-04
       86 -2.237722e-03
       87  1.343994e-03
       88  3.675666e-03
       89  5.568890e-03
       90 -1.040033e-04
       91  3.452266e-03
       92  3.778041e-03
       93 -6.673955e-04
       94 -2.698425e-04
       95  4.779455e-04
       96  2.546524e-03
       97 -5.127986e-04
       98 -1.627528e-04
       99 -1.790474e-04
      100  6.479043e-05
      101 -1.196790e-08
      102 -1.584239e-04
      103  2.444492e-04
      104  6.141763e-05
      105 -1.755165e-04
      106  3.866472e-05
      107  4.788848e-05
      108 -3.921386e-04
      109  2.045320e-05
      110 -1.156787e-04
      111 -2.403312e-07
      112 -3.209283e-04
      113  2.120411e-04
      114  1.013750e-04
      115 -5.707296e-06
      116 -1.817604e-07
      117  9.422922e-06
      118 -2.414913e-04
      119  1.032280e-04
      120  1.267321e-06
      121 -3.603875e-05
      122 -1.198018e-05
      123 -1.543821e-04
      124 -2.745693e-04
      125 -1.257758e-05
      126 -7.397585e-05
      127  4.750525e-05
      128  5.444208e-06
      129  1.275943e-05
      130 -1.251793e-05
      131  9.658067e-05
      132 -2.522627e-05
      133 -1.146606e-03
      134  4.941579e-07
      135 -7.409453e-06
      136  4.949051e-08
      137 -5.330695e-05
      138 -2.046965e-05
      139  1.282915e-04
      140  1.706592e-05
      141 -1.092556e-04
      142 -3.332064e-05
      143  5.162014e-06
      144 -8.181910e-05
      145  8.494117e-06
      146  5.914605e-05
      147  1.139854e-05
      148 -1.367337e-05
      149 -8.496831e-05
      150  1.391037e-05
      151 -2.026683e-04
      152  2.171614e-04
      153 -3.650948e-05
      154  7.160078e-05
      155  7.332569e-06
      156  1.839709e-04
      157  1.649173e-05
      158 -6.952208e-05
      159  6.629641e-06