pos          info
        0 -6.241522e-07
        1  8.038804e-06
        2 -4.110079e-05
        3  1.687590e-04
        4 -3.276364e-04
        5  6.933835e-05
        6 -5.164502e-05
        7  4.020847e-05
        8 -2.764483e-06
        9 -1.901848e-04
       10 -8.907367e-05
       11  1.502998e-06
       12  6.767979e-06
       13  2.513595e-06
       14 -1.744864e-04
       15 -1.251027e-04
       16  4.332346e-06
       17  2.590792e-06
       18  2.820959e-05
       19  3.030303e-05
       20 -1.857851e-04
       21 -1.564491e-05
       22  1.388445e-04
       23 -5.150769e-05
       24  1.204138e-06
       25  8.473588e-05
       26 -4.841182e-05
       27 -3.356098e-06
       28 -1.663513e-06
       29  1.382343e-05
       30 -2.015968e-04
       31  3.168169e-05
       32  2.230682e-05
       33 -3.764812e-05
       34 -8.079998e-05
       35 -6.642945e-05
       36  1.866778e-04
       37  3.954399e-05
       38 -1.354959e-06
       39 -3.560274e-05
       40  1.421205e-04
       41  2.473399e-06
       42 -1.897709e-05
       43  3.681081e-04
       44  5.237186e-06
       45  4.703839e-07
       46 -2.385782e-05
       47 -3.096554e-05
       48 -2.649490e-04
       49  1.657124e-04
       50 -1.012267e-07
       51  1.250210e-08
       52 -1.739021e-05
       53  4.088185e-06
       54 -4.729007e-04
       55  1.237774e-04
       56 -6.128084e-06
       57 -1.656541e-04
       58 -1.271787e-04
       59 -1.958780e-04
       60  1.430730e-04
       61 -2.400641e-05
       62  5.953957e-05
       63 -3.162896e-05
       64  5.841916e-05
       65 -3.766715e-04
       66  4.748517e-05
       67 -1.818480e-03
       68  2.104423e-03
       69 -7.914745e-04
       70  1.813385e-06
       71  8.580517e-04
       72 -1.368539e-04
       73 -7.627538e-05
       74  1.563057e-05
       75  3.052127e-04
       76  9.799491e-05
       77 -1.164350e-04
       78  8.900484e-06
       79 -4.588365e-04
       80 -1.061076e-05
       81 -4.521611e-05
       82 -1.082531e-04
       83  1.284965e-04
       84  2.806593e-10
       85  1.186742e-03
       86  3.270172e-03
       87 -3.396282e-04
       88 -1.199440e-03
       89 -2.722717e-03
       90  2.001481e-04
       91 -1.699868e-03
       92 -2.410788e-03
       93  1.303467e-03
       94  4.288202e-04
       95 -2.883568e-04
       96 -1.601830e-03
       97  4.582083e-04
       98  5.059873e-05
       99  1.769317e-05
      100  8.164722e-05
      101  4.498191e-05
      102  4.276871e-04
      103 -8.237150e-05
      104 -4.853456e-05
      105  1.854485e-04
      106  2.580203e-05
      107 -2.716148e-05
      108  2.504126e-04
      109 -1.946473e-05
      110  8.820349e-09
      111  2.144772e-06
      112  2.995647e-04
      113 -1.735229e-04
      114 -7.261019e-06
      115  2.706768e-05
      116 -1.041667e-06
      117 -1.993515e-06
      118  1.252090e-04
      119 -1.229915e-05
      120  4.068097e-06
      121  1.904317e-04
      122  1.806974e-05
      123  3.858823e-04
      124  2.294222e-04
      125  1.335894e-04
      126  1.856371e-05
      127 -1.005829e-05
      128 -8.341387e-05
      129  1.687892e-05
      130 -3.931447e-05
      131 -3.579924e-05
      132  6.150893e-06
      133  5.188587e-04
      134 -1.228137e-04
      135 -1.616537e-05
      136  2.722625e-06
      137  1.627547e-04
      138  8.134062e-06
      139 -3.182520e-05
      140 -1.851699e-04
      141  2.044397e-07
      142  1.210884e-05
      143 -2.422132e-05
      144  1.493273e-05
      145  1.603391e-05
      146 -3.360337e-05
      147 -5.101365e-05
      148 -3.493836e-07
      149  6.302051e-05
      150 -2.631064e-05
      151  4.387941e-04
      152 -3.144928e-05
      153  1.738847e-05
      154 -2.072063e-06
      155  1.038441e-05
      156 -1.503340e-04
      157 -2.514921e-05
      158 -1.589651e-06
      159 -9.355287e-06