pos          info
        0 -1.735871e-06
        1  5.343390e-05
        2  9.661871e-05
        3 -8.206305e-11
        4 -1.588524e-04
        5 -7.188663e-05
        6 -7.270019e-07
        7  4.229844e-05
        8 -2.275590e-06
        9  3.074434e-04
       10  9.218388e-05
       11 -4.128313e-06
       12  2.979916e-04
       13  7.271597e-05
       14  3.059055e-05
       15 -3.720920e-07
       16  2.213595e-04
       17  7.423817e-05
       18  1.127038e-05
       19  7.381432e-05
       20 -1.977857e-04
       21 -9.830252e-05
       22 -3.848791e-05
       23  4.148224e-05
       24 -4.515591e-07
       25  1.693600e-04
       26 -4.152515e-04
       27  2.627506e-04
       28  5.115720e-06
       29  7.418859e-06
       30  4.182127e-07
       31 -3.218859e-05
       32  8.564761e-06
       33  4.346845e-05
       34  3.638784e-04
       35 -1.911012e-07
       36  2.867724e-07
       37 -3.156830e-04
       38  5.012010e-05
       39 -7.358679e-05
       40 -3.590768e-04
       41  7.102632e-05
       42 -4.290489e-05
       43  2.316859e-04
       44 -1.725775e-04
       45 -8.470276e-05
       46 -3.483334e-04
       47 -7.595642e-06
       48  2.309331e-05
       49 -2.141157e-04
       50 -5.208418e-05
       51  7.293123e-06
       52 -4.716816e-05
       53 -2.947440e-04
       54 -2.758846e-04
       55 -2.022660e-05
       56 -3.501143e-06
       57 -1.394104e-05
       58  3.134237e-04
       59 -4.335813e-05
       60  3.914241e-04
       61  3.331123e-05
       62  1.873690e-05
       63 -5.319812e-05
       64 -7.053542e-04
       65 -2.877255e-04
       66  4.040533e-04
       67  2.643171e-05
       68  1.957062e-04
       69 -1.248857e-04
       70  4.611438e-05
       71  1.976866e-04
       72 -5.473776e-05
       73 -1.231564e-07
       74  8.017856e-05
       75  3.200866e-09
       76  8.692665e-05
       77  4.585220e-04
       78 -1.175842e-05
       79  1.316715e-05
       80  8.509144e-05
       81  2.556607e-04
       82  7.396363e-04
       83  3.974064e-05
       84  6.013110e-05
       85 -1.862529e-04
       86 -9.729673e-06
       87 -2.927859e-04
       88  2.695835e-04
       89  8.633987e-05
       90 -1.716742e-04
       91 -2.874319e-05
       92  2.367776e-04
       93  4.667514e-04
       94  7.698094e-04
       95  1.003698e-03
       96 -8.746852e-05
       97 -8.579694e-05
       98 -7.249153e-05
       99  3.472609e-05
      100 -2.597070e-04
      101  1.282096e-06
      102  6.618375e-05
      103 -1.233012e-04
      104  2.264457e-05
      105 -1.828453e-04
      106  2.674374e-05
      107  4.519669e-06
      108 -7.746303e-05
      109 -2.201150e-04
      110  6.355915e-05
      111 -3.743624e-04
      112 -4.946854e-07
      113  1.292531e-04
      114 -5.121486e-08
      115 -1.108160e-04
      116 -2.378728e-04
      117  8.952159e-05
      118  9.716057e-05
      119  6.374746e-06
      120  3.270045e-04
      121 -2.865145e-05
      122  5.060570e-07
      123  1.829868e-04
      124  2.511348e-05
      125  4.780608e-07
      126 -1.614876e-06
      127 -1.026416e-04
      128 -2.767353e-05
      129 -4.214364e-05
      130 -5.746839e-05
      131 -1.354388e-04
      132  2.042631e-04
      133 -2.997554e-06
      134  6.331586e-05
      135  7.325462e-06
      136 -7.253543e-06
      137 -6.736046e-07
      138 -1.091606e-04
      139 -1.812830e-04
      140  1.243538e-07
      141  6.892353e-06
      142 -1.902288e-04
      143 -3.149476e-06
      144  1.338102e-04
      145 -7.096578e-06
      146  1.300248e-04
      147  2.510846e-05
      148  1.752933e-04
      149  1.094673e-05
      150  2.347021e-04
      151  6.853282e-07
      152 -4.141318e-05
      153 -5.100533e-05
      154  2.691788e-05
      155 -9.667609e-06
      156 -3.228510e-05
      157  1.065948e-04
      158 -9.676114e-05
      159  2.400512e-06