pos          info
        0  1.689623e-05
        1  1.711806e-05
        2  9.887473e-05
        3  8.675998e-05
        4  9.052831e-05
        5  1.895296e-05
        6 -1.332266e-04
        7 -1.238051e-04
        8 -1.546543e-04
        9 -1.614380e-05
       10 -5.514268e-05
       11 -7.390992e-05
       12 -1.363880e-04
       13 -1.151092e-04
       14 -8.191067e-05
       15  1.273330e-05
       16  1.012835e-04
       17  9.673875e-05
       18 -1.423250e-04
       19 -2.329218e-04
       20 -3.011986e-04
       21 -8.278866e-05
       22 -7.954175e-05
       23 -3.380312e-05
       24 -2.801280e-05
       25 -6.411454e-05
       26 -3.062746e-05
       27 -5.703486e-05
       28 -2.397829e-05
       29 -3.998150e-05
       30 -2.792228e-05
       31 -2.097711e-05
       32 -9.610007e-05
       33 -8.370241e-05
       34 -8.429619e-05
       35  2.057569e-05
       36  1.756305e-05
       37  4.022244e-05
       38  3.787241e-05
       39  3.568788e-05
       40  9.203891e-06
       41 -3.425494e-05
       42 -3.060714e-05
       43 -4.993826e-05
       44 -1.924562e-05
       45 -2.845974e-05
       46 -4.107519e-06
       47  1.846326e-06
       48  3.386622e-04
       49  3.103499e-04
       50  2.925545e-04
       51 -3.485577e-05
       52 -3.521321e-06
       53  3.337369e-06
       54 -1.077500e-04
       55 -1.062167e-04
       56 -1.061316e-04
       57 -7.798076e-05
       58 -1.064988e-04
       59 -5.191305e-05
       60 -1.628280e-05
       61  1.018295e-04
       62  3.804001e-05
       63  6.679530e-05
       64 -8.612585e-05
       65 -7.157754e-05
       66 -4.521256e-05
       67  1.883471e-04
       68  1.245584e-04
       69  1.144638e-04
       70 -1.017362e-04
       71 -1.069261e-04
       72 -6.314455e-05
       73 -3.097103e-07
       74  6.387924e-05
       75  1.198678e-04
       76  1.074287e-04
       77  8.692382e-05
       78 -7.365083e-05
       79 -6.863904e-05
       80 -3.556326e-04
       81 -3.625090e-04
       82 -4.069642e-04
       83 -8.801295e-05
       84 -1.747767e-05
       85  2.255453e-05
       86 -1.490694e-04
       87 -8.930714e-05
       88 -9.582182e-05
       89  1.078866e-04
       90  4.967389e-05
       91  1.304360e-04
       92  7.738412e-05
       93  9.788292e-05
       94  1.812554e-04
       95  2.094019e-04
       96  2.248148e-04
       97  5.079320e-05
       98  8.023476e-06
       99  8.021220e-05
      100  1.349486e-04
      101  1.203086e-03
      102  7.690637e-04
      103  7.119622e-04
      104  2.739747e-04
      105  9.476471e-04
      106  1.045819e-03
      107  4.662485e-04
      108  1.464432e-04
      109  3.261450e-05
      110 -6.691880e-05
      111 -2.201180e-04
      112 -2.869458e-04
      113 -2.207708e-04
      114 -1.105660e-04
      115  3.636756e-05
      116  1.468381e-04
      117  5.977084e-04
      118  5.460488e-04
      119  5.226168e-04
      120  6.152519e-04
      121  1.016266e-03
      122  8.346077e-04
      123  3.397802e-04
      124 -1.347581e-04
      125 -3.091503e-05
      126 -7.412741e-05
      127  4.021688e-04
      128 -1.015607e-03
      129 -1.132823e-03
      130 -1.503227e-03
      131 -2.083317e-04
      132 -4.605792e-05
      133 -9.526047e-05
      134  1.075478e-05
      135 -2.906220e-05
      136 -2.473553e-05
      137 -3.831908e-05
      138  9.825025e-05
      139  8.589374e-05
      140  1.142851e-04
      141  5.722578e-05
      142  8.657662e-05
      143  1.018848e-04
      144 -1.437385e-05
      145 -5.144131e-05
      146 -6.522621e-05
      147 -5.711869e-05
      148 -1.929463e-04
      149 -2.545600e-04
      150 -3.644557e-04
      151 -1.962049e-04
      152 -1.504615e-04
      153 -9.050201e-06
      154 -5.179953e-06
      155 -5.802506e-05
      156 -4.033493e-06
      157  0.000000e+00
      158  0.000000e+00
      159  0.000000e+00