pos          info
        0 -3.280911e-06
        1 -9.987009e-06
        2 -9.995798e-06
        3 -7.333235e-06
        4 -5.622529e-06
        5 -4.767744e-06
        6 -4.532250e-06
        7  2.710980e-06
        8  3.480974e-05
        9  3.443295e-05
       10  3.407785e-05
       11  2.255264e-05
       12  2.731509e-05
       13  2.672432e-05
       14  5.297067e-06
       15 -2.200372e-07
       16 -1.228135e-05
       17 -1.662881e-05
       18 -8.265773e-06
       19  2.971522e-05
       20  3.640855e-05
       21  2.506579e-05
       22 -9.312271e-07
       23  4.097492e-05
       24  3.936550e-05
       25  1.116028e-04
       26  6.687853e-05
       27  7.387319e-05
       28  2.064444e-06
       29  4.606100e-05
       30  6.889553e-05
       31  4.028311e-05
       32 -3.026675e-06
       33 -2.649334e-05
       34 -4.863119e-06
       35 -1.604001e-05
       36 -2.568743e-06
       37 -1.415077e-05
       38 -1.535583e-05
       39 -2.535620e-05
       40  6.232028e-06
       41  5.297835e-05
       42  4.931708e-05
       43  3.519113e-05
       44  7.415720e-06
       45  6.738309e-06
       46  1.093011e-07
       47 -1.432390e-05
       48 -3.376491e-05
       49 -2.550846e-05
       50 -1.550277e-05
       51  3.723397e-05
       52  3.372691e-05
       53  3.112550e-05
       54  2.467654e-05
       55  3.967386e-05
       56 -1.324701e-05
       57 -4.024027e-05
       58  2.467001e-05
       59  4.056707e-05
       60  5.002554e-05
       61 -4.041443e-05
       62  7.224799e-06
       63  6.173444e-06
       64  1.540174e-05
       65  7.190746e-07
       66 -6.474638e-06
       67 -6.402905e-05
       68 -3.001684e-05
       69  2.856463e-07
       70  7.232972e-05
       71  5.341211e-05
       72  2.291181e-05
       73  8.041853e-06
       74 -2.601792e-06
       75 -9.975529e-06
       76 -6.168514e-06
       77 -4.803366e-06
       78  4.071162e-07
       79 -1.458657e-05
       80  2.401769e-05
       81  6.716357e-05
       82  8.572481e-05
       83  3.918271e-05
       84 -3.228042e-05
       85 -2.744637e-05
       86 -1.130628e-05
       87  9.707383e-06
       88  1.517490e-06
       89 -5.230585e-05
       90 -3.958956e-05
       91 -5.376083e-05
       92 -1.432627e-06
       93 -9.479548e-06
       94 -2.133554e-05
       95 -3.078689e-05
       96 -3.453374e-05
       97  8.240342e-06
       98  1.632479e-05
       99  4.189020e-06
      100 -7.247975e-05
      101 -4.230103e-04
      102 -3.612337e-04
      103 -3.015316e-04
      104 -1.429857e-04
      105 -3.650769e-04
      106 -5.226835e-04
      107 -3.330380e-04
      108 -1.504028e-04
      109  3.264777e-05
      110  5.137595e-05
      111  7.219881e-05
      112  4.969211e-05
      113  2.374970e-05
      114 -1.165449e-05
      115 -3.446629e-05
      116 -5.437659e-05
      117 -1.096704e-04
      118 -5.806875e-05
      119 -6.517903e-05
      120 -4.384740e-05
      121 -2.014654e-04
      122 -1.629728e-04
      123 -1.327771e-04
      124 -6.684542e-06
      125 -5.300150e-05
      126 -3.734384e-05
      127 -3.838891e-05
      128  2.099617e-04
      129  2.139886e-04
      130  2.278465e-04
      131  5.392416e-05
      132  4.299141e-05
      133  2.411731e-05
      134 -7.886330e-06
      135 -4.728241e-06
      136  6.463552e-05
      137  1.429608e-04
      138  1.433547e-04
      139  7.982100e-05
      140  5.775274e-05
      141  5.076536e-05
      142  4.464091e-05
      143  8.636597e-07
      144  2.426081e-05
      145  3.047236e-05
      146  1.293602e-05
      147  8.431966e-05
      148  2.898757e-04
      149  2.900444e-04
      150  3.532814e-04
      151  9.729441e-05
      152  1.188808e-04
      153  3.144743e-05
      154  8.289950e-05
      155  9.515131e-05
      156  4.136027e-05
      157  0.000000e+00
      158  0.000000e+00
      159  0.000000e+00