pos          info
        0  5.224988e-05
        1 -8.400062e-05
        2 -1.030424e-05
        3 -1.704310e-04
        4  2.524333e-04
        5  1.963635e-05
        6  2.572206e-05
        7  1.938851e-06
        8  9.288372e-05
        9 -2.353558e-08
       10  7.965852e-05
       11 -9.775429e-07
       12 -2.903094e-05
       13  6.890188e-05
       14  5.804089e-05
       15  3.662701e-05
       16  1.320435e-04
       17  1.614320e-04
       18  1.786138e-05
       19 -1.170576e-04
       20 -9.079179e-05
       21  3.064052e-04
       22 -1.249342e-04
       23  9.915238e-04
       24  1.597468e-07
       25  3.990097e-04
       26  4.497835e-05
       27 -1.193411e-05
       28  3.233942e-05
       29  1.722177e-04
       30  7.278673e-05
       31  1.326521e-06
       32  2.039231e-06
       33  4.506246e-06
       34 -5.270381e-05
       35 -2.178027e-05
       36  1.633967e-04
       37  1.731240e-04
       38  5.254203e-05
       39  2.634793e-05
       40  3.153109e-04
       41  2.385607e-04
       42  2.630797e-06
       43  6.131522e-04
       44  9.500563e-06
       45  8.713126e-06
       46 -1.153797e-05
       47  2.548931e-04
       48 -7.483678e-07
       49  3.970688e-04
       50  9.749799e-04
       51  3.209341e-03
       52  1.202147e-03
       53  2.974569e-03
       54  5.902193e-07
       55  4.884273e-04
       56  3.526386e-04
       57  4.126782e-06
       58  9.883344e-06
       59  1.997550e-07
       60  1.035680e-04
       61  9.649552e-05
       62  3.102322e-06
       63 -2.702700e-05
       64  2.683535e-05
       65  1.340113e-06
       66  8.213270e-06
       67  2.301801e-03
       68  9.195904e-05
       69 -4.047076e-07
       70 -2.985556e-04
       71 -8.314305e-04
       72 -1.933799e-04
       73 -5.782018e-04
       74  4.874023e-03
       75  4.387230e-04
       76 -3.904919e-05
       77  1.054948e-03
       78  1.829826e-03
       79 -5.195134e-06
       80 -7.512923e-05
       81 -7.903968e-04
       82 -2.128742e-03
       83 -7.288131e-04
       84 -9.595320e-04
       85 -2.756524e-03
       86 -1.585587e-03
       87 -1.508559e-04
       88 -5.738429e-04
       89 -3.137546e-03
       90 -1.697558e-03
       91 -1.694616e-03
       92 -9.036722e-04
       93 -6.208287e-04
       94 -1.269607e-04
       95 -1.155709e-05
       96  9.472877e-05
       97  5.294227e-06
       98 -1.355264e-07
       99 -5.221080e-04
      100  1.821986e-05
      101  1.542011e-04
      102  1.700383e-08
      103  6.944137e-06
      104  1.852452e-04
      105  1.545506e-04
      106  6.089170e-05
      107  1.804555e-05
      108 -1.575773e-04
      109  4.798611e-05
      110 -6.324021e-05
      111 -1.088403e-04
      112  1.315767e-04
      113 -1.338710e-05
      114  4.922127e-05
      115 -2.139582e-04
      116 -9.147272e-06
      117  3.852917e-04
      118 -5.448444e-05
      119 -2.835639e-04
      120 -6.849605e-05
      121  7.081857e-05
      122 -3.099907e-04
      123 -5.769181e-05
      124 -2.061630e-06
      125 -5.035414e-05
      126 -7.439929e-06
      127 -1.788050e-05
      128  9.261421e-07
      129 -8.487301e-06
      130 -3.677852e-04
      131 -1.261620e-05
      132 -9.031547e-05
      133 -9.704263e-04
      134 -1.542577e-05
      135 -5.613662e-05
      136  5.114562e-04
      137 -1.688167e-04
      138  4.306483e-07
      139  3.405593e-05
      140 -8.245047e-05
      141 -5.988751e-08
      142 -5.783461e-05
      143 -3.727905e-05
      144 -8.846177e-06
      145 -3.688264e-04
      146 -9.919279e-05
      147  3.272938e-05
      148  1.317025e-05
      149 -1.252808e-04
      150  2.028617e-08
      151  7.372970e-05
      152  9.018361e-05
      153 -1.348766e-05
      154 -4.267235e-06
      155 -1.314977e-04
      156 -3.030039e-07
      157 -3.172035e-06
      158  4.321739e-05
      159  9.036860e-06