pos          info
        0  1.432371e-06
        1  9.389677e-05
        2 -2.973123e-05
        3 -2.220597e-05
        4  2.542130e-04
        5  6.334832e-05
        6 -9.785798e-08
        7  1.133739e-04
        8  5.572722e-04
        9  4.263052e-05
       10  7.831340e-06
       11 -1.862332e-05
       12  1.283592e-05
       13  1.665637e-04
       14  1.582474e-04
       15  2.194912e-04
       16  2.746959e-05
       17  5.125091e-04
       18  2.670561e-04
       19 -1.238172e-04
       20  6.744401e-05
       21  1.108081e-03
       22 -2.745763e-04
       23  2.536139e-04
       24 -8.157268e-05
       25  3.014306e-04
       26  2.424582e-05
       27 -4.208181e-06
       28 -7.587648e-05
       29  3.251823e-04
       30  6.544765e-05
       31 -8.401348e-06
       32  1.720725e-04
       33  1.541574e-04
       34  2.595599e-06
       35 -7.227989e-07
       36  2.121188e-05
       37  7.243453e-05
       38 -3.781685e-06
       39  4.554268e-05
       40  1.392908e-04
       41  4.362636e-04
       42  2.329650e-06
       43  5.194222e-04
       44  8.343370e-05
       45  2.885545e-07
       46  1.929824e-05
       47  6.768635e-05
       48  4.738180e-05
       49  7.204760e-04
       50  1.937840e-03
       51  2.929136e-03
       52  3.162630e-03
       53  3.180434e-03
       54  9.024489e-07
       55  6.671641e-04
       56  9.908966e-05
       57  4.084336e-05
       58  3.252873e-06
       59  3.084076e-06
       60  5.295318e-04
       61  2.786615e-05
       62  2.102549e-07
       63 -8.538708e-05
       64  2.701820e-06
       65  5.163270e-06
       66 -4.546574e-06
       67  1.974676e-03
       68  2.422050e-04
       69 -4.333267e-06
       70 -7.634817e-05
       71 -3.391840e-04
       72 -2.734608e-04
       73 -1.108913e-04
       74  7.415188e-03
       75  5.450044e-04
       76 -1.443057e-04
       77  9.533402e-04
       78  4.386946e-03
       79 -1.121052e-05
       80 -1.930645e-04
       81 -5.648478e-04
       82 -2.709941e-03
       83 -1.039305e-03
       84 -6.390809e-04
       85 -2.534680e-03
       86 -9.376445e-04
       87 -6.633294e-04
       88 -2.247404e-04
       89 -3.531065e-03
       90 -1.687815e-03
       91 -1.688825e-03
       92 -8.830065e-04
       93 -4.653996e-04
       94 -2.067598e-04
       95 -1.288514e-07
       96  2.506015e-04
       97  4.286567e-06
       98 -6.031271e-06
       99 -6.355099e-05
      100  5.582062e-06
      101  1.573045e-04
      102 -1.826238e-06
      103  1.307061e-04
      104  8.675315e-05
      105  1.539608e-05
      106 -6.462370e-07
      107  5.102283e-05
      108 -2.816699e-04
      109  2.556481e-04
      110 -7.784334e-06
      111 -1.472540e-04
      112  3.375268e-04
      113  1.998253e-09
      114  4.893677e-06
      115 -9.969643e-05
      116 -5.630743e-08
      117  1.748754e-04
      118 -8.776030e-05
      119 -3.817963e-04
      120 -1.972318e-04
      121 -2.556808e-05
      122 -1.781219e-04
      123 -1.027188e-04
      124 -1.097542e-04
      125 -3.949956e-04
      126 -3.109238e-06
      127 -5.672006e-06
      128  7.926920e-05
      129 -3.102573e-07
      130 -2.650159e-04
      131 -9.825752e-05
      132 -7.423268e-05
      133 -8.125964e-05
      134 -1.678389e-05
      135 -1.855075e-05
      136  9.774650e-05
      137 -6.692480e-05
      138 -6.034072e-05
      139 -1.016147e-05
      140 -6.702192e-05
      141  1.447671e-04
      142 -1.156803e-04
      143  3.929743e-06
      144  7.332987e-05
      145 -3.132017e-04
      146 -9.907824e-06
      147  9.162358e-05
      148  1.931174e-04
      149 -1.797251e-04
      150  5.578606e-05
      151  7.506745e-05
      152 -2.149950e-05
      153 -3.599394e-05
      154  1.152216e-04
      155 -2.809844e-04
      156  5.116584e-05
      157  4.417449e-05
      158  2.716558e-05
      159  1.857785e-04