pos          info
        0 -9.380205e-05
        1 -8.154700e-05
        2  6.453400e-06
        3 -2.585886e-06
        4  3.160188e-05
        5  2.273283e-04
        6 -9.270579e-06
        7 -5.814710e-05
        8 -2.442428e-04
        9 -3.968786e-05
       10  8.576287e-06
       11  8.022383e-06
       12  6.417062e-05
       13  8.831153e-06
       14  4.238076e-06
       15  8.335542e-05
       16 -2.328058e-05
       17 -9.359355e-05
       18 -2.054274e-04
       19 -1.126907e-04
       20 -2.962773e-05
       21 -1.332054e-04
       22 -1.194926e-04
       23 -1.322358e-04
       24 -9.286191e-06
       25 -7.917157e-06
       26  1.899914e-04
       27  1.859546e-04
       28  9.499737e-05
       29 -1.155024e-04
       30 -1.254487e-04
       31  1.157059e-04
       32  4.784820e-04
       33  3.569722e-04
       34  2.180032e-04
       35 -1.255545e-04
       36  1.299235e-05
       37  3.801449e-05
       38  3.138191e-05
       39  4.022034e-05
       40  2.502701e-05
       41 -1.213380e-04
       42 -1.739432e-04
       43 -2.433012e-04
       44 -7.340686e-05
       45 -2.813477e-05
       46  2.064405e-05
       47  1.491804e-04
       48  1.438907e-04
       49  1.322311e-04
       50  5.659025e-05
       51  5.533708e-05
       52  7.153820e-05
       53 -3.418395e-05
       54  4.602892e-05
       55  4.619666e-05
       56  1.198953e-04
       57  4.522879e-05
       58  9.438661e-05
       59  3.656467e-04
       60  6.048192e-04
       61  4.661616e-04
       62 -1.338506e-05
       63 -3.088205e-04
       64 -5.677364e-04
       65 -2.852563e-04
       66 -1.115869e-04
       67  2.807528e-04
       68  7.623370e-05
       69 -1.600135e-05
       70 -5.598011e-05
       71  6.418668e-08
       72 -4.816502e-05
       73 -7.420751e-05
       74 -4.236489e-05
       75 -2.799524e-05
       76  1.360855e-05
       77 -8.688664e-05
       78 -7.872263e-05
       79 -1.017023e-04
       80  3.023394e-05
       81 -2.178471e-04
       82 -2.983962e-04
       83 -3.317457e-04
       84 -2.918419e-04
       85 -2.849925e-04
       86 -3.054608e-04
       87 -8.424718e-05
       88  6.068909e-06
       89 -1.896330e-04
       90 -9.165753e-05
       91 -1.062800e-04
       92  1.076179e-04
       93  6.633144e-06
       94 -1.011007e-04
       95 -3.360689e-05
       96 -2.036157e-05
       97  3.887381e-04
       98  7.988451e-04
       99  8.065360e-04
      100  3.577231e-04
      101 -1.305101e-04
      102 -1.569420e-04
      103 -5.777541e-06
      104 -1.229056e-04
      105 -4.073739e-04
      106 -3.732975e-04
      107 -1.057758e-04
      108  1.567741e-04
      109  8.566121e-05
      110 -5.130348e-05
      111 -3.293804e-05
      112  3.361129e-04
      113  3.091453e-04
      114  3.181399e-04
      115 -8.719956e-06
      116  8.940022e-05
      117  8.013241e-05
      118  7.363787e-05
      119  9.826709e-06
      120  1.542228e-04
      121  2.213231e-04
      122  2.419753e-04
      123  9.795458e-05
      124  4.658251e-05
      125  2.756184e-04
      126  2.873336e-04
      127  4.675312e-04
      128  1.973434e-04
      129  1.730990e-04
      130  9.022570e-06
      131 -1.020980e-05
      132 -1.761064e-05
      133 -8.356713e-05
      134 -4.737300e-06
      135  1.785234e-04
      136  2.119791e-04
      137  4.085640e-04
      138  1.978678e-04
      139  1.766360e-04
      140 -1.782506e-05
      141  3.481916e-05
      142 -7.501410e-05
      143 -1.749696e-05
      144 -5.000070e-04
      145 -3.653607e-04
      146 -5.351697e-04
      147 -1.930761e-04
      148 -1.973575e-04
      149  1.564543e-04
      150  2.919758e-04
      151  2.791418e-04
      152  6.838098e-06
      153 -9.718684e-06
      154  7.873029e-05
      155  1.862141e-04
      156  2.013237e-04
      157  0.000000e+00
      158  0.000000e+00
      159  0.000000e+00