pos          info
        0  2.328534e-05
        1  5.437257e-05
        2  1.085279e-04
        3  7.325541e-05
        4  5.982403e-05
        5  3.887407e-05
        6  3.573597e-05
        7 -2.251667e-05
        8 -8.288356e-05
        9 -8.366646e-06
       10  1.099984e-04
       11  1.796405e-04
       12  1.630885e-04
       13  1.029245e-04
       14  7.382724e-05
       15  1.472547e-05
       16  1.119455e-05
       17 -4.665557e-06
       18  4.944384e-05
       19  3.455165e-05
       20  4.084569e-05
       21  3.379654e-05
       22  5.738417e-05
       23  1.175697e-04
       24  2.167263e-04
       25  2.238105e-04
       26  1.583106e-04
       27  4.888360e-05
       28 -6.450689e-08
       29  2.411024e-06
       30 -1.391360e-04
       31 -4.733353e-04
       32 -5.025758e-04
       33 -4.165877e-04
       34 -6.589494e-05
       35 -3.702398e-05
       36  7.664044e-06
       37  2.690354e-05
       38  4.453659e-05
       39 -2.091509e-05
       40 -1.245015e-04
       41 -9.292263e-05
       42  1.877624e-06
       43  9.980570e-05
       44  4.192134e-05
       45 -5.524705e-05
       46 -5.380995e-05
       47 -1.418559e-04
       48 -2.358629e-05
       49 -2.022867e-05
       50  6.259885e-05
       51 -1.941757e-05
       52  5.674353e-06
       53  1.893479e-05
       54  1.665648e-04
       55  1.480261e-04
       56  2.622909e-04
       57  1.249926e-04
       58  1.187607e-04
       59  5.709103e-06
       60 -2.349737e-05
       61 -1.223805e-05
       62 -1.070493e-05
       63  3.017087e-05
       64  7.481635e-05
       65  1.380855e-04
       66  7.311806e-05
       67  3.357602e-04
       68  4.366050e-04
       69  6.788814e-04
       70  5.497843e-04
       71  4.412641e-04
       72  2.730301e-04
       73  8.394289e-05
       74 -6.383782e-05
       75 -2.749134e-05
       76 -7.433133e-05
       77  7.141323e-05
       78  3.342303e-06
       79  5.011628e-05
       80 -8.083633e-06
       81  4.194637e-05
       82 -6.668321e-05
       83 -6.747695e-05
       84 -9.175741e-05
       85  8.151054e-05
       86  6.412877e-05
       87  5.369688e-05
       88 -1.337433e-05
       89 -1.451131e-05
       90 -4.690528e-05
       91 -4.175991e-05
       92 -7.952282e-05
       93 -1.626761e-04
       94 -5.205819e-05
       95  2.641679e-06
       96  5.991416e-05
       97 -8.675071e-05
       98 -2.033511e-04
       99 -2.950561e-04
      100 -8.643952e-05
      101  3.844853e-05
      102  1.790713e-04
      103 -2.150639e-06
      104  4.025263e-05
      105  1.148611e-04
      106  1.209359e-04
      107  7.492729e-05
      108 -3.794078e-06
      109  2.307274e-05
      110  1.619614e-05
      111 -3.202582e-05
      112 -2.246967e-05
      113 -1.480634e-05
      114  1.243191e-04
      115  7.023460e-04
      116  7.077464e-04
      117  6.724249e-04
      118 -2.190095e-04
      119 -2.358436e-04
      120 -5.232797e-04
      121 -2.150565e-04
      122 -5.520496e-04
      123 -3.284680e-04
      124 -3.895345e-04
      125 -1.883453e-04
      126 -1.497285e-04
      127 -3.254634e-04
      128 -1.989131e-04
      129 -4.427387e-04
      130 -2.631420e-04
      131 -2.420973e-04
      132  8.415728e-06
      133  7.113314e-05
      134  1.341327e-04
      135  1.010021e-04
      136  2.959424e-04
      137  2.275110e-04
      138  9.941338e-05
      139 -8.136665e-05
      140 -5.004684e-04
      141 -3.719696e-04
      142 -3.987892e-04
      143  1.033909e-05
      144 -9.914430e-06
      145 -4.152052e-05
      146 -1.645103e-05
      147  9.136274e-05
      148  7.738931e-05
      149  6.743178e-05
      150 -3.444671e-04
      151 -1.928260e-04
      152 -1.899629e-04
      153  1.437910e-04
      154 -1.128493e-04
      155 -1.550270e-04
      156 -1.646216e-04
      157  0.000000e+00
      158  0.000000e+00
      159  0.000000e+00