pos          info
        0 -1.154338e-05
        1 -1.088620e-05
        2 -2.341847e-05
        3 -1.339882e-05
        4 -1.367332e-05
        5  1.546847e-05
        6  1.293717e-04
        7  1.264616e-04
        8  1.024296e-04
        9 -6.020007e-05
       10 -5.697936e-05
       11 -5.781565e-05
       12 -4.248639e-05
       13 -5.460144e-05
       14 -3.167521e-06
       15  2.579625e-05
       16  7.608997e-06
       17 -3.346791e-05
       18 -2.762423e-05
       19  3.186482e-05
       20  5.074600e-06
       21  5.085268e-06
       22 -4.278245e-05
       23 -4.238998e-05
       24 -1.259740e-05
       25  3.285371e-06
       26  5.571183e-05
       27  2.867010e-05
       28  7.445792e-06
       29  2.019240e-05
       30  4.369073e-05
       31  1.346965e-04
       32  5.088918e-05
       33  3.337041e-05
       34 -4.533537e-05
       35 -8.747089e-05
       36 -1.534488e-04
       37 -1.440494e-04
       38 -5.628202e-05
       39  1.235283e-05
       40  1.527909e-04
       41  2.032116e-04
       42  2.065505e-04
       43  1.596836e-04
       44  1.061231e-04
       45  4.207852e-05
       46 -5.409077e-05
       47 -1.844307e-05
       48  7.382470e-05
       49  7.597847e-05
       50  4.030130e-05
       51  4.172186e-05
       52  3.653901e-05
       53  3.542956e-05
       54 -3.141171e-06
       55  6.844370e-06
       56  8.184887e-06
       57  1.115588e-05
       58  1.062093e-05
       59  9.833299e-06
       60 -4.636085e-06
       61 -1.191514e-06
       62  1.267866e-04
       63  1.326045e-04
       64  7.946950e-05
       65 -4.787728e-05
       66 -9.977624e-06
       67  3.833092e-05
       68  5.760112e-05
       69  4.178473e-05
       70  7.160075e-05
       71  1.289039e-05
       72  4.755524e-05
       73  2.323431e-04
       74  2.621582e-04
       75  2.030726e-04
       76 -1.164110e-05
       77 -1.263610e-04
       78  5.266599e-04
       79  4.848894e-04
       80  5.086957e-04
       81 -3.024463e-04
       82 -2.639195e-04
       83 -1.632699e-04
       84 -3.085608e-06
       85 -6.172758e-05
       86 -9.683468e-05
       87 -6.276909e-05
       88 -4.524157e-05
       89  2.703326e-06
       90  7.854540e-05
       91  3.618177e-05
       92  2.561320e-05
       93 -9.390575e-05
       94  4.121617e-06
       95 -9.420512e-05
       96 -7.109517e-05
       97 -1.657141e-04
       98  2.270535e-04
       99  1.783432e-04
      100  2.616211e-04
      101 -3.099948e-04
      102 -4.682821e-04
      103 -3.857311e-04
      104 -1.124162e-04
      105  4.170982e-05
      106 -9.485160e-05
      107 -2.234140e-04
      108 -1.774589e-04
      109  3.939457e-05
      110  1.681990e-04
      111  1.635127e-04
      112 -2.614800e-06
      113  6.952442e-06
      114  4.461085e-06
      115  8.345543e-06
      116  6.065695e-07
      117 -2.262519e-05
      118  4.851711e-06
      119  1.129779e-05
      120  3.517948e-05
      121  3.195930e-05
      122  2.543789e-05
      123  2.540713e-05
      124 -3.522763e-05
      125 -1.237158e-04
      126 -7.955589e-05
      127 -9.344212e-06
      128  9.040095e-05
      129  4.875326e-05
      130  1.285284e-05
      131  9.610249e-07
      132 -3.804130e-07
      133  1.360702e-04
      134  2.344922e-04
      135  2.381025e-04
      136  9.680557e-05
      137 -8.627085e-05
      138 -1.042193e-04
      139 -1.018453e-04
      140 -1.599763e-05
      141  3.989067e-05
      142  5.332216e-05
      143  2.932041e-05
      144 -5.388674e-06
      145 -4.490562e-06
      146  9.686871e-06
      147  4.470493e-06
      148 -6.275738e-06
      149 -4.224438e-07
      150  2.770383e-04
      151  2.997705e-04
      152  3.030321e-04
      153  1.581085e-05
      154 -9.279263e-06
      155  3.544889e-05
      156  2.269198e-05
      157  0.000000e+00
      158  0.000000e+00
      159  0.000000e+00