pos          info
        0 -1.707512e-04
        1 -2.798169e-07
        2 -2.766739e-04
        3  4.554512e-05
        4  1.152797e-04
        5  4.432402e-04
        6  1.347688e-05
        7 -2.839007e-04
        8 -6.297491e-05
        9 -3.600900e-06
       10  1.209773e-05
       11  5.388861e-04
       12  7.447739e-05
       13 -1.834034e-04
       14 -2.827549e-05
       15  7.843413e-05
       16 -1.442234e-04
       17  4.020316e-04
       18 -4.536416e-05
       19 -1.188725e-05
       20 -1.239108e-05
       21 -1.006061e-04
       22  4.101654e-04
       23 -1.644704e-09
       24  1.252313e-05
       25 -2.664237e-05
       26  1.060808e-05
       27  7.052900e-05
       28 -3.714231e-05
       29  5.471369e-05
       30  4.467521e-05
       31 -6.485759e-05
       32 -4.427576e-07
       33 -2.230021e-04
       34  2.232345e-04
       35 -1.944146e-05
       36 -8.328202e-05
       37  3.105202e-04
       38  3.268838e-04
       39  9.204468e-06
       40  1.265645e-05
       41 -4.779885e-07
       42 -1.146908e-05
       43 -1.070745e-04
       44 -5.127790e-07
       45 -7.681024e-06
       46  5.212072e-05
       47  4.353835e-05
       48  4.851505e-05
       49 -4.524935e-04
       50  2.316244e-09
       51 -1.743830e-04
       52 -3.940029e-05
       53  1.035471e-06
       54  7.763731e-05
       55  1.617591e-04
       56 -9.718707e-06
       57 -1.987811e-06
       58  5.010869e-05
       59 -4.793272e-06
       60 -2.476620e-06
       61  3.001024e-05
       62  4.501777e-04
       63 -1.253022e-04
       64 -5.450338e-04
       65  1.298372e-04
       66  2.659073e-04
       67  2.706872e-04
       68  5.722351e-06
       69  6.969662e-05
       70 -4.758033e-08
       71 -2.443604e-05
       72 -6.458016e-05
       73  2.649500e-04
       74  9.328948e-06
       75 -1.036081e-04
       76  2.668980e-04
       77 -6.163318e-05
       78  1.502937e-04
       79  1.016701e-03
       80 -2.162609e-03
       81  1.872353e-03
       82  2.438618e-03
       83  1.050031e-03
       84  6.003657e-06
       85  2.323490e-04
       86  1.003863e-04
       87  1.555835e-06
       88  2.566349e-04
       89 -2.810492e-04
       90  2.904492e-05
       91 -8.443125e-05
       92 -3.146790e-04
       93  3.196085e-04
       94  7.954938e-06
       95  1.681151e-04
       96 -5.084217e-04
       97  4.790205e-05
       98 -2.339908e-05
       99  6.060925e-05
      100 -1.489631e-03
      101  4.702232e-04
      102  2.490801e-04
      103  1.865789e-03
      104  3.014936e-03
      105 -4.770429e-04
      106  2.655152e-04
      107  5.038926e-04
      108  2.482460e-03
      109  3.274992e-04
      110  1.437126e-04
      111 -2.571312e-04
      112  2.504783e-05
      113 -1.023886e-05
      114  3.600888e-08
      115 -1.712349e-06
      116 -2.091186e-07
      117 -2.188953e-04
      118  1.146207e-05
      119  4.763115e-05
      120 -2.556293e-04
      121 -3.924040e-04
      122 -2.362989e-06
      123 -9.184983e-05
      124  1.730782e-06
      125 -6.063063e-05
      126  2.562187e-04
      127  1.663076e-04
      128 -1.981073e-05
      129 -9.267937e-06
      130 -1.757837e-04
      131 -1.679015e-04
      132  3.234216e-05
      133  1.141303e-04
      134 -1.605285e-04
      135 -4.674401e-04
      136 -4.105920e-05
      137 -9.716964e-06
      138  8.871312e-05
      139  2.356393e-04
      140  1.515814e-04
      141 -3.043657e-05
      142 -1.071156e-04
      143 -1.003667e-04
      144  1.999406e-04
      145  1.091195e-04
      146 -1.215886e-06
      147  2.251419e-04
      148  2.315710e-06
      149  1.580525e-05
      150  1.496855e-05
      151  3.304893e-05
      152 -1.055629e-03
      153 -5.753397e-05
      154 -5.628072e-06
      155 -1.161207e-06
      156 -3.979813e-05
      157  1.171620e-04
      158  4.720033e-04
      159  7.916794e-07