pos          info
        0 -2.185815e-05
        1  3.189500e-07
        2  9.120725e-05
        3 -3.272593e-05
        4 -1.339556e-04
        5 -3.290523e-04
        6 -2.197727e-05
        7  3.345712e-04
        8  2.528513e-04
        9 -1.658675e-04
       10  6.114350e-06
       11 -1.638941e-04
       12  4.133429e-07
       13  9.896123e-06
       14 -2.409070e-04
       15  1.309232e-06
       16 -1.693163e-05
       17 -1.994357e-04
       18 -2.864307e-05
       19  1.088813e-05
       20 -5.850509e-05
       21  2.247780e-04
       22 -3.498656e-04
       23  3.734272e-06
       24  4.703645e-05
       25 -1.334947e-04
       26 -2.082425e-05
       27 -7.261595e-05
       28  4.669193e-06
       29 -1.998012e-05
       30 -1.025017e-04
       31  5.289859e-05
       32  1.453231e-05
       33  3.259745e-04
       34 -1.273004e-04
       35 -1.887529e-05
       36  3.096935e-06
       37 -4.272082e-04
       38 -1.803669e-04
       39  1.424808e-05
       40  5.910804e-06
       41 -1.121061e-05
       42  3.175855e-04
       43  9.327886e-05
       44  3.111034e-04
       45  1.775698e-04
       46 -2.945905e-08
       47 -4.465468e-06
       48  2.472747e-06
       49  8.089998e-05
       50 -3.261703e-05
       51 -3.703790e-05
       52  1.422292e-06
       53  3.462498e-06
       54 -8.937752e-05
       55 -7.183400e-05
       56 -2.364886e-05
       57  8.439361e-08
       58 -5.160017e-06
       59  1.315375e-04
       60 -1.473878e-06
       61  2.406586e-05
       62 -1.266667e-04
       63  3.450219e-04
       64  9.642534e-04
       65  4.281958e-06
       66 -7.737553e-05
       67 -7.333338e-05
       68 -5.976153e-06
       69 -5.165999e-06
       70  7.404588e-05
       71  9.790006e-08
       72  2.630675e-04
       73 -1.089155e-04
       74  8.840739e-05
       75  3.051219e-04
       76 -3.493265e-04
       77  2.053608e-05
       78 -2.231269e-04
       79 -2.304299e-04
       80  2.186414e-03
       81 -7.851124e-04
       82 -5.042017e-04
       83 -1.032892e-03
       84  4.693497e-06
       85  3.687763e-05
       86 -1.394083e-04
       87  1.620160e-05
       88 -8.634234e-05
       89  1.828702e-04
       90  7.470160e-07
       91  1.512220e-04
       92  1.184873e-05
       93 -1.273985e-03
       94  1.354813e-05
       95 -2.932769e-05
       96  2.782149e-04
       97 -6.333653e-05
       98 -2.583416e-04
       99 -3.440316e-04
      100  1.430713e-03
      101 -6.450906e-05
      102 -7.283003e-05
      103 -1.474636e-03
      104 -1.544985e-03
      105  1.488143e-04
      106 -7.516983e-08
      107 -3.612288e-04
      108 -7.370924e-04
      109  2.471429e-07
      110 -5.140340e-06
      111  1.289899e-04
      112  3.106049e-05
      113 -3.317296e-05
      114  9.066223e-06
      115 -1.127865e-06
      116 -1.861032e-04
      117  1.291281e-04
      118 -5.614500e-06
      119 -2.797205e-05
      120  9.652722e-05
      121  2.750144e-04
      122 -2.959001e-05
      123  1.322072e-04
      124 -2.451768e-04
      125  1.817161e-04
      126 -3.595495e-04
      127 -3.209603e-05
      128  5.325113e-05
      129  2.096965e-05
      130 -1.366364e-05
      131  1.974085e-04
      132 -5.680710e-05
      133 -2.378098e-04
      134  1.028393e-04
      135  2.264146e-04
      136 -1.082632e-06
      137  1.972181e-04
      138  9.762236e-06
      139 -1.875711e-04
      140 -5.194542e-05
      141  1.246525e-04
      142  1.806236e-04
      143 -1.474167e-05
      144 -1.930714e-04
      145 -4.108277e-04
      146 -4.186451e-05
      147 -7.620889e-05
      148  1.603889e-07
      149 -6.909560e-05
      150 -8.003117e-06
      151 -1.362829e-04
      152  4.583568e-04
      153 -8.941867e-05
      154  3.434703e-05
      155 -1.448783e-04
      156  1.489307e-05
      157  2.534642e-04
      158 -1.911520e-04
      159 -3.624661e-04