pos          info
        0 -4.075999e-05
        1  2.497623e-05
        2  4.449135e-05
        3  4.685276e-05
        4  8.365422e-07
        5  2.946129e-08
        6  2.387438e-05
        7  1.766294e-05
        8  1.449303e-05
        9 -9.223904e-06
       10  2.118664e-06
       11 -7.873582e-06
       12 -8.155024e-06
       13 -1.553150e-05
       14 -2.179795e-06
       15  1.477967e-05
       16 -4.052993e-05
       17 -4.046252e-05
       18 -5.811146e-05
       19  1.416295e-05
       20  1.406417e-05
       21 -8.560252e-06
       22 -2.311336e-05
       23 -2.293002e-05
       24  5.027860e-05
       25  3.909300e-05
       26  4.581826e-05
       27 -5.649551e-06
       28  1.559308e-05
       29  6.339569e-06
       30  7.665338e-06
       31 -2.938863e-06
       32 -4.655503e-06
       33  3.576423e-05
       34  1.541926e-04
       35  1.674870e-04
       36  1.267631e-04
       37  8.749409e-06
       38 -3.105316e-06
       39 -2.171837e-05
       40 -2.549864e-05
       41 -1.643168e-05
       42  2.860142e-06
       43  4.697508e-06
       44 -6.032235e-07
       45 -1.135308e-06
       46  9.193471e-07
       47  7.618909e-06
       48  7.918842e-06
       49 -4.454697e-06
       50 -1.223869e-05
       51  3.955630e-07
       52  2.519746e-05
       53  1.124806e-05
       54 -1.052174e-05
       55 -2.379117e-05
       56 -1.270262e-05
       57 -4.252266e-06
       58 -5.519105e-06
       59 -2.673607e-06
       60 -3.068036e-05
       61 -2.712931e-05
       62  4.978612e-06
       63  3.187615e-05
       64  4.682432e-05
       65  2.705526e-05
       66  1.504359e-05
       67  4.812055e-05
       68  2.932332e-05
       69  4.452250e-05
       70 -3.014631e-05
       71 -2.154453e-05
       72 -1.628773e-05
       73  5.628713e-05
       74  9.940621e-05
       75  7.637868e-05
       76  4.980315e-05
       77  2.388084e-05
       78  4.048905e-05
       79  3.623020e-05
       80  1.697094e-05
       81  9.677938e-05
       82  6.556005e-05
       83  6.529517e-05
       84 -2.535995e-05
       85  1.374030e-06
       86  1.530348e-06
       87  2.585283e-05
       88 -2.312778e-06
       89 -2.008078e-06
       90 -3.450425e-05
       91 -3.756392e-05
       92 -3.873623e-05
       93 -3.234664e-05
       94 -2.074845e-05
       95 -5.599944e-05
       96 -4.350237e-05
       97 -3.725625e-05
       98 -1.328995e-06
       99 -3.501324e-06
      100  3.964062e-06
      101  5.289139e-05
      102  1.275954e-04
      103  1.434825e-04
      104  1.215364e-04
      105  3.762008e-05
      106  2.595048e-07
      107 -2.837836e-05
      108 -6.227515e-06
      109  2.083021e-06
      110  2.597821e-05
      111  1.647308e-06
      112  1.141792e-05
      113  1.115708e-05
      114  2.692489e-05
      115  4.710332e-05
      116 -1.956732e-06
      117 -4.145693e-06
      118  1.964090e-06
      119  4.620928e-05
      120  3.403366e-04
      121  3.040283e-04
      122  2.873175e-04
      123  4.789849e-05
      124  6.077971e-05
      125  6.135620e-05
      126  1.884073e-05
      127  1.342489e-05
      128  1.401457e-05
      129  1.783205e-06
      130 -7.303833e-06
      131 -3.541951e-05
      132 -3.534606e-05
      133 -5.584283e-05
      134 -3.120514e-05
      135 -9.992841e-06
      136  2.706185e-05
      137  3.091745e-05
      138  1.599993e-05
      139 -1.236799e-05
      140 -1.247444e-05
      141  8.980958e-06
      142  1.503554e-05
      143  3.598622e-05
      144  1.030555e-05
      145  3.837341e-05
      146  3.993825e-05
      147  7.934884e-05
      148  7.967827e-05
      149  5.495768e-05
      150 -2.726638e-06
      151 -3.418441e-05
      152 -4.423145e-05
      153 -3.710359e-05
      154 -4.642887e-05
      155 -3.417479e-05
      156 -2.534208e-05
      157  0.000000e+00
      158  0.000000e+00
      159  0.000000e+00