pos          info
        0  7.509883e-08
        1 -3.562490e-08
        2  8.206703e-08
        3 -2.578237e-08
        4 -7.426262e-10
        5  2.380938e-07
        6  2.556611e-07
        7  3.143002e-07
        8  1.245576e-07
        9 -3.941886e-07
       10 -3.798208e-07
       11 -3.955183e-07
       12 -1.314702e-07
       13 -1.404320e-07
       14 -2.571066e-07
       15 -4.501576e-07
       16  4.091093e-07
       17 -1.261661e-08
       18  3.970294e-07
       19 -5.089629e-07
       20  6.739597e-10
       21  3.046285e-09
       22  8.591117e-11
       23  8.914860e-08
       24 -1.023264e-07
       25 -4.423652e-08
       26 -1.449493e-07
       27 -1.901990e-07
       28 -1.697095e-07
       29 -1.532317e-07
       30  1.238644e-07
       31 -1.036892e-07
       32  1.640231e-07
       33  1.463124e-07
       34 -1.255800e-06
       35 -1.385134e-06
       36 -1.337074e-06
       37  6.512781e-08
       38  1.742025e-08
       39 -2.506059e-07
       40 -4.648450e-08
       41 -1.366298e-07
       42 -2.751322e-08
       43 -8.003617e-08
       44 -2.309764e-08
       45  4.405786e-08
       46  1.246774e-08
       47 -5.068810e-08
       48 -7.840007e-08
       49 -1.235489e-07
       50 -4.200791e-08
       51  2.792940e-08
       52 -6.256791e-08
       53  3.786687e-08
       54 -8.299174e-08
       55  1.828624e-07
       56  4.049159e-07
       57  5.274049e-07
       58  3.330753e-07
       59 -9.241737e-08
       60 -3.795152e-07
       61 -2.734568e-07
       62 -2.451219e-07
       63 -8.375382e-08
       64  5.490211e-08
       65  5.408850e-08
       66  1.350530e-07
       67 -1.864007e-08
       68 -1.954848e-08
       69  1.617409e-08
       70 -6.928977e-08
       71 -5.964264e-08
       72  2.056532e-08
       73  1.074913e-07
       74  2.479806e-08
       75 -8.695111e-08
       76 -1.293237e-07
       77 -6.380233e-07
       78 -7.105926e-07
       79 -6.136496e-07
       80 -2.861862e-08
       81 -4.146242e-07
       82 -4.129400e-07
       83 -4.430174e-07
       84  1.526539e-07
       85 -3.052868e-08
       86  6.753811e-08
       87  1.235443e-07
       88  2.775730e-07
       89  3.645526e-07
       90  8.029542e-07
       91  9.876733e-07
       92  8.337227e-07
       93  1.949324e-07
       94 -2.185133e-08
       95  1.595913e-07
       96  2.714579e-07
       97  2.785214e-07
       98  1.332415e-07
       99  1.098576e-07
      100  2.425843e-07
      101 -7.780266e-07
      102 -8.362302e-07
      103 -1.182276e-06
      104 -2.121254e-07
      105 -1.564721e-07
      106  1.704456e-07
      107  1.525334e-07
      108 -2.751040e-07
      109 -8.894013e-08
      110 -2.632701e-07
      111  1.998320e-08
      112 -2.086176e-07
      113 -7.091525e-09
      114  6.214238e-08
      115 -3.765977e-08
      116  3.606479e-08
      117  1.319325e-07
      118  1.545224e-07
      119  1.800840e-07
      120 -2.168211e-06
      121 -2.184991e-06
      122 -2.392187e-06
      123 -9.891771e-08
      124 -7.493211e-08
      125  1.952535e-08
      126  1.533060e-07
      127  1.949001e-07
      128  1.518283e-07
      129 -1.456434e-08
      130  8.816848e-07
      131  9.140800e-07
      132  1.216919e-06
      133  4.078629e-07
      134  4.182071e-07
      135  1.426045e-07
      136  3.741503e-08
      137  8.321190e-08
      138 -6.366155e-07
      139 -5.700286e-07
      140 -8.912553e-07
      141 -2.168905e-07
      142 -3.165922e-07
      143 -2.465123e-07
      144 -6.266441e-07
      145 -6.167162e-07
      146 -6.439086e-07
      147 -3.411316e-07
      148 -2.726085e-07
      149  2.320909e-07
      150  1.503205e-06
      151  1.160951e-06
      152  9.019509e-07
      153 -3.887046e-07
      154  4.895649e-07
      155  4.991163e-07
      156  8.333369e-07
      157  0.000000e+00
      158  0.000000e+00
      159  0.000000e+00