pos          info
        0  4.462068e-05
        1  3.474221e-05
        2 -2.025274e-05
        3 -2.361384e-05
        4 -1.887514e-05
        5  3.453986e-05
        6  1.534863e-05
        7  5.551061e-05
        8  6.685624e-05
        9  5.378435e-05
       10  2.258237e-05
       11  1.607882e-06
       12  7.572341e-05
       13  7.021203e-05
       14  3.445294e-05
       15 -4.920278e-06
       16  6.512686e-06
       17  8.039955e-06
       18  8.137247e-06
       19 -1.817878e-06
       20  1.421093e-05
       21 -3.855875e-05
       22 -3.455578e-05
       23 -6.362647e-05
       24 -3.862416e-05
       25 -8.662961e-05
       26 -6.960818e-05
       27  1.763460e-04
       28  2.392620e-04
       29  2.357529e-04
       30 -6.632401e-05
       31 -8.418851e-05
       32 -1.791968e-05
       33  3.286284e-05
       34 -5.127384e-05
       35 -1.442660e-04
       36 -1.133527e-04
       37 -9.097331e-05
       38 -6.275454e-05
       39 -1.679729e-05
       40  5.572235e-05
       41  7.766558e-05
       42  3.083089e-05
       43  4.046923e-05
       44  9.033888e-06
       45  1.224770e-04
       46  1.103469e-04
       47  1.163773e-04
       48  4.555449e-05
       49  3.196031e-05
       50  1.817855e-05
       51 -2.211353e-05
       52 -1.382686e-05
       53  5.298715e-05
       54  5.298816e-05
       55  5.293898e-05
       56  1.741346e-05
       57  1.738371e-05
       58  2.975007e-05
       59  3.366631e-05
       60  3.113549e-05
       61  5.124991e-05
       62  7.353699e-05
       63  9.037508e-05
       64  7.489540e-05
       65  5.100504e-05
       66 -2.792732e-06
       67 -1.775452e-05
       68 -3.155102e-05
       69  6.284384e-05
       70  8.625529e-05
       71  8.649320e-05
       72  2.636277e-05
       73 -1.185669e-04
       74 -1.359006e-04
       75  9.136493e-06
       76  1.381463e-04
       77  1.444296e-04
       78  5.640708e-06
       79 -1.638698e-06
       80 -3.560645e-05
       81 -6.544137e-05
       82 -6.867137e-05
       83 -3.159641e-05
       84  1.765977e-04
       85  1.931401e-04
       86  1.932009e-04
       87  1.449011e-05
       88  1.131243e-04
       89  1.871647e-04
       90  1.873956e-04
       91  5.490782e-05
       92  3.826159e-05
       93  4.188618e-05
       94  4.129357e-05
       95  9.163871e-05
       96  8.537240e-05
       97  1.234594e-04
       98  2.895391e-05
       99  5.998548e-05
      100  3.681440e-05
      101 -1.018381e-05
      102 -2.836508e-05
      103 -7.685749e-05
      104 -4.987896e-05
      105 -2.031778e-05
      106  3.286015e-05
      107 -5.059578e-05
      108 -1.417464e-04
      109 -3.617874e-05
      110  7.276210e-05
      111  2.109218e-04
      112  1.996765e-04
      113  1.770905e-04
      114  9.140687e-05
      115  4.593597e-05
      116  7.874456e-05
      117 -5.994616e-06
      118 -6.470920e-05
      119 -2.789998e-04
      120 -2.263987e-04
      121 -2.001807e-04
      122 -6.009730e-07
      123  2.695704e-05
      124 -1.327720e-04
      125 -7.344325e-05
      126 -4.822714e-05
      127  8.814084e-05
      128  1.555807e-05
      129 -9.346705e-07
      130  2.654736e-06
      131  7.471220e-05
      132  3.336543e-05
      133  3.613392e-05
      134 -5.923912e-05
      135 -3.175595e-05
      136 -3.957346e-05
      137 -1.479839e-05
      138 -9.825355e-05
      139 -4.196671e-06
      140 -5.309099e-06
      141  3.627120e-05
      142 -5.633594e-05
      143 -8.273238e-05
      144  3.095394e-07
      145 -5.339489e-05
      146 -8.950065e-07
      147 -1.696213e-04
      148 -1.363841e-04
      149 -2.258013e-04
      150  3.221232e-05
      151  5.653867e-05
      152  1.201579e-04
      153 -1.331042e-06
      154  1.232105e-06
      155  2.210012e-06
      156 -3.743188e-06
      157  0.000000e+00
      158  0.000000e+00
      159  0.000000e+00