pos          info
        0 -2.274788e-05
        1  7.934017e-05
        2  2.031520e-07
        3  1.837257e-04
        4 -5.611682e-05
        5 -8.064066e-05
        6  6.575919e-05
        7  5.467568e-05
        8  2.087899e-05
        9 -8.424370e-05
       10  3.450970e-05
       11  6.388674e-05
       12  2.188984e-06
       13  2.131919e-05
       14 -3.763333e-05
       15  2.095239e-04
       16 -2.357099e-05
       17  2.263456e-05
       18  4.199645e-04
       19  1.129872e-05
       20  1.414533e-04
       21 -3.670968e-03
       22  2.920953e-06
       23 -9.525013e-05
       24 -2.680931e-04
       25  6.652186e-05
       26 -4.826224e-06
       27 -3.027926e-04
       28 -1.337849e-07
       29  1.076070e-05
       30  4.681447e-06
       31  6.183425e-07
       32  3.358737e-05
       33 -1.795889e-04
       34  1.646456e-05
       35  4.660716e-05
       36  2.555279e-08
       37 -1.899088e-05
       38 -1.767872e-04
       39 -2.538922e-04
       40 -6.318406e-06
       41 -1.312944e-05
       42  6.140912e-06
       43 -1.366208e-04
       44  2.585311e-05
       45  6.364759e-05
       46  1.066314e-07
       47 -3.206988e-05
       48  4.169489e-04
       49  8.397937e-06
       50 -1.452146e-05
       51 -2.756606e-05
       52  2.899343e-05
       53 -2.273572e-04
       54  3.516991e-05
       55  3.603393e-07
       56 -2.294293e-05
       57 -2.857654e-06
       58  1.207146e-04
       59 -9.875686e-06
       60 -1.517021e-04
       61 -6.185261e-06
       62  1.485137e-04
       63  3.137622e-04
       64 -2.836011e-08
       65 -5.432277e-06
       66 -3.925122e-04
       67  1.683479e-06
       68  1.321234e-04
       69 -1.731356e-07
       70 -2.692450e-04
       71 -4.942000e-05
       72  7.839430e-04
       73  1.282364e-04
       74  1.862157e-05
       75 -9.307592e-05
       76 -2.035133e-05
       77  9.834633e-05
       78 -1.084265e-04
       79 -1.751940e-04
       80  4.715866e-04
       81  4.200734e-05
       82 -7.079633e-06
       83  7.154459e-05
       84  3.834348e-04
       85  1.188481e-05
       86 -1.099161e-04
       87 -5.364360e-06
       88  1.198031e-05
       89  2.152275e-04
       90 -1.187562e-05
       91  1.162744e-05
       92  2.138826e-06
       93 -1.243000e-04
       94  1.712840e-06
       95  5.187489e-05
       96  1.521862e-06
       97 -4.839332e-11
       98 -1.634931e-04
       99  2.382027e-04
      100 -9.940043e-05
      101  1.347338e-04
      102 -2.291042e-05
      103 -3.133073e-06
      104  2.079979e-05
      105  3.093713e-06
      106 -1.147676e-05
      107 -5.605836e-05
      108 -1.789544e-05
      109  1.182705e-05
      110  7.851373e-05
      111  8.084460e-06
      112 -4.448863e-05
      113 -9.029914e-05
      114  1.664478e-05
      115 -5.888257e-04
      116 -9.064415e-05
      117  2.794332e-04
      118  5.686399e-04
      119  1.591900e-04
      120 -2.427148e-04
      121  6.415997e-04
      122  7.014667e-04
      123 -1.359671e-04
      124 -3.841628e-03
      125  7.808405e-04
      126 -2.138042e-04
      127 -3.442713e-05
      128 -5.009376e-04
      129  1.214079e-04
      130 -4.655784e-05
      131  7.047895e-04
      132  1.002582e-04
      133 -2.320759e-05
      134  2.005957e-05
      135 -3.865435e-04
      136  1.114943e-05
      137 -3.774090e-05
      138  1.465700e-04
      139 -1.479858e-05
      140 -7.208915e-07
      141 -2.788351e-04
      142 -1.735505e-05
      143 -6.573861e-05
      144 -2.521154e-05
      145  2.681027e-04
      146  5.452718e-05
      147  7.272227e-05
      148 -2.237957e-05
      149 -8.181458e-06
      150 -4.550712e-06
      151 -2.975602e-05
      152  2.243223e-04
      153 -9.777068e-06
      154 -1.513418e-03
      155  9.296909e-04
      156 -2.604487e-04
      157  1.180400e-04
      158  3.771031e-04
      159 -3.581249e-04