pos          info
        0 -4.854055e-05
        1 -1.591562e-04
        2 -6.850672e-05
        3 -4.507296e-05
        4  9.879215e-06
        5 -2.788643e-05
        6 -5.800906e-05
        7  6.726629e-06
        8 -1.983553e-05
        9 -3.887654e-05
       10 -8.909602e-05
       11 -5.754223e-05
       12 -2.966155e-05
       13 -5.774205e-05
       14 -3.140727e-05
       15 -4.360583e-05
       16 -1.479916e-04
       17 -1.855047e-04
       18 -2.008685e-04
       19  1.310394e-03
       20  1.332883e-03
       21  1.419772e-03
       22  1.208907e-04
       23  1.173527e-04
       24  5.763270e-05
       25  6.916094e-05
       26  7.770646e-05
       27  7.527016e-05
       28  1.134445e-06
       29  8.281661e-06
       30  4.314209e-06
       31  5.748561e-05
       32  4.472755e-05
       33  4.816423e-05
       34 -2.544296e-06
       35 -2.037364e-07
       36  1.001297e-04
       37  2.086621e-04
       38  2.096131e-04
       39  1.136618e-04
       40 -3.663532e-06
       41  3.364057e-05
       42  1.347255e-05
       43 -1.096955e-06
       44 -3.971724e-05
       45 -2.336577e-05
       46 -7.767977e-05
       47 -7.582073e-05
       48 -7.408540e-05
       49  1.771697e-05
       50 -4.183615e-06
       51  6.791620e-05
       52  2.944000e-05
       53  5.213275e-05
       54 -1.968781e-05
       55  2.976567e-06
       56 -3.553856e-05
       57 -4.895149e-05
       58  1.584109e-05
       59  7.696023e-05
       60  4.049838e-05
       61 -8.164698e-05
       62 -1.065817e-04
       63 -4.751246e-05
       64  8.758838e-05
       65  8.832392e-05
       66  3.772333e-05
       67 -3.667858e-05
       68  5.219294e-05
       69  1.222853e-04
       70 -2.162729e-04
       71 -3.540513e-04
       72 -3.850906e-04
       73 -4.844730e-05
       74  1.414255e-06
       75 -1.642959e-05
       76  1.547415e-05
       77  1.311354e-04
       78  4.680598e-05
       79 -1.299308e-05
       80 -1.264638e-04
       81 -1.008772e-04
       82 -1.964167e-04
       83 -2.103642e-04
       84 -1.134963e-04
       85  1.129948e-05
       86  1.538921e-05
       87 -1.101108e-04
       88 -1.069349e-04
       89 -1.031526e-04
       90  6.115271e-06
       91  6.769187e-05
       92  7.090836e-05
       93  2.675760e-05
       94 -3.913269e-05
       95 -3.999257e-05
       96  4.361271e-05
       97 -5.511953e-05
       98 -2.678478e-05
       99 -1.141087e-04
      100  2.621299e-05
      101 -3.358882e-06
      102  4.045646e-05
      103 -9.760540e-07
      104  1.109603e-05
      105  4.258373e-05
      106  5.393107e-05
      107  2.765890e-05
      108 -3.547217e-05
      109 -4.945972e-05
      110 -3.317453e-05
      111  3.395397e-05
      112  3.028029e-05
      113  2.419526e-04
      114  2.228619e-04
      115  1.080497e-04
      116 -2.479103e-04
      117 -3.001383e-04
      118 -6.800352e-05
      119 -1.079367e-04
      120 -3.124697e-04
      121 -3.926341e-04
      122  8.243935e-04
      123  7.385310e-04
      124  7.806644e-04
      125 -2.378060e-04
      126  2.592728e-04
      127  1.457589e-04
      128  1.350369e-04
      129 -1.661353e-04
      130 -1.982545e-04
      131 -2.000951e-04
      132 -6.920070e-05
      133  1.291957e-04
      134  1.190162e-04
      135  1.422628e-04
      136 -2.349575e-05
      137 -4.909997e-06
      138 -1.864835e-05
      139  5.571218e-05
      140  4.564233e-05
      141  9.284664e-05
      142  5.819108e-05
      143 -7.062228e-05
      144 -1.574954e-04
      145 -1.749543e-04
      146 -2.083447e-05
      147  4.442246e-05
      148  6.325426e-05
      149  3.953495e-05
      150 -1.135356e-04
      151 -1.145958e-04
      152  4.172453e-04
      153  2.077242e-04
      154  3.086660e-04
      155 -2.718729e-04
      156 -8.290158e-05
      157  0.000000e+00
      158  0.000000e+00
      159  0.000000e+00