pos          info
        0  1.186411e-05
        1 -2.911002e-04
        2 -2.370376e-08
        3 -7.763104e-05
        4  8.485392e-06
        5  1.498973e-04
        6 -1.396109e-04
        7  6.210025e-11
        8 -2.406742e-05
        9  7.947252e-05
       10 -4.994950e-05
       11 -8.313423e-05
       12 -1.255125e-04
       13 -8.948119e-05
       14  6.670463e-05
       15 -2.357324e-04
       16  2.579204e-05
       17 -1.299788e-04
       18 -1.673145e-04
       19 -7.342478e-05
       20 -1.230384e-05
       21  3.693149e-03
       22 -1.182474e-04
       23  1.980739e-04
       24  5.763404e-05
       25 -2.898088e-05
       26  5.615330e-07
       27  2.151371e-04
       28  5.931905e-05
       29 -1.631697e-05
       30 -2.514477e-06
       31 -2.193425e-07
       32 -1.233534e-05
       33  2.451620e-04
       34 -2.964587e-05
       35 -5.801145e-05
       36  7.887405e-06
       37  6.757945e-05
       38  3.018185e-04
       39  4.328781e-04
       40  2.556693e-05
       41  4.855445e-05
       42 -2.393809e-05
       43  3.292492e-05
       44 -1.196341e-05
       45 -2.715222e-05
       46 -6.063170e-05
       47  3.424607e-05
       48 -7.459751e-04
       49  1.311909e-06
       50  2.059517e-06
       51 -9.930255e-06
       52 -8.426311e-05
       53  1.863704e-04
       54 -1.119362e-05
       55  2.621106e-05
       56  6.315977e-06
       57 -5.154327e-05
       58 -1.314933e-04
       59  6.099195e-06
       60  2.047753e-04
       61  1.425555e-04
       62 -5.972643e-05
       63 -1.084249e-04
       64  7.314256e-06
       65  7.182533e-07
       66  5.499236e-04
       67  9.317150e-07
       68 -3.763411e-05
       69  1.829430e-05
       70  3.195938e-04
       71  1.242669e-04
       72 -5.699828e-04
       73 -4.769955e-05
       74 -1.819675e-06
       75  2.213873e-05
       76  1.687008e-05
       77 -3.536044e-05
       78  2.925888e-04
       79  4.658370e-04
       80 -2.226046e-04
       81 -8.151292e-06
       82  8.280596e-06
       83 -1.413280e-04
       84 -2.391875e-04
       85  5.681178e-06
       86  2.248468e-04
       87 -1.552210e-05
       88  7.325946e-08
       89 -3.081098e-04
       90  2.012916e-05
       91 -2.957084e-05
       92  2.999077e-05
       93  2.528433e-04
       94 -5.660482e-06
       95 -9.011649e-05
       96 -3.720524e-08
       97  1.174638e-05
       98  5.100502e-05
       99 -3.055134e-04
      100  8.805735e-05
      101 -3.180892e-05
      102 -4.113799e-06
      103  2.034135e-05
      104  6.829501e-07
      105 -9.944672e-06
      106  8.546348e-05
      107  4.337190e-04
      108  1.614089e-05
      109  5.540814e-06
      110 -3.938608e-06
      111 -1.999390e-05
      112  3.738609e-05
      113  9.070544e-05
      114 -2.675593e-05
      115  7.185798e-04
      116  2.292689e-05
      117 -2.187955e-04
      118 -4.005206e-04
      119  4.618368e-07
      120  1.250266e-04
      121 -5.123189e-04
      122 -3.882961e-04
      123  1.223896e-04
      124  2.779995e-03
      125 -5.653111e-04
      126  2.715061e-04
      127  7.228613e-05
      128  2.587827e-04
      129 -1.057990e-04
      130  4.555103e-05
      131 -2.154862e-04
      132 -2.314112e-04
      133  4.262961e-05
      134 -4.291135e-06
      135  5.573546e-04
      136 -7.998043e-05
      137  1.972563e-04
      138 -1.097966e-04
      139  1.035918e-04
      140  8.603864e-05
      141  1.149859e-04
      142  1.836352e-06
      143  2.816617e-04
      144  3.326111e-05
      145 -3.629821e-04
      146  1.531525e-05
      147 -2.243356e-06
      148  3.086209e-04
      149  3.117536e-05
      150 -2.198029e-06
      151  3.159748e-05
      152 -8.357837e-05
      153 -2.469674e-08
      154  1.351047e-03
      155 -1.268848e-03
      156  1.080298e-04
      157 -7.332520e-05
      158 -3.639435e-04
      159  3.164173e-04