pos       info
        0   0.000056
        1   0.000176
        2   0.000115
        3   0.000045
        4  -0.000044
        5   0.000016
        6   0.000114
        7   0.000019
        8   0.000031
        9   0.000006
       10   0.000062
       11  -0.000006
       12  -0.000017
       13   0.000045
       14   0.000014
       15   0.000047
       16   0.000061
       17   0.000136
       18   0.000131
       19  -0.000968
       20  -0.001006
       21  -0.001098
       22  -0.000112
       23  -0.000115
       24  -0.000040
       25  -0.000050
       26  -0.000042
       27  -0.000042
       28   0.000012
       29   0.000021
       30   0.000021
       31  -0.000040
       32  -0.000059
       33  -0.000029
       34   0.000030
       35   0.000011
       36  -0.000097
       37  -0.000251
       38  -0.000236
       39  -0.000151
       40   0.000008
       41  -0.000004
       42  -0.000012
       43   0.000008
       44   0.000022
       45   0.000022
       46   0.000062
       47   0.000052
       48   0.000064
       49  -0.000012
       50   0.000034
       51  -0.000041
       52  -0.000019
       53  -0.000051
       54  -0.000014
       55  -0.000034
       56  -0.000018
       57   0.000016
       58  -0.000098
       59  -0.000118
       60  -0.000107
       61   0.000112
       62   0.000113
       63   0.000092
       64  -0.000126
       65  -0.000126
       66  -0.000069
       67   0.000054
       68  -0.000014
       69  -0.000131
       70   0.000171
       71   0.000272
       72   0.000356
       73   0.000056
       74   0.000029
       75   0.000040
       76   0.000037
       77  -0.000057
       78   0.000108
       79   0.000162
       80   0.000249
       81   0.000130
       82   0.000247
       83   0.000254
       84   0.000156
       85  -0.000021
       86  -0.000026
       87   0.000108
       88   0.000113
       89   0.000122
       90   0.000009
       91   0.000004
       92  -0.000004
       93   0.000045
       94   0.000066
       95   0.000060
       96  -0.000022
       97   0.000080
       98   0.000065
       99   0.000179
      100   0.000061
      101   0.000089
      102   0.000012
      103  -0.000009
      104  -0.000081
      105  -0.000123
      106  -0.000102
      107   0.000003
      108   0.000067
      109   0.000069
      110   0.000029
      111  -0.000013
      112  -0.000014
      113  -0.000222
      114  -0.000236
      115  -0.000084
      116   0.000237
      117   0.000315
      118   0.000066
      119   0.000165
      120   0.000406
      121   0.000458
      122  -0.000754
      123  -0.000668
      124  -0.000661
      125   0.000271
      126  -0.000497
      127  -0.000390
      128  -0.000353
      129   0.000192
      130   0.000143
      131   0.000178
      132   0.000026
      133  -0.000105
      134  -0.000112
      135  -0.000153
      136   0.000012
      137  -0.000017
      138   0.000010
      139  -0.000111
      140  -0.000084
      141  -0.000077
      142  -0.000013
      143   0.000033
      144   0.000039
      145   0.000082
      146   0.000040
      147   0.000033
      148  -0.000018
      149  -0.000045
      150   0.000060
      151   0.000071
      152  -0.000423
      153  -0.000191
      154  -0.000279
      155   0.000269
      156   0.000017
      157   0.000000
      158   0.000000
      159   0.000000