pos          info
        0 -1.189670e-04
        1 -2.213575e-04
        2 -7.514664e-07
        3  2.642569e-06
        4 -2.269830e-05
        5  1.303229e-05
        6 -1.823515e-04
        7  3.000936e-05
        8  3.112155e-05
        9 -1.347699e-05
       10 -4.929127e-05
       11 -2.094975e-04
       12 -3.584535e-05
       13  5.339184e-06
       14  2.927753e-04
       15  5.995036e-05
       16 -1.970792e-04
       17  6.994144e-06
       18 -8.813274e-05
       19  7.049744e-07
       20  3.549829e-04
       21 -6.185893e-05
       22  2.211994e-05
       23  3.013016e-06
       24  7.965828e-05
       25 -6.959694e-05
       26  6.472935e-07
       27  2.569686e-05
       28 -2.023849e-04
       29 -7.373667e-06
       30 -1.888100e-04
       31  2.453053e-07
       32 -4.680077e-05
       33  6.981724e-05
       34  5.962811e-06
       35  1.425208e-04
       36 -4.329037e-05
       37  5.971856e-05
       38 -7.874991e-07
       39 -6.740464e-05
       40  8.990025e-06
       41  3.538278e-04
       42  4.438244e-07
       43 -1.082717e-04
       44  2.438835e-04
       45  2.829978e-04
       46 -4.708068e-08
       47  1.002868e-04
       48  2.055492e-04
       49  8.713954e-05
       50 -2.621473e-07
       51 -3.055207e-04
       52  3.746899e-05
       53 -1.985787e-05
       54 -6.187013e-06
       55  5.637415e-06
       56  3.212204e-05
       57 -1.811922e-04
       58  3.715051e-06
       59 -9.463950e-06
       60 -4.643279e-05
       61 -5.349174e-04
       62 -1.724773e-04
       63  1.443047e-05
       64  1.234955e-04
       65  1.794007e-05
       66 -4.768148e-05
       67  4.990190e-05
       68 -1.308152e-04
       69 -8.442458e-06
       70  2.800585e-04
       71 -8.419938e-05
       72 -3.178792e-05
       73  1.050101e-04
       74 -1.051027e-04
       75  1.181136e-04
       76  2.668438e-05
       77  1.386875e-03
       78  3.675471e-03
       79 -1.911998e-03
       80  4.202672e-03
       81  3.583253e-03
       82  3.348714e-03
       83  1.354869e-03
       84 -5.510192e-04
       85  2.235625e-06
       86  3.067570e-05
       87  2.443237e-04
       88 -6.774225e-05
       89  2.005148e-06
       90  6.227875e-05
       91  1.668164e-04
       92  1.080794e-06
       93 -3.005362e-05
       94  1.344277e-04
       95  6.847315e-06
       96 -1.206429e-04
       97 -1.002640e-03
       98  8.536695e-05
       99 -1.859440e-03
      100 -2.509642e-04
      101  3.275278e-03
      102  3.352199e-03
      103 -1.522417e-04
      104  1.041618e-03
      105  1.875346e-03
      106  3.742645e-03
      107 -1.377893e-04
      108  1.617799e-04
      109 -3.031793e-04
      110  1.041867e-04
      111 -4.725392e-05
      112 -7.106134e-05
      113  1.244369e-04
      114  7.730117e-05
      115  3.834013e-07
      116  5.936911e-05
      117  4.567932e-06
      118  2.596219e-04
      119 -6.796169e-05
      120 -2.528973e-05
      121  6.769560e-06
      122  2.825851e-06
      123 -5.906260e-05
      124 -7.079116e-05
      125  4.430766e-05
      126  3.296980e-06
      127  1.286950e-04
      128 -9.218807e-06
      129  2.194141e-05
      130  2.077409e-05
      131  1.081095e-04
      132 -1.109725e-04
      133 -2.089545e-05
      134  4.174856e-05
      135  1.502235e-05
      136 -1.191025e-04
      137 -8.030141e-06
      138 -4.661276e-05
      139 -2.158313e-06
      140  2.455296e-04
      141 -1.053641e-06
      142 -1.170726e-04
      143  2.531009e-04
      144 -1.544026e-05
      145 -3.606930e-04
      146 -2.980526e-07
      147 -3.684191e-04
      148 -5.897754e-04
      149 -6.376123e-06
      150 -5.600629e-05
      151  1.700366e-04
      152  2.359784e-04
      153  2.698015e-04
      154 -1.498315e-05
      155  3.981797e-05
      156  2.300435e-04
      157 -2.398783e-06
      158  2.385756e-04
      159 -1.225386e-05