pos          info
        0  5.488878e-05
        1  1.545434e-05
        2  8.368287e-05
        3  1.954613e-04
        4 -4.028019e-04
        5  1.721296e-08
        6  8.345373e-05
        7  1.219975e-04
        8 -4.617401e-05
        9  3.553692e-08
       10  8.797104e-05
       11  2.714465e-05
       12 -4.069044e-05
       13  1.215469e-06
       14  1.727655e-04
       15 -8.897506e-05
       16 -6.923867e-05
       17  7.620120e-06
       18 -5.882892e-06
       19  3.522196e-05
       20  4.394701e-04
       21 -4.611759e-04
       22  1.389397e-07
       23  2.377717e-04
       24 -4.976941e-06
       25 -2.094050e-04
       26 -3.066749e-06
       27 -2.144686e-05
       28 -7.728891e-05
       29  4.463063e-04
       30 -1.287431e-04
       31 -1.308867e-05
       32 -4.528264e-05
       33  3.987006e-05
       34  4.993021e-07
       35 -5.176106e-05
       36 -6.783186e-06
       37  1.933762e-05
       38 -3.362734e-08
       39 -9.179895e-06
       40  3.205277e-05
       41 -1.085601e-04
       42  2.247999e-04
       43 -4.728138e-04
       44 -1.075236e-07
       45 -8.979313e-05
       46  1.695403e-05
       47 -1.725352e-06
       48  3.730772e-06
       49 -6.186388e-05
       50  9.680148e-04
       51 -1.112620e-04
       52 -2.243241e-04
       53 -3.424691e-04
       54 -3.660545e-05
       55 -1.376824e-04
       56  2.426538e-04
       57  2.098727e-05
       58  3.549166e-05
       59 -1.162689e-04
       60  2.297693e-08
       61 -4.646436e-04
       62  4.946356e-07
       63  1.220352e-05
       64  1.882988e-05
       65 -6.048231e-07
       66  6.882823e-05
       67 -1.322272e-04
       68 -1.779405e-04
       69  2.060503e-06
       70  9.169085e-06
       71  1.139843e-05
       72 -4.964580e-04
       73 -1.182388e-07
       74 -3.339242e-06
       75 -3.002082e-04
       76  6.516904e-07
       77  6.195634e-05
       78  5.387530e-05
       79  5.464366e-05
       80 -1.842615e-05
       81  2.015622e-04
       82 -6.723811e-05
       83  1.643063e-04
       84  8.707067e-06
       85 -7.433929e-05
       86 -5.352932e-06
       87 -5.789830e-06
       88  1.491009e-06
       89 -1.082303e-04
       90  3.546540e-06
       91  3.733982e-05
       92 -9.917089e-05
       93  4.367194e-05
       94 -1.925330e-05
       95  5.609702e-05
       96 -2.269361e-05
       97 -8.922230e-05
       98  3.406334e-05
       99  2.118793e-07
      100 -7.684010e-05
      101 -6.826909e-07
      102 -1.599955e-04
      103  5.233411e-04
      104  5.011505e-05
      105  7.356691e-05
      106 -7.802667e-05
      107  5.463050e-05
      108  5.138908e-07
      109  1.315706e-05
      110  7.345181e-06
      111 -3.300384e-04
      112  1.058063e-03
      113 -1.156750e-04
      114  1.565879e-04
      115  1.908404e-05
      116 -1.014979e-04
      117 -2.365218e-04
      118  8.932380e-05
      119 -4.693865e-05
      120 -2.680595e-05
      121  2.183829e-04
      122  2.051935e-05
      123 -2.765785e-04
      124 -1.658248e-05
      125  5.764813e-06
      126  7.791438e-05
      127  6.310842e-04
      128 -6.684355e-04
      129 -7.720748e-04
      130 -1.587586e-03
      131 -3.203455e-04
      132 -4.022374e-04
      133  1.461565e-03
      134 -6.476850e-04
      135  8.664336e-06
      136  2.773647e-05
      137 -2.365670e-05
      138  1.822410e-05
      139 -4.883650e-05
      140  6.313323e-05
      141  7.522230e-05
      142 -3.162255e-05
      143 -2.619559e-04
      144 -2.158655e-06
      145 -2.271282e-04
      146  4.531526e-06
      147  1.382957e-03
      148  1.498370e-03
      149  2.808745e-03
      150 -1.649167e-03
      151 -5.591478e-04
      152  2.019102e-04
      153 -1.779236e-04
      154 -4.774088e-04
      155 -1.764489e-03
      156  2.259224e-04
      157  6.115566e-05
      158  5.715641e-04
      159  6.901308e-05