pos          info
        0 -1.794611e-05
        1 -9.363977e-05
        2 -8.718206e-05
        3 -9.231043e-05
        4 -9.582465e-05
        5 -1.539496e-04
        6 -1.413329e-04
        7 -4.510047e-05
        8 -3.588984e-05
        9 -8.739705e-05
       10 -6.195605e-05
       11 -3.195216e-05
       12 -2.235836e-05
       13 -4.274320e-05
       14 -1.041975e-06
       15  3.200371e-05
       16  1.896229e-05
       17 -1.246486e-05
       18 -3.563217e-05
       19  7.524502e-05
       20  1.144710e-04
       21 -3.948651e-05
       22 -1.405907e-04
       23  1.262097e-05
       24  2.263854e-04
       25  2.455815e-04
       26  5.588651e-05
       27 -6.115941e-05
       28 -4.194430e-05
       29 -2.851749e-05
       30  9.880088e-05
       31  1.888606e-05
       32 -5.890774e-06
       33  5.085440e-05
       34  1.045882e-04
       35  9.518542e-05
       36 -1.561419e-05
       37 -2.966628e-05
       38 -1.787155e-05
       39 -4.144113e-06
       40 -8.686666e-06
       41  6.422258e-05
       42  5.995990e-05
       43  6.629115e-05
       44 -1.935369e-05
       45 -2.002587e-05
       46 -1.740329e-05
       47  4.967214e-06
       48 -4.065919e-05
       49  1.677297e-05
       50  8.773827e-05
       51  2.550317e-04
       52  2.043902e-04
       53  1.619073e-04
       54 -5.825042e-05
       55 -8.667370e-05
       56 -1.627722e-04
       57 -1.604872e-05
       58  9.278524e-06
       59  2.148655e-04
       60  1.729690e-04
       61  1.551075e-04
       62  1.175301e-07
       63 -5.653645e-06
       64 -1.711889e-05
       65  8.936603e-05
       66  2.211947e-04
       67  2.361628e-04
       68  9.341515e-05
       69 -1.457038e-04
       70 -7.286104e-05
       71 -4.376417e-05
       72  6.047142e-05
       73  7.707651e-05
       74  8.126419e-05
       75  7.935495e-05
       76 -1.514194e-06
       77 -4.886503e-05
       78 -5.440247e-05
       79 -2.253195e-04
       80 -1.780913e-04
       81 -1.686231e-04
       82 -5.099465e-07
       83  1.254616e-04
       84  2.011183e-04
       85  2.120275e-04
       86  8.779749e-05
       87  8.895854e-06
       88  7.444546e-06
       89  8.874779e-06
       90  6.080546e-05
       91  5.798179e-06
       92  6.516184e-06
       93 -2.577047e-05
       94  1.940787e-05
       95  2.704484e-05
       96  3.350383e-06
       97  4.958646e-05
       98 -2.194962e-06
       99  7.672431e-06
      100 -3.727080e-06
      101 -1.296770e-04
      102 -1.423757e-04
      103 -1.837250e-04
      104 -3.736074e-05
      105 -5.356628e-05
      106 -5.134622e-05
      107 -9.561797e-05
      108 -8.072066e-05
      109 -4.986549e-05
      110  1.346060e-06
      111  9.181387e-05
      112  5.321106e-05
      113  6.486948e-05
      114 -4.227687e-06
      115  2.249505e-05
      116  3.293294e-05
      117  4.633055e-05
      118  1.148116e-04
      119  1.042993e-04
      120  8.235902e-05
      121  1.488442e-04
      122  2.042813e-04
      123  1.579256e-04
      124 -6.207017e-06
      125 -2.181664e-04
      126  6.684137e-05
      127  7.175242e-04
      128  1.459572e-03
      129  1.406212e-03
      130  8.142671e-04
      131 -5.022671e-04
      132 -5.098270e-04
      133 -5.682717e-04
      134  1.255426e-04
      135 -5.108059e-05
      136 -3.019115e-05
      137  8.718510e-06
      138  5.070487e-06
      139 -2.163285e-04
      140 -9.250075e-05
      141 -3.985426e-05
      142  1.767351e-04
      143  1.129250e-04
      144  6.077587e-05
      145 -2.910425e-04
      146 -7.964115e-04
      147 -1.419312e-03
      148  3.767640e-05
      149  1.081267e-03
      150  1.627548e-03
      151  5.236918e-04
      152  3.269045e-04
      153  9.808631e-04
      154  7.519374e-04
      155  3.317404e-04
      156 -4.634406e-04
      157  0.000000e+00
      158  0.000000e+00
      159  0.000000e+00