pos          info
        0 -5.868658e-05
        1 -2.883698e-05
        2  8.535734e-06
        3  9.937791e-06
        4 -2.415161e-05
        5  1.486772e-05
        6  2.595529e-05
        7  4.695927e-05
        8  3.753209e-05
        9  5.313236e-05
       10 -2.691119e-05
       11 -1.926115e-05
       12 -4.521850e-05
       13  2.987688e-05
       14  3.687982e-05
       15  3.514857e-05
       16  4.353673e-05
       17  4.566586e-05
       18  4.554378e-05
       19  4.930812e-05
       20 -1.969924e-04
       21 -2.041725e-04
       22 -2.071288e-04
       23 -7.139150e-06
       24 -2.246340e-04
       25 -1.961130e-04
       26 -1.420665e-04
       27  7.953674e-05
       28  6.461767e-05
       29  2.751925e-05
       30  1.320876e-05
       31 -2.258646e-05
       32  3.005935e-05
       33  6.707569e-05
       34  1.178116e-04
       35  4.157103e-05
       36  6.459722e-05
       37 -6.566359e-06
       38  1.497944e-05
       39 -2.743077e-05
       40  1.055098e-05
       41 -4.029218e-06
       42  1.665607e-05
       43  4.356832e-05
       44  9.356593e-06
       45 -1.305748e-05
       46 -1.519387e-05
       47  1.796967e-05
       48  8.589193e-07
       49 -1.591801e-05
       50 -2.044282e-05
       51  4.402688e-06
       52  2.242972e-05
       53  2.010961e-05
       54  1.934051e-05
       55  8.213244e-05
       56  9.439878e-05
       57  9.581898e-05
       58 -6.700772e-06
       59 -7.540122e-06
       60 -2.224598e-05
       61 -9.876115e-07
       62  5.617444e-06
       63  1.354925e-05
       64  1.563211e-05
       65  1.754859e-06
       66  3.883165e-05
       67  3.238616e-05
       68  1.124237e-04
       69  6.117515e-05
       70  5.371062e-05
       71 -5.029540e-06
       72  4.911362e-05
       73  5.916140e-05
       74  3.873012e-05
       75 -2.172387e-05
       76  7.488765e-05
       77 -1.102362e-04
       78 -3.939740e-05
       79 -1.346048e-04
       80  5.260013e-05
       81 -1.078032e-05
       82 -1.231570e-05
       83 -1.133961e-05
       84  3.648112e-06
       85  2.810998e-06
       86  1.014185e-06
       87 -1.929722e-05
       88  9.739469e-06
       89  1.591648e-05
       90  2.925031e-05
       91 -3.915989e-05
       92 -5.884114e-05
       93 -1.006634e-04
       94 -8.919535e-05
       95  4.937024e-05
       96  1.110819e-04
       97  3.143874e-04
       98  4.289700e-04
       99 -2.685713e-04
      100 -3.764885e-04
      101 -2.840681e-04
      102  3.950827e-04
      103 -1.633306e-05
      104 -3.932397e-04
      105 -3.865651e-04
      106 -1.995506e-04
      107 -1.789612e-04
      108 -3.504952e-04
      109 -2.064848e-04
      110 -2.663467e-04
      111 -9.869489e-05
      112 -8.392920e-05
      113 -1.736895e-04
      114 -1.712325e-04
      115 -1.901903e-04
      116 -1.034529e-05
      117  9.749954e-06
      118  2.473929e-05
      119  1.889606e-05
      120 -5.691384e-05
      121 -7.583337e-05
      122 -5.029321e-05
      123  2.571398e-06
      124  1.899498e-05
      125 -5.975968e-06
      126  2.611095e-05
      127  7.096270e-05
      128  5.362283e-05
      129  2.439921e-05
      130 -1.569531e-05
      131  1.810100e-06
      132  7.020177e-06
      133  1.036905e-04
      134  1.041590e-04
      135  6.253798e-05
      136 -4.093662e-05
      137 -3.067337e-05
      138 -1.284126e-06
      139  1.986506e-05
      140  1.837341e-05
      141  2.011337e-04
      142  1.783272e-04
      143  2.099729e-04
      144  5.859335e-05
      145  7.790409e-05
      146  3.493343e-05
      147 -1.309129e-05
      148 -2.761676e-06
      149 -8.894227e-06
      150  2.110109e-05
      151  7.943453e-05
      152  3.006265e-04
      153  3.165989e-04
      154  2.787743e-04
      155  6.259875e-05
      156  4.333590e-05
      157  0.000000e+00
      158  0.000000e+00
      159  0.000000e+00