pos          info
        0 -4.404532e-05
        1 -6.630487e-06
        2 -8.999439e-06
        3 -3.074885e-05
        4 -3.816196e-05
        5 -6.932530e-06
        6 -2.554297e-05
        7 -1.359473e-05
        8 -1.171360e-05
        9  6.872302e-05
       10 -2.599047e-05
       11 -3.235995e-05
       12 -1.103261e-04
       13 -1.879995e-05
       14  2.061300e-05
       15  9.665534e-05
       16  3.105520e-05
       17  2.744442e-05
       18 -2.602249e-05
       19  4.253623e-05
       20 -1.820401e-04
       21 -2.147609e-04
       22 -2.755291e-04
       23 -7.989256e-05
       24 -6.041967e-04
       25 -4.782854e-04
       26 -4.532488e-04
       27  9.665926e-05
       28  1.695873e-05
       29 -1.515533e-06
       30 -6.799517e-05
       31 -6.574704e-05
       32 -5.982345e-05
       33  8.865507e-06
       34  1.069896e-05
       35 -9.063791e-06
       36  4.248856e-05
       37  2.700971e-05
       38  2.537597e-05
       39  9.393087e-06
       40  2.935059e-05
       41  9.324223e-05
       42  8.685438e-05
       43  9.897326e-05
       44 -2.006389e-05
       45 -4.092225e-05
       46 -4.514056e-06
       47  5.263186e-05
       48  4.052306e-05
       49 -7.297988e-06
       50 -6.107924e-06
       51  1.003884e-04
       52  1.647879e-04
       53  1.637639e-04
       54  8.390296e-05
       55  1.484084e-04
       56  3.011583e-04
       57  3.052958e-04
       58  1.816921e-04
       59  4.855905e-05
       60 -2.742824e-05
       61 -1.559045e-05
       62  3.320906e-05
       63  7.833082e-05
       64  6.601199e-05
       65  3.210969e-05
       66  3.768002e-05
       67  3.290180e-05
       68  2.479870e-05
       69 -7.961213e-05
       70 -1.149536e-04
       71 -1.085592e-04
       72 -1.268006e-06
       73  5.089702e-05
       74  1.949679e-05
       75 -7.888165e-05
       76  3.422083e-05
       77 -5.694493e-04
       78 -4.224966e-04
       79 -5.790703e-04
       80  2.791104e-05
       81 -3.015662e-05
       82 -8.661484e-07
       83 -6.066513e-06
       84 -5.711190e-05
       85 -7.966005e-05
       86 -6.814424e-05
       87 -1.380441e-05
       88  8.962793e-07
       89  6.079686e-05
       90  8.206629e-05
       91  1.788278e-05
       92 -5.308794e-05
       93 -9.033049e-05
       94 -1.000226e-05
       95  1.407148e-04
       96  1.551230e-04
       97  4.791474e-04
       98  9.781359e-04
       99  6.774359e-04
      100  5.470917e-04
      101  7.690626e-04
      102  1.075724e-03
      103  1.336904e-04
      104 -7.900516e-04
      105 -6.531184e-04
      106  4.630598e-05
      107  5.469918e-05
      108 -2.373727e-04
      109 -3.033785e-04
      110 -3.472467e-04
      111 -2.782157e-04
      112 -1.734513e-04
      113 -1.619049e-04
      114 -7.496605e-05
      115 -8.629725e-05
      116  4.421880e-05
      117  5.068626e-05
      118  9.175356e-05
      119  2.574692e-05
      120 -1.623633e-04
      121 -2.045400e-04
      122 -1.941316e-04
      123  6.911626e-06
      124  5.143842e-05
      125  3.150756e-05
      126  4.306192e-05
      127  3.141003e-05
      128  1.359223e-05
      129 -1.874972e-05
      130 -3.226149e-05
      131  7.824897e-06
      132  9.041023e-06
      133  2.519012e-07
      134 -8.302854e-06
      135 -2.097749e-05
      136 -4.777228e-05
      137 -3.116780e-05
      138 -1.905913e-05
      139  4.622333e-05
      140  5.034838e-05
      141  1.440008e-04
      142  1.096607e-04
      143  2.191717e-04
      144  1.907874e-04
      145  1.996140e-04
      146  7.418455e-05
      147 -6.776236e-05
      148 -6.445596e-05
      149 -7.870693e-05
      150 -4.958270e-05
      151 -5.266782e-05
      152 -2.671906e-05
      153  3.088797e-04
      154  3.058130e-04
      155  2.963248e-04
      156  7.595537e-05
      157  0.000000e+00
      158  0.000000e+00
      159  0.000000e+00