pos          info
        0 -2.226168e-05
        1 -5.656055e-05
        2 -2.956244e-05
        3 -3.732822e-05
        4 -1.913367e-05
        5 -2.656958e-05
        6 -2.553041e-05
        7  3.348209e-06
        8  3.608066e-05
        9  4.271274e-05
       10  8.829676e-06
       11 -5.973180e-05
       12 -5.646613e-05
       13 -4.445771e-05
       14 -4.448984e-06
       15 -7.589559e-06
       16 -3.322811e-06
       17  5.174458e-05
       18  9.810109e-05
       19  7.415665e-05
       20 -6.079318e-05
       21 -1.707259e-04
       22 -2.018967e-04
       23 -9.188081e-05
       24 -3.078288e-04
       25 -2.069965e-04
       26 -1.406009e-04
       27  1.151089e-04
       28  1.101628e-04
       29  1.702338e-05
       30  4.123042e-05
       31  4.992585e-05
       32  1.472097e-04
       33  1.561219e-04
       34  1.386349e-04
       35  5.212134e-05
       36  1.275562e-04
       37  1.006636e-04
       38  8.984004e-05
       39  5.596796e-05
       40 -8.467272e-05
       41 -7.511009e-05
       42 -1.211794e-04
       43  6.169749e-05
       44  4.635442e-05
       45  4.199396e-05
       46  7.267468e-05
       47  1.860524e-04
       48  1.750975e-04
       49  9.763956e-05
       50  9.034151e-05
       51  1.413508e-04
       52  1.977432e-04
       53  9.664607e-05
       54  1.847426e-04
       55  2.344916e-04
       56  2.551875e-04
       57  1.894420e-04
       58  8.407179e-05
       59  9.991434e-05
       60  3.717191e-05
       61 -6.466441e-06
       62 -3.423542e-05
       63 -3.343546e-05
       64  5.403344e-05
       65  1.109358e-04
       66  1.275454e-04
       67  7.869658e-05
       68  4.432783e-05
       69 -6.699537e-06
       70 -3.317660e-06
       71 -3.037146e-05
       72 -9.344123e-06
       73  1.276244e-05
       74  1.110553e-05
       75  1.514442e-05
       76  6.232241e-05
       77 -9.771356e-05
       78 -8.921009e-05
       79 -1.622795e-04
       80 -5.020153e-06
       81 -2.014842e-05
       82 -2.464213e-05
       83 -2.372951e-05
       84 -3.854177e-06
       85  3.424197e-06
       86  8.570582e-06
       87  6.785179e-06
       88 -6.223451e-05
       89 -6.637308e-05
       90 -6.860027e-05
       91 -1.163644e-05
       92 -7.783935e-05
       93 -1.680100e-04
       94 -1.538097e-04
       95  3.967537e-05
       96  1.276952e-04
       97  2.391972e-04
       98  2.129951e-04
       99 -3.280124e-04
      100 -3.769806e-04
      101 -5.920578e-05
      102  4.763952e-04
      103  1.126369e-04
      104 -3.869257e-04
      105 -3.892111e-04
      106 -1.124372e-04
      107 -5.757364e-05
      108 -5.417220e-05
      109 -1.796960e-05
      110 -1.578765e-04
      111 -2.508358e-04
      112 -2.570909e-04
      113 -1.707892e-04
      114 -7.415040e-05
      115 -9.081520e-05
      116  8.056716e-05
      117  9.355213e-05
      118  9.677362e-05
      119 -1.204551e-05
      120 -2.303227e-05
      121 -8.667154e-05
      122 -9.141523e-05
      123 -2.422264e-05
      124  1.337064e-05
      125 -3.527180e-05
      126 -8.002875e-05
      127  2.485879e-05
      128  7.066156e-05
      129  4.574951e-05
      130 -4.407016e-06
      131  5.080467e-05
      132  7.191561e-05
      133  6.659354e-05
      134  1.204849e-05
      135 -2.714350e-05
      136 -4.605262e-05
      137  9.768475e-06
      138  1.033678e-05
      139  1.053406e-05
      140  2.817423e-05
      141  6.936418e-05
      142  6.410499e-05
      143  8.855135e-05
      144  7.024737e-05
      145  1.174313e-04
      146  6.688308e-05
      147  6.173615e-05
      148  2.815727e-05
      149 -2.851421e-06
      150  1.829986e-07
      151 -1.480343e-05
      152 -6.325533e-06
      153 -3.667234e-06
      154  3.895895e-06
      155 -1.770463e-05
      156  5.629989e-05
      157  0.000000e+00
      158  0.000000e+00
      159  0.000000e+00