pos          info
        0  9.216542e-07
        1  1.653370e-04
        2  7.374539e-07
        3  2.599469e-09
        4 -2.843216e-05
        5  9.662926e-07
        6 -3.431873e-07
        7 -6.738790e-06
        8  2.438097e-05
        9  2.400721e-06
       10  1.342839e-06
       11 -1.518240e-04
       12  8.370557e-05
       13 -9.284463e-07
       14  1.627662e-05
       15  1.592420e-04
       16 -2.832362e-05
       17 -1.752251e-04
       18  2.731592e-05
       19 -9.233918e-05
       20  2.968241e-05
       21 -1.268939e-05
       22  6.102429e-04
       23  6.240527e-05
       24 -1.748587e-06
       25 -3.088797e-08
       26  8.766445e-04
       27 -7.651705e-05
       28 -1.525052e-04
       29  2.487999e-06
       30  2.612265e-06
       31 -6.434050e-05
       32 -2.350081e-06
       33  5.195601e-05
       34 -2.589273e-04
       35  6.703072e-06
       36  3.205457e-08
       37 -4.769035e-05
       38 -1.692996e-05
       39 -1.407546e-06
       40  7.171321e-06
       41 -5.210266e-05
       42  4.058958e-05
       43 -3.410905e-05
       44  4.914973e-07
       45 -1.603807e-05
       46  1.218491e-04
       47  2.776460e-05
       48 -1.036484e-05
       49 -1.322065e-05
       50 -5.674239e-06
       51  2.485934e-07
       52 -2.563533e-05
       53 -1.045924e-04
       54 -5.593204e-05
       55 -3.030247e-06
       56  3.228255e-06
       57 -1.650547e-04
       58 -3.688127e-04
       59  6.246777e-06
       60  1.554100e-05
       61 -5.389056e-05
       62  1.453404e-04
       63  1.696632e-05
       64 -4.459883e-06
       65 -1.432554e-05
       66 -7.191782e-05
       67 -1.005153e-05
       68 -1.774815e-04
       69 -5.958474e-06
       70 -4.515535e-05
       71  5.130673e-05
       72  4.211456e-05
       73 -1.456591e-05
       74  1.437081e-06
       75  1.309548e-05
       76  3.356104e-05
       77 -1.710654e-05
       78 -1.228126e-04
       79  3.171620e-04
       80 -4.938772e-06
       81  5.298208e-05
       82  5.364660e-05
       83  3.073621e-04
       84  1.240251e-04
       85  2.813719e-06
       86 -6.559896e-05
       87  1.058979e-05
       88  2.306522e-05
       89  2.913721e-05
       90  7.827362e-05
       91 -2.492315e-04
       92  2.926657e-06
       93  1.649904e-05
       94  2.909690e-05
       95  5.811055e-05
       96  3.621224e-05
       97 -7.074435e-05
       98  2.203159e-05
       99 -3.363883e-04
      100 -1.350961e-04
      101  1.643333e-03
      102 -3.667561e-05
      103 -6.362666e-04
      104  4.874646e-07
      105  1.274412e-03
      106  1.414905e-04
      107 -5.047780e-06
      108  2.734300e-04
      109  1.205937e-05
      110  2.788099e-04
      111 -4.062918e-05
      112  8.263367e-05
      113  1.109774e-06
      114  1.336241e-04
      115  5.293710e-04
      116  4.357480e-05
      117  2.229323e-05
      118 -1.342476e-04
      119  2.564441e-05
      120 -8.821409e-05
      121  1.435319e-05
      122  2.653030e-05
      123  1.989756e-04
      124 -5.159869e-05
      125 -1.088167e-04
      126  9.900618e-06
      127  2.204252e-08
      128 -4.715412e-05
      129 -1.436991e-04
      130  2.321403e-05
      131 -9.536245e-06
      132 -7.746719e-06
      133  8.864632e-07
      134  3.327536e-06
      135 -1.330679e-05
      136 -5.533780e-07
      137  2.211764e-05
      138  3.184876e-05
      139  1.113437e-05
      140  4.579517e-09
      141 -1.129375e-05
      142 -3.320508e-06
      143 -3.566900e-05
      144 -5.159605e-06
      145 -4.034671e-05
      146 -2.356889e-05
      147 -8.784728e-05
      148  2.540983e-05
      149  8.728056e-06
      150 -3.401113e-05
      151  1.717265e-05
      152 -2.721858e-05
      153  5.772808e-06
      154 -1.243770e-06
      155 -1.204037e-04
      156 -4.288904e-05
      157  1.030297e-05
      158 -8.309578e-09
      159 -1.365635e-05