pos       info
        0   0.000034
        1  -0.000040
        2   0.000152
        3   0.000077
        4   0.000152
        5   0.000024
        6  -0.000008
        7  -0.000055
        8  -0.000039
        9  -0.000034
       10   0.000215
       11   0.000199
       12   0.000186
       13  -0.000016
       14  -0.000017
       15  -0.000037
       16  -0.000038
       17  -0.000043
       18  -0.000008
       19   0.000002
       20   0.000228
       21   0.000230
       22   0.000264
       23   0.000079
       24   0.000184
       25   0.000095
       26   0.000080
       27  -0.000028
       28  -0.000022
       29  -0.000034
       30  -0.000041
       31   0.000017
       32   0.000008
       33   0.000018
       34   0.000075
       35   0.000061
       36   0.000063
       37  -0.000012
       38  -0.000035
       39  -0.000046
       40  -0.000111
       41  -0.000073
       42  -0.000063
       43   0.000032
       44   0.000028
       45   0.000024
       46   0.000004
       47   0.000255
       48   0.000237
       49   0.000219
       50  -0.000099
       51  -0.000056
       52  -0.000028
       53   0.000036
       54  -0.000016
       55  -0.000028
       56  -0.000024
       57   0.000009
       58  -0.000013
       59  -0.000010
       60   0.000058
       61   0.000071
       62   0.000069
       63  -0.000184
       64  -0.000126
       65  -0.000096
       66   0.000031
       67   0.000085
       68  -0.000006
       69   0.000125
       70   0.000026
       71   0.000088
       72   0.000013
       73  -0.000003
       74   0.000017
       75   0.000022
       76  -0.000007
       77  -0.000042
       78  -0.000049
       79  -0.000029
       80  -0.000041
       81  -0.000028
       82  -0.000016
       83  -0.000060
       84  -0.000030
       85  -0.000038
       86  -0.000081
       87  -0.000125
       88  -0.000077
       89  -0.000081
       90   0.000731
       91   0.000691
       92   0.000925
       93   0.000116
       94   0.000104
       95   0.000007
       96   0.000138
       97   0.000038
       98   0.000017
       99   0.001530
      100   0.001536
      101   0.001542
      102  -0.000109
      103  -0.000007
      104  -0.000021
      105  -0.000008
      106  -0.000056
      107  -0.000058
      108  -0.000061
      109  -0.000030
      110   0.000115
      111   0.000128
      112   0.000212
      113   0.000076
      114   0.000042
      115  -0.000021
      116  -0.000048
      117  -0.000182
      118  -0.000183
      119  -0.000320
      120  -0.000264
      121  -0.000272
      122  -0.000091
      123   0.000033
      124   0.000018
      125   0.000001
      126  -0.000028
      127  -0.000035
      128  -0.000025
      129  -0.000041
      130  -0.000012
      131   0.000083
      132   0.000196
      133   0.000259
      134   0.000207
      135   0.000087
      136   0.000019
      137  -0.000050
      138  -0.000009
      139  -0.000032
      140   0.000225
      141   0.000206
      142   0.000297
      143   0.000072
      144   0.000055
      145  -0.000016
      146  -0.000033
      147   0.000010
      148  -0.000006
      149  -0.000012
      150  -0.000038
      151  -0.000012
      152   0.000002
      153  -0.000011
      154  -0.000029
      155  -0.000029
      156  -0.000014
      157   0.000000
      158   0.000000
      159   0.000000