pos          info
        0 -5.676274e-05
        1 -7.284821e-05
        2  3.160115e-05
        3 -1.512571e-05
        4 -1.067533e-05
        5 -5.241376e-05
        6 -7.145151e-05
        7 -5.399697e-05
        8 -3.434856e-05
        9  7.419378e-06
       10  1.544255e-04
       11  1.571233e-04
       12  1.481964e-04
       13 -6.666431e-05
       14 -9.558364e-05
       15 -1.300974e-04
       16 -6.764318e-05
       17 -6.774844e-05
       18 -2.579567e-05
       19 -2.691268e-05
       20  1.307829e-04
       21  1.325529e-04
       22  1.862096e-04
       23  5.694746e-05
       24  8.674762e-05
       25  1.995367e-05
       26  7.286985e-05
       27  6.776380e-05
       28  7.882628e-05
       29  1.191997e-05
       30 -8.346141e-06
       31 -6.596911e-06
       32 -7.724468e-05
       33 -8.088236e-05
       34 -4.334059e-05
       35  2.385636e-05
       36  2.518017e-05
       37 -1.964889e-05
       38 -4.395123e-05
       39 -1.731543e-05
       40 -1.440392e-05
       41  6.750056e-05
       42  2.411036e-05
       43  1.264102e-04
       44  7.440128e-05
       45  8.605093e-05
       46 -3.045671e-05
       47  1.121909e-04
       48  1.131037e-04
       49  1.301733e-04
       50 -5.559310e-05
       51 -5.247320e-05
       52 -3.990705e-06
       53  9.650583e-05
       54  4.331356e-05
       55 -1.642321e-05
       56 -7.941736e-05
       57 -3.268967e-05
       58 -9.818788e-05
       59 -9.791428e-05
       60 -4.845810e-05
       61  3.371006e-05
       62  4.954688e-05
       63 -5.935944e-05
       64 -4.758971e-05
       65 -8.000298e-05
       66 -8.573645e-06
       67  3.602423e-05
       68  4.931328e-05
       69  1.859877e-04
       70  9.941928e-05
       71  1.174066e-04
       72 -6.450806e-05
       73 -4.827175e-05
       74 -3.637175e-06
       75  3.808662e-05
       76  5.044357e-05
       77  3.986294e-05
       78  3.350407e-05
       79 -1.367827e-06
       80 -4.589152e-05
       81 -5.621436e-06
       82  2.677001e-05
       83 -3.028271e-05
       84  1.931833e-05
       85  2.760383e-06
       86  6.960012e-05
       87 -2.735667e-05
       88 -3.707435e-07
       89 -7.359371e-05
       90  2.827493e-04
       91  2.734391e-04
       92  4.512769e-04
       93  1.017297e-04
       94  9.662831e-05
       95  6.165290e-05
       96  9.049866e-05
       97  3.716529e-05
       98 -6.447980e-05
       99  1.398704e-03
      100  1.405062e-03
      101  1.458000e-03
      102 -3.230939e-05
      103  1.099882e-05
      104 -2.978389e-05
      105 -2.919089e-05
      106 -1.816893e-05
      107  1.805636e-05
      108 -1.134395e-06
      109 -1.619828e-05
      110 -3.289403e-05
      111  4.814866e-05
      112  6.366368e-05
      113  6.575686e-05
      114 -3.573767e-05
      115 -2.145034e-05
      116 -2.040088e-05
      117 -8.379697e-05
      118 -9.981706e-05
      119 -2.538033e-04
      120 -2.681385e-04
      121 -3.315081e-04
      122 -1.024386e-04
      123  4.596794e-05
      124  7.091370e-05
      125  1.060149e-05
      126  8.012543e-06
      127 -1.370751e-04
      128 -1.461489e-04
      129 -1.543132e-04
      130  2.824242e-05
      131  1.124629e-04
      132  1.756933e-04
      133  2.944859e-04
      134  2.667393e-04
      135  1.629591e-04
      136  4.178222e-05
      137 -2.922147e-05
      138 -9.965007e-06
      139 -5.801463e-06
      140  1.360703e-04
      141  1.365232e-04
      142  1.337903e-04
      143  5.803074e-05
      144  7.006318e-05
      145  6.870803e-05
      146  7.163559e-05
      147  4.099575e-05
      148  3.654572e-05
      149  1.530539e-06
      150  1.273459e-05
      151  8.791699e-06
      152  9.885277e-05
      153  5.330766e-05
      154  6.039563e-05
      155 -7.190460e-05
      156 -4.902206e-07
      157  0.000000e+00
      158  0.000000e+00
      159  0.000000e+00