pos          info
        0 -1.482009e-05
        1 -4.931358e-05
        2 -1.731659e-05
        3 -1.609537e-05
        4  9.238265e-05
        5  9.077541e-05
        6  5.922605e-05
        7 -2.580964e-05
        8 -3.716597e-05
        9 -4.880457e-06
       10  2.034776e-04
       11  2.422460e-04
       12  1.613506e-04
       13 -5.329427e-05
       14 -1.062126e-04
       15 -1.829292e-05
       16 -2.542080e-05
       17 -1.443096e-05
       18 -4.152846e-05
       19 -2.612584e-05
       20  3.395373e-05
       21  4.644059e-05
       22  1.044691e-04
       23  5.186136e-05
       24  7.448663e-05
       25 -1.725984e-06
       26  5.751910e-05
       27  5.141884e-05
       28  1.677825e-05
       29 -6.269706e-05
       30 -7.400284e-05
       31  4.741210e-05
       32 -3.865088e-05
       33 -4.195353e-05
       34  5.259017e-05
       35  1.498111e-04
       36  1.512054e-04
       37 -2.131884e-05
       38 -1.185507e-05
       39 -3.586428e-06
       40 -2.741523e-05
       41 -3.676019e-05
       42 -9.821621e-05
       43 -4.937007e-05
       44 -2.508610e-05
       45 -1.751872e-05
       46 -4.007606e-05
       47  1.960415e-04
       48  2.503881e-04
       49  2.304293e-04
       50 -8.278775e-05
       51 -7.648207e-05
       52 -4.252616e-05
       53  5.006172e-05
       54  3.707434e-05
       55  5.016848e-05
       56  1.437029e-05
       57  1.873691e-05
       58 -1.849681e-05
       59 -5.317921e-06
       60  1.232685e-05
       61  3.291831e-05
       62 -7.491244e-05
       63 -2.415227e-04
       64 -2.432727e-04
       65 -1.520456e-04
       66  2.695250e-05
       67  6.038082e-05
       68  7.495734e-05
       69  2.457984e-04
       70  3.068285e-04
       71  3.010869e-04
       72  1.114836e-04
       73 -1.202722e-05
       74  9.273683e-05
       75  2.090110e-04
       76  1.616492e-04
       77  5.022763e-05
       78 -9.968373e-05
       79 -2.527240e-05
       80 -4.105928e-05
       81 -2.237844e-05
       82 -1.328640e-05
       83 -6.161365e-05
       84 -3.388480e-05
       85 -1.019212e-04
       86 -5.585855e-05
       87 -8.042570e-05
       88 -2.158042e-05
       89 -3.214530e-04
       90  7.858462e-05
       91  8.887690e-05
       92  4.955528e-04
       93  9.284278e-05
       94  5.553250e-05
       95  1.072478e-04
       96  1.820987e-04
       97  2.071773e-04
       98  6.435502e-05
       99  1.583855e-03
      100  1.573386e-03
      101  1.582214e-03
      102 -6.269618e-05
      103 -4.927697e-05
      104 -9.319665e-05
      105 -2.454794e-05
      106 -1.227088e-04
      107 -7.479717e-05
      108 -9.193881e-05
      109  7.715107e-06
      110  1.324062e-04
      111  2.959950e-04
      112  3.399447e-04
      113  2.031644e-04
      114  4.983510e-05
      115  3.257211e-05
      116 -2.554397e-06
      117 -1.802805e-04
      118 -2.151925e-04
      119 -4.413765e-04
      120 -4.067140e-04
      121 -5.979973e-04
      122 -2.016252e-04
      123 -7.022024e-05
      124  1.147969e-04
      125 -5.289234e-06
      126 -5.279386e-06
      127  3.007418e-06
      128  3.636566e-05
      129  3.385141e-05
      130  1.986364e-05
      131  2.492624e-04
      132  4.366212e-04
      133  5.154016e-04
      134  4.186377e-04
      135  1.004102e-04
      136 -2.329108e-06
      137 -1.810726e-04
      138 -2.070686e-05
      139 -6.380717e-06
      140  5.641391e-05
      141  3.109737e-05
      142  1.914045e-04
      143  2.336365e-04
      144  2.319737e-04
      145  9.592298e-05
      146 -5.558829e-05
      147 -8.572222e-05
      148 -8.011336e-05
      149 -4.223203e-07
      150  2.878063e-05
      151  5.553004e-06
      152  5.641657e-05
      153  5.732835e-05
      154  2.305851e-05
      155 -6.964901e-05
      156 -1.993616e-04
      157  0.000000e+00
      158  0.000000e+00
      159  0.000000e+00