pos          info
        0 -4.558187e-05
        1 -7.983422e-05
        2 -4.359036e-05
        3 -5.777196e-05
        4 -2.146374e-05
        5 -2.998293e-05
        6 -6.362513e-05
        7 -6.567850e-05
        8 -5.115887e-05
        9  6.592179e-06
       10  2.427532e-05
       11  4.028663e-05
       12  1.865205e-05
       13 -6.935028e-07
       14 -2.747020e-05
       15  1.708636e-06
       16  2.312197e-05
       17  7.653987e-06
       18  7.389390e-06
       19 -7.524810e-06
       20  6.083940e-05
       21  6.202662e-05
       22  5.917772e-05
       23  1.304577e-05
       24  7.527774e-05
       25 -3.329808e-05
       26  5.524818e-05
       27 -2.060634e-05
       28  8.792250e-05
       29 -1.761425e-06
       30  3.260133e-06
       31  5.162333e-05
       32  1.967343e-05
       33  2.210764e-05
       34  4.717479e-05
       35  6.525293e-05
       36  6.779861e-05
       37 -1.337040e-05
       38 -4.879135e-07
       39 -1.178043e-05
       40 -3.962175e-05
       41 -3.273106e-05
       42 -2.781638e-05
       43  6.902839e-05
       44  6.333085e-05
       45  6.470921e-05
       46  2.616660e-05
       47  1.098846e-04
       48  9.007571e-05
       49  5.970086e-05
       50 -3.257945e-05
       51  7.351527e-07
       52  9.214888e-06
       53  4.083306e-05
       54 -1.012388e-05
       55 -9.953476e-06
       56 -4.621929e-05
       57 -8.923935e-06
       58 -2.104174e-05
       59 -7.387841e-06
       60  1.657626e-04
       61  1.538701e-04
       62  1.250362e-04
       63 -1.734310e-04
       64 -1.505451e-04
       65 -1.491244e-04
       66 -2.985248e-05
       67  1.582015e-04
       68  1.735474e-04
       69  3.029549e-04
       70  2.019467e-04
       71  2.115793e-04
       72  8.727598e-05
       73 -4.700151e-06
       74  8.003271e-05
       75  9.917706e-05
       76  1.477380e-05
       77 -6.598015e-05
       78 -8.687190e-05
       79 -3.710472e-06
       80 -1.157594e-05
       81  7.852397e-06
       82  7.208354e-05
       83  4.707978e-05
       84  6.068749e-05
       85 -7.679582e-06
       86 -1.547334e-04
       87 -1.837255e-04
       88 -1.819560e-04
       89 -1.887381e-04
       90  9.220626e-04
       91  8.641862e-04
       92  1.115369e-03
       93 -4.842015e-06
       94  3.817172e-05
       95  1.452621e-05
       96  1.305342e-04
       97  5.377534e-05
       98 -8.493312e-05
       99  1.580112e-03
      100  1.651666e-03
      101  1.760074e-03
      102 -1.265220e-05
      103  1.690587e-05
      104 -7.651047e-06
      105 -1.161776e-05
      106 -2.736277e-05
      107 -1.994583e-05
      108 -8.839427e-05
      109 -8.192575e-05
      110 -7.160955e-05
      111  7.564668e-05
      112  8.737643e-05
      113  8.025033e-05
      114  8.846507e-06
      115 -2.580212e-05
      116 -2.559317e-05
      117 -4.344827e-05
      118 -1.371400e-05
      119 -8.716284e-05
      120 -1.151603e-04
      121 -1.412591e-04
      122 -3.357895e-05
      123  3.045728e-05
      124 -1.472226e-05
      125 -3.343914e-05
      126 -5.131933e-05
      127 -4.487793e-05
      128 -6.026852e-05
      129 -6.384518e-05
      130  1.343569e-05
      131  1.207660e-04
      132  2.528262e-04
      133  3.221652e-04
      134  3.666991e-04
      135  1.826957e-04
      136  6.551551e-05
      137 -1.365752e-04
      138 -3.120705e-05
      139  2.997294e-06
      140  1.039887e-04
      141  6.812573e-05
      142  1.023917e-04
      143  1.251317e-04
      144  1.016125e-04
      145  6.550636e-05
      146 -1.329595e-05
      147  3.822811e-06
      148  1.287411e-05
      149  1.299504e-05
      150 -6.580250e-06
      151 -2.049637e-05
      152  7.797215e-06
      153  8.162896e-06
      154  1.284151e-05
      155 -1.178939e-05
      156 -8.156613e-05
      157  0.000000e+00
      158  0.000000e+00
      159  0.000000e+00