       pos          info
         0 -2.279547e-05
         1 -5.182576e-05
         2 -6.171651e-05
         3 -2.337168e-05
         4 -2.562006e-05
         5 -1.643802e-06
         6  1.095346e-05
         7  1.421343e-05
         8  7.903714e-05
         9  1.026923e-04
        10  1.101791e-04
        11  3.804153e-05
        12  8.696001e-06
        13 -1.106096e-05
        14 -1.192720e-05
        15 -3.930471e-05
        16  2.437016e-05
        17 -1.291851e-06
        18  8.213627e-05
        19  3.354368e-05
        20  5.881033e-05
        21  1.735404e-05
        22  1.621259e-05
        23  6.025415e-05
        24  9.755355e-06
        25  3.379898e-05
        26 -1.253290e-05
        27  1.346796e-05
        28 -9.403784e-06
        29  3.271849e-05
        30  5.592949e-05
        31  4.410256e-05
        32 -2.458602e-05
        33 -2.679980e-05
        34 -2.679288e-05
        35  2.401048e-06
        36 -1.007974e-05
        37 -7.209231e-06
        38 -7.031664e-06
        39 -1.573777e-05
        40 -1.320095e-05
        41 -1.680891e-05
        42 -9.929741e-06
        43 -1.250333e-05
        44 -4.707453e-05
        45 -1.274073e-04
        46 -1.368165e-04
        47 -1.025814e-04
        48 -2.107264e-05
        49 -2.663622e-06
        50  1.667284e-06
        51 -1.634859e-06
        52 -1.962565e-06
        53  1.582682e-06
        54  4.486981e-06
        55  4.811008e-06
        56  4.568992e-06
        57  4.262103e-05
        58  1.261853e-04
        59  1.206232e-04
        60  7.606457e-05
        61  1.529422e-06
        62 -3.628648e-06
        63  1.963183e-06
        64 -6.316329e-07
        65 -4.770245e-06
        66 -2.792618e-05
        67 -5.570603e-05
        68  9.200880e-05
        69  2.867867e-04
        70  2.207439e-04
        71  1.431391e-04
        72  1.142371e-04
        73  1.892919e-04
        74  1.342835e-04
        75  6.845142e-05
        76  7.163802e-05
        77  1.444242e-03
        78  1.432672e-03
        79  1.381742e-03
        80  5.180680e-06
        81 -6.249284e-05
        82  9.804757e-05
        83  9.810617e-05
        84  6.494023e-05
        85 -7.985366e-05
        86 -7.985431e-05
        87 -2.664359e-05
        88  5.250575e-05
        89  5.106822e-05
        90  4.307610e-05
        91 -2.938552e-05
        92 -2.580017e-05
        93 -3.319427e-05
        94  4.551463e-05
        95  3.000151e-04
        96  6.991842e-04
        97  1.636652e-03
        98  2.701596e-03
        99  2.303671e-03
       100  3.676940e-03
       101  5.500148e-03
       102  6.211427e-03
       103  5.650328e-03
       104  3.518976e-03
       105  2.749980e-03
       106  9.557078e-04
       107 -2.372683e-04
       108 -1.830807e-04
       109 -3.174280e-04
       110 -1.379613e-04
       111 -1.924831e-04
       112 -1.693324e-04
       113 -5.365428e-05
       114  1.442446e-06
       115  1.179982e-04
       116  1.939740e-06
       117  2.650839e-06
       118  1.121493e-05
       119 -8.126005e-06
       120 -1.979230e-04
       121 -2.029184e-04
       122 -1.492601e-04
       123  4.219433e-05
       124 -2.115616e-06
       125 -5.519355e-05
       126  2.013002e-05
       127  4.487531e-05
       128  6.642769e-05
       129 -9.322440e-06
       130  2.125953e-06
       131  2.670163e-06
       132  3.331748e-05
       133  4.149338e-05
       134  3.072705e-05
       135 -2.040376e-06
       136  1.137894e-05
       137 -8.192073e-07
       138 -3.531856e-06
       139 -2.906082e-05
       140  6.628423e-06
       141  9.300657e-05
       142  9.530774e-05
       143  7.975851e-05
       144 -2.521957e-06
       145  3.806545e-05
       146  3.801809e-05
       147 -7.006370e-05
       148 -1.061145e-04
       149 -1.053392e-04
       150  1.546722e-05
       151 -2.248038e-05
       152 -2.259198e-05
       153 -8.908221e-05
       154 -1.578316e-04
       155 -1.151371e-04
       156 -8.832872e-05
       157  0.000000e+00
       158  0.000000e+00
       159  0.000000e+00